Layer,Biases
Input-to-Hidden Biases,-0.00027677908656187356,0.09643622487783432,0.08534572273492813,-0.05304907634854317,0.03182094544172287,-0.04649331793189049,0.15056128799915314,0.09526330977678299,-0.09228776395320892,0.047391824424266815,-0.05651727691292763,-0.14587080478668213,0.11513637751340866,0.07996929436922073,0.07048516720533371,0.09703745692968369,0.1242782399058342,-0.07250683754682541,0.1544230878353119,0.019128933548927307,-0.048459894955158234,0.054172419011592865,-0.030935563147068024,0.008410514332354069,0.051395516842603683,-0.22637870907783508,-0.12106052041053772,0.04611222818493843,0.0024824864231050014,-0.004948870278894901,-0.12522998452186584,-0.12963606417179108,-0.02669346146285534,0.04936664551496506,-0.061543453484773636,0.08733774721622467,0.20759162306785583,0.10364168882369995,0.0913768783211708,0.00532293226569891,-0.1760578751564026,0.023738855496048927,0.08407565951347351,-0.09221865981817245,-0.0695987418293953,0.10942111164331436,-0.05121152475476265,0.08428210020065308,0.06958236545324326,0.11661235988140106,0.1309320330619812,0.09153503179550171,0.11198361963033676,-0.06921244412660599,-0.05823362246155739,-0.10794480890035629,-0.09721903502941132,-0.004765803925693035,0.030645711347460747,-0.09985479712486267,-0.07839680463075638,-0.09653111547231674,-0.05062301084399223,0.21003387868404388,0.04777289181947708,0.1563904732465744,0.058833811432123184,0.0019066595705226064,0.19598707556724548,-0.05305320769548416,0.11166272312402725,0.1560087651014328,-0.07126016914844513,0.0010758067946881056,0.02454228885471821,-0.038011420518159866,0.08900371193885803,0.05180202051997185,0.043437372893095016,0.04763897508382797,-0.04853365197777748,-0.06820635497570038,0.06221824884414673,0.17875559628009796,0.09040222316980362,-0.09917239844799042,-0.008592545054852962,-0.02225310355424881,0.01664843037724495,0.028105879202485085,-0.12278013676404953,-0.00048601755406707525,-0.1001872718334198,-0.07589150965213776,-0.10195852071046829,0.31278204917907715,0.14784230291843414,0.005627720151096582,0.030360180884599686,-0.1214788481593132,-0.051235660910606384,-0.204803004860878,-0.09394282847642899,0.13751700520515442,0.02839316427707672,-0.016750894486904144,-0.040384240448474884,0.12739847600460052,-0.0795823484659195,-0.023350590839982033,-0.019584693014621735,0.07698438316583633,-0.03971131145954132,0.13980180025100708,-0.0025294797960668802,0.0369151346385479,-0.16817523539066315,0.005485623609274626,-0.023097451776266098,-0.020080624148249626,-0.09903261810541153,0.08611880987882614,0.027411160990595818,-0.12100181728601456,-0.013651295565068722,-0.011254209093749523,0.20029771327972412,-0.03728213161230087,0.013499237596988678,0.16213864088058472,0.12368816882371902,-0.040009014308452606,-0.04326801002025604,0.17534895241260529,0.07109666615724564,-0.28929874300956726,-0.08898406475782394,0.11888368427753448,-0.1675584316253662,0.10572324693202972,0.08459515124559402,0.13426244258880615,0.08460699766874313,0.15289820730686188,0.04336486756801605,-0.018447741866111755,-0.03002569079399109,-0.06166377291083336,0.043060626834630966,0.011032591573894024,0.1158047541975975,-0.04925645887851715,-0.011836642399430275,0.19149404764175415,-0.009137973189353943,0.14041708409786224,-0.040431056171655655,0.058293476700782776,-0.13023725152015686,-0.021740563213825226,0.030736487358808517,-0.13682232797145844,-0.08365244418382645,-0.010495445691049099,0.017588568851351738,-0.12501411139965057,0.03117102012038231,0.03511778637766838,-0.08921452611684799,0.027298199012875557,0.022531118243932724,-0.00673153018578887,0.02437541075050831,0.06417042762041092,0.05835175886750221,0.01946190930902958,0.010385259054601192,0.13619543612003326,0.07564546912908554,-0.26708269119262695,-0.004113991744816303,-0.009636652655899525,0.13135218620300293,0.09480296075344086,-0.047043755650520325,-0.08493294566869736,-0.00849943421781063,0.09083139896392822,0.0936562567949295,-0.07938042283058167,-0.09248179197311401,0.06277596205472946,0.08471766114234924,-0.0012282209936529398,-0.21874694526195526,0.2464476227760315,-0.05765877664089203,-0.12002405524253845,0.23512408137321472,0.16062764823436737
Hidden-to-Output Biases,-0.09570353478193283,-0.1758325845003128,0.0015490436926484108,-0.0812523141503334,0.019967999309301376,0.09233661741018295,-0.05445746332406998,-0.13947106897830963,0.30302193760871887,-0.017741356045007706
