Layer,Biases
Input-to-Hidden Biases,-0.14023059606552124,0.07174993306398392,-0.020743204280734062,-0.003234746167436242,-0.0882890373468399,-0.012241310440003872,-0.04561609774827957,0.005907721351832151,0.02534954994916916,0.08893609791994095,0.19977492094039917,0.118344247341156,0.1126992255449295,-0.0469721294939518,0.10157329589128494,0.047323066741228104,0.06532809138298035,-0.04781004786491394,0.004602847620844841,-0.05967823788523674,0.01845967024564743,-0.14269378781318665,0.024167712777853012,0.02021758444607258,-0.041796185076236725,-0.00961898360401392,0.05316607654094696,0.0189192034304142,-0.17018845677375793,0.11907529830932617,-0.020566528663039207,-0.017662646248936653,0.29571154713630676,-0.016099736094474792,-0.1390831023454666,0.10178638249635696,0.05047876760363579,0.04020673781633377,-0.027837511152029037,-0.06547963619232178,-0.0460500605404377,0.004708948545157909,0.07489486038684845,-0.0008996438118629158,-0.1893334835767746,-0.023855185136198997,-0.005570318084210157,0.016796736046671867,-0.0442877858877182,0.08190575987100601,-0.21807394921779633,-0.016895361244678497,0.06717905402183533,-0.08041272312402725,-0.13601474463939667,0.22470048069953918,0.02509540133178234,0.29141664505004883,-0.18209940195083618,-0.015421059913933277,0.15274518728256226,0.16470368206501007,0.019017893821001053,-0.08558334410190582,-0.11440946906805038,0.07217054069042206,-0.04023691266775131,0.005809220485389233,-0.0969652384519577,-0.08015237748622894,0.06940395385026932,-0.0746479332447052,-0.0028090591076761484,0.019990094006061554,0.13231776654720306,0.08166702836751938,0.11174774169921875,-0.009320582263171673,0.06345581263303757,-0.04968270659446716,0.06162072345614433,0.19731755554676056,0.03428177535533905,-0.04616505280137062,-0.014675316400825977,0.20308031141757965,0.1165517121553421,-0.07563229650259018,0.18139618635177612,-0.19623498618602753,0.011247803457081318,0.15015067160129547,0.05641334876418114,0.17800107598304749,0.0005471715121529996,-0.003665654454380274,-0.008930607698857784,0.08641994744539261,-0.00550529919564724,0.029446875676512718,0.06191016361117363,0.07119398564100266,0.14563021063804626,0.18254941701889038,-0.11309864372015,0.046930599957704544,0.1323128193616867,-0.053236622363328934,0.11474678665399551,-0.07454103976488113,-0.05601700395345688,0.09647134691476822,0.12526266276836395,-0.01434097159653902,0.17481645941734314,0.01844698004424572,-0.0403427816927433,-0.010511045344173908,-0.059720512479543686,0.04047425463795662,-0.05267830565571785,0.005017399322241545,-0.018931468948721886,0.04104994982481003,0.13639859855175018,0.08138004690408707,0.13069002330303192,0.007032919209450483,-0.10427621006965637,0.016178246587514877,-0.09318047016859055,-0.04559345915913582,0.04932005703449249,0.018606875091791153,0.04847471043467522,0.026321327313780785,-0.0643816739320755,-0.05605665594339371,-0.06982779502868652,0.04012978821992874,-0.06531443446874619,0.10342519730329514,-0.004314287565648556,0.16033294796943665,0.05678878724575043,0.21687108278274536,-0.06655167043209076,-0.008889895863831043,0.13374604284763336,-0.031212041154503822,0.09303423017263412,0.13428711891174316,0.17002898454666138,0.054111335426568985,-0.07772375643253326,-0.03281717747449875,-0.00900284480303526,-0.0003588595427572727,-0.008988822810351849,-0.006591101177036762,-0.04252596199512482,0.10516078025102615,0.07875000685453415,-0.004334333352744579,0.029121391475200653,0.045587945729494095,0.10922181606292725,0.055894527584314346,0.16310468316078186,-0.11658862978219986,0.04540875926613808,-0.023892395198345184,0.0616452693939209,0.006673587951809168,0.08988538384437561,0.08372169733047485,-0.02058132365345955,0.026830391958355904,-0.04296703264117241,0.17286473512649536,0.11155127733945847,-0.061842646449804306,0.002598043531179428,0.09784358739852905,0.12935705482959747,0.06837091594934464,0.020567800849676132,0.0005352337611839175,0.07801355421543121,0.07266359776258469,0.07325807213783264,-0.16579830646514893,0.026412954553961754,0.0980721265077591,0.07261643558740616,0.07211066782474518,-0.09080326557159424,0.012480871751904488,0.015221534296870232,0.06999684125185013
Hidden-to-Output Biases,-0.08947938680648804,-0.12730339169502258,-0.06827770918607712,-0.054990652948617935,0.0550554022192955,0.02627999149262905,-0.06816509366035461,-0.16012263298034668,0.31984448432922363,0.029906537383794785
