Layer,Weights
Input-to-Hidden,"[0.02558174729347229, -0.06248534470796585, 0.038002751767635345, 0.05525378882884979, -0.04279770702123642, -0.059655338525772095, -0.029227137565612793, -0.03334846347570419, 0.07344880700111389, 0.03264015167951584, -0.06928621232509613, -0.0031070858240127563, 0.03142542392015457, 0.004316657781600952, -0.0038925334811210632, -0.05092621594667435, 0.032099030911922455, 0.03648565709590912, 0.040036268532276154, -0.018534142524003983, 0.006157822906970978, -0.011888600885868073, 0.07752200961112976, 0.0231761634349823, 0.027817972004413605, 0.05525882542133331, -0.0544639453291893, 0.04259442538022995, -0.039279788732528687, -0.009471230208873749, -0.05658276751637459, 0.015006527304649353, 0.07686090469360352, 0.04236401617527008, 0.05629304051399231, 0.05506162345409393, -0.0033799856901168823, -0.01980571076273918, -0.06466702371835709, 0.049083977937698364, 0.04762808978557587, 0.034657225012779236, -0.034532323479652405, 0.07161489129066467, 0.020412728190422058, 0.048071786761283875, 0.008983008563518524, -0.04485812783241272, -0.05997585505247116, 0.009050272405147552, 0.01779186725616455, 0.05980686843395233, -0.06248488277196884, 0.06480838358402252, -0.029650181531906128, -0.01430945098400116, 0.005321122705936432, -0.014883019030094147, 0.07690480351448059, 0.06436848640441895, 0.0488031804561615, -0.07365822046995163, -0.07594192028045654, 0.07576237618923187, -0.048426687717437744, -0.07776610553264618, 0.06411710381507874, -0.0066151246428489685, 0.06981667876243591, 0.02311033010482788, 0.06411592662334442, -0.004813238978385925, -0.025125250220298767, 0.026539012789726257, 0.005790486931800842, 0.050727903842926025, -0.01807461306452751, -0.06190597265958786, -0.025240380316972733, 0.07282623648643494, -0.05013804882764816, -0.0014937818050384521, -0.06444841623306274, 0.026413753628730774, 0.03899764269590378, -0.02445938065648079, 0.026524551212787628, 0.06366905570030212, -0.03025483712553978, -0.05786866694688797, -0.05531637370586395, 0.033377207815647125, -0.002482697367668152, -0.00982493907213211, 0.0007712021470069885, 0.009051702916622162, 0.06800107657909393, -0.010340064764022827, -0.04553987830877304, -0.06745746731758118, 0.05811285972595215, 0.04862894117832184, -0.04074693098664284, -0.039289116859436035, 0.07669210433959961, -0.05119151249527931, -0.04974257946014404, 0.06356294453144073, -0.02154957875609398, 0.010794997215270996, 0.005030371248722076, 0.07000754773616791, -0.07206165045499802, -0.027241315692663193, -0.014077745378017426, 0.03513088822364807, -0.0557226836681366, -0.007875852286815643, 0.06528288125991821, 0.017795369029045105, -0.05965930223464966, 0.0666961818933487, -0.012404300272464752, 0.03098703920841217, -0.06713752448558807, -0.01591155305504799, -0.06944974511861801, -0.022983506321907043, -0.02265368402004242, 0.013840802013874054, 0.022652357816696167, -0.04030776396393776, 0.05741967260837555, 0.023090168833732605, 0.026995807886123657, -0.07568760961294174, 0.06950882077217102, -0.06369173526763916, 0.054065898060798645, -0.07578933238983154, -0.04241340607404709, 0.042831942439079285, -0.05835893750190735, 0.016512520611286163, -0.013346508145332336, -0.02870369330048561, -0.05420380085706711, -0.034951064735651016, 0.0417003408074379, -0.0739888995885849, -0.030369985848665237, 0.0200691819190979, 0.06431107223033905, 0.03766977787017822, 0.02336713671684265, 0.0762057900428772, -0.026745963841676712, -0.057280026376247406, -0.004807822406291962, -0.07242701947689056, -0.02215978130698204, -0.04033176228404045, 0.029911361634731293, 0.015030525624752045, 0.04803740978240967, -0.02181301638484001, -0.05821986496448517, -0.023055650293827057, -0.026804201304912567, -0.0064233094453811646, 0.04631171375513077, 0.06885465979576111, -0.0698564276099205, 5.4135918617248535e-05, 0.04127577692270279, 0.040777966380119324, 0.04022447019815445, 0.07485939562320709, -0.057352762669324875, -0.023752741515636444, -0.05901862680912018, 0.02466597408056259, 0.05483552813529968, 0.07368972897529602, -0.03969132527709007, -0.06651630252599716, -0.07118520140647888, -0.05706780403852463, -0.03871734067797661, 0.01781287044286728, 0.05044753849506378, 0.06687301397323608, 0.031000778079032898, -0.025068577378988266, 0.03895638883113861, 0.05307425558567047, 0.06299068033695221, -0.008734464645385742, 0.026457153260707855, -0.024250101298093796]","[0.07285015285015106, 0.06967101991176605, -0.03986498713493347, 0.033417366445064545, 0.04757267236709595, 0.06532509624958038, -0.07622399181127548, 0.07163229584693909, 0.027728982269763947, 0.05687929689884186, 0.026203960180282593, 0.042637281119823456, -0.059643425047397614, -0.021438565105199814, -0.008014455437660217, 0.05225086212158203, -0.050053492188453674, -0.04477233812212944, -0.009316504001617432, 0.05656695365905762, 0.011095486581325531, -0.046797871589660645, 0.01124861091375351, 0.011699080467224121, -0.004701629281044006, -0.057776086032390594, -0.059269942343235016, -0.049731411039829254, 0.03250858187675476, 0.04326697438955307, 0.050592124462127686, 0.06873089075088501, 0.011477679014205933, -0.06535517424345016, 0.02771851420402527, -0.005184449255466461, 0.025112628936767578, -0.0649099200963974, 0.048865050077438354, -0.03368854895234108, 0.0052405670285224915, 0.012188062071800232, 0.023983970284461975, -0.0492497980594635, -0.020590413361787796, 0.025520309805870056, -0.07059657573699951, -0.026449277997016907, 0.031173549592494965, 0.007471427321434021, 0.007826440036296844, -0.02258262038230896, 0.03823857754468918, -0.06740409135818481, 0.05689157545566559, -0.019632920622825623, -0.0065121278166770935, -0.03367694839835167, 0.01404976099729538, 0.009052559733390808, 0.018894240260124207, -0.04743136465549469, 0.07730641961097717, -0.03324783593416214, 0.06184785068035126, 0.07027935981750488, -0.040987949818372726, -0.027315471321344376, -0.07790655642747879, 0.051599934697151184, 0.057492002844810486, -0.020222943276166916, 0.004972547292709351, -0.051574304699897766, -0.025298763066530228, -0.06778496503829956, 0.07346051931381226, -0.06952330470085144, 0.005461364984512329, 0.03158705681562424, -0.05383355915546417, -0.07305476069450378, -0.05203070864081383, -0.05115848779678345, 0.02407822757959366, -0.01179804652929306, 0.06099940836429596, -0.023686740547418594, -0.028674297034740448, 0.03489627689123154, -0.016424108296632767, -0.01953650265932083, -0.011972233653068542, 0.03099410980939865, -0.04359596222639084, 0.03502900153398514, -0.001103729009628296, 0.032203011214733124, -0.02695656567811966, -0.03304505720734596, -0.06274634599685669, -0.05716759338974953, -0.04092654958367348, 0.048873499035835266, 0.04640483856201172, -0.0352785624563694, -0.0728338435292244, -0.03502761945128441, -0.05633334815502167, -0.03154842555522919, 0.013677321374416351, -0.014916248619556427, -0.0713546946644783, 0.04628106951713562, 0.051111191511154175, 0.036740489304065704, 0.013184405863285065, -0.029363583773374557, -0.03505130112171173, -0.027754243463277817, -0.03905561566352844, -0.05852014571428299, -0.008055917918682098, -0.0286434106528759, -0.006221011281013489, -0.0704403817653656, -0.03768310695886612, -0.01267099380493164, -0.02629905566573143, 0.02616722881793976, 0.04357147961854935, -0.02196146920323372, 0.032793886959552765, -0.04082653671503067, -0.033274777233600616, -0.07389743626117706, 0.07154388725757599, 0.0745031088590622, -0.06778954714536667, 0.004958324134349823, 0.056371793150901794, 0.057051852345466614, 0.06499369442462921, -0.018442470580339432, -0.015367314219474792, 0.06071394681930542, 0.03599080443382263, 0.007847554981708527, 0.01421867311000824, -0.008094549179077148, 0.022238239645957947, 0.05866485834121704, -0.025934193283319473, -0.07468751817941666, -0.048548534512519836, -0.0059005096554756165, 0.06751859188079834, -0.0016371160745620728, 0.04411490261554718, -0.05137580633163452, -0.012082032859325409, -0.07115993648767471, -0.03448795899748802, 0.008047506213188171, -0.05166409909725189, 0.03087940812110901, -0.06303835660219193, 0.010110832750797272, -0.0572085902094841, -0.0340539887547493, 0.043043382465839386, 0.043044425547122955, 0.03742387890815735, 0.05523321032524109, -0.00370652973651886, 0.02406150847673416, -0.024964936077594757, -0.04274042323231697, 0.049130141735076904, -0.02833452820777893, 0.07498608529567719, 0.04289399832487106, -0.05471300706267357, -0.02204245701432228, 0.0010126009583473206, 0.01106206327676773, 0.043055035173892975, 0.004233628511428833, 0.04932558536529541, -0.05804424732923508, -0.0404493510723114, 0.037046559154987335, -0.06972441077232361, 0.05728359520435333, 0.06745274364948273, 0.031475894153118134, 0.07266649603843689, 0.0569533109664917, 0.0447273775935173, 0.055594563484191895]","[-0.03282315656542778, 0.04622860997915268, 0.028569869697093964, -0.010870195925235748, -0.07486769556999207, 0.01735026389360428, 0.0580725222826004, -0.04887636750936508, -0.0741589143872261, -0.03775724396109581, 0.05571579933166504, -0.012238554656505585, 0.039164043962955475, 0.0410095676779747, -0.05132324993610382, -0.07762379199266434, -0.06733989715576172, -0.03956681117415428, 0.00045392662286758423, 0.008273258805274963, -0.03960929811000824, 0.0733918696641922, -0.001728065311908722, -0.05452601611614227, 0.007903315126895905, 0.002103932201862335, -0.008173249661922455, 0.04003632068634033, 0.007397964596748352, 0.021223515272140503, -0.05505193769931793, 0.00967821478843689, 0.07664358615875244, 0.02248162031173706, -0.03089703992009163, -0.017297130078077316, -0.0042722225189208984, -0.02083525061607361, 0.039408810436725616, -0.03825577720999718, -0.009545758366584778, -0.0272924043238163, 0.0772961974143982, -0.005005858838558197, -0.005127891898155212, -0.050707630813121796, 0.07430244982242584, -0.04610418900847435, 0.07314877212047577, 0.07174541056156158, -0.018336612731218338, 0.052080050110816956, 0.07205632328987122, -0.07042034715414047, 0.06484997272491455, 0.04525240510702133, -0.06259150058031082, -0.07218275964260101, 0.060840070247650146, -0.007044211030006409, -0.012437388300895691, 0.005518481135368347, 0.029639311134815216, 0.03713177144527435, -0.07281073927879333, -0.010193638503551483, -0.04625426232814789, 0.038273945450782776, -0.006241992115974426, -0.060229554772377014, 0.05033999681472778, -0.000993981957435608, -0.004457496106624603, -0.06858640909194946, -0.06374054402112961, -0.01871921867132187, -0.04134337604045868, 0.055196672677993774, -0.06421052664518356, 0.016204774379730225, 0.04208311438560486, 0.06659090518951416, -0.07807154208421707, -0.04063835367560387, -0.05306302383542061, -0.07532302290201187, 0.030197903513908386, 0.07373043894767761, -0.054814413189888, 0.05751083791255951, 0.0005092993378639221, -0.0445566400885582, 0.02332485467195511, 0.016836702823638916, 0.06028389930725098, -0.07179658114910126, 0.04291585087776184, 0.011891953647136688, -0.07337065786123276, -0.015794020146131516, 0.06054012477397919, 0.06998467445373535, 0.00952088087797165, -0.025685742497444153, 0.00341922789812088, 0.03449060022830963, -0.06892304122447968, -0.01237083226442337, -0.006989911198616028, -0.03378399834036827, -0.006849102675914764, -0.02967577800154686, -0.04285776615142822, 0.04565638303756714, 0.06100505590438843, -0.0775991827249527, -0.007204137742519379, 0.07687926292419434, 0.053939566016197205, -0.013292409479618073, -0.053712397813797, -0.04301152750849724, -0.015698999166488647, -0.045097436755895615, -0.0662880539894104, -0.03190962225198746, 0.07699926197528839, 0.04414597898721695, -0.050330180674791336, -0.07685692608356476, -0.03261851519346237, 0.06160745024681091, 0.01731976866722107, -0.07473339140415192, -0.07362040877342224, 0.024130113422870636, 0.07298856973648071, -0.009269550442695618, 0.04285525530576706, -0.0443434901535511, 0.045919209718704224, 0.00950688123703003, 0.046819061040878296, 0.009656824171543121, -0.03804182633757591, 0.009743846952915192, -0.049509547650814056, -0.02522258087992668, 0.019957847893238068, 0.01773752272129059, -0.02324794977903366, -0.06154284253716469, -0.036398995667696, -0.009940817952156067, -0.07071768492460251, 0.037147991359233856, 0.008261270821094513, -0.06228135526180267, 0.05338418483734131, 0.05202998220920563, 0.057275742292404175, 0.06139136850833893, 0.03684139996767044, 0.04261308163404465, 0.050324440002441406, -0.01931372657418251, -0.03103804960846901, 0.05060704052448273, 0.018917828798294067, 0.0745663195848465, 0.027950376272201538, 0.01629803329706192, 0.04686617851257324, 0.01843796670436859, -0.018886178731918335, -0.012446731328964233, 0.042144775390625, -0.07662869989871979, 0.060282185673713684, 0.010405264794826508, -0.050868481397628784, 0.03803084045648575, 0.0700322687625885, -0.012285694479942322, 0.06336908042430878, 0.059330061078071594, 0.06786072254180908, -0.043696142733097076, -0.05011081323027611, -0.006711430847644806, 0.0445556715130806, 0.07020646333694458, 0.031450048089027405, -0.061636991798877716, 0.06977744400501251, 0.046173013746738434, -0.03226672112941742, -0.04096907377243042, -0.055784158408641815, 0.024686530232429504]","[0.0482373982667923, 0.06471830606460571, -0.04460310563445091, 0.02347055822610855, -0.024981766939163208, -0.026971440762281418, -0.01629399135708809, -0.05725327134132385, -0.051691241562366486, -0.028353221714496613, -0.0032386034727096558, -0.05613740161061287, -0.0025154128670692444, -0.04006989300251007, -0.055670905858278275, -0.04338469356298447, -0.018282361328601837, -0.009076409041881561, 0.04238933324813843, 0.013857685029506683, -0.07626321911811829, -0.022873107343912125, -0.018235299736261368, 0.01931639015674591, -0.0407801978290081, -0.017329376190900803, 0.05664762854576111, 0.03530754894018173, -0.014390736818313599, -0.029694583266973495, 0.027325153350830078, -0.028384685516357422, 0.04883900284767151, -0.023396514356136322, -0.05819340795278549, -0.01812875270843506, -0.03228732943534851, -0.02355938032269478, 0.012879937887191772, 0.003595493733882904, 0.05740693211555481, 0.03827532380819321, 0.012556739151477814, -0.009485326707363129, -0.025579772889614105, 0.05964401364326477, 0.02254432439804077, 0.05144132673740387, 0.014430880546569824, -0.031077314168214798, -0.07173847407102585, 0.06502975523471832, -0.06832022964954376, -0.02306492254137993, -0.06446731090545654, 0.018093787133693695, -0.0009290426969528198, -0.030712991952896118, -0.06021222099661827, -0.06120145320892334, -0.0770740956068039, 0.0011175647377967834, -0.04561132937669754, 0.043916255235672, -0.007710583508014679, -0.05898492783308029, 0.04216884821653366, -0.017560604959726334, 0.06939631700515747, -0.028761088848114014, 0.009697020053863525, -0.0702839195728302, -0.06854395568370819, 0.062541663646698, 0.030132204294204712, 0.005806386470794678, 0.03640599548816681, -0.03299149498343468, 0.047820135951042175, -0.024545691907405853, -0.01743389666080475, -0.07543867826461792, -0.06650163233280182, 0.0490296334028244, -0.005147606134414673, -0.05979560315608978, -0.06629840284585953, 0.07332207262516022, -0.05329978093504906, -0.032595206052064896, -0.05334038287401199, -0.03846568986773491, -0.07639989256858826, 0.04774153232574463, -0.01364319771528244, -0.06412879377603531, 0.05381423234939575, -0.07703620940446854, 0.022201411426067352, -0.06715556979179382, 0.0012871697545051575, 0.027195744216442108, 0.07170791923999786, 0.03556439280509949, -0.0014910995960235596, 0.023187197744846344, -0.0080089271068573, -0.0686209425330162, -0.0643082857131958, 0.0002767294645309448, -0.0774443969130516, 0.061295509338378906, -0.04208965227007866, -0.028752487152814865, -0.07381473481655121, -0.014262109994888306, 0.03595595806837082, -0.015969712287187576, -0.02289006859064102, -0.07021977752447128, 0.006544843316078186, 0.06824757158756256, -0.03215574473142624, 0.05861356854438782, -0.014376908540725708, 0.024402134120464325, 0.04944649338722229, 0.07745639979839325, -0.05973353236913681, -0.01736164093017578, -0.017965607345104218, 0.06544692814350128, 0.070963054895401, 0.032379694283008575, 0.04675950109958649, -0.07324445247650146, 0.04983362555503845, 0.06867250800132751, 0.06846334040164948, -0.015543133020401001, -0.0472620390355587, -0.006643310189247131, -0.016290098428726196, -0.039128560572862625, 0.0028035715222358704, 0.06090494990348816, 0.02411492168903351, 0.04133576154708862, -0.02621535211801529, 0.038897573947906494, -0.009141892194747925, -0.06010141223669052, -0.030635524541139603, 0.014515809714794159, -0.06955324113368988, 0.07670348882675171, 0.026917152106761932, 0.05059255659580231, -0.02892080694437027, -0.06300588697195053, -0.023648463189601898, -0.0410873107612133, 0.07564705610275269, -0.03181000053882599, 0.05841094255447388, -0.03617016598582268, -0.05548936873674393, 0.029342733323574066, -0.009993910789489746, 0.05681389570236206, -0.05412903428077698, -0.041342779994010925, -0.050172753632068634, 0.06585289537906647, 0.03891425579786301, 0.028661690652370453, 0.009539037942886353, -0.055558569729328156, -0.020413510501384735, 0.07072429358959198, -0.060185857117176056, -0.05470053106546402, 0.04126287251710892, -0.057878293097019196, -0.027896836400032043, -0.027992993593215942, -0.02368246018886566, -0.028982896357774734, -0.04464689642190933, -0.03603176772594452, 0.01867431402206421, 0.013185672461986542, 0.008396521210670471, 0.015357255935668945, 0.032007455825805664, -0.009375981986522675, -0.001048251986503601, 0.05449596047401428, 0.07150836288928986, 0.04182984679937363]","[0.019292429089546204, 0.05900268256664276, -0.012734703719615936, -0.04246058315038681, -0.040776923298835754, 0.031523123383522034, -0.07271532714366913, 0.030975237488746643, 0.03561440110206604, -0.058187082409858704, -0.06473143398761749, 0.056558042764663696, -0.018847007304430008, -0.014483623206615448, 0.013324983417987823, -0.016785509884357452, 0.028891488909721375, 0.011827073991298676, 0.014011502265930176, -0.05943423882126808, 0.0376405268907547, 0.03561944514513016, -0.033636994659900665, -0.0026488378643989563, 0.04285668581724167, -0.05956725776195526, -0.07185207307338715, 0.0007657334208488464, -0.026477206498384476, -0.04087641462683678, -0.0063795000314712524, -0.03786041960120201, -0.007728256285190582, -0.07078370451927185, 0.005158089101314545, 0.026603341102600098, 0.016746707260608673, -0.05712518095970154, -0.0645727813243866, 0.00938793271780014, -0.06930920481681824, 0.06757918000221252, -0.014330938458442688, 0.008153289556503296, -0.013629883527755737, 0.013326309621334076, 0.018262088298797607, 0.07807615399360657, -0.064369797706604, -0.024356406182050705, -0.04646947979927063, 0.0025005564093589783, 0.05697757005691528, -0.006319068372249603, -0.014226362109184265, -0.028704605996608734, -0.009263738989830017, -0.027139294892549515, 0.0012032240629196167, 0.05336594581604004, 0.07067212462425232, 0.005953960120677948, -0.06895147264003754, 0.014653690159320831, -0.05933796614408493, -0.0696108266711235, 0.05507509410381317, -0.05690518021583557, -0.011069566011428833, 0.05010704696178436, 5.856901407241821e-05, 0.06747359037399292, -0.05704488605260849, -0.03804765269160271, -0.03675534948706627, 0.06194058060646057, -0.00013112276792526245, -0.005712144076824188, 0.07247743010520935, 0.06264029443264008, 0.04725438356399536, -0.03484233841300011, -0.07434859126806259, 0.04802983999252319, -0.039895910769701004, -0.028443850576877594, 0.056889936327934265, 0.07423259317874908, 0.006515726447105408, 0.010430432856082916, -0.07378530502319336, -0.0770086944103241, -0.07212964445352554, 0.055725812911987305, 0.06567840278148651, -0.051034439355134964, 0.027880564332008362, 0.02326355129480362, -0.07547823339700699, -0.019719082862138748, -0.07682985812425613, 0.03114429861307144, -0.018711045384407043, 0.036134183406829834, -0.04066484794020653, -0.005098365247249603, 0.009192116558551788, 0.04715596139431, 0.009540915489196777, 0.035269610583782196, 0.04063686728477478, -0.07684400677680969, 0.0707247257232666, -0.07453414797782898, 0.0177527517080307, 0.05876202881336212, -0.010411404073238373, 0.02662484347820282, -0.008545167744159698, -0.03859366476535797, -0.07799426466226578, -0.011078186333179474, 0.0058023035526275635, -0.03807695955038071, 0.07326550781726837, 0.06289824843406677, 0.04065808653831482, 0.05264584720134735, -0.0036347955465316772, 0.0030053481459617615, 0.056346774101257324, 0.058394402265548706, -0.06424064934253693, -0.06734970957040787, 0.04862391948699951, 0.037034906446933746, -0.06640634685754776, 0.04370526969432831, -0.06335040181875229, 0.05260854959487915, 0.055437907576560974, 0.06662063300609589, -0.0010039806365966797, -0.050824493169784546, 0.015128470957279205, 0.013440527021884918, -0.03865210339426994, -0.0709787905216217, 0.0062868595123291016, 0.03680701553821564, 0.03680853545665741, -0.0725485160946846, -0.04958043992519379, 0.00831402838230133, -0.05874139443039894, 0.04383540153503418, 0.0131264328956604, -0.06073763966560364, -0.0025468021631240845, -0.053069259971380234, -0.019650477916002274, -0.029955171048641205, -0.006574347615242004, 0.0501604825258255, -0.03297825902700424, 0.011831298470497131, 0.02693162113428116, -0.004338108003139496, 0.03509259223937988, 0.027469530701637268, -0.0672631785273552, 0.055617257952690125, 0.05489608645439148, 0.02848163992166519, -0.0405915305018425, 0.005394250154495239, 0.057649850845336914, 0.04890036582946777, 0.07067903876304626, 0.04082575440406799, 0.022802643477916718, -0.003833480179309845, 0.04962238669395447, 0.0435294434428215, 0.060214877128601074, -0.057599201798439026, -0.07808306813240051, 0.005080603063106537, -0.013125017285346985, 0.03893996775150299, 0.05880028009414673, -0.04925854504108429, 0.06995314359664917, -0.052049364894628525, -0.04232899472117424, -0.014492668211460114, -0.042804185301065445, 0.030453279614448547, -0.0019058585166931152, 0.032747939229011536]","[0.019395552575588226, -0.06165320426225662, 0.020001456141471863, -0.005313597619533539, 0.002277687191963196, -0.01570030301809311, -0.05685627460479736, -0.030353210866451263, 0.06775639951229095, 0.05001586675643921, -0.03919154405593872, 0.07301735877990723, 0.04383804649114609, -0.028658565133810043, -0.03342697396874428, 0.06591702997684479, -0.04860738664865494, 0.04367905110120773, -0.07418613880872726, -0.038520146161317825, 0.02032126486301422, 0.02441520243883133, -0.07156767696142197, -0.04141218587756157, 0.04924546182155609, 0.015420280396938324, -0.006059691309928894, -0.004318520426750183, 0.07576300203800201, -0.04005434736609459, 0.07780565321445465, 0.047689422965049744, -0.036739058792591095, 0.0001679062843322754, 0.04930169880390167, -0.06447306275367737, 0.015544138848781586, 0.024726852774620056, 0.04468988627195358, 0.05385631322860718, 0.03665907680988312, -0.00869719684123993, -0.061428252607584, -0.006274685263633728, 0.073737233877182, -0.02231195941567421, -0.06546945124864578, -0.031781554222106934, 0.01894295960664749, 0.0450325533747673, -0.07388637959957123, -0.06515878438949585, -0.061487194150686264, -0.06264185905456543, -0.0387754812836647, -0.010782770812511444, 0.037540629506111145, 0.015969879925251007, 0.008666269481182098, 0.05160757899284363, -0.040138181298971176, -0.028836172074079514, -0.010488852858543396, -0.03191124275326729, -0.010579071938991547, 0.016606278717517853, -0.000893615186214447, 0.05098217725753784, -0.0764877051115036, -0.06111551821231842, 0.059304699301719666, 0.024496205151081085, -0.03620772063732147, -0.024064674973487854, -0.06732450425624847, -0.046711355447769165, 0.0766306072473526, -0.022109031677246094, 0.05182616412639618, 0.0625700056552887, 0.009231142699718475, 0.05160117149353027, 0.020156607031822205, 0.008007608354091644, -0.060491591691970825, -0.008470937609672546, -0.040656935423612595, -0.06604111194610596, -0.04480002447962761, 0.06834737956523895, -0.009158551692962646, -0.0021827518939971924, -0.06453705579042435, 0.013278447091579437, -0.052551474422216415, 0.07489144802093506, 0.012392349541187286, 0.054245054721832275, 0.07691088318824768, 0.05238790810108185, -0.06412767618894577, -0.044954564422369, -0.07606043666601181, 0.02777545154094696, -0.006625711917877197, -0.06494008004665375, -0.022272475063800812, -0.010556302964687347, -0.062343016266822815, -0.042943090200424194, -0.05140829458832741, -0.023439299315214157, 0.044633880257606506, -0.03742915019392967, -0.0285617895424366, 0.006623871624469757, 0.019583530724048615, -0.023605626076459885, -0.06850046664476395, -0.03979923203587532, 0.02836219221353531, 0.0764814168214798, 0.05360054969787598, -0.07175493240356445, -0.05628933757543564, 0.07311433553695679, 0.03826862573623657, -0.05339398235082626, -0.071929931640625, -0.05674995109438896, -0.04639672115445137, 0.006272859871387482, -0.0780547484755516, -0.07414180785417557, 0.07017195224761963, -0.07604526728391647, -0.049632906913757324, -0.0370771698653698, -0.04899276793003082, -0.01425217092037201, 0.0387604758143425, -0.0663963332772255, 0.010683126747608185, 0.05092976987361908, 0.020875781774520874, -0.004158154129981995, 0.07544311881065369, 0.05018062889575958, 0.06796681880950928, 0.02652335911989212, -0.0009044110774993896, -0.04236019775271416, -0.012516118586063385, 0.05582892894744873, 0.042655155062675476, -0.05283065885305405, 0.07155519723892212, -0.013030849397182465, 0.04876969754695892, 0.03852524608373642, -0.04424859583377838, 0.063296839594841, 0.006399661302566528, -0.015370570123195648, -0.06295141577720642, -0.0027090907096862793, -0.036565471440553665, -0.05190210044384003, 0.0014838799834251404, -0.020586669445037842, 0.03317424654960632, -0.02484744042158127, -0.033688195049762726, 0.06971418857574463, -0.04320621117949486, 0.00962897390127182, 0.02280561625957489, 0.04907584190368652, 0.06548279523849487, -0.02873426303267479, -0.0626428872346878, 0.00035600364208221436, 0.041063256561756134, 0.0038440003991127014, -0.04001137614250183, -0.053283024579286575, 0.030657507479190826, -0.055536024272441864, 0.07703281939029694, -0.06699644774198532, -0.026659581810235977, -0.07537534087896347, -0.014742814004421234, 0.07223758101463318, -0.037573955953121185, 0.03649185597896576, -0.010658703744411469, 0.04894927144050598, 0.0026938393712043762, -0.060050807893276215]","[0.02451450377702713, -0.01966278627514839, -0.034984707832336426, -0.07556231319904327, -0.03879130631685257, -0.0046017467975616455, 0.019195079803466797, -0.06126417964696884, -0.006118394434452057, 0.0021147653460502625, -0.022790055721998215, 0.011015668511390686, 0.005971744656562805, 0.076902374625206, 0.015566334128379822, -0.03614078834652901, -0.060931187123060226, -0.06702980399131775, 0.011216312646865845, -0.062099240720272064, 0.029232092201709747, 0.027270637452602386, -0.0010586977005004883, -0.04366719350218773, -0.018588785082101822, -0.027366239577531815, -0.06441941112279892, 0.0329730287194252, -0.03359456732869148, 0.02330731600522995, 0.0697658509016037, 0.002339497208595276, 0.00041572749614715576, -0.04453990235924721, 0.018743939697742462, -0.029804222285747528, 0.0062932297587394714, -0.04688749462366104, 0.038908131420612335, -0.03192315623164177, -0.03451957181096077, 0.047689974308013916, -0.06536349654197693, 0.04333770275115967, -0.014271378517150879, -0.058078765869140625, -0.04176269471645355, -0.011446349322795868, 0.05406545102596283, -0.02203545719385147, -0.04894612729549408, 0.0717141181230545, 0.009409554302692413, -0.0466826856136322, -0.010749496519565582, -0.05088486522436142, 0.07718412578105927, 0.06755368411540985, 0.048499882221221924, -0.016483142971992493, 0.009022548794746399, -0.05612330883741379, 0.0517721027135849, -0.014352627098560333, 0.0006249099969863892, -0.0024882107973098755, 0.0497092604637146, -0.024773307144641876, 0.04361893981695175, 0.05828434228897095, 0.01587003469467163, 0.04320630431175232, -0.010262615978717804, 0.011597000062465668, 0.05633154511451721, -0.009589843451976776, 0.05248640477657318, 0.01805083453655243, 0.037808679044246674, -0.06738389283418655, 0.01117675006389618, -0.013195611536502838, 0.02978290617465973, -0.03388211131095886, 0.026215985417366028, -0.06310539692640305, -0.07430774718523026, 0.008054055273532867, 0.0326729491353035, -0.008966125547885895, -0.05249252915382385, 0.07598434388637543, 0.030576378107070923, -0.059080176055431366, -0.038156379014253616, -0.024434320628643036, 0.024926938116550446, -0.026534192264080048, -0.06527675688266754, 0.0007769018411636353, -0.06109239533543587, 0.05781571567058563, -0.031557679176330566, -0.05878749117255211, 0.05985677242279053, -0.022171325981616974, 0.07166847586631775, 0.02734360098838806, 0.038684502243995667, 0.05483826994895935, 0.00683121383190155, 0.059331998229026794, 0.0693076103925705, -0.05174187943339348, -0.011791586875915527, 0.05746757984161377, -0.03251976892352104, -0.004611670970916748, 0.0694609135389328, 0.014613591134548187, 0.033591195940971375, 0.04295600950717926, -0.02695591375231743, -0.07591531425714493, -0.04502646625041962, -0.04331011325120926, 0.06474921107292175, 0.07411248981952667, -0.06633171439170837, 0.018673531711101532, 0.05556632578372955, 0.029618918895721436, 0.04365220665931702, 0.027544669806957245, 0.01631402224302292, 0.010654009878635406, -0.013098597526550293, -0.008392654359340668, 0.023050270974636078, 0.05315959453582764, 0.04004081338644028, 0.011347658932209015, -0.0256858728826046, -0.05602024495601654, -0.015063218772411346, -0.02545516937971115, 0.018048956990242004, 0.02842056006193161, 0.023335635662078857, 0.011255405843257904, 0.049578696489334106, 0.07645751535892487, 0.06787185370922089, -0.001125328242778778, 0.0007168799638748169, -0.03295709192752838, 0.020351700484752655, 0.0481572300195694, -0.014843419194221497, 0.060206338763237, -0.01145431399345398, -0.026507273316383362, 0.03332161903381348, 0.029073171317577362, 0.06510253250598907, 0.0048553720116615295, 0.009382538497447968, -0.07593957334756851, 0.06278221309185028, -0.06464045494794846, -0.07485246658325195, 0.00749611109495163, 0.04793184995651245, 0.019149482250213623, 0.004578642547130585, 0.04038374125957489, -0.002591833472251892, 0.07364867627620697, 0.011700153350830078, -0.05022205039858818, -0.06910402327775955, -0.019646793603897095, -0.007265850901603699, 0.07741421461105347, 0.013272300362586975, -0.06958064436912537, -0.005957089364528656, 0.07541236281394958, -0.05497509986162186, -0.025598857551813126, 0.06956799328327179, 0.026810921728610992, -0.02563381940126419, -0.049949344247579575, 0.022111080586910248, -0.04346655309200287, -0.001106545329093933, -0.0691482201218605, -0.03630480915307999, -0.042108938097953796]","[0.027588583528995514, -0.036583974957466125, -0.031127523630857468, -0.0044909194111824036, -0.06597107648849487, 0.0007925033569335938, -0.07284063845872879, 0.06925144791603088, 0.0500372052192688, -0.03768405690789223, -0.06734231859445572, -0.0267350934445858, -0.0001465529203414917, 0.04523743689060211, 0.07384055852890015, 0.07463112473487854, -0.02635900303721428, 0.020223483443260193, -0.05814945697784424, 0.015829801559448242, -0.04027944803237915, 0.06811346113681793, 0.009727515280246735, -0.04755444452166557, -0.06664124131202698, -0.06069299578666687, 0.017519384622573853, -0.027450725436210632, 0.045619167387485504, -0.04462624713778496, 0.06489342451095581, -0.05925007909536362, 0.0779166966676712, -0.03865677863359451, -0.036517009139060974, -0.06906136870384216, 0.05390383303165436, 0.056360989809036255, 0.01832737773656845, -0.03995900601148605, 0.01287679374217987, 0.058668166399002075, 0.031002767384052277, -0.046435948461294174, 0.06738519668579102, -0.05077172815799713, -0.0060617029666900635, -0.006847932934761047, 0.011249206960201263, 0.02051452547311783, -0.04887313023209572, -0.013574868440628052, -0.04849270358681679, -0.06065375357866287, 0.0016024336218833923, -0.011287763714790344, 0.030417121946811676, -0.035063087940216064, 0.010773256421089172, -0.049208614975214005, 0.05816027522087097, -0.046535756438970566, 0.003906853497028351, 0.02786862850189209, -0.027609139680862427, 0.021806888282299042, 0.020073816180229187, 0.034974172711372375, 0.04808957874774933, -0.06893090158700943, 0.062495917081832886, -0.04691970348358154, 0.001887388527393341, -0.045686785131692886, -0.012765869498252869, -0.07332083582878113, 0.03485175967216492, 0.07742486894130707, -0.014726169407367706, -0.039403874427080154, -0.07361298054456711, 0.012280218303203583, 0.06861212849617004, 0.039369210600852966, 0.029178544878959656, 0.001897461712360382, 0.057085901498794556, 0.05609920620918274, -0.03506673499941826, 0.052265480160713196, -0.014676995575428009, -0.02924908697605133, -0.039375871419906616, 0.013998359441757202, 0.003232143819332123, 0.04888167977333069, -0.02937520295381546, 0.06371255218982697, 0.02743251621723175, -0.05066341161727905, -0.014431029558181763, -0.007681466639041901, -0.06066987290978432, -0.002778753638267517, -0.05738715082406998, -0.005825705826282501, 0.0406511053442955, -0.005793683230876923, 0.005080997943878174, 0.05696505308151245, 0.05279828608036041, -0.013765938580036163, 0.06941600143909454, 0.07454247772693634, 0.004607148468494415, -0.011341191828250885, -0.018297329545021057, 0.02465946227312088, 0.0230957493185997, 0.008750885725021362, 0.04873920977115631, -0.03284239023923874, 0.0068522170186042786, -0.018815528601408005, 0.053478240966796875, -0.06397996842861176, 0.023084692656993866, 0.01692970097064972, -0.0370757170021534, 0.01293916255235672, 0.06753405928611755, 0.0662187784910202, 0.018278226256370544, 0.05569303035736084, -0.05995329096913338, 0.04964292049407959, 0.03360556811094284, -0.024488553404808044, 0.0015350207686424255, -0.05355750024318695, 0.07570067048072815, -0.006715916097164154, 0.07263486087322235, -0.0011690780520439148, -0.07348552346229553, -0.04554317146539688, -0.007203578948974609, -0.03982773423194885, -0.07162284106016159, -0.04943716153502464, -0.006563365459442139, 0.027282200753688812, -0.05398573726415634, -0.052490223199129105, -0.05945200100541115, -0.03307326138019562, -0.06941446661949158, 0.0742761641740799, -0.05765749141573906, 0.0663512647151947, 0.02784346044063568, 0.012848511338233948, -0.03420231118798256, -0.020863082259893417, -0.06372468173503876, 0.02365211397409439, 0.05837509036064148, -0.039755892008543015, -0.06370005756616592, -0.018555816262960434, 0.06835505366325378, 0.07426144182682037, -0.048951394855976105, -0.045530643314123154, -0.05422554910182953, -0.04363284632563591, 0.00814695656299591, -0.050434939563274384, 0.03258887678384781, -0.02341332659125328, -0.04687628895044327, -0.07295782119035721, -0.00620579719543457, -0.014568828046321869, -0.06754988431930542, -0.03985212370753288, -0.010274678468704224, 0.03160814940929413, -0.050148047506809235, -0.05685325711965561, -0.06846168637275696, -0.050359372049570084, -0.048894185572862625, -0.040855322033166885, -0.06822040677070618, 0.07330463826656342, 0.001813836395740509, -0.05278240144252777, -0.013120435178279877, 0.07378315925598145]","[0.04855068027973175, 0.004452787339687347, -0.04737301915884018, -0.05870862677693367, -0.06381773203611374, -0.0470658503472805, 0.03394680470228195, 0.03484164923429489, 0.06766553223133087, -0.05395296961069107, 0.03925132006406784, -0.0016830489039421082, 0.02736300230026245, 0.017361924052238464, -0.017701037228107452, 0.008872106671333313, 0.032845743000507355, 0.0402417853474617, 0.027160093188285828, 0.049467653036117554, -0.06843177229166031, 0.014096640050411224, -0.04365764185786247, -0.002698250114917755, -0.0773710086941719, 0.0554625540971756, -0.05512435734272003, 0.00469602644443512, 0.07103307545185089, -0.024737004190683365, 0.03448972851037979, 0.021102651953697205, 0.04603724181652069, -0.007368750870227814, 0.07333853840827942, -0.015342138707637787, 0.05588400363922119, 0.0030871331691741943, 0.0012053847312927246, 0.010579407215118408, 0.06083431839942932, 0.07762937247753143, 0.0707816481590271, -0.005606822669506073, -0.028049852699041367, -0.01592155173420906, 0.057754188776016235, 0.06944957375526428, -0.008145153522491455, 0.018743030726909637, -0.050399698317050934, 0.01834050565958023, -0.01284734159708023, 0.01580941677093506, -0.027185391634702682, -0.010712899267673492, 0.051746293902397156, 0.052912428975105286, 0.06841360032558441, -0.03141976147890091, 0.04301469027996063, 0.06665438413619995, -0.005765572190284729, -0.05287865549325943, -0.07478993386030197, -0.04043259471654892, 0.05814814567565918, -0.006751216948032379, 0.04977633059024811, 0.009809993207454681, 0.06446409225463867, -0.01793857291340828, -0.051390141248703, 0.04480195790529251, -0.05331772565841675, -0.05647873133420944, 0.060264915227890015, -0.03781534731388092, -0.0655430406332016, -0.022638529539108276, -0.012555398046970367, 0.015753135085105896, 0.07782569527626038, -0.07745300233364105, 0.07315583527088165, -0.0014924630522727966, 0.04141826927661896, 0.025646552443504333, -0.06482286751270294, -0.06299479305744171, 0.04502261430025101, 0.0591035932302475, -0.01587735489010811, 0.034941963851451874, 0.007257029414176941, -0.017012491822242737, -0.05320820212364197, 0.06512220203876495, 0.06473666429519653, 0.01087971031665802, -0.03521999344229698, 0.02338918298482895, -0.06088905781507492, -0.05674488842487335, 0.03439917415380478, -0.0227179117500782, 0.025776967406272888, 0.05573320388793945, -0.02952367439866066, -0.027573823928833008, -0.001650296151638031, -0.019970044493675232, 0.06876608729362488, -0.0004163607954978943, 0.010492242872714996, -0.07138368487358093, 0.07155510783195496, -0.06734060496091843, -0.07266457378864288, -0.055318184196949005, 0.04392435401678085, 0.06845700740814209, -0.011097103357315063, -0.01661713421344757, -0.014179356396198273, 0.012029536068439484, 0.009067103266716003, 0.0012939274311065674, -0.05406806617975235, 0.015428468585014343, 0.017015770077705383, -0.018689580261707306, 0.003453873097896576, -0.03901592642068863, 0.019408956170082092, 0.013934746384620667, 0.06138521432876587, 0.06310170888900757, -0.05737059563398361, 0.0733189582824707, 0.03303373605012894, 0.06845878064632416, 0.07058049738407135, 0.033900707960128784, 0.07131277024745941, 0.05080297589302063, 0.054144129157066345, -0.05180153250694275, -0.05903776362538338, -0.03897606581449509, -0.009466983377933502, -0.011590130627155304, -0.06914464384317398, 0.03224804997444153, 0.04785086214542389, 0.05883459746837616, 0.03319738805294037, -0.053056005388498306, -0.055366307497024536, -0.01493961364030838, -0.07394392043352127, -0.07542163878679276, -0.017898157238960266, 0.003731869161128998, -0.0733567327260971, 0.03792330622673035, 0.06481756269931793, -0.034138213843107224, -0.07803408056497574, 0.06118518114089966, 0.07248933613300323, -0.057685546576976776, 0.05950444936752319, 0.0777386873960495, 0.06483304500579834, -0.039637111127376556, 0.01087094098329544, 0.039691999554634094, -0.008041732013225555, -0.06263260543346405, 0.036872006952762604, 0.010120883584022522, -0.03235316276550293, 0.017239123582839966, -0.004931271076202393, 0.0546613484621048, 0.04504091292619705, 0.03094114363193512, -0.04906438663601875, -0.028307870030403137, 0.033218756318092346, -0.0055923983454704285, -0.026455458253622055, -0.005691438913345337, 0.019027002155780792, -0.014347508549690247, -0.024012528359889984, -0.04661411792039871, -0.0375802107155323, 0.05334398150444031]","[-0.010880954563617706, -0.022746972739696503, -0.038767922669649124, -0.07793515175580978, -0.026716716587543488, -0.011553436517715454, 0.05515733361244202, 0.07578463852405548, 0.06920731067657471, -0.021740015596151352, -0.05448697507381439, 0.04722261428833008, 0.06442375481128693, -0.059861358255147934, 0.013330742716789246, 0.04673229902982712, 0.05307567119598389, 0.020904727280139923, 0.03985819220542908, 0.03109663724899292, -0.060479287058115005, -0.024988561868667603, -0.029041040688753128, -0.0363960899412632, -0.06107098609209061, 0.022161215543746948, 0.023544318974018097, -0.074533611536026, 0.015933729708194733, 0.0012431591749191284, 0.052048370242118835, -0.06345809996128082, -0.015938974916934967, 0.055134519934654236, -0.01580275222659111, -0.061443034559488297, -0.013917170464992523, 0.009873442351818085, -0.016822390258312225, -0.06362724304199219, 0.054219573736190796, -0.01489432156085968, -0.013755753636360168, 0.018705904483795166, -0.055063292384147644, -0.044393885880708694, -0.07261831313371658, -0.03016018494963646, -0.03989265486598015, 0.03769616037607193, 0.051626116037368774, -0.009227640926837921, -0.07165177166461945, 0.03349502384662628, 0.05976457893848419, -0.07369683682918549, -0.061475612223148346, -0.05542422831058502, 0.07163536548614502, 0.018226362764835358, -0.06550681591033936, 0.01321335881948471, 0.04651525616645813, 0.010770611464977264, -0.053782157599925995, 0.07408741116523743, -0.032437536865472794, -0.015906639397144318, 0.02287377417087555, -0.04111156985163689, 0.07524409890174866, 0.05046115815639496, -0.040120698511600494, -0.002472810447216034, 0.044844724237918854, 0.07066743075847626, 0.059010207653045654, -0.07612526416778564, -0.00861407071352005, -0.012615926563739777, 0.03133352845907211, 0.010499633848667145, -0.03900032490491867, 0.02139265090227127, -0.04394954442977905, -0.01248025894165039, -0.07524514943361282, 0.0002127811312675476, -0.056039754301309586, 0.06652411818504333, 0.02838103473186493, 0.002869032323360443, 0.01595950871706009, 0.04923434555530548, 0.05741135776042938, 0.0040921494364738464, -0.03364349529147148, 0.06031273305416107, 0.024322673678398132, -0.07540331780910492, 0.02760016918182373, 0.01681274175643921, -0.016001269221305847, -0.0570540651679039, -0.016562920063734055, 0.0313095822930336, 0.06584243476390839, 0.0385114848613739, -0.07437290251255035, -0.06299073249101639, -0.054306309670209885, -0.028236079961061478, 0.05355079472064972, 0.07680337131023407, -0.07754182070493698, -0.0703759640455246, 0.0405939519405365, -0.02279757708311081, -0.06338169425725937, -0.03526007756590843, -0.0001988336443901062, 0.07593216001987457, -0.017475690692663193, -0.05031822621822357, 0.0004949420690536499, 0.005695067346096039, -0.03901722654700279, 0.037189781665802, 0.03208248317241669, -0.029597532004117966, -0.018230512738227844, -0.027661677449941635, 0.0015025138854980469, -0.052430350333452225, -0.01486872136592865, -0.017956409603357315, 0.0230523943901062, 0.07028953731060028, -0.03553552180528641, -0.0780193954706192, -0.07384072989225388, -0.01990886777639389, -0.02104748785495758, 0.047129079699516296, 0.03467705845832825, -0.03936198353767395, 0.013483457267284393, -0.007430769503116608, -0.016038447618484497, 0.025490760803222656, 0.042191505432128906, -0.0027611032128334045, 0.009633742272853851, 0.05416223406791687, 0.008794434368610382, -0.06422154605388641, -0.06029047071933746, -0.02696526050567627, 0.007826849818229675, 0.02213650941848755, 0.0010563656687736511, -0.03517264872789383, 0.06947807967662811, -0.000805780291557312, 0.04211822897195816, -0.03300099074840546, 0.04491526633501053, -0.07018520683050156, 0.0016112923622131348, -0.048712387681007385, -0.0022063031792640686, 0.024686269462108612, -0.011508546769618988, -0.04410490766167641, 0.05831277370452881, 0.07543937861919403, 0.07573495805263519, 0.0012427493929862976, 0.004432424902915955, 0.024600744247436523, 0.013572074472904205, -0.032882507890462875, 0.047480508685112, 0.032741665840148926, -0.011888787150382996, 0.042020395398139954, 0.0646837055683136, -0.05925258994102478, -0.07055958360433578, 0.04515412449836731, -0.016634725034236908, 0.07329493761062622, -0.05057069659233093, 0.0012235119938850403, -0.003126673400402069, -0.06960546225309372, 0.03881414979696274, 0.0161435604095459, -0.013839885592460632, 0.04437980800867081]","[0.04378606379032135, -0.03938788175582886, -0.022985946387052536, -0.05121655389666557, 0.020508363842964172, -0.04026332497596741, 0.07073305547237396, -0.054866448044776917, 0.07212187349796295, 0.03249914199113846, -0.06383559107780457, 0.014620810747146606, -0.032571692019701004, -0.003597639501094818, 0.0009821802377700806, 0.02390521764755249, -0.04045601561665535, -0.01301497220993042, 0.02977437525987625, 0.026808053255081177, 0.04096938669681549, -0.036460429430007935, -0.07795274257659912, -0.024633247405290604, 0.06511424481868744, -0.0590515211224556, 0.02479466050863266, -0.029641691595315933, 0.02462315559387207, 0.02086462825536728, 0.025539971888065338, 0.004717320203781128, -0.07527728378772736, -0.028112292289733887, -0.07584365457296371, -0.02248692512512207, 0.027916014194488525, -0.05603396147489548, -0.014359086751937866, -0.06541380286216736, 0.0342339426279068, 0.07043240964412689, -0.06754262000322342, 0.06344635784626007, 0.02554938942193985, 0.0044579654932022095, -0.07656797021627426, -0.041798289865255356, -0.07655584812164307, 0.005736552178859711, 0.007951177656650543, -0.013858713209629059, -0.062252648174762726, 0.06069573760032654, 0.0334741473197937, -0.03423306718468666, -0.046752315014600754, -0.0435306541621685, 0.03216812014579773, 0.05761326849460602, 0.0446939617395401, -0.04370763152837753, -0.002310939133167267, -0.04815284162759781, -0.0012751966714859009, 0.06604291498661041, 0.07693807780742645, -0.016439244151115417, 0.0008126869797706604, -0.002383187413215637, 0.07293456792831421, 0.03457501530647278, 0.06669406592845917, -0.06553851813077927, 0.012405924499034882, 0.06605583429336548, -0.0016176998615264893, -0.041155487298965454, 0.06904077529907227, -0.050606872886419296, 0.008638590574264526, -0.013801328837871552, 0.028457872569561005, 0.01752661168575287, -0.06727202236652374, -0.020565316081047058, -0.026947777718305588, -0.056231122463941574, 0.03964221477508545, -0.016981791704893112, 0.012508079409599304, 0.07025538384914398, 0.011037901043891907, -0.05916963145136833, -0.058633916079998016, -0.05945058539509773, 0.0012974217534065247, 0.034157782793045044, -0.06400062888860703, 0.05997090041637421, 0.04291982203722, 0.00019734352827072144, 0.03719022870063782, 0.013055592775344849, 0.05200093984603882, 0.061290010809898376, 0.05140702426433563, 0.0581224262714386, -0.05822397768497467, 0.031537123024463654, 0.010991580784320831, -0.06651779264211655, 0.06039559841156006, 0.05991561710834503, 0.05113597214221954, -0.031824614852666855, -0.002276197075843811, -0.06756269186735153, 0.05850306153297424, 0.024284690618515015, 0.048117563128471375, 0.058572813868522644, -0.02750164270401001, 0.013368070125579834, 0.06103600561618805, -0.0453604981303215, 0.03163576126098633, 0.008507244288921356, 0.01604621112346649, 0.037676334381103516, -0.04767514020204544, -0.04267513006925583, -0.04062642157077789, -0.07015596330165863, -0.03407305106520653, 0.003366239368915558, -0.04011986032128334, 0.056225910782814026, 0.05496835708618164, -0.03326403349637985, 0.07210786640644073, -0.06604867428541183, 0.014702431857585907, -0.0380287766456604, 0.05654251575469971, -0.02200188860297203, 0.014296941459178925, -0.04436849057674408, -0.04125790297985077, 0.06252054870128632, -0.0451909676194191, -0.06973046064376831, 0.05772213637828827, -0.040268704295158386, -0.07170795649290085, 0.03650602698326111, 0.034186191856861115, 0.03215672820806503, 0.04686800390481949, 0.0445329025387764, 0.0599440336227417, -0.03639800846576691, 0.01742849498987198, 0.030716344714164734, -0.0563652440905571, 0.04234743118286133, 0.07401895523071289, 0.027552731335163116, 0.0264219269156456, -0.0085715651512146, 0.058371707797050476, -0.007879242300987244, -0.03713817894458771, -0.07687975466251373, -0.005663327872753143, 0.0402199849486351, -0.0049043744802474976, 0.04030631482601166, 0.05118235945701599, 0.07250654697418213, -0.06353449076414108, -0.06601974368095398, 0.05294711887836456, -0.05099374055862427, 0.07137635350227356, 0.04142393171787262, 0.03618168830871582, -0.04242824390530586, -0.06678260862827301, -0.0607265830039978, -0.026447270065546036, -0.04262750595808029, 0.06414493918418884, -0.033388808369636536, 0.05278678238391876, -0.05465948209166527, -0.002675354480743408, 0.011768423020839691, 0.033457688987255096, -0.0007942542433738708]","[0.05578501522541046, -0.014269240200519562, 0.029128171503543854, 0.03281717747449875, -0.02143634855747223, 0.04076061397790909, 0.005017288029193878, -0.010408617556095123, 0.021273784339427948, 0.05180959403514862, -0.0696868747472763, -0.0030460432171821594, -0.03257960453629494, 0.0008023902773857117, 0.029359355568885803, 0.055609747767448425, -0.05154159665107727, 0.03923504799604416, 0.0016137734055519104, -0.023362912237644196, -0.05679275095462799, 0.07416023313999176, 0.06862030923366547, -0.07507163286209106, 0.037742406129837036, 0.0700073391199112, -0.017285551875829697, -0.041277430951595306, 0.060756832361221313, -0.019169293344020844, 0.008653335273265839, 0.03950820863246918, -0.024292774498462677, 0.05976547300815582, 0.03730102628469467, 0.010250717401504517, 0.056823596358299255, 0.03945693373680115, 0.05267420411109924, 0.07724441587924957, 0.013391375541687012, -0.02892499789595604, -0.0483747273683548, -0.05716828256845474, 0.06089061498641968, -0.01790856197476387, -0.004486396908760071, -0.05728399008512497, 0.03773380070924759, 0.02900908887386322, -0.006305776536464691, -0.07409193366765976, -0.025341711938381195, 0.015651598572731018, 0.056101128458976746, 0.04575321078300476, -0.06883740425109863, -0.04899604246020317, -0.05671057477593422, -0.07615142315626144, -0.024844016879796982, -0.06662296503782272, -0.033646807074546814, 0.03795941174030304, 0.0646984875202179, -0.022201281040906906, 0.06478583812713623, 0.0647938996553421, -0.03492517024278641, -0.019823357462882996, 0.0709325522184372, 0.01314108818769455, -0.05302876979112625, 0.016002707183361053, 0.036118097603321075, 0.018147945404052734, -0.006843484938144684, 0.0036465823650360107, 0.07709664106369019, 0.0062270089983940125, -0.004688560962677002, 0.01637721061706543, 0.05037564039230347, 0.04035946726799011, 0.007461130619049072, -0.05134199559688568, 0.04060795158147812, 0.03708532452583313, 0.059419989585876465, 0.00703730434179306, 0.05527298152446747, 0.06395195424556732, -0.005608260631561279, -0.000845395028591156, -0.06387943029403687, 0.021698422729969025, 0.023153185844421387, -0.0033553168177604675, 0.029575973749160767, -0.04350702837109566, -0.011743053793907166, -0.017147094011306763, -0.026293769478797913, 0.005380623042583466, 0.01951342076063156, 0.023560963571071625, 0.040645189583301544, 0.038410186767578125, -0.05385947227478027, 0.06875886023044586, 0.06707923114299774, 0.03616700321435928, -0.028730779886245728, 0.012640967965126038, 0.0371931716799736, -0.0208003968000412, 0.05642607808113098, -0.033848993480205536, 0.06479671597480774, -0.07012909650802612, -0.0334271602332592, -0.027418795973062515, 0.01272951066493988, 0.06646168231964111, 0.044578492641448975, 0.005080044269561768, -0.055698737502098083, 0.04347200691699982, 0.03030044585466385, -0.02974957972764969, 0.017479971051216125, -0.0039521679282188416, -0.004927217960357666, -0.06702329218387604, 0.041773177683353424, 0.022643908858299255, -0.048514410853385925, 0.035878583788871765, -0.011573448777198792, -0.07786915451288223, 0.06751085817813873, -0.044089771807193756, 0.06359045207500458, 0.06948167085647583, 0.00850241631269455, -0.039544135332107544, 0.07633638381958008, 0.008750274777412415, -0.04325489327311516, 0.054215043783187866, 0.04195018857717514, -0.033294305205345154, -0.059064291417598724, 0.05599719285964966, 0.009940333664417267, 0.06303323805332184, -0.039655935019254684, 0.01291830837726593, -0.008027531206607819, -0.037715353071689606, -0.03900482878088951, -0.010036304593086243, -0.027125593274831772, -0.07471229881048203, -0.044688038527965546, -0.04457862675189972, 0.0276167169213295, 0.06032520532608032, -0.026957236230373383, 0.04128171503543854, -0.035285934805870056, 0.03768331557512283, -0.07422623783349991, -0.04710999131202698, -0.01675443723797798, -0.005642794072628021, 0.05269497632980347, -0.03970206901431084, 0.0006167963147163391, -0.02205200493335724, -0.0393281951546669, 0.05027760565280914, 0.041895121335983276, -0.012509673833847046, 0.023149944841861725, -0.06402602791786194, 0.0028973445296287537, -0.050238266587257385, -0.06091774255037308, -0.052187785506248474, 0.016418971121311188, -0.04522079601883888, 0.03093096613883972, 0.07217170298099518, 0.04035843908786774, 0.03991544246673584, 0.04974202811717987, -0.04421785846352577, 0.05564887821674347, 0.03990987688302994]","[0.011929436586797237, 0.032456666231155396, -0.04595601558685303, 0.09302344918251038, -0.06722594052553177, 0.04117872565984726, 0.08397803455591202, -0.0754808858036995, -0.05719134956598282, -0.016793418675661087, 0.07691368460655212, 0.025266779586672783, 0.03268182650208473, -0.016618164256215096, 0.08945532888174057, 0.06684467941522598, 0.08928882330656052, -0.06339011341333389, -0.039636459201574326, -0.029491784051060677, 0.02995125763118267, 0.06244462728500366, 0.006387074012309313, -0.07063500583171844, -0.031200338155031204, 0.0663074404001236, 0.04461025074124336, -0.08279579877853394, 0.011376443319022655, 0.1326783448457718, -0.04718327522277832, -0.09348335862159729, -0.009074202738702297, 0.0231213066726923, -0.08615457266569138, 0.014890744350850582, -0.06585899740457535, 0.09004954248666763, -0.08015339076519012, -0.01931808888912201, -0.009944760240614414, -0.0822843685746193, 0.07290671765804291, 0.040240559726953506, -0.05031116306781769, 0.05604158714413643, -0.019200507551431656, -0.019280314445495605, 0.023404719308018684, -0.06871270388364792, 0.13431698083877563, -0.026809027418494225, -0.10864537954330444, -0.07104773819446564, 0.008891932666301727, 0.06289127469062805, -0.0930865928530693, -0.0594952255487442, -0.06508563458919525, -0.048964451998472214, -0.03124561905860901, 0.022942963987588882, 0.08659449964761734, -0.07005365192890167, 0.08503545820713043, 0.041208650916814804, 0.06087099015712738, 0.0699782595038414, 0.0742364376783371, -0.013977864757180214, 0.04260646179318428, -0.024603702127933502, -0.07543157786130905, 0.016726460307836533, 0.011010922491550446, 0.10577580332756042, -0.11193393170833588, 0.03477555513381958, -0.052850525826215744, 0.1073269471526146, 0.05832940340042114, -0.06382939219474792, 0.03370226174592972, -0.06432037800550461, 0.10956927388906479, -0.049911946058273315, 0.0016429773531854153, 0.1600763350725174, -0.020178725942969322, 0.11509576439857483, -0.009011352434754372, 0.030318601056933403, 0.08528769016265869, -0.013220755383372307, 0.04640180245041847, 0.12262925505638123, -0.019552504643797874, 0.04816897213459015, 0.01763642393052578, -0.04203173145651817, 0.026625391095876694, -0.03667595237493515, -0.00013097185001242906, 0.009078359231352806, 0.020927218720316887, 0.05219129100441933, -0.13612698018550873, -0.04115020111203194, -0.05992414429783821, 0.06268724054098129, 0.008399926126003265, -0.053717877715826035, -0.0434485524892807, -0.00047658258699811995, -0.035524025559425354, 0.018161816522479057, -0.09717828780412674, 0.03453720733523369, 0.009051408618688583, -0.03584199771285057, 0.0735931396484375, -0.059112176299095154, 0.06865692138671875, 0.06010066345334053, -0.07674673944711685, -0.012503363192081451, 0.05055032670497894, -0.04608849808573723, 0.028358913958072662, -0.09886080026626587, -0.018886009231209755, 0.08678220957517624, 0.017423933371901512, 0.04213053733110428, 0.05685843527317047, -0.010771351866424084, -0.034403230994939804, 0.030397014692425728, -0.1485859453678131, -0.045439738780260086, -0.041684750467538834, -0.1076783761382103, -0.004123715218156576, -0.0613420344889164, 0.049832914024591446, 0.02955031394958496, 0.027155857533216476, 0.03000267781317234, 0.013698041439056396, -0.04724453017115593, 0.0012357811210677028, -0.02490755170583725, 0.057682961225509644, -0.03451111540198326, -0.016717592254281044, 0.043421488255262375, 0.05072573572397232, 0.05209273099899292, -0.025755368173122406, 0.053946398198604584, -0.031170424073934555, 0.02344428561627865, 0.021341362968087196, -0.09359907358884811, 0.02301381528377533, 0.04065873101353645, 0.13048064708709717, 0.08137284219264984, -0.01878828927874565, -0.09057577699422836, -0.042436614632606506, 0.0016461052000522614, -0.02985306642949581, -0.008814412169158459, -0.030299033969640732, 0.06546500325202942, 0.003783605992794037, -0.042910005897283554, 0.026812933385372162, 0.04899827018380165, -0.04589994624257088, -0.048896681517362595, -0.05578004941344261, 0.015745216980576515, 0.03787047415971756, -0.033393360674381256, -0.05235505849123001, 0.02887634187936783, 0.04191804304718971, 0.0715644359588623, 0.03148501366376877, -0.031169166788458824, 0.0256597101688385, 0.0294586680829525, 0.05311710387468338, 0.014090292155742645, 0.02792264334857464, 0.026524081826210022, -0.012176348827779293, 0.11390644311904907]","[-0.016380347311496735, 0.015652302652597427, 0.024246493354439735, 0.03823789209127426, -0.026732565835118294, 0.06486497819423676, 0.007244267500936985, 0.04842495918273926, -0.06010424718260765, 0.01904163509607315, -0.0012250617146492004, -0.028424443677067757, 0.05131510645151138, -0.020534109324216843, 0.09646513313055038, 0.0734233558177948, -0.002626643516123295, 0.04032246395945549, 0.016239240765571594, -0.006044953130185604, 0.020456811413168907, -0.05961935222148895, 0.01536231767386198, -0.04389530420303345, -0.07504837960004807, -0.016595516353845596, -0.012015700340270996, 0.013853434473276138, -0.011735479347407818, 0.07681150734424591, -0.14351895451545715, -0.011461793445050716, -0.06160730868577957, 0.04884764179587364, -0.10922233015298843, 0.04956868663430214, 0.009347744286060333, 0.046429216861724854, -0.021866466850042343, -0.03904993087053299, 0.048114046454429626, 0.0604064017534256, 0.02971833385527134, -0.061049144715070724, 0.04257595166563988, 0.07133974134922028, 0.03837829455733299, 0.015494427643716335, 0.12433824688196182, -0.04705159738659859, 0.11265880614519119, 0.05715279281139374, 0.018415560945868492, 0.08249134570360184, -0.023214103654026985, -0.06288290023803711, -0.046574048697948456, -0.10364123433828354, 0.043130628764629364, 0.0028278129175305367, 0.011737785302102566, 0.14219486713409424, 0.1033267006278038, -0.029902392998337746, -0.0021199360489845276, -0.012756437994539738, 0.01624913699924946, 0.06717187166213989, -0.0656551793217659, -0.0005226374487392604, -0.10113750398159027, -0.03969253599643707, -0.02623390406370163, -0.014403178356587887, 0.05973857641220093, -0.02085861749947071, -0.008908403106033802, -0.053085364401340485, -0.046698808670043945, 0.11819378286600113, -0.029840003699064255, -0.008321268483996391, 0.03935753181576729, 0.07998011261224747, 0.10165999829769135, -0.10575610399246216, -0.09702476114034653, 0.08908668905496597, -0.054283954203128815, 0.04591955244541168, 0.06498683989048004, 0.00584298325702548, 0.008907312527298927, -0.03129563853144646, -0.0704898089170456, 0.09353464096784592, 0.0880197212100029, -0.08248388022184372, 0.049085281789302826, -0.040599796921014786, 0.11214818060398102, 0.004151152912527323, -0.022697748616337776, 0.07319483906030655, -0.0026379679329693317, 0.09364007413387299, -0.014554868452250957, -0.0004997849464416504, -0.07097281515598297, 0.034531693905591965, 0.09607039391994476, 0.03146851062774658, -0.06611336767673492, 0.05051127448678017, -0.073726586997509, -0.06752940267324448, -0.0032658223062753677, -0.03212495893239975, 0.07022280246019363, -0.0037572458386421204, -0.044183842837810516, -0.009902909398078918, 0.05342833697795868, -0.04020426422357559, -0.027214400470256805, 0.04831252992153168, 0.04509994015097618, -0.0058947959914803505, -0.022844169288873672, 0.014676634222269058, 0.055238690227270126, 0.04861937835812569, 0.0023518132511526346, -0.05978113412857056, 0.05868120491504669, -0.05963211506605148, -0.012177071534097195, 0.05525200441479683, -0.15347981452941895, -0.04067235440015793, -0.03132713958621025, -0.06378915160894394, -0.04066605493426323, 0.03958370164036751, 0.11409133672714233, -0.023940179497003555, 0.009683874435722828, -0.05141725763678551, 0.07549567520618439, 0.07236360013484955, -0.055555228143930435, 0.060922589153051376, 0.006571080069988966, -0.0064209578558802605, 0.054788123816251755, 0.11218288540840149, -0.014319509267807007, 0.07389923185110092, 0.09078555554151535, 0.0794006809592247, 0.01840045489370823, 0.003112352918833494, -0.01917134039103985, -0.024614566937088966, -0.0016202479600906372, 0.03774851933121681, 0.1263531744480133, 0.055277321487665176, -0.02952592819929123, -0.023459311574697495, -0.03549272194504738, 0.08592689782381058, -0.0014543525176122785, -0.07257314026355743, 0.030319735407829285, 0.06923189014196396, -0.07151750475168228, -0.0404529944062233, 0.03067406266927719, 0.004447620827704668, 0.00826046708971262, -0.015526250004768372, -0.046900223940610886, -0.02062227390706539, 0.05230844020843506, 0.11344075947999954, 0.0362582802772522, 0.022832918912172318, -0.072594553232193, 0.08983591198921204, -0.00981118530035019, -0.06410946696996689, 0.09909455478191376, -0.06523750722408295, 0.030187053605914116, 0.03638868033885956, 0.08082032948732376, -0.03852718323469162, 0.06395625323057175, 0.022183857858181]","[0.05787086486816406, 0.07515330612659454, -0.0392535924911499, -0.03201823681592941, 0.08427795022726059, -0.05226968228816986, -0.0310632586479187, 0.014432838186621666, -0.03801925107836723, -0.003560088574886322, -0.06905237585306168, 0.0295974500477314, -0.0031764726154506207, 0.12180183827877045, 0.004438377916812897, 0.0844164788722992, -0.006052558310329914, -0.029703408479690552, 0.06335444748401642, 0.027038099244236946, 0.06279526650905609, 0.06983409821987152, 0.046834006905555725, -0.050912532955408096, 0.059252381324768066, -0.06001579016447067, -0.05995488166809082, -0.00032894115429371595, 0.035586364567279816, -0.05739140138030052, 0.04498156160116196, -0.015344022773206234, 0.09954240173101425, 0.05892275273799896, -0.1475180685520172, 0.036480799317359924, 0.021871104836463928, 0.08077017217874527, 0.05805202201008797, 0.056593623012304306, 0.07416766881942749, -0.0038690802175551653, -0.09305182844400406, -0.10457920283079147, 0.0053989277221262455, 0.06142725050449371, -0.03811294585466385, -0.026614490896463394, -0.09639470279216766, 0.013003605417907238, 0.048437729477882385, 0.1508997231721878, -0.036058761179447174, 0.07175774872303009, -0.1439191997051239, 0.0756283551454544, -0.055721938610076904, -0.037167321890592575, 0.022788573056459427, -0.03492511808872223, -0.028094962239265442, 0.038159340620040894, 0.05908665060997009, 0.10180249065160751, -0.05504849553108215, -0.016650045290589333, 0.03567146137356758, 0.060633584856987, 0.011548707261681557, 0.05173948407173157, -0.0767698884010315, -0.03986556455492973, -0.07332859933376312, -0.07310914248228073, -0.00760282576084137, -0.057841990143060684, -0.11024953424930573, 0.04935600981116295, -0.052670255303382874, 0.025074783712625504, -0.03802192583680153, -0.017140379175543785, 0.03955727070569992, 0.02253027819097042, 0.060479700565338135, 0.016443023458123207, -0.05239255726337433, 0.0036224923096597195, -0.029522914439439774, -0.02001098543405533, 0.0033298656344413757, -0.01657833531498909, -0.04480748996138573, 0.017642786726355553, 0.04529653117060661, -0.08604604750871658, -0.02032923512160778, -0.0021756961941719055, 0.05509363114833832, -0.04837208241224289, -0.0674692839384079, -0.06702591478824615, -0.02851167879998684, -0.010718066245317459, 0.037677839398384094, -0.07570350915193558, 0.019104721024632454, 0.04194370657205582, 0.02595946006476879, 0.11021988093852997, 0.0007974579930305481, 0.06784182041883469, -0.040969185531139374, 0.04712393879890442, -0.015213757753372192, 0.036240316927433014, 0.09852389246225357, 0.061661697924137115, -0.05642542988061905, -0.059706129133701324, -0.012112602591514587, -0.03712812438607216, 0.002515822649002075, -0.06977242231369019, 0.04186004400253296, -0.023061588406562805, 0.1474650800228119, -0.09623827785253525, -0.05271695926785469, -0.07485917210578918, -0.0214243046939373, 0.10689085721969604, -0.023966562002897263, 0.05927097797393799, -0.06538189202547073, -0.06545145064592361, 0.0012723235413432121, 0.03218023478984833, 0.047316551208496094, 0.052125729620456696, 0.03341135382652283, 0.12025800347328186, 0.013821937143802643, -0.005424298346042633, -0.02535797655582428, 0.06686213612556458, 0.11730773746967316, 0.029227541759610176, 0.023087240755558014, 0.13286736607551575, -0.02703123912215233, 0.018574832007288933, -0.04100823029875755, 0.0024526864290237427, -0.039287541061639786, 0.12235290557146072, 0.009548861533403397, 0.08998607844114304, 0.05484837293624878, 0.03033096343278885, 0.09965377300977707, 0.004443372134119272, 0.061686962842941284, -0.0006421913276426494, -0.05632936581969261, -0.02466607093811035, -0.017933212220668793, -0.013584650121629238, 0.04735128581523895, 0.07475605607032776, -0.09437641501426697, 0.04635843262076378, -0.008568733930587769, 0.029336102306842804, 0.039827585220336914, 0.017943961545825005, -0.049890995025634766, 0.050066761672496796, 0.018916212022304535, -0.06695466488599777, 0.07244902104139328, -0.02935747802257538, -0.04082430526614189, -0.03958674147725105, 0.041711851954460144, 0.0873476192355156, -0.06838501989841461, 0.12475188076496124, 0.010066501796245575, 0.1505378782749176, 0.02770182490348816, 0.018393130972981453, -0.03605886921286583, -0.08056424558162689, 0.0372597761452198, 0.039966993033885956, -0.04154009371995926, 0.06017172336578369, 0.06447914242744446, -0.016934776678681374]","[0.049448929727077484, 0.05368560552597046, 0.03759016841650009, 0.04485570639371872, 0.04222960025072098, 0.052593231201171875, 0.03268549218773842, 0.0671207532286644, -0.035518430173397064, -0.052903566509485245, 0.044170163571834564, 0.016743367537856102, 0.01085287518799305, 0.045173704624176025, 0.01864420622587204, -0.025319235399365425, 0.0040484643541276455, -0.020721610635519028, 0.07632352411746979, 0.020987888798117638, 0.07729550451040268, -0.02456192672252655, -0.05292471498250961, -0.070858433842659, 0.04860930144786835, -0.07045260816812515, 0.030994486063718796, 0.015147748403251171, -0.026386743411421776, -0.06341350823640823, 0.005231574177742004, 0.07309217005968094, 0.08182460814714432, -0.035947076976299286, 0.047674767673015594, 0.0134812593460083, 0.03037465363740921, -0.05738525465130806, 0.04372712969779968, 0.017582803964614868, 0.01599155180156231, 0.0497174970805645, -0.009548800066113472, 0.01996680721640587, -0.031207384541630745, -0.026471134275197983, -0.036349210888147354, 0.061463356018066406, 0.0346502847969532, 0.04892627149820328, -0.05162166431546211, -0.02459927648305893, -0.028175216168165207, 0.04673345014452934, -0.02374066598713398, -0.02940497174859047, 0.02715308964252472, 0.045689526945352554, 0.0028874545823782682, 0.0044421060010790825, 0.06633099913597107, -0.026191111654043198, 0.014657195657491684, 0.0020417242776602507, 0.055214013904333115, 0.0779506117105484, 0.070972740650177, -0.004983715713024139, 0.06397616863250732, -0.06550052016973495, -0.0010284797754138708, 0.06010475754737854, 0.061850398778915405, 0.05843465030193329, -0.06983235478401184, 0.03777798265218735, 0.05627083405852318, 0.052662402391433716, 0.053202152252197266, 0.03257203847169876, -0.049623146653175354, -0.04775870591402054, 0.03600015118718147, -0.05064203217625618, -0.002486438723281026, 0.03420962765812874, -0.07302095741033554, -0.03791191056370735, 0.03125529736280441, -0.009455975145101547, -0.018211115151643753, 0.02795497328042984, -0.06857118010520935, -0.05940985307097435, 0.02063552848994732, 0.020037127658724785, -0.05526991933584213, 0.01671135425567627, -0.0077136605978012085, -0.014061525464057922, 0.04012664780020714, 0.011975199915468693, 0.026828089728951454, 0.057973168790340424, 0.052735716104507446, -0.000223502516746521, -0.017423726618289948, -0.06323746591806412, -0.07536953687667847, 0.05865667387843132, -0.017065774649381638, -0.047150325030088425, 0.013572707772254944, -0.045417264103889465, -0.038415271788835526, 0.01994548738002777, 0.06260489672422409, 0.012954912148416042, -0.011802516877651215, -0.07121177017688751, -0.0071646347641944885, 0.062107786536216736, 0.04839494824409485, -0.04309727996587753, 0.07450933009386063, -0.028825636953115463, -0.039587244391441345, -0.06618732213973999, 0.07525935769081116, -0.07224449515342712, -0.06870337575674057, -0.015437186695635319, -0.016104238107800484, 0.019667023792862892, -0.026316147297620773, 0.06685808300971985, -0.023621786385774612, 0.06031794846057892, -0.06889893114566803, -0.018129125237464905, 0.05078335106372833, -0.04712881147861481, -0.0016702041029930115, 0.037419743835926056, 0.03449523076415062, 0.005984030663967133, 0.06517145037651062, -0.023119699209928513, -0.06829794496297836, -0.00140943203587085, 0.05567130446434021, 0.03934433311223984, 0.008462960831820965, 0.020217709243297577, 0.0020143636502325535, 0.002766612684354186, 0.02613271027803421, -0.07122673839330673, 0.03531021624803543, 0.04488864541053772, -0.025743700563907623, -0.0031833595130592585, 0.06390823423862457, 0.011304236948490143, -0.02852451801300049, 0.005969732999801636, -0.052184395492076874, 0.0345488041639328, -0.005313597619533539, 0.015100225806236267, 0.07631704211235046, 0.0815889984369278, 0.05541123449802399, 0.04682473838329315, 0.06326617300510406, 0.031274374574422836, 0.02570873498916626, 0.015117859467864037, -0.0494425967335701, 0.01628781110048294, 0.048591531813144684, 0.00903165340423584, 0.07128863036632538, 0.06510800868272781, 0.07708725333213806, -0.011544601991772652, 0.03124353289604187, 0.06336943060159683, 0.06626316905021667, -0.0650910809636116, 0.06621025502681732, 0.012827151454985142, -0.05375241860747337, 0.046413082629442215, 0.04876158386468887, -0.004245728254318237, 0.0230098906904459, -0.05458949878811836, 0.005469575524330139, 0.049650710076093674]","[-0.03940119221806526, 0.06285184621810913, -0.06224769353866577, -0.02404838427901268, 0.05910278856754303, 0.0521605908870697, 0.07403771579265594, 0.05613090097904205, -0.06431224942207336, -0.05214826017618179, -0.04958168789744377, 0.0730937272310257, -0.05694444477558136, 0.004672735929489136, 0.04885472357273102, -0.05281185731291771, 0.0303756445646286, 0.03266928344964981, -0.051205940544605255, -0.001428939402103424, -0.05349571257829666, -0.01034305989742279, 0.00020772963762283325, -0.02374248206615448, -0.060859233140945435, 0.046958521008491516, -0.06394679099321365, -0.01871553435921669, -0.0774288922548294, -0.06795350462198257, -0.07252995669841766, -0.010428890585899353, -0.010765008628368378, -0.022792864590883255, -0.03226333111524582, -0.05412764102220535, 0.04849576950073242, -0.023379720747470856, -0.03770636022090912, -0.07359105348587036, -0.025849763303995132, -0.07212919741868973, -0.0763692632317543, -0.02244749665260315, -0.06672532111406326, -0.04295431822538376, -0.06913256645202637, 0.04800288379192352, 0.05476564168930054, -0.028218206018209457, 0.00413580983877182, -0.05753394588828087, -0.036387041211128235, -0.028245408087968826, -0.06975432485342026, -0.05145467072725296, -0.06545479595661163, 0.04799836874008179, -0.04832175746560097, -0.07764347642660141, 0.022271335124969482, 0.0664699524641037, -0.049324266612529755, 0.022041842341423035, -0.03469274938106537, 0.0037943124771118164, 0.004918262362480164, 0.03480865806341171, -0.03517113998532295, 0.07584163546562195, 0.022300750017166138, -0.03239389508962631, 0.05370493233203888, 0.021926097571849823, 0.005376771092414856, 0.04262661188840866, -0.04263372719287872, 0.004845768213272095, 0.03206978738307953, -0.06483282893896103, -0.06967806816101074, 0.011339336633682251, -0.040147021412849426, -0.022378314286470413, 0.0466127023100853, 0.04270942509174347, -0.05116759240627289, 0.06385016441345215, 0.04707863926887512, 0.06110037863254547, -0.03724677115678787, -0.040541376918554306, -0.02145260199904442, 0.06343218684196472, 0.053532958030700684, 0.011503703892230988, 0.05000728368759155, -0.042397063225507736, -0.06423606723546982, -0.014991648495197296, 0.04553227871656418, 0.07112136483192444, 0.05783556401729584, -0.04271111637353897, 0.0510740727186203, -0.05175387114286423, 0.003741249442100525, 0.0770445168018341, 0.018383286893367767, 0.07463528215885162, 0.07171602547168732, 0.053845375776290894, 0.06105341017246246, 0.06156773865222931, -0.04115733131766319, -0.008388906717300415, -0.06608227640390396, 7.37607479095459e-05, -0.03242338448762894, -0.05401543155312538, -0.06365875899791718, 0.06647230684757233, -0.07319695502519608, -0.06366263329982758, -0.060504309833049774, 0.07370485365390778, -0.015364110469818115, -0.04417351260781288, 0.02474108338356018, -0.01962270215153694, 0.06307069957256317, -0.0715198665857315, -0.0769641101360321, 0.029185116291046143, 0.03035011887550354, 0.0755717009305954, -0.007895044982433319, 0.02801050990819931, 0.06958331167697906, 0.009650327265262604, 0.05277371406555176, -0.022847898304462433, 0.008105143904685974, -0.05918768793344498, 0.05467844009399414, 0.061599478125572205, -0.050708264112472534, 0.06635713577270508, -0.05160679295659065, 0.012238085269927979, -0.04456140473484993, 0.04977937042713165, 0.015414431691169739, 0.047839581966400146, -0.012388773262500763, -0.021309491246938705, 0.05921296775341034, -0.04047578573226929, 0.03461902588605881, -0.05164685845375061, 0.04978521168231964, -0.06605090200901031, -0.002330370247364044, 0.028662532567977905, 0.07409292459487915, 0.06708116829395294, 0.01696302741765976, 0.017957083880901337, 6.680190563201904e-05, -0.06605947017669678, -0.02572653442621231, 0.07066352665424347, 0.011514075100421906, -0.021912619471549988, 0.007674470543861389, 0.05861207842826843, 0.02910444885492325, -0.06398911029100418, 0.07610370218753815, 0.05981197953224182, -0.019988123327493668, -0.007605805993080139, -0.008870035409927368, 0.026110291481018066, 0.0688362717628479, 0.060429647564888, -0.03709584102034569, 0.0377458855509758, -0.01368647813796997, 0.03276566416025162, 0.03887491673231125, 0.07671628892421722, -0.016234789043664932, 0.028987161815166473, 0.03230172395706177, -0.032404154539108276, 0.039119161665439606, -0.03271670266985893, 0.025342106819152832, 0.040890373289585114]","[0.001112423837184906, -0.07408640533685684, -0.04517683759331703, 0.030650511384010315, -0.02376934513449669, -0.0302647203207016, 0.050630614161491394, -0.0031240135431289673, 0.0020700842142105103, 0.07307924330234528, 0.041299380362033844, 0.0060720741748809814, -0.058859407901763916, -0.06434045732021332, -0.03908773139119148, 0.011709332466125488, 0.004077725112438202, -0.030892517417669296, 0.027485966682434082, -0.005369395017623901, -0.049448683857917786, 0.036235958337783813, -0.01838226243853569, 0.05955222249031067, -0.016533877700567245, 0.017967134714126587, -0.07139241695404053, -0.01683337241411209, 0.01883646845817566, -0.006376743316650391, 0.06317159533500671, 0.028632238507270813, 0.05100986361503601, 0.020432256162166595, -0.06947518140077591, 0.06871657073497772, -0.020616941154003143, -0.06294822692871094, 0.0459902286529541, 0.028885215520858765, -0.033977098762989044, -0.008170083165168762, 0.027193471789360046, -0.02563495561480522, -0.05476997792720795, -0.006305605173110962, -0.016960810869932175, -0.009648986160755157, 0.06165355443954468, -0.07709904760122299, 0.04165313392877579, -0.03880074620246887, -0.07353104650974274, 0.031160719692707062, -0.03675834462046623, -0.03655675798654556, 0.0071264877915382385, -0.041543565690517426, -0.03911750018596649, -0.048156287521123886, -0.04845366254448891, -0.033137064427137375, -0.036254167556762695, 0.054558247327804565, -0.04905939847230911, 0.04409345984458923, -0.061078205704689026, 0.0251011922955513, -0.0159304141998291, 0.06106013059616089, -0.02530272677540779, 0.0457560271024704, 0.03382694721221924, -0.019056733697652817, 0.00408221036195755, 0.007690034806728363, 0.04331076145172119, 0.06696289777755737, -0.07398615032434464, 0.02989470213651657, 0.04151621460914612, 0.009372033178806305, 0.03560064733028412, -0.02053171396255493, 0.016062915325164795, -0.04814925044775009, -0.04226301610469818, -0.029479533433914185, -0.008161216974258423, 0.06780940294265747, -0.029937800019979477, 0.04003390669822693, -0.061741769313812256, -0.07271414995193481, 0.06529922783374786, -0.03331398591399193, -0.02710699290037155, -0.026256699115037918, -0.07039280980825424, 0.012887179851531982, -0.04859090968966484, 0.059527039527893066, -0.05235688388347626, -0.00648152083158493, 0.03241030126810074, -0.00676119327545166, 0.07305888831615448, 0.05338200926780701, -0.06013674661517143, 0.05300857126712799, 0.008574262261390686, -0.00304500013589859, -0.04037514328956604, -0.010022304952144623, 0.03957461565732956, 0.007130317389965057, -0.01861356571316719, -0.06060324236750603, 0.028298817574977875, 0.04607538878917694, -0.010996289551258087, 0.014571942389011383, -0.0324428416788578, 0.004204511642456055, 0.02778945118188858, 0.02988550066947937, 0.016877755522727966, 0.07116986811161041, 0.06245031952857971, -0.05293528735637665, -0.06631641089916229, -0.015348672866821289, -0.023649469017982483, 0.0008354932069778442, 0.028098255395889282, -0.06396322697401047, -0.009088590741157532, -0.009224176406860352, -0.007999584078788757, 0.057506412267684937, -0.017499428242444992, -0.05106712877750397, 0.02937551587820053, 0.07121428847312927, -0.035468682646751404, -0.038503315299749374, -0.07643230259418488, 0.03338361531496048, 0.008595563471317291, -0.006803587079048157, -0.00870734453201294, -0.07307010143995285, 0.05587124824523926, 0.046416252851486206, -0.0678519681096077, -0.06190548837184906, -0.02214948832988739, 0.055743470788002014, 0.011072993278503418, -0.07758257538080215, -0.012564674019813538, -0.02321832999587059, 0.042658671736717224, 0.0691455751657486, 0.0774795413017273, 0.021161183714866638, -0.009299017488956451, -0.050034962594509125, 0.05136558413505554, -0.04799214005470276, -0.030932992696762085, 0.02023586630821228, -0.07758119702339172, 0.050578296184539795, 0.0066949352622032166, 0.060173869132995605, -0.04897516965866089, -0.03509322926402092, -0.01491643488407135, -0.035716984421014786, -0.0666751116514206, 0.04508768022060394, 0.007359109818935394, -0.07670247554779053, -0.030636027455329895, 0.01864197850227356, -0.07244429737329483, 0.03826199471950531, -0.039118990302085876, -0.0379919707775116, -0.005914032459259033, -0.06789276003837585, 0.05561123788356781, 0.0300101637840271, -0.0015127509832382202, -0.022421225905418396, 0.018831275403499603, 0.003279358148574829, -0.03992346674203873, -0.04203411564230919]","[0.03230980038642883, 0.037126749753952026, 0.0009334385395050049, -0.07425563037395477, 0.036593951284885406, 0.05262035131454468, -0.04097769409418106, -0.015539519488811493, 0.07543167471885681, 0.062175899744033813, -0.00739625096321106, -0.03764881566166878, 0.010770164430141449, 0.051680877804756165, -0.05165329575538635, 0.03100641816854477, 0.017783567309379578, 0.04565548896789551, -0.0492008700966835, 0.06672549247741699, -0.07667959481477737, 0.07088223099708557, -0.03407701849937439, 0.01726430654525757, 0.015611886978149414, -0.01963305100798607, 0.04488503187894821, -0.005838461220264435, 0.011064819991588593, 0.050416260957717896, 0.04780019819736481, -0.0191226564347744, -0.02982492372393608, -0.05946183204650879, -0.013411276042461395, -0.04715178906917572, 0.040776751935482025, 0.06690147519111633, -0.02589215338230133, 0.06621260941028595, -0.06747251003980637, -0.016587141901254654, -0.008466653525829315, -0.06752828508615494, -0.00943060964345932, -0.05538967251777649, -0.009046807885169983, 0.06414052844047546, -0.07728436589241028, 0.05425265431404114, -0.06299471855163574, -0.0753888338804245, 0.013561129570007324, 0.012826375663280487, 0.06381767988204956, 0.03900667279958725, 0.03421974182128906, 0.0323614627122879, -0.012335792183876038, -0.018692784011363983, -0.04077431559562683, -0.05728503316640854, -0.07292043417692184, 0.01955072581768036, -0.029975146055221558, 0.005589917302131653, -0.05888216197490692, 0.02240613102912903, -0.06829217821359634, 0.03124360740184784, 0.04720018804073334, -0.05899408832192421, 0.0002927035093307495, 0.06948761641979218, -4.553794860839844e-05, 0.012721098959445953, 0.060903191566467285, 0.06875616312026978, 0.0735347718000412, -0.06181729957461357, 0.04407839477062225, 0.026045359671115875, -0.036566995084285736, -0.058918461203575134, 0.046917468309402466, 0.00020069628953933716, -0.05674537271261215, -0.029564373195171356, -0.01906319335103035, 0.03558319807052612, -0.056229930371046066, 0.013296239078044891, -0.022054631263017654, 0.07249097526073456, -0.04224257543683052, 0.01256098598241806, 0.06798423826694489, -0.04609839990735054, -0.048898935317993164, -0.07257182151079178, -0.031504806131124496, 0.050480231642723083, 0.04145798087120056, -0.043760597705841064, 0.06501388549804688, 0.053166329860687256, 0.0030496567487716675, -0.021573390811681747, 0.015607155859470367, 0.0621454119682312, 0.011453904211521149, 0.0630633533000946, 0.020312026143074036, 0.048434555530548096, 0.06874619424343109, -0.004603087902069092, 0.044584304094314575, 0.04797004163265228, -0.02171964943408966, 0.002164490520954132, -0.03891872242093086, 0.05511291325092316, -0.006640791893005371, -0.01049870252609253, 0.01316940039396286, 0.011690735816955566, -0.06364455819129944, -0.025175049901008606, 0.015709683299064636, 0.03791818767786026, 0.016501538455486298, 0.06446093320846558, 0.007025092840194702, -0.00958067923784256, 0.026802577078342438, 0.014051847159862518, -0.06353045254945755, -0.047652799636125565, -0.014459900557994843, -0.04350496083498001, 0.05289366841316223, 0.026709288358688354, 0.07491934299468994, -0.0614071786403656, 0.04690638929605484, 0.053754404187202454, -0.0004984214901924133, 0.025745637714862823, 0.04656541347503662, -0.028416723012924194, -0.05235757678747177, -0.07330624014139175, 0.0661424845457077, 0.05913275480270386, 0.0682716965675354, 0.005525648593902588, 0.015655510127544403, 0.05630652606487274, 0.06429088115692139, 0.06167152523994446, 0.011026844382286072, -0.06639359891414642, -0.030847705900669098, -0.007945425808429718, 0.00773996114730835, -0.04024811461567879, -0.034547049552202225, -0.05311131477355957, -0.01369774341583252, 0.008811838924884796, -0.038929782807826996, -0.060702379792928696, 0.06609046459197998, -0.035501785576343536, 0.029364071786403656, 0.0039133355021476746, -0.017765134572982788, 0.06848087906837463, 0.022171176970005035, 0.0020149946212768555, -0.02380090206861496, 0.06870779395103455, 0.07256436347961426, 0.049925923347473145, 0.06106388568878174, -0.044696807861328125, -0.05953112244606018, 0.01618359237909317, 0.07478386163711548, 0.049008309841156006, -0.019801165908575058, -0.03723675757646561, 0.05567122995853424, 0.05386556684970856, -0.03833708167076111, 0.06239257752895355, -0.06824879348278046, -0.0045304447412490845, 0.028099484741687775, 0.010962218046188354]","[-0.05967939272522926, 0.01893831044435501, -0.008457981050014496, 0.001670144498348236, -0.06664947420358658, 0.0249527245759964, 0.04710337519645691, 0.017354898154735565, 0.05784733593463898, -0.030296463519334793, -0.01698257401585579, -0.0176086388528347, -0.05327697470784187, 0.05548761785030365, -0.0347677581012249, 0.025931254029273987, 0.055610328912734985, 0.043507032096385956, -0.07243463397026062, -0.04412650316953659, -0.04828301817178726, 0.05244503915309906, 0.053631603717803955, 0.06030815839767456, 0.05337496101856232, 0.05250321328639984, -0.047484591603279114, 0.014311745762825012, 0.04782360792160034, -0.0011299997568130493, -0.07296150177717209, 0.034550249576568604, 0.05312412977218628, 0.007046356797218323, -0.051184605807065964, -0.06319935619831085, -0.0680924504995346, 0.000360339879989624, -0.07210758328437805, 0.04254773259162903, -0.05742336064577103, 0.009382329881191254, 0.0071615055203437805, 0.023205295205116272, 0.0014268383383750916, 0.007190227508544922, -0.008027508854866028, 0.05418367683887482, 0.03875131905078888, -0.05467566102743149, -0.05517261475324631, 0.07642053067684174, 0.05912208557128906, -0.00011888891458511353, 0.0240122452378273, 0.03406035155057907, -0.0028581395745277405, -0.00016677379608154297, 0.010508812963962555, 0.04119627922773361, -0.021803557872772217, 0.028803929686546326, -0.059103742241859436, 0.07047463953495026, 0.008286476135253906, -0.04099379479885101, -0.06590095907449722, -0.0029427707195281982, 0.00916340947151184, -0.0022124871611595154, -0.07550103962421417, -0.06790770590305328, -0.037429723888635635, -0.037126000970602036, 0.03933151066303253, -0.04753441363573074, -0.06708180904388428, -0.06125706434249878, -0.04492189362645149, 0.04855932295322418, -0.03470155596733093, 0.02884688228368759, 0.0669092983007431, -0.004064708948135376, 0.007866896688938141, 0.03897377848625183, 0.07058650255203247, -0.037116821855306625, 0.05926944315433502, -0.027835045009851456, 0.0012715309858322144, 0.06917436420917511, 0.05296355485916138, -0.0039789751172065735, -0.0007402300834655762, 0.0505673885345459, -0.022548194974660873, -0.051457032561302185, -0.04959775507450104, -0.06546931713819504, -0.021740667521953583, 0.03862299025058746, 0.07325917482376099, 0.07215668261051178, -0.073465496301651, 0.0362032875418663, 0.011744558811187744, -0.04172009602189064, -0.01832561194896698, -0.01295403391122818, -0.06971348077058792, 0.05152122676372528, 0.07732893526554108, -0.05250699818134308, -0.07506114989519119, -0.02488430216908455, 0.03795977681875229, 0.07001326978206635, -0.07056874781847, -0.05684031918644905, 0.05575506389141083, -0.05762907862663269, -0.0536334402859211, 0.05632182955741882, 0.019262045621871948, -0.0492534264922142, -0.015068873763084412, 0.05986692011356354, -0.06355837732553482, -0.031492795795202255, 0.010350115597248077, -0.013340644538402557, -0.07263041287660599, -0.02839110791683197, -0.04088108614087105, 0.02467361092567444, -0.026652749627828598, -0.07005935907363892, 0.024226754903793335, -0.03254598006606102, -0.06255735456943512, -0.04665351286530495, -0.009385906159877777, -0.0660012736916542, -0.004606008529663086, -0.04720693081617355, -0.005673028528690338, 0.07284583151340485, 0.01744905114173889, 0.04404892772436142, -0.011567004024982452, 0.03442317247390747, -0.06902847439050674, -0.05281956493854523, 0.06278462707996368, 0.07681018114089966, 0.006256215274333954, 0.05474153161048889, 0.0656425952911377, -0.0609859973192215, 0.030987463891506195, -0.014121323823928833, 0.06836016476154327, 0.003420025110244751, 0.06963567435741425, -0.03808891028165817, -0.07530900835990906, -0.05499976873397827, 0.05761808156967163, -0.06402637809515, -0.010742142796516418, 0.0761011391878128, 0.05739705264568329, -0.01563052460551262, -0.06537794321775436, 0.03851044178009033, 0.0398760661482811, -0.07151833921670914, -0.05528116971254349, 0.02737465500831604, -0.024859413504600525, -0.05908291041851044, 0.013999700546264648, 0.06874626874923706, -0.011871755123138428, -0.06901951879262924, 0.021400175988674164, -0.03565184026956558, -0.030120808631181717, -0.029820457100868225, 0.07196182012557983, -0.02188977599143982, -0.05598555877804756, 0.06823110580444336, -0.05817177891731262, -0.05142151191830635, -0.0416271947324276, 0.052669644355773926, 0.04002297669649124, 0.06852112710475922]","[-0.0005441084504127502, -0.014545656740665436, 0.06273098289966583, 0.0015664249658584595, -0.07297965884208679, -0.0032095760107040405, -0.04733995348215103, 0.058323249220848083, 0.07586005330085754, 0.040028952062129974, 0.012926556169986725, 0.06918454170227051, 0.051748186349868774, -0.04388149827718735, -0.045269813388586044, -0.03328028693795204, -0.06929099559783936, 0.07720333337783813, -0.05763187259435654, -0.07760647684335709, 0.027746036648750305, -0.04573645815253258, 0.024960897862911224, -0.05960555374622345, 0.029932811856269836, -0.052902765572071075, -0.025943223387002945, -0.050960883498191833, 0.03226035088300705, 0.036989837884902954, -0.02370159700512886, -0.050538696348667145, 0.004124283790588379, 0.038739606738090515, -0.0411786288022995, -0.0731891393661499, -0.06732874363660812, 0.06421387195587158, -0.01014050841331482, -0.011216066777706146, -0.06408411264419556, 0.0684080570936203, 0.04593841731548309, -0.06905053555965424, 0.013116717338562012, 0.06717424094676971, -0.04184572771191597, -0.030587714165449142, -0.05825643241405487, 0.05832991003990173, 0.055298060178756714, 0.008918389678001404, -0.043833520263433456, 0.01918577402830124, 0.05094575881958008, 0.023197852075099945, 0.059806063771247864, -0.007118254899978638, 0.020901471376419067, -0.028316210955381393, 0.06031039357185364, 0.0059854984283447266, -0.008213289082050323, -0.07555153220891953, -0.03917698562145233, 0.062050580978393555, -0.011352457106113434, 0.040656521916389465, -0.0678582414984703, -0.037183791399002075, -0.03858409449458122, 0.0312783420085907, 0.061164408922195435, 0.041000835597515106, -0.02262061834335327, 0.04170600324869156, -0.05751166120171547, 0.05804814398288727, 0.006111450493335724, 0.06567847728729248, -0.006569214165210724, 0.0229780375957489, -0.02093280479311943, 0.0021256953477859497, -0.02504398301243782, 0.04683011770248413, 0.07362645864486694, 0.043187886476516724, -0.028482165187597275, -0.03344220295548439, -0.06338482350111008, 0.005219064652919769, -0.0013813525438308716, 0.01565065234899521, 0.016854651272296906, 0.06040850281715393, 0.0008316189050674438, -0.00937596708536148, 0.05860872566699982, 0.0731905847787857, 0.03816358745098114, 0.05209781229496002, -0.022481769323349, -0.04969378560781479, -0.0353698804974556, 0.07167398929595947, -0.02056228369474411, 0.017314724624156952, -0.04035939276218414, -0.009857743978500366, -0.015701495110988617, 0.00016344338655471802, -0.031291525810956955, 0.01354137808084488, 0.05385991930961609, 0.01873461902141571, 0.0005176961421966553, -0.04008232802152634, 0.038033805787563324, 0.003714516758918762, 0.01737821102142334, 0.05595134198665619, 0.024586893618106842, 0.06779678165912628, 0.053103119134902954, -0.0651276707649231, -0.021730002015829086, -0.06673818826675415, -0.07231239229440689, -0.07018385082483292, 0.026805132627487183, 0.047308892011642456, -0.013761132955551147, 0.04311619699001312, 0.002460174262523651, 0.07348264753818512, -0.01060447096824646, -0.06588564068078995, 0.020396530628204346, -0.014641158282756805, -0.008820310235023499, -0.005468234419822693, 0.03859788924455643, 0.05862222611904144, -0.073372982442379, -0.014713376760482788, 0.06963571906089783, 0.0025814101099967957, -0.010654568672180176, 0.0078563392162323, 0.02388155460357666, -0.046872079372406006, -0.04920245334506035, -0.06098683178424835, -0.020909719169139862, 0.05252908170223236, -0.04268060252070427, 0.07749177515506744, -0.06279731541872025, -0.015531085431575775, -0.02139918878674507, 0.06708884239196777, 0.020876005291938782, 0.016199789941310883, -0.0006294921040534973, -0.02109399437904358, -0.03558517247438431, -0.017938870936632156, -0.009576775133609772, 0.04723431169986725, 0.0759323388338089, -0.0744154080748558, 0.018550753593444824, -0.0513886883854866, -0.05163596570491791, -0.0615655742585659, 0.01954527199268341, 0.020793937146663666, 0.04826195538043976, -0.03865456208586693, 0.022064313292503357, 0.00617256760597229, -0.024613048881292343, 0.005943372845649719, -0.004764832556247711, 0.029996760189533234, 0.020901083946228027, 0.003513619303703308, 0.015469223260879517, -0.03942679241299629, -0.027153536677360535, 0.016567833721637726, 0.023731142282485962, 0.024399951100349426, -0.04378535971045494, 0.06446073949337006, -0.06307851523160934, 0.010249137878417969, -0.038865961134433746, 0.05904687941074371]","[0.013749033212661743, 0.016566626727581024, 0.054446250200271606, 0.018732137978076935, -0.06900453567504883, -0.04518640786409378, 0.024909771978855133, -0.05481890216469765, -0.014159977436065674, -0.03942694142460823, 0.05461205542087555, -0.052889637649059296, -0.058563802391290665, -0.0616430938243866, -0.016037482768297195, 0.034814417362213135, -0.05990529805421829, -0.036561354994773865, 0.0020040273666381836, 0.017202407121658325, 0.07256478071212769, 0.06547953188419342, 0.04384303838014603, -0.06628600507974625, 0.05821433663368225, 0.0776926726102829, -0.013280361890792847, -0.05164650082588196, -0.012123405933380127, -0.014508359134197235, 0.007296942174434662, -0.02027754858136177, -0.0011269301176071167, -0.003951720893383026, 0.012772984802722931, 0.03690306097269058, 0.06803862750530243, -0.006609126925468445, -0.033724721521139145, -0.01999041438102722, 0.0695449560880661, -0.0005712956190109253, -0.062178291380405426, -0.05005740001797676, -0.013457246124744415, 0.014232471585273743, 0.03936544805765152, 0.00924026221036911, 0.053722262382507324, -0.07241281121969223, 0.06903515756130219, -0.05535022169351578, -0.01433747261762619, 0.02263154834508896, 0.010559864342212677, 0.04499334841966629, -0.0662282407283783, 0.05308258533477783, -0.06988206505775452, 0.011225208640098572, 0.012885861098766327, 0.07694245874881744, 0.03686375916004181, -0.017318878322839737, -0.021227389574050903, 0.05669189989566803, 0.051203906536102295, 0.02486547827720642, 0.025369450449943542, 0.025926336646080017, -0.07453044503927231, 0.05363944172859192, 0.04384450614452362, -0.02144087478518486, -0.0304955393075943, -0.06008601188659668, -0.02030385658144951, -0.07153485715389252, -0.010422185063362122, 0.05057576298713684, -0.008266463875770569, 0.06743572652339935, -0.004539899528026581, -0.06133700907230377, 0.03767545521259308, 0.07626913487911224, -0.03815120458602905, -0.032366156578063965, 0.005036666989326477, -0.033589914441108704, 0.057416900992393494, -0.02017783373594284, -0.041884079575538635, -0.07104823738336563, -0.013511903584003448, -0.0220804363489151, 0.03901840001344681, 0.022565476596355438, -0.02897641807794571, 0.05301365256309509, -0.029424648731946945, -0.03544868901371956, -0.03792863339185715, -0.0652708038687706, 0.04912932217121124, -0.007575221359729767, 0.01713726669549942, -0.04607810452580452, -0.03734751045703888, -0.026710163801908493, 0.04060087352991104, -0.04704516381025314, 0.017797455191612244, 0.015005946159362793, 0.04791651666164398, 0.05749329924583435, -0.041599828749895096, 0.06872467696666718, 0.003249809145927429, 0.00927858054637909, -0.026445239782333374, 0.06631673872470856, -0.046964459121227264, 0.017474763095378876, -0.011288508772850037, -0.06375394761562347, 0.051397427916526794, 0.012770414352416992, -0.043727289885282516, 0.07289113104343414, 0.060223087668418884, 0.06370928883552551, 0.044057466089725494, 0.029627375304698944, -0.06860895454883575, 0.0607469379901886, 0.01850324124097824, 0.025415323674678802, 0.011466488242149353, -0.041102539747953415, 0.06091009080410004, -0.0626097321510315, -0.03346716985106468, 0.010977819561958313, 0.02632877230644226, -0.06256834417581558, 0.013000652194023132, -0.06272444874048233, -0.05980401486158371, -0.006869994103908539, 0.06753480434417725, -0.058082208037376404, 0.03730638325214386, 0.05664372444152832, -0.005225464701652527, 0.014370612800121307, -0.031297408044338226, 0.06377698481082916, 0.06165885925292969, 0.0710410624742508, 0.05165696144104004, -0.05904029309749603, 0.03875986486673355, -0.012743212282657623, 0.0774606317281723, 0.04886467754840851, -0.07801421731710434, -0.0013262853026390076, -0.008163899183273315, 0.06464581191539764, -0.02388644963502884, -0.023202206939458847, 0.011188007891178131, -0.06072711944580078, 0.05684034526348114, -0.0021293237805366516, -0.04751225560903549, -0.06926195323467255, -0.008820779621601105, 0.029229462146759033, 0.056251391768455505, -0.016324114054441452, 0.07500793039798737, 0.002323351800441742, 0.02864161878824234, -0.01647709310054779, -0.07300008088350296, -0.027384504675865173, -0.038405612111091614, 0.07234156131744385, 0.02522917091846466, 0.05029170215129852, -0.035502977669239044, -0.0013127252459526062, 0.0736054927110672, 0.07249937951564789, 0.04385213553905487, -0.06616566330194473, -0.026251375675201416, -0.06670758128166199]","[-0.0037457942962646484, -0.0446251705288887, 6.161630153656006e-06, 0.04980549216270447, -0.067716583609581, 0.06019215285778046, -0.03005613386631012, 0.03383612632751465, 0.013621337711811066, -0.020005587488412857, -0.0778108462691307, 0.04778732359409332, 0.058408454060554504, 0.04772825539112091, 0.07467734813690186, -0.027080483734607697, 0.022553354501724243, -0.033144623041152954, -0.010377131402492523, -0.06859606504440308, -0.05792083591222763, -0.06044095382094383, 0.06330567598342896, -0.0011137500405311584, -0.03387068212032318, 0.04432664066553116, -0.03056418150663376, -0.02095228061079979, -0.008924566209316254, 0.016980446875095367, 0.024402543902397156, -0.064067542552948, 0.047882795333862305, 0.015100620687007904, -0.049274541437625885, 0.015940800309181213, -0.06535662710666656, -0.07324206829071045, -0.05127345025539398, 0.05819970369338989, -0.019444681704044342, -0.005058974027633667, 0.0367724746465683, 0.005127556622028351, -0.013255245983600616, -0.06472136825323105, 0.000912100076675415, -0.02435462176799774, 0.023522011935710907, -0.058603160083293915, 0.03910450637340546, 0.02079060673713684, 0.0103253573179245, 0.05128493905067444, 0.025405071675777435, 0.021073363721370697, -0.07326596975326538, 0.048063069581985474, -0.06513616442680359, -0.04447544738650322, -0.029777634888887405, -0.04326584190130234, 0.018021143972873688, -0.00860864669084549, 0.04008994251489639, 0.02697499841451645, -0.004023604094982147, 0.03708299249410629, 0.0445743054151535, -0.024157818406820297, -0.013991452753543854, 0.0031272172927856445, -0.01092112809419632, 0.06793919205665588, 0.06764699518680573, -0.004382506012916565, -0.04816475883126259, 0.006644837558269501, -0.05465827137231827, 0.022285878658294678, -0.033402472734451294, 0.00100640207529068, 0.06031426787376404, 0.010042525827884674, -0.07425648719072342, 0.05303192138671875, -0.046368665993213654, 0.01642211526632309, 0.013291493058204651, -0.06551962345838547, -0.006746262311935425, 0.05427838861942291, -0.03383387625217438, -0.04884336143732071, 0.038782499730587006, -0.02168358862400055, 0.05943135917186737, -9.718537330627441e-05, 0.013727404177188873, 0.014009140431880951, 0.03897401690483093, 0.040183961391448975, -0.06434015929698944, 0.005680195987224579, -0.02282462641596794, 0.057452812790870667, 0.004407063126564026, 0.006396964192390442, 0.009756073355674744, -0.01835707575082779, -0.03558025881648064, 0.062492698431015015, 0.0737220048904419, 0.07226940989494324, -0.03284469619393349, -0.026991751044988632, 0.06932780146598816, -0.07667721062898636, -0.04483573138713837, 0.0723995715379715, -0.0694657415151596, -0.060267142951488495, -0.04455015808343887, 0.0739656537771225, 0.016862526535987854, 0.04812869429588318, -0.07376126945018768, 0.030367039144039154, 0.04014652222394943, -0.062025345861911774, 0.03943528234958649, 0.008731521666049957, -0.0024623125791549683, -0.023496415466070175, -0.007029041647911072, -0.013601139187812805, -0.01890883594751358, -0.018780376762151718, -0.016264744102954865, 0.042331844568252563, 0.038531988859176636, 0.0246555358171463, 0.06054896116256714, 0.05835171043872833, -0.004798032343387604, 0.07129256427288055, -0.025164011865854263, 0.07528717815876007, -0.0008495822548866272, -0.0335254967212677, 0.044298022985458374, 0.004539936780929565, 0.02027832716703415, -0.02200501784682274, -0.03826288878917694, -0.04972781613469124, 0.06570100784301758, 0.07563015818595886, 0.0569988489151001, -0.0736314132809639, 0.021158114075660706, -0.05871633440256119, 0.005885131657123566, -0.0547051876783371, -0.060729674994945526, -0.06675903499126434, 