Layer,Weights
Input-to-Hidden,"[-0.030848916620016098, 0.06688496470451355, -0.03990583494305611, -0.05141264945268631, -0.006470911204814911, 0.0739600658416748, -0.01929594948887825, 0.0211360901594162, 0.012176409363746643, 0.025288261473178864, -0.012240156531333923, 0.06384938955307007, -0.02983088046312332, -0.010959796607494354, 0.06076407432556152, 0.023197494447231293, 0.033011436462402344, -0.05722711235284805, 0.019863106310367584, 0.04138541221618652, 0.068452849984169, 0.029459647834300995, -0.06634129583835602, 0.007844537496566772, -0.04548288881778717, -0.01485615223646164, 0.05204807221889496, 0.04236835241317749, 0.06278733909130096, -0.03564128652215004, -0.07742535322904587, 0.04189141094684601, -0.009177841246128082, -0.024453815072774887, -0.05507323145866394, -0.06080228090286255, -0.05837210267782211, 0.06439922749996185, 0.047993630170822144, -0.07286915928125381, 0.03907337784767151, -0.05104953795671463, -0.06819864362478256, 0.0005553588271141052, 0.02775370329618454, -0.00981409102678299, -0.05321402847766876, -0.062436122447252274, 0.0008014366030693054, 0.03505565971136093, 0.01308828592300415, -0.005423814058303833, 0.0014817938208580017, -0.058190859854221344, 0.003054380416870117, 0.05282008647918701, -0.051848165690898895, 0.04513796418905258, -0.014770306646823883, -0.0683588832616806, 0.04289853572845459, -0.05343678593635559, -0.013892091810703278, -0.03515135124325752, -0.012129135429859161, 0.03783632814884186, 0.053315043449401855, 0.0007920563220977783, 0.021759547293186188, 0.04406951367855072, 0.038483262062072754, 0.018627099692821503, 0.0424676239490509, -0.052065543830394745, -0.009546317160129547, -0.008229933679103851, 0.014162600040435791, -0.03780462220311165, -0.0007100105285644531, 0.04029575735330582, 0.02646283060312271, 0.03830473870038986, 0.012099742889404297, 0.009015366435050964, 0.0389716699719429, -0.0013865306973457336, -0.07502304017543793, -0.03438591584563255, 0.02462475746870041, -0.03503601625561714, -0.06968724727630615, -0.03102140501141548, -0.05321697145700455, 0.017901375889778137, -0.007745698094367981, -0.002956792712211609, 0.02238599956035614, 0.00773949921131134, -0.038541629910469055, -0.060033030807971954, 0.018862701952457428, -0.06938549876213074, 0.02824871987104416, 0.015873409807682037, -0.04339979216456413, 0.05576048791408539, -0.054586708545684814, -0.02077377587556839, -0.06416559964418411, -0.04532367363572121, 0.007387779653072357, 0.033669613301754, -0.06809832900762558, 0.07546520233154297, 0.04144003242254257, -0.058426983654499054, 0.0029771029949188232, -0.019509341567754745, -0.07152221351861954, -0.028158482164144516, 0.006432577967643738, -0.02320392057299614, 0.019723549485206604, 0.01818162202835083, 0.03280320018529892, 0.052958324551582336, -0.06605997681617737, 0.06542770564556122, 0.012028418481349945, 0.029693208634853363, 0.03040645271539688, -0.07721924036741257, 0.04584434628486633, 0.011470027267932892, -0.018316786736249924, -0.008201062679290771, -0.028761126101017, -0.022877871990203857, 0.043808966875076294, -0.011499553918838501, 0.01938013732433319, -0.049407895654439926, -0.04089399054646492, -0.03117850050330162, 0.03102663904428482, 0.018946893513202667, -0.05066867917776108, -0.06878935545682907, 0.018046371638774872, -0.06879443675279617, -0.008712351322174072, -0.047412335872650146, 0.0206013023853302, 0.06001487374305725, 0.0039054974913597107, 0.06981079280376434, 0.07614907622337341, 0.07491953670978546, 0.023748964071273804, 0.0686304122209549, 0.07111576199531555, -0.05270346626639366, -0.04302757605910301, 0.058408528566360474, 0.03446822613477707, 0.059657931327819824, 0.062289029359817505, 0.017359592020511627, -0.03992607071995735, 0.021320827305316925, -0.04758923873305321, 0.01921612024307251, -0.0648721307516098, 0.03109639883041382, 0.03579097241163254, -0.0690375417470932, 0.027268365025520325, -0.04243273288011551, -0.06474287062883377, -0.05846337974071503, -0.020018320530653, -0.06419143825769424, -0.04016187787055969, -0.07646030187606812, 0.0487581342458725, 0.06527285277843475, 0.06001812219619751, 0.010786376893520355, 0.07683347165584564, 0.042324602603912354, -0.04176533594727516, -0.03360380232334137, -0.057667843997478485, -0.03953123465180397, -0.03947519510984421, -0.042169518768787384, -0.01505349576473236, -0.006467469036579132, -0.013210326433181763, 0.017767593264579773]","[0.025035828351974487, -0.0008162781596183777, 0.03608690947294235, 0.012709401547908783, -0.042879436165094376, 0.05636991560459137, -0.026647254824638367, -0.02129301428794861, 0.048968687653541565, 0.061440929770469666, 0.0018150284886360168, -0.07281924784183502, -0.05501747503876686, 0.04143884778022766, 0.03149434179067612, 0.0348450243473053, -0.01358243077993393, -0.05509384348988533, -0.05706921964883804, 0.001902155578136444, 0.07593435049057007, -0.0032394006848335266, 0.0023857057094573975, 0.031082190573215485, -0.062017232179641724, -0.07151651382446289, -0.023716863244771957, 0.0224350243806839, 0.022468701004981995, 0.02535714954137802, 0.07644763588905334, 0.043839067220687866, -0.06235232576727867, 0.0719318836927414, 0.012821629643440247, 0.0393223837018013, 0.04904770851135254, -0.032234493643045425, -0.06669361889362335, -0.004850715398788452, 0.05398567020893097, 0.059572309255599976, 0.02170136570930481, 0.02131354808807373, 0.042815521359443665, -0.0019819289445877075, -0.0458165667951107, 0.026726752519607544, 0.07194069027900696, -0.05302182585000992, -0.01587790995836258, 0.07107454538345337, 0.03648005425930023, 0.05405096709728241, 0.0542854368686676, 0.014437414705753326, 0.014458931982517242, -0.03245816379785538, -0.03807135298848152, -0.03807107359170914, 0.06422975659370422, -0.02137167379260063, -0.07416541129350662, -0.05574139207601547, -0.06006810441613197, -0.051138825714588165, 0.05210500955581665, -0.028089318424463272, 0.030050471425056458, -0.029192287474870682, -0.039733681827783585, -0.059878282248973846, 0.03885330259799957, -0.014444969594478607, 0.03074631839990616, -0.05859319865703583, -0.05541761964559555, 0.011939987540245056, -0.056351035833358765, 0.07439221441745758, 0.0007186084985733032, 0.006599932909011841, 0.03832872211933136, -0.020511027425527573, 0.0010996535420417786, -0.050259172916412354, 0.010194607079029083, 0.0010382160544395447, -0.05482647940516472, 0.061424508690834045, 0.000650450587272644, -0.013976074755191803, 0.003854706883430481, -0.005707114934921265, -0.05417514964938164, 0.07475368678569794, -0.020810134708881378, -0.06987986713647842, -0.007224187254905701, -0.030639711767435074, 0.024720430374145508, 0.055034175515174866, 0.032976992428302765, 0.06450116634368896, 0.0555405467748642, -0.044686105102300644, -0.06010148674249649, 0.025518469512462616, 0.02182532101869583, 0.048981234431266785, 0.025067277252674103, -0.01274053007364273, 0.06854578852653503, -0.0020512789487838745, -0.04503113776445389, 0.07550205290317535, -0.00031247735023498535, 0.003882467746734619, 0.04540996253490448, 0.06148330867290497, 0.0058164894580841064, -0.004890859127044678, 0.06437486410140991, -0.05252851918339729, 0.025699950754642487, -0.003723062574863434, 0.02559131383895874, -0.03250407427549362, -0.03292722627520561, -0.037426263093948364, 0.035186462104320526, -0.0012825876474380493, -0.05947621911764145, 0.0763971358537674, 0.019061297178268433, 0.05168174207210541, -0.012650758028030396, 0.042575567960739136, -0.02491893246769905, -0.07368363440036774, 0.05641600489616394, 0.03967972844839096, -0.019469164311885834, -0.04517490416765213, -0.04864127188920975, -0.07186692953109741, -0.06854995340108871, 0.07119114696979523, -0.04022663086652756, -0.04789461940526962, -0.03955361247062683, -0.03517629951238632, 0.054739877581596375, -0.0772998183965683, 0.022037655115127563, 0.07269805669784546, 0.0412021279335022, 0.05984087288379669, 0.010416828095912933, -0.030253253877162933, -0.06238436698913574, 0.06100095808506012, -0.039210159331560135, -0.05700515955686569, 0.020500101149082184, -0.011618778109550476, 0.038071148097515106, 0.06574517488479614, -0.007949337363243103, 0.04260729253292084, 0.04533672332763672, -0.07362218201160431, 0.007596030831336975, -0.04031262546777725, -0.02644231542944908, 0.0026827827095985413, 0.01224670559167862, 0.07695096731185913, 0.03695174306631088, 0.07012762129306793, -0.00512520968914032, 0.07600253820419312, -0.04573897272348404, -0.06402572989463806, -0.030963953584432602, 0.04711747169494629, 0.024620845913887024, -0.022759653627872467, -0.06199569255113602, -0.019495096057653427, -0.05292250216007233, -0.05852102115750313, -0.011833623051643372, -0.06137954816222191, 0.01935068517923355, 0.07123011350631714, 0.05271430313587189, 0.04892486333847046, -0.03853561729192734, -0.06683268398046494]","[0.05838023126125336, -0.060531750321388245, -0.017004206776618958, -0.06362268328666687, 0.0648902952671051, 0.04335566610097885, 0.05396302044391632, -0.03173612803220749, 0.01491934061050415, 0.05927324295043945, 0.06930877268314362, -0.03965984284877777, -0.05615488439798355, -0.029482942074537277, 0.05004124343395233, -0.06249748542904854, -0.06251900643110275, -0.017875202000141144, 0.04855239391326904, -0.012453936040401459, -0.07339835911989212, -0.0312047116458416, 0.0025748759508132935, 0.003211013972759247, -0.05819489806890488, -0.06023217737674713, 0.02649085223674774, 0.004519812762737274, 0.05875852704048157, -0.07598067820072174, 0.06346863508224487, 0.0695706158876419, 0.035348325967788696, 0.032052136957645416, -0.054765358567237854, -0.010312661528587341, -0.028103116899728775, 0.01792861521244049, -0.018780414015054703, -0.06549166142940521, 0.06879626214504242, -0.05722251534461975, 0.06295910477638245, 0.00471130758523941, 0.07709237933158875, 0.05919747054576874, -0.04246283695101738, 0.07083363831043243, -0.07134884595870972, 0.017896458506584167, 6.113946437835693e-05, 0.039008088409900665, -0.03422020375728607, 0.024745158851146698, 0.06586006283760071, 0.02150534838438034, 0.07435858249664307, 0.047742217779159546, -0.07161477953195572, -0.03691504895687103, -0.04294491559267044, -0.055688221007585526, -0.060045596212148666, 0.05415941774845123, 0.04333826154470444, -0.011190429329872131, -0.04192561283707619, -0.038403283804655075, 0.038868248462677, 0.061938151717185974, -0.0425911471247673, -0.05934625118970871, -0.046307675540447235, 0.011130668222904205, -0.019680600613355637, 0.020137004554271698, 0.040637724101543427, -0.01796167716383934, -0.05757252126932144, -0.04092342406511307, 0.031016044318675995, -0.07658366113901138, -0.06739593297243118, -0.07744311541318893, -0.04289494454860687, -0.00445932149887085, 0.04451537877321243, 0.05789206922054291, 0.06017662584781647, -0.053362779319286346, 0.06343621015548706, -0.039842888712882996, -0.07744219899177551, 0.022416256368160248, 0.03651181608438492, -0.03137081488966942, -0.04633098468184471, -0.05696747452020645, -0.03586141765117645, -0.0712699145078659, -0.05907062441110611, 0.0016701817512512207, 0.039796531200408936, -0.008977405726909637, -0.04603401944041252, -0.04282702878117561, -0.05112791806459427, -0.05953427031636238, -0.014830552041530609, 0.04383531212806702, -0.0754273384809494, 0.04492686688899994, 0.05896303057670593, -0.04049425572156906, -0.030818235129117966, 0.03165506571531296, -0.041028834879398346, 0.018627509474754333, 0.030669614672660828, 0.07153704762458801, 0.0680544525384903, -0.0684361606836319, 0.05635586380958557, 0.0191754549741745, 0.014685899019241333, -0.06405002623796463, -0.06949617713689804, 0.022245481610298157, 0.0577627569437027, 0.06344407796859741, 0.07315705716609955, -0.07367046922445297, 0.02261730283498764, 0.026464715600013733, 0.05548964440822601, -0.02401217445731163, -0.0021495074033737183, 0.02223123610019684, -0.03327345475554466, -0.07159236073493958, -0.06887760013341904, 0.012222878634929657, 0.04536832123994827, 0.06131632626056671, 0.0503726452589035, 0.019667774438858032, 0.056796103715896606, -0.06337454915046692, -0.0032198354601860046, 0.0035822242498397827, 0.05575138330459595, 0.0372454896569252, -0.03469742089509964, 0.025911852717399597, 0.06466512382030487, 0.02423105388879776, 0.05271802842617035, -0.0005489513278007507, -0.05620060861110687, 0.007568515837192535, -0.06293221563100815, -0.030481930822134018, 0.04404246062040329, 0.06274458765983582, -0.05979197099804878, 0.0435614287853241, -0.04680008813738823, 0.016778677701950073, -0.057380445301532745, 0.032316818833351135, -0.05116811394691467, 0.004121527075767517, 0.04879724979400635, -0.05081797391176224, 0.07784032821655273, 0.044634945690631866, 0.068748340010643, -0.05058211088180542, -0.07082641124725342, 0.05285777151584625, 0.07589668035507202, 0.009532831609249115, 0.060803547501564026, -0.025218375027179718, -0.07282405346632004, 0.06705865263938904, 0.04339664429426193, -0.024948570877313614, 0.0208045095205307, 0.045004792511463165, -0.03528941795229912, 0.05911289155483246, -0.00996069610118866, 0.05310828983783722, -0.006972447037696838, 0.05792045593261719, 0.05724281072616577, 0.044776953756809235, 0.03984986990690231, -0.053808726370334625]","[0.07795219123363495, 0.011422835290431976, -0.03608143702149391, -0.04866214096546173, 0.047838643193244934, -0.0630040243268013, 0.017040438950061798, -0.007377259433269501, -0.054685287177562714, 0.07073095440864563, 0.052632853388786316, 0.07375168800354004, -0.0023412108421325684, -0.028631102293729782, -0.008810833096504211, -0.041085392236709595, 0.033348411321640015, -0.03220323473215103, -0.06619574874639511, -0.045092444866895676, 0.07094989717006683, 0.006645359098911285, -0.07165974378585815, -0.007279388606548309, -0.040893469005823135, -0.0419648215174675, 0.07717263698577881, 0.013534560799598694, -0.047914691269397736, -0.04219161719083786, -0.008156754076480865, 0.07251608371734619, -0.06730880588293076, -0.023053806275129318, -0.02259332686662674, 0.005097992718219757, 0.03327816724777222, -0.011674240231513977, -0.01029246300458908, -0.03583605960011482, 0.04602357745170593, 0.031333230435848236, -0.01952248439192772, 0.06538404524326324, 0.02952149510383606, -0.07485166937112808, 0.05229844152927399, -0.01965196803212166, -0.014142662286758423, 0.011657021939754486, -0.04546823725104332, 0.022716611623764038, -0.00906594842672348, -0.010593503713607788, -0.04743434488773346, -0.004596889019012451, 0.003086961805820465, -0.07643768191337585, -0.000428907573223114, 0.06405146420001984, -0.05618387088179588, 0.06265224516391754, -0.047104258090257645, 0.053435564041137695, 0.027547143399715424, 0.05626687407493591, 0.04507559537887573, 0.012266270816326141, 0.0035227611660957336, -0.04207269102334976, -0.06814108043909073, -0.05869894474744797, -0.04434706270694733, 0.03501689434051514, -0.012841008603572845, 0.025876425206661224, -0.05837882310152054, 0.06844176352024078, 0.05686450004577637, 0.007118016481399536, 0.026841208338737488, 0.025227218866348267, -0.05145493149757385, 0.04009135812520981, 0.019600823521614075, -0.056490667164325714, 0.007953226566314697, -0.0773048996925354, -0.003290615975856781, 0.0339633971452713, -0.047339506447315216, 0.07217897474765778, 0.071591317653656, 0.027697347104549408, 0.034558795392513275, -0.03328187018632889, 0.049075424671173096, -0.05222587287425995, 0.07073412835597992, -0.03884963318705559, -0.030628710985183716, 0.0026778653264045715, -0.05151806026697159, -0.059535108506679535, -0.016527824103832245, 0.03982978314161301, 0.031370632350444794, 0.013715691864490509, 0.009654685854911804, 0.014459662139415741, 0.02553378790616989, -0.004528433084487915, 0.061244890093803406, -0.011914834380149841, -0.01751719042658806, 0.023050621151924133, -0.038443684577941895, -0.009031042456626892, -0.07748665660619736, -0.006175674498081207, 0.030497513711452484, 0.03930356353521347, 0.03913377225399017, -0.07500988245010376, -0.06459084153175354, 0.008572064340114594, 0.06487864255905151, 0.06287956237792969, -0.0767691433429718, -0.014726541936397552, 0.025696896016597748, -0.03850124776363373, 0.07170850038528442, -0.07347599416971207, -0.0410761795938015, -0.018979191780090332, -0.0636289194226265, -0.0070686936378479, 0.03143578767776489, 0.05024762451648712, 0.03629155457019806, -0.04727872088551521, -0.030040569603443146, -0.04464510828256607, -0.02718101441860199, 0.03936611860990524, -0.0593927800655365, 0.056820884346961975, -0.0035040080547332764, -0.0420210100710392, 0.05053901672363281, -0.011871755123138428, -0.018589679151773453, -0.049857597798109055, -0.05957105755805969, -0.06871257722377777, 0.012433640658855438, -0.003021225333213806, 0.05521959066390991, -0.02588336542248726, -0.053561970591545105, -0.017003461718559265, 0.04980774223804474, -0.0770050436258316, 0.037651196122169495, 0.039929866790771484, 0.03415733575820923, 0.06198880076408386, -0.06980148702859879, 0.0518018901348114, -0.028375394642353058, -0.07738923281431198, -0.06660382449626923, 0.038546524941921234, 0.06246103346347809, -0.05074223875999451, 0.020933717489242554, 0.050193727016448975, -0.02497100457549095, 0.01608193665742874, -0.049176089465618134, -0.01886618509888649, -0.06629801541566849, 0.06935849785804749, -0.07761383056640625, 0.051127493381500244, -0.024281807243824005, -0.0038948655128479004, 0.03505988419055939, 0.04935389757156372, 0.06511835753917694, -0.061025895178318024, 0.065628781914711, -0.04021892324090004, 0.015674516558647156, 0.0019059926271438599, 0.025823235511779785, -0.0550757460296154, -0.05266306549310684, 0.073558509349823]","[0.01629948616027832, -0.03220289945602417, -0.02192092314362526, -0.010661348700523376, -0.025105029344558716, 0.06290611624717712, 0.07633592188358307, 0.018152989447116852, -0.05097365379333496, -0.039918120950460434, -0.06052769348025322, 0.05493548512458801, 0.047950878739356995, 0.05871035158634186, -0.008212283253669739, -0.07266993820667267, 0.014086641371250153, 0.045581914484500885, 0.012410834431648254, 0.07780112326145172, -0.002278842031955719, -0.037897225469350815, 0.005428746342658997, 0.019494183361530304, -0.03183671459555626, -0.06919489800930023, -0.024882126599550247, 0.0015667974948883057, 0.03477170318365097, 0.02241886407136917, 0.040272004902362823, -0.056942977011203766, -0.012505955994129181, -0.033250704407691956, -0.005638793110847473, -0.06887681782245636, -0.061260249465703964, -0.07303660362958908, -0.013140380382537842, -0.031376272439956665, 0.030309215188026428, 0.006732352077960968, 0.016370750963687897, 0.06013594567775726, -0.028951115906238556, 0.03800075501203537, -0.0020654499530792236, -0.008782409131526947, 0.055592626333236694, 0.003268815577030182, 0.008460700511932373, -0.020795445889234543, -0.0022515058517456055, -0.07599631696939468, -0.06583036482334137, 0.06740598380565643, 0.05107000470161438, 0.0030008405447006226, -0.07242120802402496, -0.06938700377941132, 0.007208012044429779, -0.05375499278306961, 0.03246687352657318, -0.0034889131784439087, 0.025266088545322418, -0.00860971212387085, 0.035866111516952515, -0.03782357648015022, 0.04515084624290466, -0.0648825541138649, 0.030952632427215576, -0.020701538771390915, 0.04078693687915802, -0.056372933089733124, -0.03655482083559036, 0.0513039231300354, 0.02766638994216919, 0.014119483530521393, -0.010031536221504211, 0.033029697835445404, 0.048304393887519836, -0.008356846868991852, 0.05139768123626709, -0.04428374394774437, 0.07521535456180573, -0.0649745985865593, 0.06526041030883789, 0.038855649530887604, -0.013008899986743927, 0.07209017872810364, 0.07414834201335907, -0.03386010602116585, 0.022755593061447144, 0.04013682156801224, 0.0731993168592453, 0.0579981654882431, 0.06996643543243408, 0.03556288778781891, 0.06123510003089905, -0.03140414133667946, -0.015893343836069107, 0.061179861426353455, -0.01456587016582489, -0.040996626019477844, -0.04004662111401558, 0.07781147956848145, -0.0009378716349601746, 0.05909021198749542, 0.03794514387845993, -0.06052069365978241, -0.060948632657527924, 0.020995788276195526, -0.014522850513458252, 0.07582567632198334, -0.07364264130592346, -0.03921883553266525, -0.06668399274349213, -0.05676303803920746, 0.011967256665229797, 0.07698242366313934, 0.06150241196155548, -0.0656382367014885, 0.07366056740283966, 0.02023094892501831, 0.030034609138965607, -0.015845555812120438, 0.04177209734916687, 0.04823598265647888, -0.0461324118077755, 0.027567900717258453, 0.07198888063430786, 0.020765915513038635, 0.024412021040916443, -0.020773496478796005, 0.05224786698818207, 0.03361612558364868, -0.012131355702877045, -0.03471523895859718, -0.047182001173496246, -0.07616343349218369, 0.07706350088119507, 0.031788721680641174, 0.005372948944568634, 0.016533613204956055, -0.0420057438313961, -0.03919327259063721, -0.07484692335128784, -0.013634651899337769, 0.010924279689788818, 0.06715257465839386, -0.000986643135547638, -0.03593236953020096, -0.04938709735870361, -0.012373358011245728, -0.04334455356001854, 0.029849477112293243, -0.017231710255146027, -0.04393712803721428, -0.015794802457094193, 0.042910248041152954, -0.017879612743854523, 0.04251450300216675, -0.037780847400426865, 0.03434146195650101, -0.036029569804668427, 0.018584057688713074, -0.041546229273080826, 0.0291593000292778, -0.07201322913169861, -0.016100145876407623, 0.0006851181387901306, -0.022343814373016357, 0.055172041058540344, -0.04315638914704323, 0.06887763738632202, 0.017087534070014954, 0.029916726052761078, -0.06556739658117294, 0.04881548881530762, 0.03325662761926651, 0.04640430212020874, 0.0066963136196136475, -0.029312070459127426, -0.056879714131355286, 0.011143885552883148, -0.022604364901781082, -0.021766938269138336, 0.07322943210601807, -0.05490359291434288, 0.050544992089271545, -0.01815805584192276, 0.035158559679985046, -0.0601353719830513, -0.00035359710454940796, 0.0569455623626709, -0.07636939734220505, -0.07530241459608078, 0.07200869917869568, -0.01484217494726181, 0.04680609703063965]","[-0.03802482783794403, 0.05161409080028534, -0.07687109708786011, -0.049271561205387115, 0.031163975596427917, 0.01991875469684601, -0.06309498846530914, 0.023011788725852966, 0.020141974091529846, 0.015696726739406586, -0.022392239421606064, 0.06823708117008209, 0.006379634141921997, -0.02989734336733818, 0.008489459753036499, -0.0579061284661293, 0.044773347675800323, -0.00720108300447464, 0.043448589742183685, 0.04154280573129654, 0.0031316056847572327, 0.060712262988090515, -0.007602810859680176, -0.025405794382095337, -0.008091606199741364, -0.036431293934583664, -0.041844312101602554, 0.06130613386631012, 0.060658931732177734, 0.05383296310901642, -0.0242617204785347, 0.005066104233264923, 0.061436012387275696, 0.0675429254770279, -0.003943398594856262, -0.06760551035404205, -0.05048079788684845, -0.036710817366838455, -0.032578952610492706, 0.0005022212862968445, 0.062140092253685, -0.0736323818564415, 0.031188257038593292, -0.06895837932825089, -0.06042047590017319, -0.027304112911224365, 0.018407747149467468, -0.06675540655851364, 0.07673300802707672, 0.05070331692695618, -0.05153368413448334, -0.03673276677727699, -0.030650753527879715, 0.037043772637844086, 0.020850643515586853, -0.030186399817466736, -0.03861257806420326, -0.050952039659023285, 0.07094259560108185, -0.01868607848882675, 0.030819572508335114, -0.0519343838095665, -0.058042071759700775, -0.03601986914873123, -0.05308538302779198, 0.015602990984916687, 0.018926747143268585, 0.03722718358039856, -0.036489326506853104, -0.02237490564584732, 0.07305337488651276, 0.017079070210456848, 0.035340502858161926, 0.019778601825237274, -0.05925055965781212, 0.020898491144180298, -0.0022908300161361694, -0.028360407799482346, 0.04443873465061188, 0.031213372945785522, -0.027828454971313477, -0.05111250281333923, -0.05273173004388809, -0.054204195737838745, -0.049041394144296646, -0.061456307768821716, -0.06754381209611893, 0.07159999012947083, 0.0006271228194236755, 0.07176955044269562, 0.06372147798538208, 0.051140040159225464, -0.027135998010635376, -0.0012015476822853088, -0.030782263725996017, -0.008500300347805023, 0.07491569221019745, -0.027903743088245392, 0.03173498809337616, 0.002734348177909851, -0.03775113448500633, -0.037424977868795395, 0.047256141901016235, 0.04294724017381668, -0.01835925132036209, 0.05890090763568878, 0.07182107865810394, -0.03509050980210304, 0.07689931988716125, -0.03325789049267769, 0.006927058100700378, 0.017904207110404968, 0.044574640691280365, 0.02033478021621704, -0.036221813410520554, -0.049465328454971313, -0.07315905392169952, 0.05656208097934723, -0.02395632117986679, -0.041656408458948135, 0.03075815737247467, 0.013896353542804718, -0.06292708218097687, 0.07476377487182617, 0.0743592381477356, 0.039683714509010315, -0.023723583668470383, -0.05970640480518341, 0.010678134858608246, 0.017228230834007263, -0.007163144648075104, -0.018724802881479263, -0.04517168179154396, 0.048524558544158936, -0.013135872781276703, -0.07070342451334, 0.008626691997051239, 0.008024103939533234, 0.0589507520198822, -0.01076662540435791, 0.00790037214756012, -0.00026619434356689453, -0.023367322981357574, 0.07327444851398468, -0.03329131007194519, 0.012272529304027557, -0.03468078002333641, 0.0464944988489151, -0.05929138883948326, 0.03968806564807892, 0.025934897363185883, 0.06782574951648712, -0.07616785913705826, 0.0728498250246048, -0.026350270956754684, 0.07696320116519928, 0.053540244698524475, -0.02482163906097412, 0.04206336289644241, -0.03671007230877876, -0.034105148166418076, -0.03277356177568436, 0.023044519126415253, 0.04489607363939285, -0.059985313564538956, 0.03182262182235718, 0.0022484585642814636, -0.04766996204853058, -0.056322067975997925, 0.03592071682214737, -0.05566731095314026, -0.03000044822692871, -0.01781512424349785, 0.005407750606536865, -0.05794431269168854, -0.07598663866519928, 0.0006186515092849731, -0.024200282990932465, -0.007835157215595245, -0.02056043967604637, 0.059128135442733765, -0.01580679416656494, -0.04688697308301926, 0.05175676941871643, 0.0022608712315559387, 0.06434883177280426, 0.02013693004846573, 0.03116939216852188, 0.05799028277397156, 0.016281776130199432, 0.05692358314990997, -0.07406795024871826, -0.05344998836517334, -0.0003960132598876953, 0.0635436475276947, -0.05970726162195206, 0.0603988915681839, 0.03988923132419586, -0.05236288160085678, -0.0677160993218422]","[-0.04433766007423401, 0.05272027850151062, 0.012586042284965515, 0.05692532658576965, 0.06151217222213745, -0.016685273498296738, -0.004453033208847046, 0.059294193983078, -0.010108351707458496, 0.007914520800113678, 0.0034591034054756165, -0.03706067427992821, 0.01904170960187912, 0.021782279014587402, 0.010266974568367004, 0.0033328980207443237, 0.07692724466323853, 0.029635265469551086, 0.06012733280658722, 0.05955231189727783, -0.011405780911445618, 0.051961496472358704, -0.04958511143922806, 0.058061420917510986, 0.022225894033908844, -0.0248480923473835, 0.0712505429983139, -0.0035804733633995056, 0.05019301176071167, 0.038820669054985046, 0.028444871306419373, -0.07551576942205429, 0.06612446904182434, -0.044672828167676926, -0.036440249532461166, -0.019050031900405884, -0.03207358345389366, 0.05104799568653107, -0.051983125507831573, 0.0368223562836647, 0.02568589150905609, -0.04809993505477905, -0.06288087368011475, -0.03646264597773552, -0.05229995399713516, 0.030657470226287842, 0.031433314085006714, 0.04860091209411621, -0.06555061787366867, -0.05459284782409668, -0.037332933396101, 0.026033662259578705, -0.06697653979063034, 0.04637138545513153, 0.011959366500377655, -0.016751326620578766, -0.03807103633880615, -0.03734404966235161, -0.051021501421928406, 0.054968997836112976, 0.0502944141626358, 0.024081483483314514, 0.025897420942783356, -0.0604373961687088, -0.031011871993541718, 0.055094048380851746, -0.04424047842621803, 0.07567912340164185, -0.022840842604637146, 0.05125927925109863, -0.054642073810100555, -0.06850102543830872, 0.05120943486690521, -0.03419531136751175, -0.03998430818319321, -0.014719076454639435, -0.057640381157398224, 0.05551755428314209, -0.076594777405262, 0.06189523637294769, -0.04774123430252075, 0.003485634922981262, -0.05742587149143219, 0.0276266410946846, 0.0009043961763381958, 0.05556982755661011, 0.03910285234451294, -0.0279766283929348, -0.05818814039230347, 0.02177034318447113, -0.032702479511499405, 0.05415819585323334, 0.03771311789751053, 0.027369774878025055, -0.07426021248102188, -0.0449431911110878, 0.07122021913528442, -0.034165672957897186, -0.008475705981254578, 0.017865464091300964, 0.07354672253131866, -0.05903415381908417, -0.029328826814889908, 0.013015829026699066, -0.038759153336286545, -0.04729173332452774, 0.03739543259143829, -0.07790346443653107, 0.04845301806926727, -0.044251296669244766, -0.05426652729511261, -0.0002740100026130676, -0.0024985596537590027, -0.013121016323566437, 0.033267661929130554, 0.0156925767660141, -0.049003805965185165, -0.03831922635436058, -0.018557526171207428, -0.0712456926703453, -0.00415077805519104, 0.014580674469470978, -0.0746777281165123, -0.03853233903646469, -0.01808837056159973, -0.046934448182582855, 0.06525188684463501, 0.06684993207454681, -0.01652386039495468, -0.0735936164855957, 0.02257884293794632, -0.04428599774837494, 0.007734432816505432, 0.05584430694580078, -0.03352558985352516, -0.04089045152068138, -0.06864069402217865, -0.03196977451443672, 0.05049698054790497, -0.03242630884051323, -0.046152833849191666, -0.034390926361083984, -0.01496528834104538, -0.05023839697241783, 0.025212489068508148, 0.07320369780063629, 0.03736747056245804, 0.019409455358982086, 0.01500304788351059, 0.0361410528421402, -0.023533053696155548, 0.00011738389730453491, 0.03982795774936676, -0.02401651069521904, 0.07398152351379395, -0.03347470983862877, 0.05995945632457733, -0.04996773600578308, -0.038622912019491196, 0.07732874155044556, -0.0201437808573246, -0.04178198054432869, -0.03131995350122452, 0.04229969531297684, -0.05407770723104477, -0.04172302037477493, -0.07297544926404953, -0.019883010536432266, -0.01512157917022705, 0.06446811556816101, 0.02816072106361389, -0.0010018721222877502, -0.07659916579723358, -0.028191491961479187, 0.006863214075565338, 0.025042250752449036, -0.017256099730730057, -0.03613721579313278, -0.041430260986089706, 0.0361756756901741, -0.0027589425444602966, -0.05242264270782471, 0.004456959664821625, -0.01510629802942276, -0.00439424067735672, -0.037499427795410156, 0.05667415261268616, -0.04311198741197586, 0.06446407735347748, 0.004170827567577362, -0.018834218382835388, 0.04624798893928528, 0.04230488836765289, -0.07425840944051743, -0.06335766613483429, -0.054471299052238464, -0.07482048869132996, -0.017914392054080963, -0.029677510261535645, 0.07362040877342224]","[0.0765446275472641, 0.02262648195028305, -0.001289084553718567, 0.026163317263126373, 0.015736564993858337, 0.06490622460842133, -0.027887172996997833, -0.02513587847352028, 0.0593094676733017, 0.018504001200199127, -0.01834862306714058, -0.018688593059778214, -0.05832179635763168, -0.06239864230155945, 0.004691503942012787, 0.05947259068489075, -0.050845563411712646, 0.04445590078830719, 0.0627996027469635, 0.05473020672798157, 0.02651578187942505, -0.059035249054431915, 0.05545683205127716, 0.043723419308662415, -0.03696751222014427, 0.03889729827642441, 0.020411483943462372, -0.0009762197732925415, 0.012094661593437195, -0.045747239142656326, 0.050051987171173096, 0.023127533495426178, 0.03260108828544617, 0.05328194797039032, -0.04664792865514755, 0.06625090539455414, 0.045859016478061676, 0.06213623285293579, 0.015917137265205383, -0.010952182114124298, -0.020347755402326584, -0.07767460495233536, -0.04608367010951042, 0.06491437554359436, 0.06632117927074432, -0.02195795252919197, 0.006712473928928375, -0.028769057244062424, 0.030542120337486267, -0.04818004369735718, -0.0436156801879406, -0.012750774621963501, 0.05018356442451477, 0.02466510236263275, 0.04842011630535126, 0.02123386412858963, -0.01706618443131447, 0.030537575483322144, 0.007810652256011963, 0.04447198659181595, -0.00845520943403244, 0.07270719110965729, -0.05627470463514328, -0.004117861390113831, 0.01110086590051651, -0.011179804801940918, -0.03437212109565735, -0.05187806487083435, -0.03145546838641167, -0.03548482432961464, 0.029094509780406952, -0.032954782247543335, 0.03809081017971039, 0.07400719821453094, -0.0723034143447876, 0.04162956029176712, 0.011330470442771912, -0.011811934411525726, 0.05133073031902313, -0.02656722068786621, 6.894022226333618e-05, 0.043533243238925934, -0.011583797633647919, 0.005757622420787811, 0.010058552026748657, 0.023789972066879272, -0.07621995359659195, -0.01669052243232727, 0.007517650723457336, -0.07045549154281616, 0.0630379468202591, -0.0753345638513565, -0.06971673667430878, 0.059935569763183594, 0.011136569082736969, 0.05392368137836456, -0.020631317049264908, -0.03462699428200722, -0.05290157347917557, 0.021008506417274475, 0.04745320975780487, 0.03702721744775772, -0.07775562256574631, 0.0035275816917419434, -0.01814291998744011, 0.06683856248855591, 0.0019186660647392273, 0.02469485253095627, -0.05519653856754303, 0.014765359461307526, 0.07244980335235596, 0.014203764498233795, 0.002283923327922821, -0.008454538881778717, -0.03807198628783226, 0.05062982439994812, -0.01692294329404831, 0.06845436990261078, 0.07437571883201599, -0.009485326707363129, -0.06277550011873245, -0.05549171566963196, 0.060169532895088196, 0.07770547270774841, -0.033316720277071, -0.024055346846580505, -0.051013827323913574, -0.01830814778804779, -0.057039525359869, -0.06168120354413986, 0.07577718794345856, 0.03304222971200943, 0.05823548138141632, -0.04620600491762161, -0.026867926120758057, -0.040416453033685684, -0.03975142166018486, -0.05954413861036301, -0.016222257167100906, -0.03823133185505867, -0.03115829825401306, 0.06994268298149109, 0.05584117770195007, -0.016089312732219696, -0.06507351249456406, -0.021777398884296417, -0.04065294936299324, -0.018604274839162827, -0.03129005432128906, -0.05601821094751358, -0.009067267179489136, -0.06813614070415497, -0.04204530641436577, -0.0017822012305259705, -0.07364202290773392, -0.018629465252161026, -0.032330095767974854, 0.029558151960372925, -0.043552957475185394, 0.06804534792900085, -0.02463289350271225, 0.020371213555336, -0.03663625195622444, -0.07471499592065811, -0.05999501049518585, 0.014809519052505493, 0.07629689574241638, -0.06626308709383011, -0.03329749032855034, 0.00590939074754715, 0.011449955403804779, -0.037211380898952484, -0.0015996992588043213, -0.018170714378356934, 0.07698489725589752, -0.012513585388660431, 0.03689691424369812, -0.013868667185306549, 0.07748492062091827, 0.026706144213676453, 0.0695962905883789, -0.042223211377859116, 0.04556369036436081, 0.006898067891597748, -0.026508741080760956, -0.037969667464494705, 0.04832194745540619, 0.028843902051448822, -0.06817460805177689, 0.029612235724925995, 0.06788073480129242, 0.01815548539161682, 0.028582997620105743, 0.037218622863292694, -0.07719513028860092, 0.010035648941993713, 0.050468891859054565, 0.00026410818099975586, -0.045718900859355927, -0.014070466160774231]","[-0.01689857244491577, -0.047057248651981354, 0.03592963516712189, 0.07452763617038727, -0.023328207433223724, -0.025519806891679764, -0.015557654201984406, -0.07538607716560364, -0.04746740683913231, -0.003851279616355896, 0.041904859244823456, -0.045806534588336945, -0.03773108497262001, 0.04378766566514969, -0.06847637891769409, 0.040496863424777985, -0.042641062289476395, -0.05581548810005188, 0.056995779275894165, 0.02958490699529648, -0.012823566794395447, -0.034584395587444305, -0.02671424299478531, -0.011983811855316162, -0.009218908846378326, 0.05468733608722687, -0.04798636585474014, 0.07214464247226715, 0.02231653779745102, -0.050898194313049316, -0.023934371769428253, -0.02933454141020775, -0.06942271441221237, 0.024331793189048767, 0.05901430547237396, 0.0066228508949279785, -0.002796553075313568, -0.06933469325304031, -0.02522556111216545, 0.05497187376022339, -0.041761986911296844, -0.048356592655181885, -0.037057116627693176, 0.04898740351200104, 0.04158683121204376, 0.06387431919574738, 0.015030056238174438, -0.06082795560359955, -0.07623413950204849, -0.05240140110254288, -0.066682368516922, 0.050062283873558044, -0.008461818099021912, -0.02045636996626854, 0.06757527589797974, 0.011499777436256409, -0.047832995653152466, -0.04560365900397301, -0.02931877225637436, -0.039607901126146317, -0.03618530556559563, -0.05509628355503082, 0.041822753846645355, -0.009437419474124908, 0.07402369379997253, 0.03471170365810394, -0.058746978640556335, 0.035614363849163055, 0.018297739326953888, -0.07059118151664734, -0.036022868007421494, -0.03248417004942894, -0.07733038812875748, -0.020766645669937134, 0.04863154888153076, 0.014593556523323059, 0.012382946908473969, -0.04169429466128349, 0.05703839659690857, 0.0579976886510849, 0.052403032779693604, 0.07349185645580292, 0.046007417142391205, -0.0026739537715911865, 0.04071548581123352, 0.01196616142988205, -0.06284371018409729, -0.017376013100147247, -0.016517139971256256, -0.04404175654053688, 0.0131726935505867, 0.07529261708259583, -0.04761064797639847, -0.019508857280015945, -0.054480940103530884, 0.03989740461111069, 0.005040057003498077, -0.060108914971351624, 0.060759127140045166, 0.008869312703609467, -0.04916059970855713, 0.06175561249256134, -0.017976384609937668, 0.07472522556781769, 0.022351764142513275, -0.038405779749155045, -0.012975312769412994, -0.024366050958633423, -0.0436684787273407, -0.040411576628685, -0.044336821883916855, 0.05149638652801514, 0.005113855004310608, -0.01822807639837265, -0.009942695498466492, 0.010611653327941895, 0.07222215831279755, 0.049088865518569946, -0.035581041127443314, -0.0367310531437397, 0.05032600462436676, -0.06690949946641922, 0.041547179222106934, 0.03488299995660782, -0.030836645513772964, -0.043576378375291824, -0.0128713920712471, -0.0211382657289505, 0.02625133842229843, -0.049976542592048645, 0.03625195473432541, -0.004493638873100281, 0.07489752769470215, 0.018749117851257324, 0.0739908218383789, -0.06134270504117012, 0.014297112822532654, -0.06353063881397247, -0.02039150521159172, -0.0580715611577034, -0.06218899413943291, 0.017596162855625153, 0.0049755871295928955, -0.032005369663238525, -0.060306183993816376, -0.03151325881481171, -0.008727185428142548, 0.03894806653261185, 0.061777666211128235, 0.06779730319976807, -0.05565923452377319, -0.058212123811244965, -0.04874029755592346, -0.022410038858652115, 0.030180737376213074, -0.0020184963941574097, 0.016254447400569916, -0.0631314218044281, -0.019942622631788254, -0.06933169811964035, 0.037117309868335724, -0.058189891278743744, 0.06851819157600403, 0.05630221962928772, 0.0729498565196991, 0.028648361563682556, 0.03184213489294052, 0.027096211910247803, 0.0089283287525177, 0.0738639086484909, 0.05478076636791229, 0.07319904863834381, -0.011150069534778595, 0.0711829662322998, 0.03781463950872421, 0.024817951023578644, 0.06003484129905701, 0.061980873346328735, -0.0013030469417572021, -0.04462498426437378, 0.002445019781589508, 0.06650379300117493, -0.05809112638235092, 0.038217127323150635, -0.012362919747829437, -0.044991616159677505, -0.01880396530032158, 0.07456684112548828, -0.07785975188016891, 0.0696331262588501, -0.07083052396774292, -0.03689378872513771, -0.07559329271316528, 0.041357576847076416, 0.025408141314983368, -0.05779083073139191, -0.07235487550497055, 0.008177511394023895, -0.02024158090353012, 0.05780912935733795]","[0.026021115481853485, -0.04894549399614334, -0.01484794169664383, -0.016566604375839233, -0.03406696394085884, -0.026730772107839584, 0.0411006435751915, 0.026684120297431946, 0.0720202773809433, -0.07194052636623383, 0.056894153356552124, 0.004267282783985138, 0.014468133449554443, -2.9042363166809082e-05, -0.028424933552742004, 0.05846808850765228, 0.0020804181694984436, 0.04015906900167465, 0.03345531225204468, -0.07505983114242554, 0.011954262852668762, 0.06059691309928894, -0.012113943696022034, -0.04212431609630585, 0.034101441502571106, -0.004884615540504456, -0.0641239732503891, -0.012383714318275452, 0.038491494953632355, -0.017890039831399918, -0.021919768303632736, 0.015973754227161407, -0.011164627969264984, 0.06050786375999451, 0.03155481070280075, 0.07501302659511566, -0.04398813843727112, 0.011584021151065826, -0.02569916844367981, -0.04989185184240341, 0.013635583221912384, 0.0731288343667984, -0.0006455183029174805, -0.03931143879890442, 0.039520397782325745, -0.015047356486320496, -0.06818921864032745, 0.062000080943107605, 0.06566762924194336, 0.04408816993236542, 0.04570748656988144, -0.06578996777534485, 0.004867047071456909, 0.07203660905361176, -0.0014121830463409424, 0.04154829680919647, -0.0328170508146286, -0.009937293827533722, 0.041650936007499695, 0.034886106848716736, 0.06176885962486267, 0.01378951221704483, -0.03081335499882698, -0.029857560992240906, -0.03046511858701706, 0.019194260239601135, 0.03241698443889618, -0.016588125377893448, 0.04287854582071304, 0.05303072929382324, 0.03408457338809967, -0.04373159259557724, 0.04595394432544708, 0.00980088859796524, 0.028678186237812042, 0.03580612689256668, 0.07060715556144714, -0.054703306406736374, 0.026607267558574677, 0.06963497400283813, -0.004601098597049713, -0.07305606454610825, -0.07615004479885101, 0.0667046308517456, 0.005074501037597656, 0.06404627859592438, -0.005037486553192139, 0.012511089444160461, -0.05396972596645355, 0.0380222424864769, 0.028101496398448944, -0.028621964156627655, -0.06648225337266922, -0.0024593695998191833, -0.0680365264415741, -0.00577796995639801, 0.03719910979270935, 0.06388424336910248, -0.049183689057826996, -0.06347303092479706, -0.0067764222621917725, 0.04426393657922745, 0.030959799885749817, 0.0625990629196167, 0.005775779485702515, 0.0402502715587616, 0.04491334408521652, 0.07058367133140564, -0.07324286550283432, 0.006057813763618469, 0.039248473942279816, -0.026350252330303192, -0.02652263268828392, -0.002059921622276306, -0.0035104379057884216, 0.04227800667285919, -0.07784253358840942, 0.07772953808307648, 0.0552048534154892, -0.06465812027454376, 0.04780513048171997, 0.0009588897228240967, 0.04940567910671234, -0.07484214007854462, 0.013006143271923065, 0.025140516459941864, -0.00827758014202118, -0.025896959006786346, -0.008921124041080475, -0.06530818343162537, 0.07118386030197144, -0.012891814112663269, 0.06042243540287018, 0.026592299342155457, -0.07635653018951416, 0.042886942625045776, -0.01831628382205963, 0.03654889762401581, 0.04998311400413513, -0.004654377698898315, -0.0766557827591896, -0.06006181240081787, 0.03059276193380356, -0.05213198810815811, 0.011200614273548126, 0.000573672354221344, -0.058205194771289825, -0.03271755948662758, 0.015127591788768768, 0.0018930509686470032, 0.06985637545585632, -0.07731927186250687, 0.05852547287940979, 0.037114217877388, -0.059669189155101776, -0.06930966675281525, -0.010461710393428802, 0.04334511607885361, 0.01468370109796524, -0.01620176061987877, 0.03181251138448715, -0.030305102467536926, 0.04376288503408432, -0.06613416224718094, -0.06605051457881927, 0.040364548563957214, -0.019602350890636444, 0.017838209867477417, -0.03720782697200775, -0.022854022681713104, 0.06029953062534332, 0.016155384480953217, -0.030492447316646576, -0.0662948489189148, -0.015706278383731842, 0.019283846020698547, 0.0051446110010147095, -0.00880470871925354, -0.07350052893161774, 0.06106071174144745, 0.07331329584121704, -0.012274593114852905, -0.03630918264389038, 0.06847377121448517, -0.046766407787799835, 0.005448877811431885, 0.049194544553756714, 0.024212703108787537, -0.022008031606674194, 0.07020542025566101, 0.07697810232639313, 0.03541817516088486, -0.063746377825737, 0.0056984201073646545, -0.02152518928050995, -0.07741883397102356, 0.0760113000869751, 0.0769214928150177, -0.0222327820956707, 0.06665222346782684]","[-0.006207175552845001, -0.016791224479675293, 0.027651943266391754, 0.019772998988628387, 0.07476921379566193, 0.04239831119775772, -0.026152312755584717, -0.073794424533844, -0.05523276329040527, 0.06694251298904419, 0.05405189096927643, 0.0005913823843002319, -0.04873420670628548, 0.04889902472496033, 0.07045359909534454, -0.021122831851243973, -0.03740932047367096, 0.041574008762836456, 0.007968135178089142, 0.0778513103723526, -0.06772950291633606, 0.032464399933815, 0.02922840416431427, 0.07125578820705414, -0.030962463468313217, 0.019377008080482483, -0.039150938391685486, 0.030150748789310455, -0.04455866664648056, -0.007862351834774017, -0.04813772439956665, -0.0022350922226905823, -0.04960617050528526, 0.06548047065734863, 0.0613565593957901, -0.014006122946739197, -0.0531303808093071, 0.04066998511552811, 0.0572504848241806, -0.012214183807373047, -0.054617516696453094, -0.039898891001939774, 0.04663005471229553, -0.05434894561767578, -0.018081333488225937, -0.02195834368467331, 0.00872649997472763, 0.01826612651348114, 0.05176548659801483, -0.025770973414182663, 0.0642489343881607, 0.05143001675605774, 0.04906259477138519, 0.05474798381328583, -0.07533992826938629, 0.009585760533809662, -0.04398056119680405, -0.005029551684856415, 0.045923806726932526, -0.022078536450862885, -0.03462957963347435, 0.02300359308719635, -0.001106448471546173, 0.06359007954597473, 0.008000046014785767, -0.012134574353694916, 0.057646363973617554, 0.04948040843009949, -0.014245390892028809, -0.0635242685675621, 0.034119635820388794, 0.02876533567905426, 0.030963651835918427, -0.04254235327243805, 0.05127038061618805, 0.03473838418722153, 0.035989321768283844, -0.024551238864660263, -0.07463963329792023, -0.03939921781420708, -0.021928071975708008, -0.059282489120960236, -0.006883770227432251, -0.06416729092597961, 0.02039254456758499, -0.05627264082431793, -0.049934208393096924, 0.00964248925447464, -0.054179638624191284, -0.049327149987220764, 0.05629928410053253, 0.06035272777080536, -0.019245531409978867, 0.04626889526844025, -0.06112033873796463, 0.06985063850879669, 0.06048387289047241, 0.04235319793224335, 0.07209236919879913, 0.007407866418361664, 0.00677865743637085, 0.07573500275611877, 0.07460470497608185, -0.013763926923274994, 0.03528973460197449, 0.05093446373939514, -0.023089423775672913, 0.024942725896835327, -0.05519871413707733, 0.03195443004369736, 0.024559207260608673, 0.06447230279445648, 0.005108848214149475, 0.014729425311088562, -0.058882758021354675, -0.04665073752403259, 0.052439987659454346, 0.038990288972854614, -0.01641463115811348, -0.0715440884232521, -0.05839097872376442, 0.04897518455982208, -0.053165361285209656, -0.0028028786182403564, -0.03879661113023758, 0.007209762930870056, 0.01747814565896988, -0.03300940617918968, 0.02837838977575302, 0.019690431654453278, -0.04905971139669418, -0.06786328554153442, -0.06163585186004639, -0.07052288949489594, -0.022063642740249634, 0.07591095566749573, 0.00558868795633316, -0.032215096056461334, 0.04342032968997955, -0.07795187085866928, 0.02561425417661667, 0.044110119342803955, -0.006440848112106323, 0.06630964577198029, 0.03882656991481781, -0.05392031371593475, -0.04111592471599579, -0.06190372258424759, 0.04374817758798599, -0.027228601276874542, 0.06897827982902527, -0.05205416679382324, 0.0734199583530426, -0.05224175751209259, 0.05548177659511566, 0.071739062666893, -0.02591484785079956, 0.06694969534873962, 0.051334306597709656, 0.025870412588119507, 0.05716772377490997, 0.054307252168655396, 0.05535082519054413, -0.011185385286808014, -0.016612421721220016, 0.07372085750102997, -0.05693182349205017, -0.05703982338309288, -0.010929599404335022, 0.06803512573242188, 0.04497677832841873, 0.04887460172176361, -0.04201129078865051, -0.03170498088002205, 0.020307451486587524, 0.008172914385795593, 0.03859373927116394, 0.06703813374042511, -0.014376327395439148, 0.041764743626117706, 0.0447964146733284, 0.02706063538789749, 0.02215566486120224, 0.02953077107667923, -0.02782469242811203, 0.055909305810928345, -0.013841971755027771, -0.03182241693139076, 0.07287102937698364, -0.04423467069864273, 0.07374292612075806, -0.03204420581459999, -0.008699409663677216, -0.02372712269425392, 0.006191037595272064, -0.07035000622272491, -0.029013540595769882, -0.04334939643740654, -0.035009171813726425, -0.07114556431770325]","[0.05827397108078003, -0.003031298518180847, 0.058701589703559875, 0.04259297251701355, 0.06643564999103546, 0.06399215757846832, 0.05828706920146942, 0.06917691230773926, 0.002660684287548065, 0.05291183292865753, -0.012030057609081268, -0.050519704818725586, -0.07036393880844116, 0.030007541179656982, 0.04837867617607117, 0.014269091188907623, -0.06755988299846649, -0.07619079947471619, 0.02420603483915329, 0.012595593929290771, -0.047755755484104156, -0.0769292563199997, -0.05071714520454407, -0.04096285253763199, 0.026919029653072357, 0.039427295327186584, 0.0638723373413086, 0.07466395199298859, -0.07488872110843658, -0.016731873154640198, 0.06657804548740387, -0.04679954797029495, 0.06184093654155731, 0.008018538355827332, 0.043095663189888, 0.06944148242473602, -0.06938005983829498, 0.02863471210002899, -0.051012635231018066, -0.004400193691253662, 0.005432732403278351, 0.070163294672966, 0.05678260326385498, 0.03287001699209213, 0.030263103544712067, 0.06133386492729187, 0.019505970180034637, 0.0030377209186553955, 0.03556390851736069, -0.04670124873518944, 0.007710285484790802, 0.018260225653648376, -0.07673628628253937, -0.05728728324174881, 0.07165499031543732, -0.033173851668834686, -0.01900847628712654, 0.014047026634216309, -0.008975543081760406, -0.020697537809610367, -0.012738578021526337, 0.018344879150390625, 0.05005311965942383, -0.05900397151708603, -0.040533557534217834, 0.04400026053190231, 0.016847819089889526, -0.043119415640830994, 0.06849049031734467, 0.028294220566749573, 0.039253540337085724, -0.03100530058145523, 0.04388408362865448, -0.06298760324716568, -0.0030301064252853394, -0.04044123366475105, -0.06222362071275711, 0.04608946293592453, 0.06763166189193726, 0.025090619921684265, 0.03386714309453964, -0.04961033910512924, 0.07220044732093811, 0.03311526030302048, -0.028690960258245468, -0.012979857623577118, -0.06545448303222656, 0.039111971855163574, 0.06286430358886719, -0.029365818947553635, -0.07720322906970978, 0.05535407364368439, 0.028463713824748993, -0.0680558830499649, -0.05701237916946411, -0.055017195641994476, 0.008600011467933655, 0.024650633335113525, 0.023852601647377014, -0.025525502860546112, 0.03932648152112961, -0.027709748595952988, -0.015041656792163849, 0.0185391902923584, -0.040604617446660995, 0.05425991117954254, 0.037231191992759705, 0.04709653556346893, 0.04505057632923126, 0.0613442063331604, -0.04698002338409424, -0.07189333438873291, 0.00022776424884796143, -0.0541066937148571, -0.06820951402187347, 0.06937943398952484, -0.06330037862062454, 0.0006975159049034119, 0.015353389084339142, -0.00645996630191803, 0.006946973502635956, -0.023851823061704636, -0.016190625727176666, -0.017360839992761612, 0.05073291063308716, 0.0760236382484436, -0.0025534257292747498, -0.06152729690074921, 0.020855635404586792, -0.05792316049337387, -0.05309884250164032, 0.011397533118724823, 0.0627804696559906, 0.06742143630981445, -0.06818387657403946, -0.021717973053455353, 0.02284829318523407, -0.02434549853205681, 0.0523860901594162, 0.0016979053616523743, -0.008166618645191193, -0.037696048617362976, -0.07259763032197952, 0.01499795913696289, -0.03962906822562218, 0.049509286880493164, -0.05071891099214554, -0.0718303695321083, 0.0525331050157547, -0.05567532032728195, -0.07734006643295288, -0.045252274721860886, -0.04811406135559082, -0.04504586383700371, -0.01283542811870575, 0.06167672574520111, -0.025087270885705948, 0.028757400810718536, 0.05981791019439697, 0.008696936070919037, 0.06283916532993317, 0.06809581816196442, -0.06412506848573685, 0.0018332302570343018, 0.05344924330711365, -0.02074923738837242, 0.07253167033195496, -0.06899744272232056, -0.05853068083524704, -0.02440781146287918, -0.04984860494732857, 0.01845107227563858, 0.040970005095005035, -0.022158201783895493, 0.0427635982632637, -0.028573092073202133, -0.02898205816745758, 0.024341553449630737, 0.06603361666202545, 0.00174800306558609, -0.07020294666290283, 0.02947250008583069, -0.0074970051646232605, -0.054332636296749115, -0.01537942886352539, -0.0778578519821167, -0.031053632497787476, -0.07759743183851242, -0.05969344824552536, -0.03136216104030609, 0.013966090977191925, -0.036648206412792206, 0.03933126479387283, 0.00017593055963516235, 0.029943197965621948, 0.07515023648738861, 0.07238103449344635, -0.020864348858594894, 0.023965366184711456, 0.06256584823131561]","[0.04081731289625168, -0.01417958177626133, 0.061094969511032104, 0.015439257957041264, -0.10068760067224503, -0.04976017773151398, 0.03328350558876991, -0.0539524108171463, 0.03252939134836197, -0.04027794301509857, 0.0025511011481285095, 0.051676612347364426, 0.0010299310088157654, -0.06889009475708008, 0.049449317157268524, -0.03419160842895508, -0.06186140328645706, 0.01333857886493206, 0.08718784898519516, -0.10358251631259918, 0.10249271243810654, -0.002141524339094758, -0.002499524736776948, -0.012865984812378883, -0.0024918392300605774, -0.0421932190656662, -0.01022348552942276, 0.10011203587055206, 0.030146535485982895, 0.11920157074928284, 0.012140955775976181, 0.06835653632879257, -0.05209562927484512, 0.026041343808174133, 0.009714331477880478, 0.006916068494319916, -0.07388366758823395, -0.053733065724372864, 0.040301546454429626, -0.0098017742857337, -0.060605261474847794, 0.035331711173057556, -0.001557177514769137, 0.01650724932551384, -0.021821945905685425, -0.06157051771879196, 0.03881291300058365, 0.03358462452888489, -0.08367601037025452, -0.009309560060501099, -0.030284326523542404, -0.10544732213020325, 0.04541117697954178, 0.05994054302573204, -0.07000577449798584, -0.008558589033782482, -0.03866850957274437, -0.018870225176215172, -0.03851435333490372, 0.14070074260234833, 0.012750141322612762, 0.029549716040492058, 0.020415356382727623, -0.011157698929309845, 0.003743325360119343, 0.05237904191017151, 0.1059471070766449, -0.056329384446144104, 0.010322420857846737, -0.0525880828499794, 0.009037645533680916, 6.211999789229594e-06, -0.06918849050998688, 0.06596099585294724, -0.012865663506090641, 0.03849876672029495, -0.03697255626320839, -0.03896862640976906, -0.057278458029031754, 0.057073697447776794, 0.07538116723299026, -0.10537924617528915, 0.04989442601799965, 0.12378501892089844, -0.019498394802212715, -0.04185524210333824, 0.09258867800235748, 0.02040696144104004, 0.03944900631904602, 0.030676204711198807, -0.05940249562263489, -0.02649598941206932, -0.07590314000844955, 0.09715849161148071, -0.0018833726644515991, -0.0622643381357193, 0.08318332582712173, -0.011490769684314728, 0.042472101747989655, 0.08044639974832535, -0.05360456183552742, 0.04786074161529541, -0.043732888996601105, -0.046412356197834015, -0.00992654263973236, 0.04899017512798309, 0.02195676416158676, -0.043912552297115326, 0.011386141180992126, 0.07430893182754517, -0.05136613920331001, -0.04926794022321701, 0.0023022876121103764, 0.09831008315086365, -0.026447918266057968, 0.09683312475681305, 0.06427954882383347, -0.028301633894443512, -0.04431360960006714, 0.08605320006608963, -0.08881703019142151, -0.10454412549734116, 0.028974026441574097, -0.012887822464108467, 0.04637894034385681, -0.02316439524292946, -0.07079637050628662, -0.023648561909794807, -0.027486825361847878, -0.005402812268584967, -0.053360436111688614, -0.061770010739564896, 0.01826469600200653, -0.0012353584170341492, 0.060442209243774414, 0.07139907032251358, 0.007543471641838551, -0.09857618063688278, 0.020479852333664894, -0.024573545902967453, -0.0648076981306076, 0.050504714250564575, -0.10269725322723389, -0.07042120397090912, 0.004116556607186794, 0.05385611578822136, -0.05466577410697937, 0.046083539724349976, -0.07018150389194489, -0.04759066551923752, 0.021614164113998413, -0.0728125050663948, 0.1040320172905922, 0.04976324737071991, -0.11429314315319061, 0.07289949804544449, 0.040891461074352264, -0.061427004635334015, 0.016436360776424408, 0.01618136279284954, 0.10746786743402481, 0.005080344621092081, -0.04855271801352501, 0.08953285217285156, 0.027249479666352272, 0.014662660658359528, 0.0027278116904199123, 0.07044700533151627, 0.03705970570445061, -0.004708345979452133, 0.03332798182964325, -0.027035847306251526, -0.00026093769702129066, -0.07997946441173553, -0.028132308274507523, 0.03751649335026741, -0.007621560711413622, 0.0820731595158577, 0.01843208074569702, 0.016375994309782982, -0.018185824155807495, -0.028048381209373474, -0.06888212263584137, 0.04408378526568413, 0.040011029690504074, 0.0045853727497160435, -0.061961572617292404, 0.07464555650949478, -0.0033076326362788677, -0.005883378908038139, 0.04724684730172157, -0.005300343036651611, -0.012594346888363361, -0.038150604814291, 0.05897994339466095, -0.02536262758076191, 0.048012178391218185, -0.05727437138557434, 0.0588490329682827, 0.019605033099651337]","[-0.07845817506313324, 0.12109655886888504, 0.03288479894399643, -0.07029137015342712, -0.07123426347970963, 0.009098712354898453, -0.04177691414952278, 0.05476208031177521, 0.09430304169654846, -0.03375287353992462, 0.0743979662656784, 0.025290565565228462, 0.0017026513814926147, -0.04404032230377197, -0.06323569267988205, 0.044481515884399414, -0.05401122570037842, -0.09271586686372757, 0.07160167396068573, -0.05904258042573929, 0.04802148416638374, 0.0028332271613180637, 0.0813131257891655, 0.003053684951737523, -0.05487672984600067, -0.0329737588763237, -0.019803978502750397, -0.04688796401023865, -0.015075219795107841, 0.09826897829771042, -0.10425785183906555, 0.10836867243051529, -0.047285571694374084, -0.07447353005409241, -0.14199534058570862, -0.03451584652066231, -0.062161073088645935, 0.037386178970336914, -0.057592086493968964, 0.10414263606071472, -0.03419728949666023, -0.0367453508079052, 0.11309576034545898, -0.015498174354434013, 0.12322303652763367, -0.020879151299595833, -0.05472204461693764, 0.03651157021522522, 0.017743747681379318, -0.06850456446409225, -0.04117291420698166, -0.03607753664255142, -0.06318334490060806, -0.004895536694675684, 0.03843095153570175, -0.008849646896123886, 0.06631741672754288, 0.03282131254673004, -0.06989976763725281, 0.08737417310476303, -0.06741020083427429, -0.028115084394812584, -0.030787494033575058, 0.07793793082237244, -0.014162104576826096, 0.058283984661102295, -0.02566410042345524, -0.03609147295355797, 0.05223159119486809, 0.08774160593748093, 0.054978884756565094, 0.014628926292061806, -0.00878345500677824, -0.06787589937448502, 0.10410995781421661, 0.09765707701444626, -0.043179307132959366, -0.016903584823012352, 0.0915270671248436, 0.04608502611517906, 0.010358507744967937, -0.07689432054758072, 0.07889606803655624, 0.11395634710788727, -0.04213787615299225, 0.0720595270395279, 0.02963128872215748, -0.06844407320022583, 0.07251106202602386, 0.13275575637817383, -0.01180944312363863, -0.07036805152893066, -0.015038326382637024, 0.1041792705655098, -0.06526398658752441, 0.07751983404159546, 0.12050624191761017, -0.07176396250724792, -0.08650249242782593, 0.05693741887807846, -0.015802472829818726, -0.08986633270978928, 0.012713261879980564, 0.01153987180441618, 0.11903722584247589, -0.042747411876916885, 0.06311828643083572, 0.03997129201889038, 0.034153565764427185, 0.07833926379680634, 0.05149133503437042, 0.015405721962451935, -0.019917471334338188, 0.05874694883823395, 0.03208913654088974, -0.007676703855395317, -0.03398480266332626, 0.07550239562988281, -0.0003617391921579838, 0.11042007058858871, -0.10190042853355408, -0.10257034003734589, -0.005818932317197323, -0.016570530831813812, 0.04425416141748428, 0.05815105140209198, 0.0443698950111866, -0.048207756131887436, -0.0972970500588417, -0.08309237658977509, 0.061203837394714355, -0.04854271933436394, 0.022000513970851898, 0.011128157377243042, 0.04208283871412277, 0.061228036880493164, -0.03636350855231285, 0.0002779726928565651, 0.08275558054447174, -0.06753238290548325, 0.04161425307393074, 0.06402070820331573, -0.04668114334344864, -0.0872521623969078, 0.11354123055934906, -0.04270760715007782, 0.05993039906024933, 0.07521607726812363, -0.05006667226552963, -0.0025635105557739735, -0.028319882228970528, -0.010680451057851315, 0.031063634902238846, -0.015283368527889252, -0.03922257572412491, 0.008808017708361149, 0.06536209583282471, 0.02087564580142498, 0.04684459790587425, -0.07567710429430008, 0.10569699108600616, 0.04893439635634422, 0.058870915323495865, 0.0596940740942955, 0.026557857170701027, 0.11286354064941406, 0.09226442128419876, 0.09732841700315475, -0.028554324060678482, 0.05654803663492203, -0.06254850327968597, 0.023701421916484833, 0.014157552272081375, 0.008087691850960255, 0.03288595378398895, 0.011891414411365986, -0.09637186676263809, 0.009527788497507572, -0.043344590812921524, -0.019712815061211586, 0.07448361814022064, 0.00040818884735926986, 0.0051819030195474625, 0.0343281514942646, 0.07853726297616959, 0.03523537144064903, 0.00971352681517601, 0.06497637182474136, -0.00440711434930563, -0.06813390552997589, 0.07730235159397125, 0.024005364626646042, 0.04490064084529877, 0.04993801936507225, 0.0858270451426506, 0.03181494399905205, 0.01850999891757965, 0.0013104360550642014, 0.038103021681308746, 0.011745522730052471]","[-0.04909273982048035, 0.015198038890957832, -0.03615138307213783, -0.017347050830721855, 0.027637435123324394, 0.09715219587087631, 0.0339188277721405, 0.013397984206676483, -0.06897033005952835, 0.021790117025375366, -0.027990255504846573, -0.004430102650076151, -0.030249305069446564, 0.032024696469306946, -0.043448105454444885, 0.053145721554756165, 0.040543198585510254, -0.11959846317768097, 0.05221071466803551, 0.02559804543852806, 0.02555382251739502, -0.00785674899816513, -0.12594245374202728, -0.0061843241564929485, 0.021837256848812103, 0.028854692354798317, -0.010750040411949158, -0.08363895118236542, 0.034211136400699615, 0.11505623906850815, -0.08621884137392044, 0.0740513950586319, -0.011951453983783722, 0.04066057130694389, 0.01990879327058792, 0.031301990151405334, 0.08048000931739807, 0.023861020803451538, -0.04729445278644562, -0.018150530755519867, -0.009118356741964817, -0.029761334881186485, -0.040199968963861465, 0.040753237903118134, 0.09891584515571594, -0.0013957135379314423, -0.048501528799533844, 0.03439114987850189, -0.0016205832362174988, -0.04506922885775566, 0.030266880989074707, -0.06038221716880798, -0.040203116834163666, -0.050088461488485336, -0.036648206412792206, 0.033901527523994446, 0.0018030527280643582, -0.030096903443336487, 0.025315389037132263, -0.04798411577939987, 0.021794341504573822, 0.005812587216496468, -0.0038336922880262136, 0.07604396343231201, -0.07264436781406403, 0.018067404627799988, -0.07355949282646179, -0.009131260216236115, -0.04636853560805321, -0.022196361795067787, -0.03665604442358017, -0.08239021897315979, 0.03305325657129288, 0.014746719971299171, -0.002125656697899103, 0.017354341223835945, -0.05423353612422943, 0.047717396169900894, 0.04042404890060425, -0.045227814465761185, -0.0340731143951416, -0.008373034186661243, 0.049409374594688416, 0.06535126268863678, -0.009205393493175507, 0.004100136458873749, -0.09105710685253143, 0.03214649111032486, -0.05094701051712036, 0.07008974999189377, 0.05958951264619827, 0.04657282680273056, -0.013104423880577087, -0.07207176089286804, -0.03918156400322914, -0.006147325038909912, 0.05794171988964081, -0.04361214116215706, 0.008543677628040314, 0.10894066095352173, -0.011620253324508667, -0.0010896458989009261, -0.0016129441792145371, -0.07790786027908325, -0.11963185667991638, -0.023315811529755592, 0.007496073842048645, -0.018824033439159393, -0.0034446141216903925, 0.03734639286994934, -0.0518721267580986, -0.06296180188655853, -0.04205401986837387, 0.06452921777963638, 0.12477783113718033, 0.003027986502274871, -0.07449222356081009, -0.036091435700654984, 0.04778657853603363, 0.11915291845798492, 0.0049216123297810555, 0.014941200613975525, -0.0271436870098114, 0.0444645993411541, 0.02702278643846512, 0.021305248141288757, -0.014128822833299637, -0.054100506007671356, 0.02138441428542137, 0.044335417449474335, 0.06499910354614258, 0.03382354974746704, -0.007798537611961365, 0.07762560248374939, 0.04646112769842148, 0.049314167350530624, 0.014127423986792564, 0.005437261424958706, 0.013339339755475521, 0.005755885504186153, -0.07453064620494843, 0.0626203715801239, 0.1114496961236, 0.07878275215625763, -0.07460014522075653, -0.01716684177517891, 0.023407794535160065, -0.07015478610992432, 0.05976560711860657, 0.10336504131555557, 0.06712645292282104, 0.01928342506289482, -0.09749772399663925, -0.008582346141338348, 0.002112441696226597, -0.07718487083911896, 0.037506818771362305, 0.02597389928996563, 0.0958581417798996, -0.036519069224596024, -0.04150419309735298, 0.14128029346466064, 0.06447076797485352, 0.01463244017213583, -0.02751389518380165, 0.08557366579771042, -0.023862292990088463, 0.030959278345108032, -0.1233748123049736, 0.0076917014084756374, 0.04772644117474556, 0.010880916379392147, 0.036164723336696625, 0.022117603570222855, 0.018989577889442444, -0.11825601756572723, -0.058448709547519684, 0.03021775186061859, -0.04233309254050255, -0.05394788086414337, 0.01505583431571722, 0.0926172286272049, 0.035223253071308136, 0.04860474541783333, 0.026621051132678986, 0.0013357169227674603, 0.022770659998059273, -0.04565666243433952, -0.006370496936142445, -0.014910534024238586, 0.09497423470020294, 0.005725032649934292, 0.1277654469013214, -0.07736989110708237, 0.08606964349746704, 0.03676767647266388, 0.06775598973035812, -0.0665821060538292, 0.12882453203201294, 0.02413388527929783]","[0.04970495402812958, 0.04943349212408066, -0.05123522877693176, 0.0007607181323692203, 0.04655804857611656, -0.055212125182151794, 0.018442586064338684, -0.03830060735344887, -0.0378497876226902, 0.0442783460021019, 0.015483804047107697, -0.017258666455745697, 0.05211061239242554, -0.0035696029663085938, 0.05985166132450104, -0.009953033179044724, -0.060412898659706116, 0.06376508623361588, 0.07620463520288467, -0.01631198637187481, -0.01743229478597641, -0.05552595108747482, 0.048673003911972046, -0.0016344953328371048, -0.0408446341753006, -0.07164255529642105, 0.04672195017337799, 0.01503356359899044, 0.002350314287468791, 0.07562670856714249, 0.056780025362968445, -0.00885854009538889, 0.021608412265777588, 0.01964402198791504, -0.027425479143857956, -0.020909029990434647, -0.004316458944231272, -0.035173915326595306, 0.0438888743519783, -0.04851176589727402, 0.048072922974824905, -0.015465783886611462, -0.05090152844786644, -0.015209883451461792, -0.060248907655477524, 0.07317496091127396, 0.04512149095535278, 0.05872032046318054, -0.05048392340540886, 0.04278057813644409, 0.053049132227897644, -0.06028361991047859, 0.060363635420799255, -0.021838713437318802, 0.062376245856285095, 0.02807541750371456, 0.0388210192322731, 0.025056958198547363, -0.0477263368666172, -0.03198770433664322, 0.05120529234409332, -0.015193900093436241, 0.05085964873433113, -0.02391921728849411, 0.010449222289025784, 0.06908832490444183, -0.020306628197431564, -0.005820237100124359, 0.022330818697810173, -0.04153987765312195, -0.07138943672180176, -0.006644472014158964, -0.02202671393752098, 0.010545614175498486, 0.008042631670832634, 0.03705732524394989, 0.004191696643829346, 0.0023826593533158302, 0.06176477670669556, 0.04728502035140991, -0.030209437012672424, -0.017142698168754578, 0.09213683754205704, 0.061002060770988464, 0.026276692748069763, 0.006003633141517639, -0.04749911278486252, 0.025377996265888214, 0.049381181597709656, 0.03665310889482498, -0.0003659638750832528, -0.05108494684100151, -0.035916153341531754, 0.03882291913032532, 0.04721035063266754, -0.0145721435546875, -0.030275855213403702, 0.02445102483034134, 0.04998944699764252, -0.041230153292417526, -0.02146025374531746, 0.03682402893900871, 0.06830943375825882, 0.06074981391429901, -0.03197641670703888, 0.035703375935554504, -0.04577323794364929, 0.016112901270389557, -0.034121036529541016, -0.06695637106895447, -0.015390023589134216, 0.007950199767947197, 0.030543997883796692, -0.03678222373127937, 0.09100701659917831, -0.030253445729613304, 0.005621617194265127, 0.03639018535614014, 0.07466462254524231, -0.015647664666175842, -0.01972234807908535, -0.01899736374616623, -0.05888569727540016, -0.01086998637765646, -0.03543085232377052, -0.01381460577249527, 0.07785239815711975, -0.040414437651634216, -0.05515540391206741, -0.018008047714829445, -0.03961952030658722, 0.02840421348810196, 0.04525090008974075, -0.020771745592355728, -0.07516135275363922, -0.026529263705015182, -0.05844104290008545, 0.058667320758104324, 0.06055033206939697, 0.021942412480711937, -0.015819955617189407, 0.02903124690055847, 0.07304318994283676, 0.08090882003307343, 0.03751217946410179, 0.02116202563047409, 0.00021685659885406494, 0.05793389678001404, -0.0532916821539402, 0.06907717138528824, 0.08707811683416367, 0.05744491145014763, -0.0719548836350441, -0.03864164277911186, 0.07602038979530334, 0.0474773533642292, -0.06029648333787918, -0.05082828179001808, -0.0057108961045742035, -0.09070757031440735, -0.02693028561770916, 0.002358626341447234, 0.008964442647993565, 0.06072339415550232, -0.02174285613000393, -0.05018279701471329, -0.06346670538187027, 0.07080258429050446, -0.012334938161075115, -0.027220191434025764, 0.05705960467457771, -0.07807475328445435, 0.05029197782278061, 0.07413575053215027, -0.043199822306632996, -0.022755136713385582, -0.057692475616931915, -0.022583849728107452, 0.028284169733524323, -0.06018752604722977, -0.07584577798843384, 0.09145183861255646, 0.04428019002079964, -0.0006004371680319309, 0.024494152516126633, -0.06634481996297836, -0.030001360923051834, 0.05462634563446045, -0.005544077139347792, 0.006769202649593353, -0.010778810828924179, 0.046672262251377106, 0.06986554712057114, -0.039301082491874695, 0.06507817655801773, -0.03959713876247406, -0.052960045635700226, 0.014950353652238846, 0.04915603622794151, -0.07194989174604416]","[-0.018184565007686615, 0.07317531108856201, -0.010938815772533417, 0.03866800665855408, -0.0008606612682342529, -0.033332228660583496, 0.02896474301815033, -0.06476891040802002, 0.0423973947763443, 0.07298645377159119, -0.07537144422531128, -0.06979917734861374, -0.0016515851020812988, -0.007163442671298981, -0.07181315124034882, -0.04002505913376808, 0.06002555787563324, 0.06592531502246857, -0.01727672666311264, -0.06173992529511452, -0.06227346137166023, -0.07596779614686966, 0.018144145607948303, -0.07464780658483505, -0.05057356506586075, -0.025471922010183334, -0.003990761935710907, 0.0011002495884895325, -0.05829208344221115, -0.03160654753446579, -0.07493644952774048, 0.040067918598651886, 0.07212208211421967, 0.013976335525512695, 0.05091595649719238, -0.03209453076124191, 0.06480959057807922, 0.05214513838291168, 0.07056720554828644, 0.01807612180709839, -0.022111359983682632, 0.07337629795074463, -0.019201986491680145, 0.06798635423183441, 0.01110287755727768, -0.04789219796657562, 0.05676288902759552, 0.06569959223270416, -0.05005226284265518, 0.07616616785526276, 0.05217495560646057, 0.07466958463191986, -0.03900402784347534, -0.058421287685632706, 0.029460281133651733, 0.0443149134516716, -0.029611848294734955, 0.04655281454324722, 0.050685301423072815, 0.06116044521331787, -0.05087149888277054, 0.024624012410640717, -0.021818581968545914, 0.04066181182861328, 0.05006478726863861, 0.04660060256719589, 0.05056677758693695, -0.033442556858062744, -0.06257863342761993, 0.02544228732585907, -0.0020248964428901672, 0.036242514848709106, 0.04819214344024658, -0.07192660123109818, 0.00446946918964386, -0.021560825407505035, 0.047895416617393494, -0.005331732332706451, 0.06402096152305603, 0.05394650995731354, 0.05444134771823883, 0.04577278345823288, 0.01663602888584137, -0.07588902860879898, -0.05125650763511658, -0.0058694034814834595, -0.0690125972032547, 0.024263396859169006, -0.050345614552497864, 0.05643661320209503, 0.01357799768447876, 0.017425701022148132, 0.049165770411491394, -0.030603837221860886, -0.021403059363365173, 0.06008194386959076, 0.006647847592830658, -0.05735142156481743, -0.02413152903318405, 0.014645852148532867, -0.05006205290555954, 0.009593002498149872, -0.012864544987678528, -0.07323510199785233, -0.071042999625206, 0.009055353701114655, -0.0512995682656765, -0.07537879794836044, 0.07806889712810516, 0.06330795586109161, -0.04951944947242737, 0.032813772559165955, 0.020164258778095245, 0.026538752019405365, -0.04244352877140045, 0.07257258892059326, 0.009914636611938477, -0.022885914891958237, -0.02284248173236847, 0.04610113799571991, -0.041715461760759354, -0.020256679505109787, -0.024315431714057922, -0.030111126601696014, 0.00011066347360610962, -0.033144716173410416, -0.04201080650091171, -0.0283377505838871, 0.0375211164355278, 0.03269951790571213, -0.03799362853169441, -0.042335402220487595, 0.02713257074356079, 0.02527061104774475, 0.07258832454681396, 0.06982021033763885, -0.07338644564151764, -0.05018988251686096, -0.05960557609796524, 0.027084670960903168, 0.017565742135047913, -0.0205996111035347, 0.03284735977649689, -0.05355130136013031, -0.03351239114999771, -0.03556638956069946, -0.023265261203050613, -0.030037086457014084, -0.040972236543893814, -0.05631793290376663, 0.04941114783287048, -0.028152450919151306, 0.005809418857097626, -0.04728544130921364, -0.057374730706214905, 0.048846691846847534, -0.038666047155857086, 0.061960622668266296, 0.03478153795003891, -0.052430927753448486, 0.0020756497979164124, 0.06150595843791962, 0.04605582356452942, 0.05123637616634369, -0.03930724784731865, 0.049465298652648926, 0.07390573620796204, 0.07768505811691284, -0.0011906698346138, -0.06537209451198578, -0.03640348091721535, -0.01942448318004608, -0.07502683997154236, 0.03532339632511139, -0.05131928622722626, 0.026106663048267365, -0.015927303582429886, 0.03233932703733444, -0.02474251389503479, -0.01418720930814743, -0.06377571821212769, 0.0005148649215698242, -0.01573193445801735, -0.07072055339813232, -0.016426119953393936, 0.02851463109254837, -0.043552249670028687, 0.07344570755958557, 0.06808821856975555, -0.006388045847415924, 0.004438437521457672, 0.015364669263362885, 0.0010080337524414062, -0.045041657984256744, 0.06970378756523132, 0.016842536628246307, 0.027689941227436066, 0.05405992269515991, 0.07091952860355377, -0.07259693741798401]","[0.003828272223472595, 0.005121655762195587, -0.009838491678237915, 0.010356336832046509, 0.02398350089788437, -0.01011732965707779, -0.03776794672012329, 0.033282965421676636, 0.03754902631044388, -0.053823620080947876, 0.06654268503189087, -0.036666784435510635, -0.04451558738946915, -0.032355450093746185, -0.021526101976633072, -0.02740298956632614, -0.0004030466079711914, -0.01997799426317215, -0.06174969673156738, 0.06566797196865082, -0.049733828753232956, -0.007786206901073456, 0.03152076154947281, 0.008276291191577911, 0.04626554250717163, 0.07349027693271637, -0.07073213160037994, 0.03490452468395233, -0.019899912178516388, -0.03591373190283775, -0.07805190235376358, -0.0197688490152359, 0.03503117710351944, -0.003398112952709198, -0.06975673139095306, -0.03352395072579384, -0.03351224213838577, 0.039262622594833374, 0.020078793168067932, -0.018384460359811783, -0.0297299362719059, -0.007580600678920746, 0.02563326060771942, -0.013171732425689697, 0.07551836967468262, 0.010831691324710846, -0.01734423264861107, -0.04558904469013214, -0.025900159031152725, -0.06164417415857315, -0.04408297687768936, 0.05815483629703522, -0.0698494091629982, -0.03214595094323158, -0.03227487578988075, -0.025397174060344696, 0.04896433651447296, -0.0620296485722065, 0.05107636749744415, 0.016005530953407288, 0.005850397050380707, -0.05768655240535736, -0.06366924196481705, 0.044480644166469574, 0.022259071469306946, -0.03737914189696312, 0.022808745503425598, -0.05091175064444542, -0.03731273487210274, -0.055411435663700104, 0.05189815163612366, -0.05658259987831116, 0.048930466175079346, -0.024013809859752655, -0.07711030542850494, 0.04819473624229431, 0.025300122797489166, 0.05478890240192413, 0.013626456260681152, -0.008265510201454163, -0.0705539658665657, 0.017348237335681915, -0.05421028286218643, -0.0018057525157928467, -0.040534358471632004, -0.04093537479639053, -0.01505938172340393, 0.045026056468486786, -0.05855315178632736, 0.009377792477607727, -0.05131479725241661, 0.03490493446588516, -0.058483023196458817, 0.04644022881984711, -0.056970082223415375, 0.06068851053714752, 0.03128048777580261, -0.06770353019237518, 0.05054400861263275, -0.008992910385131836, 0.002282559871673584, 0.04367451369762421, -0.0639687180519104, 0.04600827395915985, 0.07416513562202454, -0.002757735550403595, 0.027164466679096222, -0.07645339518785477, 0.07194221019744873, -0.030076518654823303, 0.0378715917468071, 0.03423894941806793, -0.008891649544239044, -0.0016265586018562317, 0.036007560789585114, -0.03933575376868248, 0.06071411073207855, -0.01069653034210205, -0.013187535107135773, 0.003997020423412323, 0.06733840703964233, 0.053009986877441406, 0.00973007082939148, -0.026986557990312576, 0.012508504092693329, 0.028106391429901123, -0.049772534519433975, -0.010306887328624725, 0.02140648663043976, 0.06016354262828827, 0.07519963383674622, 0.057884663343429565, 0.05174356698989868, -0.015115790069103241, -0.033330220729112625, -0.07355956733226776, 0.06294241547584534, 0.020764395594596863, -0.013472363352775574, -0.07683095335960388, 0.040931276977062225, 0.016727127134799957, 0.043789975345134735, -0.02931039407849312, 0.013244710862636566, -0.011836230754852295, 0.04593432694673538, -0.05124526098370552, 0.013926908373832703, 0.030007876455783844, -0.03426939249038696, 0.0323001965880394, 0.02590624988079071, -0.004432104527950287, 0.06863978505134583, 0.060157209634780884, 0.00709100067615509, -0.05979390814900398, -0.05337546020746231, 0.04806630313396454, 0.06929239630699158, -0.05638248100876808, 0.02334829419851303, -0.06281033158302307, 0.022827625274658203, 0.05403457581996918, -0.056712806224823, -0.04899326711893082, -0.07159100472927094, 0.059555068612098694, -0.01786937564611435, 0.05190718173980713, -0.0015407353639602661, -0.05981423705816269, 0.07336452603340149, 0.0353633314371109, -0.0068724676966667175, -0.021514803171157837, -0.017753351479768753, 0.05271707475185394, -0.017053168267011642, -0.053956955671310425, -0.07547378540039062, -0.060998786240816116, 0.050772398710250854, 0.027049854397773743, 0.0316067710518837, -0.06792731583118439, 0.05778275430202484, 0.06123645603656769, 0.030298791825771332, -0.026299037039279938, 0.026937410235404968, 0.06747499108314514, 0.07801523804664612, 0.029113180935382843, 0.07177741825580597, 0.05861397087574005, 0.031149789690971375, -0.0538410060107708]","[-0.06263609230518341, -0.03921245038509369, -0.0007480978965759277, 0.0017665848135948181, -0.06273003667593002, -0.030172545462846756, -0.02868001163005829, 0.0420311763882637, 0.05399194359779358, -0.026361051946878433, -0.07681198418140411, -0.030237633734941483, -0.06364177912473679, -0.04870672896504402, -0.03480849415063858, 0.024363763630390167, 0.01754176616668701, -0.02888474613428116, 0.02073764055967331, -0.008266650140285492, 0.008795849978923798, 0.05189129710197449, 0.06352449953556061, 0.04278327524662018, 0.035891227424144745, 0.0218764990568161, -0.06150750815868378, -0.04163872078061104, -0.019002296030521393, 0.03669340908527374, 0.01120515912771225, 0.020933769643306732, 0.05393001437187195, -0.06516896188259125, -0.0005996823310852051, -0.044642072170972824, 0.012134812772274017, -0.037175823003053665, 0.029321901500225067, 0.027136392891407013, 0.0762665867805481, -0.05450242757797241, 0.06511838734149933, -0.059547897428274155, -0.016625065356492996, -0.02381313592195511, -0.07651088386774063, 0.0001594945788383484, -0.032901257276535034, -0.06480633467435837, 0.011042706668376923, -0.07398571819067001, -0.006739690899848938, 0.03491079807281494, -0.020435310900211334, -0.07805938273668289, 0.015547432005405426, -0.05508187413215637, -0.053219281136989594, 0.0775424987077713, -0.0768989622592926, 0.03297140449285507, -0.0209556482732296, -0.01494116336107254, -0.03424185514450073, 0.05924686789512634, -0.032342176884412766, 0.05715493857860565, -0.0178842693567276, 0.004694439470767975, 0.038736872375011444, -0.032998792827129364, -0.03820871189236641, 0.06557130813598633, -0.03506794571876526, 0.03662578761577606, 0.021072693169116974, -0.07229775935411453, -0.025640875101089478, -0.04468495026230812, 0.036617688834667206, 0.010635539889335632, -0.027782395482063293, -0.042605314403772354, -0.03652350604534149, 0.06294567883014679, 0.042101308703422546, -0.03637765720486641, 0.04280132055282593, -0.04012404754757881, -0.022943370044231415, 0.0247202068567276, -0.012801222503185272, -0.012319982051849365, 0.02474009245634079, -0.052394866943359375, 0.05979342758655548, 0.05640241503715515, 0.06305518746376038, -0.003544524312019348, 0.07252790033817291, 0.05377368628978729, -0.005284316837787628, -0.003607526421546936, 0.019962266087532043, 0.03630533069372177, -0.06138163432478905, 0.0339575856924057, -0.06644665449857712, 0.05624839663505554, -0.0453791543841362, 0.01575777679681778, -0.07476198673248291, -0.03924590349197388, 0.07400667667388916, -0.023563772439956665, -0.04091085493564606, -0.03256256878376007, 0.04864946007728577, 0.003150060772895813, 0.038488417863845825, 0.020674191415309906, 0.03269510716199875, 0.05010226368904114, -0.0501871258020401, 0.017269447445869446, -0.002888984978199005, -0.014550343155860901, 0.04578795284032822, 0.011965230107307434, -0.04297095909714699, -0.07290392369031906, -0.03102700784802437, 0.021971896290779114, 0.04632566124200821, 0.06343260407447815, -0.030964680016040802, -0.07347659021615982, -0.052211202681064606, -0.018495287746191025, 0.014514952898025513, -0.047141268849372864, -0.05510469526052475, -0.0646984651684761, 0.03204541653394699, 0.07287919521331787, 0.07580238580703735, 0.010782398283481598, -0.05587286874651909, -0.006515949964523315, 0.0698004961013794, -0.013623848557472229, 0.06644831597805023, 0.04673674702644348, -0.02040371671319008, -0.06955009698867798, -0.005201950669288635, -0.035605207085609436, 0.06919558346271515, 0.07151664793491364, 0.0537167489528656, 0.017504848539829254, -0.05765700712800026, -0.030683498829603195, 0.017198070883750916, -0.010741084814071655, 0.05896829068660736, -0.055715493857860565, -0.033403366804122925, 0.06895159184932709, -0.03267782926559448, -0.05686022341251373, 0.01563936471939087, -0.04739327356219292, 0.03005300462245941, -0.03176504001021385, 0.06802386045455933, 0.0249297097325325, 0.07050743699073792, -0.04373663663864136, -0.033771563321352005, -0.077712282538414, -0.038981854915618896, 0.03305579721927643, 0.027750112116336823, -0.028558198362588882, -0.04144052043557167, 0.005260854959487915, 0.015012145042419434, 0.03342140465974808, 0.029339194297790527, 0.04378828406333923, 0.02803771197795868, 0.06902088224887848, 0.06001479923725128, 0.04492500424385071, 0.041149385273456573, 0.024126723408699036, -0.016868282109498978, 0.013096794486045837]","[0.06673501431941986, -0.018806368112564087, -0.04767473042011261, -0.003210507333278656, 0.03625011444091797, -0.061867229640483856, -0.003946542739868164, -0.05996707081794739, -0.0068544670939445496, 0.03481122851371765, 0.042760640382766724, 0.039885781705379486, 0.009860888123512268, 0.055173397064208984, -0.025028549134731293, 0.0400516614317894, -0.03819949924945831, -0.007376290857791901, -0.03137945383787155, 0.051594704389572144, -0.012328676879405975, -0.049591947346925735, -0.04108478128910065, 0.04344438016414642, -0.0304948128759861, -0.05322372913360596, -0.021316397935152054, -0.012339159846305847, 0.027117490768432617, 0.036061257123947144, -0.0562012605369091, 0.05640208721160889, -0.06153140962123871, -0.01833438128232956, -0.03896057605743408, -0.07057096064090729, 0.05807459354400635, 0.07436704635620117, 0.06322959065437317, 0.062294915318489075, 0.06584922969341278, 0.0030136704444885254, -0.016147881746292114, -0.04485982283949852, -0.008547179400920868, -0.017043936997652054, 0.015367798507213593, -0.004939094185829163, 0.03135884553194046, 0.03826124966144562, -0.040849436074495316, 0.06613260507583618, -0.018814634531736374, -0.03419019281864166, -0.046672724187374115, 0.03412957489490509, 0.06647592782974243, -0.009058982133865356, 0.05917181074619293, 0.00672401487827301, -0.05787520110607147, -0.035167939960956573, 0.0702470988035202, 0.007939338684082031, -0.07012282311916351, 0.006195299327373505, -0.057624705135822296, 0.015034355223178864, 0.06921686232089996, 0.020641013979911804, -0.0013387948274612427, 0.07242222130298615, -0.0711042732000351, 0.07098780572414398, -0.01955355703830719, -0.05374080687761307, -0.060659296810626984, -0.0077579692006111145, 0.001733534038066864, 0.07012008130550385, -0.00016366690397262573, 0.07254453003406525, 0.07564643025398254, -0.03319453448057175, 0.07744824886322021, -0.003947794437408447, 0.04445294290781021, -0.01499280333518982, 0.0022101402282714844, 0.03197403997182846, 0.0669926255941391, 0.02908448874950409, -0.07170550525188446, 0.066460520029068, 0.04169496148824692, 0.051581159234046936, 0.01624249666929245, 0.06005100905895233, -0.06479109078645706, 0.04700338840484619, 0.0672055333852768, -0.014123968780040741, -0.011938460171222687, -0.02188558503985405, -0.0017346516251564026, 0.06661736965179443, 0.02538924664258957, 0.035448260605335236, -0.06353409588336945, -0.06432528048753738, 0.060617268085479736, -0.03410773724317551, -0.05945920571684837, 0.06901432573795319, -0.032885320484638214, -0.018388722091913223, 0.05780044198036194, -0.06785882264375687, 0.006708040833473206, 0.009045414626598358, -0.04300404340028763, 0.004625335335731506, 0.07705838978290558, 0.02519134432077408, 0.017039112746715546, -0.05497249588370323, -0.05492111295461655, 0.013134956359863281, 0.045613229274749756, 0.004681691527366638, 0.011664614081382751, -0.06732681393623352, -0.06863248348236084, 0.025895893573760986, 0.04349600523710251, 0.004529044032096863, 0.05316019058227539, 0.06069819629192352, 0.03872659057378769, 0.06913205981254578, 0.004258275032043457, 0.02601979672908783, 0.005944639444351196, 0.0031556785106658936, 0.07038918137550354, 0.03874370455741882, 0.020787984132766724, -0.04963698238134384, -0.027666687965393066, -0.07345439493656158, -0.07202441990375519, 0.06504425406455994, -0.06278793513774872, 0.04016949236392975, 0.07165279984474182, -0.043618008494377136, 0.026296116411685944, -0.020277846604585648, -0.07779330760240555, -0.0011814981698989868, 0.04805144667625427, -0.06952233612537384, -0.06787402927875519, -0.06374847888946533, -0.0069209858775138855, -0.07670145481824875, 0.04343148320913315, 0.06920193135738373, 0.0035509243607521057, 0.04555702209472656, 0.0327167809009552, 0.07486392557621002, 0.04517648369073868, 0.018079563975334167, 0.005061052739620209, 0.05811145901679993, -0.05072051286697388, -0.017727043479681015, 0.029200591146945953, -0.026833970099687576, -0.04149642959237099, 0.03675380349159241, -0.04472484812140465, -0.035483650863170624, 0.05315764248371124, -0.0067302510142326355, 0.010849885642528534, 0.04705868661403656, -0.005272231996059418, 0.016548171639442444, 0.04107446223497391, -0.06500142812728882, 0.05399240553379059, 0.04187800735235214, 0.021534107625484467, -0.01911396160721779, 0.012838736176490784, 0.055598556995391846, -0.016356639564037323, 0.06157435476779938]","[-0.05562460422515869, -0.07500328868627548, -0.05475383251905441, 0.009681083261966705, 0.02655062824487686, -0.06791558116674423, 0.06065770983695984, -0.024798665195703506, 0.01883174479007721, -0.017735403031110764, 0.02804938703775406, -0.049749672412872314, 0.07522626221179962, 0.0009377598762512207, 0.008988596498966217, -0.05499051511287689, -0.06296002864837646, -0.07231611758470535, -0.010455101728439331, 0.07300983369350433, 0.017662927508354187, 0.04636427015066147, 0.01703289896249771, -0.017163217067718506, -0.023090388625860214, -0.03391990438103676, -0.03401578590273857, -0.05268270894885063, 0.07103177905082703, -0.04679161682724953, -0.04106100648641586, -0.034027084708213806, -0.025145653635263443, 0.06963714957237244, -0.0012449994683265686, -0.011095874011516571, -0.07788741588592529, -0.012044146656990051, 0.02749110758304596, 0.040871888399124146, 0.03395579755306244, -0.01184479147195816, -0.023032527416944504, 0.012407936155796051, 0.056225523352622986, 0.07742905616760254, -0.07477574795484543, 0.026169218122959137, 0.06416526436805725, -0.008015759289264679, 0.07440970838069916, 0.020225457847118378, 0.05198448896408081, 0.05225764214992523, 0.0205003023147583, 0.056481048464775085, -0.0717395693063736, 0.06633777916431427, 0.04972359538078308, 0.035834476351737976, -0.026194222271442413, 0.05850449204444885, -0.03013307973742485, 0.035886310040950775, -0.07720909267663956, -0.07467243820428848, -0.020095210522413254, -0.026172790676355362, 0.07480834424495697, -0.04507464915513992, 0.013482362031936646, 0.02003215253353119, -0.0006842836737632751, -0.06400281190872192, -0.07161086797714233, -0.058591559529304504, -0.04172581434249878, -0.07522036880254745, 0.04154098033905029, -0.034566618502140045, 0.015584036707878113, -0.033544525504112244, 0.07230871915817261, -0.05766034126281738, -0.05880925431847572, -0.008389502763748169, 0.041319504380226135, 0.00727689266204834, 0.0024628564715385437, -0.053537674248218536, 0.006542660295963287, 0.015993468463420868, -0.07036586850881577, 0.05476564168930054, -0.07599037885665894, 0.06723712384700775, -0.011557362973690033, 0.006801798939704895, 0.051235780119895935, 0.06242537498474121, -0.0044947341084480286, -0.044581975787878036, 0.03565426170825958, 0.022051557898521423, -0.06863884627819061, -0.046771228313446045, -0.07727310061454773, 0.03237894922494888, -0.04504258930683136, 0.024709783494472504, -0.04257722198963165, -0.02038424462080002, 0.005284987390041351, 0.051391810178756714, 0.04765975475311279, 0.050481557846069336, 0.0737369954586029, -0.03697482869029045, 0.029795989394187927, -0.014128141105175018, 0.04520696401596069, 0.03771699219942093, -0.055880557745695114, 0.025975540280342102, -0.018230102956295013, 0.008002839982509613, 0.06639061868190765, 0.00582161545753479, 0.00921570509672165, -0.0405706986784935, 0.049208611249923706, -0.06922224164009094, 0.017942890524864197, -0.0030974075198173523, 0.006726287305355072, -0.07022178918123245, 0.004185482859611511, 0.015297941863536835, 0.058907121419906616, -0.045178476721048355, 0.016122303903102875, -0.07541679590940475, 0.004569202661514282, 0.013482563197612762, -0.07123150676488876, -0.06845403462648392, 0.060990020632743835, -0.045264583081007004, 0.03597738593816757, 0.033476777374744415, 0.01710417866706848, 0.03655720502138138, -0.018589381128549576, -0.06167507916688919, 0.06575316190719604, -0.04944673180580139, -0.07125632464885712, -0.024431288242340088, 0.07750183343887329, 0.02997114509344101, -0.00562208890914917, 0.03580441325902939, 0.07004432380199432, -0.0473504364490509, -0.05908404663205147, 0.027781538665294647, 0.009124279022216797, -0.041562315076589584, -0.03322979807853699, -0.05161634087562561, 0.03524430841207504, 0.014772094786167145, -0.017980538308620453, 0.047011375427246094, 0.07157725095748901, -0.07596327364444733, 0.03435894101858139, 0.004296012222766876, 0.04242426156997681, 0.056260496377944946, 0.02051631361246109, 0.0016826018691062927, 0.05731414258480072, -0.07428648322820663, 0.06502296030521393, 0.013707928359508514, -0.05422811955213547, -0.05200875923037529, 0.03278864175081253, -0.06137452274560928, -0.025048844516277313, -0.03617074340581894, 0.05988195538520813, 0.008538275957107544, 0.025061264634132385, 0.008992724120616913, -0.03869492560625076, 0.056729644536972046, -0.07039906829595566, -0.0012378469109535217]","[-0.010702244937419891, -0.05218750238418579, 0.04192674905061722, -0.04577592760324478, -0.06799033284187317, -0.04249841347336769, 0.025107286870479584, 0.07233305275440216, 0.036120884120464325, 0.05614230036735535, 0.05707798898220062, -0.0662224069237709, 0.008540637791156769, 0.06233346462249756, -0.0323275625705719, 0.03549452871084213, 0.06433369219303131, -0.03947966545820236, -0.05033755302429199, -0.05139986053109169, 0.03866198658943176, 0.030066467821598053, 0.00482979416847229, -0.014000460505485535, -0.006122596561908722, -0.04827521741390228, 0.06281405687332153, 0.06952144205570221, -0.03412015363574028, 0.057974234223365784, -0.06040344014763832, -0.06229621171951294, -0.00843667984008789, -0.010709993541240692, 0.07125349342823029, -2.2023916244506836e-05, -0.053386516869068146, -0.04081616923213005, -0.06056978553533554, -0.04496428370475769, -0.07513491064310074, 0.0565209686756134, -0.06025665998458862, 0.06688764691352844, -0.022969059646129608, 0.018999502062797546, -0.0638117790222168, 0.04435603320598602, -0.03065900132060051, -0.05941733717918396, -0.04321177676320076, -0.04813458025455475, 0.06691992282867432, -0.04202992841601372, -0.01563405990600586, 0.0757763683795929, 0.030083127319812775, -0.05406726151704788, 0.005046144127845764, 0.024148769676685333, -0.030393607914447784, -0.07742153853178024, 0.043639957904815674, 0.03479933738708496, -0.0394502691924572, 0.037790440022945404, -0.01939782127737999, 0.0548165887594223, 0.022728413343429565, -0.012999407947063446, -0.03449592739343643, -0.0007198229432106018, 0.011294834315776825, 0.06561392545700073, 0.020336121320724487, -0.005149118602275848, 0.012664556503295898, -0.04275030642747879, -0.01664922758936882, -0.06277787685394287, 0.02915845811367035, -0.01979411020874977, -0.07644913345575333, -0.07697132974863052, 0.028917737305164337, 0.0072248950600624084, 0.04086330533027649, -0.027128104120492935, 0.02902986854314804, -0.004532121121883392, -0.05684804543852806, -0.05019991472363472, -0.01871521770954132, -0.008116982877254486, -0.05495478957891464, -0.05247112363576889, -0.04937643185257912, -0.004020363092422485, 0.020421408116817474, -0.025227978825569153, 0.054893627762794495, 0.04209134727716446, 0.07074129581451416, -0.009283699095249176, 0.021468274295330048, 0.010660432279109955, -0.07388168573379517, 0.03599225729703903, -0.03293947875499725, 0.07132501900196075, 0.05195194482803345, 0.027232713997364044, 0.025355063378810883, 0.041606999933719635, 0.04347113519906998, 0.017354972660541534, -0.022787578403949738, 0.039997026324272156, 0.006385795772075653, 0.010424122214317322, -0.07058683782815933, -0.0769159272313118, 0.0033790916204452515, 0.015641525387763977, -0.0726485624909401, -0.04443962872028351, 0.02180810272693634, -0.03284011781215668, -0.054734211415052414, 0.05298447608947754, 0.06295663118362427, 0.06397026777267456, 0.037921056151390076, 0.03203403949737549, -0.034300796687603, -0.015933092683553696, -0.014243006706237793, 0.004232078790664673, 0.007575556635856628, 0.06840622425079346, 0.016217753291130066, 0.041487060487270355, 0.05159918963909149, -0.03123096376657486, -0.026283081620931625, 0.05284593999385834, 0.002725377678871155, 0.03335697203874588, -0.06421175599098206, 0.02028847485780716, 0.03207181394100189, -0.03674257546663284, 0.04247603565454483, 0.02296658605337143, -0.03436571732163429, 0.0073356106877326965, -0.07722495496273041, -0.003997296094894409, -0.05184409022331238, -0.07340878248214722, -0.07272778451442719, -0.0403364934027195, 0.05867926776409149, -0.0012441948056221008, 0.02486427128314972, 0.06316569447517395, 0.0007962286472320557, -0.06448245048522949, 0.024981990456581116, -0.030099716037511826, 0.05487126111984253, -0.03412983566522598, -0.02416716143488884, 0.002681717276573181, -0.039201222360134125, -0.0293491929769516, 0.028874710202217102, -0.02291330322623253, 0.05368620157241821, 0.013583824038505554, -0.06934429705142975, -0.07089398801326752, 0.04342641681432724, 0.013981379568576813, 0.018715180456638336, 0.07711535692214966, -0.016163352876901627, 0.03987785428762436, -0.05309441313147545, 0.032115623354911804, -0.06828588247299194, -0.019145332276821136, 0.06137055158615112, 0.005166985094547272, 0.010396361351013184, 0.025796495378017426, 0.019700579345226288, 0.06873020529747009, -0.007578790187835693, -0.03988338261842728]","[-0.009491004049777985, -0.03143973648548126, -0.05406534671783447, -0.025761812925338745, -0.019486945122480392, 0.05020640790462494, -0.02196633070707321, -0.056941188871860504, 0.001936502754688263, -0.0031840726733207703, 0.02809954434633255, -0.013881050050258636, 0.0670478492975235, -0.058400996029376984, 0.05984070897102356, -0.04666071757674217, -0.055482424795627594, 0.06667841970920563, 0.049999430775642395, 0.03172776848077774, -0.025114189833402634, 0.03678709268569946, 0.01021873950958252, 0.07584230601787567, 0.014582686126232147, -0.06898068636655807, -0.009746208786964417, 0.026247411966323853, -0.07472050935029984, -0.00917692482471466, 0.01738736778497696, -0.0707334503531456, -0.028480786830186844, 0.03091033548116684, -0.057809147983789444, -0.008567936718463898, -0.011305391788482666, -0.010296739637851715, 0.04441265016794205, -0.0101543590426445, -0.06591486930847168, 0.053301140666007996, 0.03034723550081253, 0.03836753964424133, 0.0035550594329833984, -0.0031713172793388367, 0.024488389492034912, -0.044287897646427155, -0.008667871356010437, 0.003444977104663849, 0.004954449832439423, 0.0752558708190918, 0.0698123574256897, -0.013137154281139374, -0.05954696983098984, -0.013908065855503082, -0.04633543640375137, -0.06558094918727875, 0.03323957324028015, -0.07319211959838867, -0.059125229716300964, 0.07742157578468323, 0.06102453172206879, -0.029673751443624496, 0.05318966507911682, -0.05279160290956497, -0.06615068018436432, -0.0012595206499099731, 0.00943688303232193, -0.03437372297048569, 0.03472717106342316, 0.06164760887622833, -0.055862702429294586, 0.01440756767988205, 0.01815810799598694, 0.013556495308876038, 0.07085932791233063, 0.0021147653460502625, 0.010575257241725922, 0.05382293462753296, -0.011921979486942291, 0.02533402293920517, 0.028537511825561523, 0.05923427641391754, -0.06184552237391472, 0.06752629578113556, -0.015991907566785812, 0.03856612741947174, -0.06942783296108246, -0.006504513323307037, 0.07497505843639374, -0.04175100103020668, 0.010290279984474182, -0.046886079013347626, -0.04578860476613045, 0.013259083032608032, 0.05500546097755432, 0.013331279158592224, 0.02768612653017044, -0.03727266937494278, 0.05408209562301636, 0.06306958198547363, 0.05417570471763611, 0.07538019120693207, -0.07449439913034439, 0.06690272688865662, 0.07583285868167877, -0.031544219702482224, 0.045214928686618805, -0.06491482257843018, 0.010398171842098236, 0.03416310250759125, 0.07777343690395355, -0.028752896934747696, 0.053065940737724304, -0.06194198131561279, 0.021937713027000427, -0.026454642415046692, -0.01764645054936409, -0.070572130382061, 0.031822994351387024, 0.0030663013458251953, -0.051368750631809235, -0.00015839934349060059, 0.059831053018569946, -0.021346203982830048, -0.008014455437660217, -0.06411341577768326, 0.05747665464878082, -0.03279493376612663, -0.004688724875450134, -0.033544931560754776, -0.07428088039159775, 0.04646473377943039, -0.07436318695545197, 0.028411492705345154, 0.07209320366382599, 0.01755116879940033, 0.051556989550590515, 0.006404183804988861, -0.006364569067955017, 0.031359776854515076, -0.036448124796152115, -0.06711174547672272, -0.044938426464796066, 0.023355796933174133, -0.04506248980760574, -0.05480523407459259, -0.07379285991191864, -0.004082493484020233, -0.014335498213768005, -0.04070822522044182, 0.07204197347164154, -0.04982481151819229, 0.01627136766910553, -0.003824301064014435, 0.020244836807250977, 0.07184979319572449, 0.0606054812669754, -0.03823092207312584, 0.03415966033935547, 0.04044216126203537, 0.006908826529979706, -0.06196538358926773, 0.04517082870006561, 