Input-to-Hidden Weights
-0.0059737195777472465,-0.014712326106285346,-0.043033707820388595,0.016084830774666655,-0.04167829629088317,-0.019624588947221785,0.007154094430160955,0.021493071773099094,0.019013613889401683,0.008175601994362607,0.04350204499684211,-0.02750019190332347,-0.03893313995219268,0.0719056864476941,0.04304191387358731,0.002906470594450233,0.056204359627414414,0.007354881950456957,0.013055076368321077,0.04272176074051064,0.01981704961216948,0.026861803520987985,-0.06286927102718076,0.027819738089717584,0.022562984301307112,0.019824716032036102,-0.07113659673901084,0.007089694860757787,-0.01344068461096867,0.07108245838975422,0.032636332624028375,0.058342755268959004,0.0612134923634558,0.006503576115185603,0.07847602240147186,-0.018148786570703894,-0.04770386978730564,0.026019992530657714,-0.008440345653464139,-0.04667078215591084,-0.08573777962462349,0.05541428978050751,-0.0031823902291617553,0.023685383091830235,0.02978924834827229,0.05989101155466121,0.04634128172699593,-0.030722694437578326,0.009037052062858032,0.022751933995202617,-0.028692845176152906,-0.009848150837796343,-0.058918080721519016,-0.08523080610665022,-0.006534095681120906,-0.0039049494618408416,0.0022175731850434407,0.005389816602458131,0.019290665975094986,0.03351218591818126,-0.037309068007648376,0.028342507374917215,0.013355234640489613,0.007453551048588674,0.0020623909179538938,0.05086982051563104,-0.00477701527928317,-0.002277977168249233,0.016863593476430513,-0.021435478671882075,0.037722767823793586,-0.07186983899381556,-0.06615567495724886,-0.022377638723785388,-0.003952805860863136,0.050562286599147944,0.007653387995507339,-0.020969128642299398,-0.0020372886919621555,0.07994354439560598,0.00711101752040208,-0.0541680570203655,-0.030487876679949826,-0.0225530736222786,-0.002536583287805458,0.0133512025549565,0.010215996162953572,-0.048061465355465814,-0.00011108884992163371,-0.046413728824396185,-0.011164064781920297,0.06841277815458288,0.004925340168192769,0.0029226091800259326,0.043422796414094814,-0.015347192492974605,0.021936583762736914,-0.0031453434918702543,-0.002394105425713257,-0.054904745308566656,0.055687774644922784,0.03060971981789705,0.006737307669478897,0.008786356050365308,-0.03517730977862759,-0.0013359743959198268,-0.02565512398518068,-0.012233114406529754,0.02648360191585462,-0.036975139962991496,-0.015835666908736726,-0.028436990722837157,0.009104310351580488,0.03386922843214969,-0.0581680261210605,0.013313009715217154,0.0202416564292041,0.009698162119765149,-0.026812834097470345,0.01160567517334131,0.05274809576615027,-0.03477472708477708,0.018352327241210924,0.07816145434268743,0.05759306042120272,-0.03936362377560366,-0.01462855640592001,0.05293905673637591,-0.019305941965591118,-0.0031672930930889366,-0.04480954419647566,-0.05488679807459427,0.004599131499369895,0.0863555665693587,0.020773445771566548,-0.01775759045821636,-0.002158831087946743,0.016719615116894352,0.015448651202331087,0.011203683425212722,-0.0012310814748258852,0.013466128658136012,-0.012534315955411844,0.05889093085079684,-0.033869514656172425,-0.08491037310621717,-0.03519403012682994,-0.026812185377366196,0.005212880316779998,-0.034865358293974934,0.03560297312051912,-0.01755900649582623,-0.030190051463940756,-0.01610336076442261,-0.016514974763837457,-0.11836106845282299,-0.066775553889988,-0.06402616277401667,0.004892316545778628,-0.053082009262578035,0.013720649465598974,0.07044031589933815,0.09860542497935113,0.0008283528180972066,0.011047296719878995,0.070442460625597,0.010857596788402597,-0.06425860362498119,0.036302915716874426,-0.035792781642058714,-0.0550649646362017,0.026677372986983666,0.022687005900465372,-0.024540476251213163,-0.025197449646433837,0.035283356422795877,0.046702967120461646,0.019827868811573193,-0.006664922557709432,0.006804820469695248,0.057279815564231784,-0.018124356877059728,-0.04670285794289962,-0.09992794715333064,-0.15200213539504892,-0.18950616787785454,-0.0314415064385661,0.06630191730652606,0.0538170817165292,0.10609844660330833,0.1564945519889255,0.07909010918137657,0.05786791058002312,-0.03340897157809441,0.008117684049209373,-0.012546396551245217,-0.002388232028720664,0.0325899864159873,-0.013097239225018636,0.05858841902613473,-0.025373223300719845,0.033496964527272445,0.07504135472943865,-0.06467275775897459,0.08710803137788917,0.017655837687255396,0.014504772434397621,-0.044727020883533,-0.11645513761154223,-0.040908731651023454,-0.11517779968026723,-0.11063135816425716,-0.1487210090741596,-0.06668897648325442,0.017654954486502027,-0.08282030755763878,-0.06210512967813907,0.09336904227317806,0.07418419984904215,0.06056203914010794,0.0001805974784498377,0.05626727714326087,-0.007867961559246298,-0.035986603216416044,0.008818153446071852,0.030836636128543104,-0.09019282806903152,0.006592898904813559,0.04666760750138251,0.06033051692787042,0.1167187545925336,0.044759592629947054,0.11282948407953476,0.0014195550300094774,0.0045324344906823725,-0.03388780823049811,-0.08794499877945368,-0.1576631205153635,-0.16540574398868998,-0.11375286460382793,0.016454355047125648,0.07889265309121676,0.037063120103567014,-0.0563049311110768,-0.09945866167078894,0.03807838727115093,0.0711099362417674,0.051440993310659724,0.0683756114380766,0.03234842695483571,-0.0052458283303306995,0.022354660461137595,-0.009785457696311575,0.001835463834088341,0.018136777226734,0.014576057965167874,0.08425766835264356,0.05991083670722453,-0.00031926581671297855,-0.02603589941875054,0.018734174770397773,-0.00038276380280673216,-0.07575255361958587,-0.05680256977805326,-0.04292092346445674,-0.02602311468881779,-0.06621893739095987,0.041127212259779854,0.07882303657750671,0.0865732116966074,0.002702548099846555,-0.01281395138490545,-0.07509263774566098,0.015267358913578163,0.012220871336271708,0.017591398301745324,0.021014679545698224,-0.0197779879289502,-0.04791286507484936,0.010261562140398549,-0.008603311642584845,0.026207147866291237,0.02293524699427438,-0.0017857098236405626,-0.023293894903501373,0.03542838906214274,-0.035119820376517036,-0.12236116049545935,0.10982102381687221,0.10614939631337998,-0.08540642749337957,-0.06318760738297803,0.06539573874113139,0.0552751009875669,-0.03236572354291017,-0.0013405197035432168,0.06923369882110553,-0.00627361132996937,-0.03128314258730941,-0.08653849760858655,-0.07983013847709054,-0.008438101791246651,0.03292871424897932,-0.06507952780931378,0.011767033581924958,0.012298319948219043,0.014816009372900105,-0.07471992844814532,-0.04880286660305372,0.07395835300919487,-0.03137377749016517,-0.023965018112710318,0.009481922849592817,0.06012010204428252,-0.03631794076685899,0.0507627812496196,0.005065131484586497,0.03838276864318506,0.026041442876979518,0.01158143030015416,0.04367532329222016,0.014601063711750283,0.02942601681903354,-0.0084341587917362,0.023697757967481272,-0.041206727500983684,-0.1196329226829656,-0.06973047189892638,-0.04404626840901631,0.026046820320937143,0.053870538689332774,-0.023259034450891614,0.0167040700795957,-0.013570505316000427,-0.029039952656564977,0.013205611769116627,-0.03779712307152099,-0.016677396858164977,0.06904085791291462,0.018227321825724774,0.0037256744653512176,0.003935156267096818,-0.02777725449943872,-0.04234363575443686,0.038007349317697586,0.013671306696608961,0.005587605899568421,0.012782975515654315,0.034432759417661774,-0.02738299413202055,-0.01757384207030943,-0.051020330990895986,-0.03534604791535344,-0.011417855859567987,-0.027023494792054212,0.007060419959444055,-0.02629535697964551,-0.009451166708920407,0.028399757265696178,-0.027498424817970976,-0.038046484735859726,0.0007233772567231317,0.0019743074849940716,-0.033446645482450785,-0.019706876473849846,-0.03625974784102649,-0.06292177052802281,0.017584172498433304,-0.02923051725038181,-0.009532752964140486,0.028316485866470408,-0.009312868674007383,0.0552664005192701,0.08947040231698525,0.08036638986399908,0.03176502147896637,0.017653497210883946,-0.09164255703343434,-0.06328280732885685,-0.1020312507045278,0.041665738278520936,0.04486006276205391,0.09427693598728165,0.0007081401778226785,-0.059648207011390904,-0.04149332876972493,-0.036352696977678005,-0.000970467256767401,0.039462565614282366,-0.01167982382766063,-0.008902535633641143,0.07840353567971496,0.049853337860074357,0.013521233055371246,0.012789026974256105,0.029958741177828624,0.02775232987731289,0.03161107892379468,0.04783658171562745,-0.0160765342687573,0.03735875027046446,-0.013588793388307164,0.05565014407776105,0.0812972397228644,-0.019801782202977652,-0.04479751810836113,-3.0050004289584095e-05,0.008265714279906822,0.04443353012844602,0.06967752135445639,0.08052610989669051,0.12773674102157417,0.053191110503902704,-0.0007818391153271458,0.060503468735831324,0.037949601876482414,-0.044880132279770064,-0.03435867110580147,-0.021651315248754764,0.020140683341804112,-0.032850860307969236,0.017353504255075706,-0.017839198186410738,-0.017695611132193034,0.024802474749275723,-0.0038099008847043807,-0.0031379622044512404,-0.004964790243762692,0.06410176112978865,0.020982453473418088,0.023613509363242514,0.03976268575931829,0.060168585488005674,0.06666944670160704,0.0645273113461258,0.07295177840462375,0.10510969445900487,0.0793500889284449,0.25726971204245885,0.1349752070256005,-0.007110079790414642,0.01116069461605774,0.02498950384021603,0.04274738668344412,-0.04033375374956188,-0.0030722450850091836,0.03043319314408507,0.025039926718932595,0.00873440026699649,0.006169492811131183,0.04142714579072105,-0.036324561070875616,0.07678703552214729,0.04000176378340092,0.0514158537646746,0.008500204403038693,0.019871785742344442,-0.01574496697557879,-0.06708509172871685,-0.0318526014609888,0.006755102168912229,0.016877560878976208,0.03929321208348295,0.034481153376797864,0.0633105426704097,0.18367634307071182,0.1310444952971283,0.004278331500350876,-0.06610723986817434,0.034751495229029344,-0.0011532346380555584,-0.0036366443027601053,-0.03287213442306502,-0.0571740153785103,-0.047531966176132485,-0.013454401337322383,0.0015262857242689337,-0.013006424644107322,0.023248087882422806,-0.01225290769382386,0.019024789799099925,-0.04043929345234257,0.07650449399706065,0.084180780065721,-0.04421994702516265,-0.12055531456343366,-0.09320504596040138,-0.06588963059338193,-0.005358146177631231,-0.012555263476100469,-0.032771716432782726,-0.026246915833388628,0.0388313395351539,0.06401806439929235,0.03317124985214251,0.028541598040804052,-0.04564817693738965,0.03161236562048405,-0.025657899143049633,-0.06309046305239828,-0.003165635695659194,-0.042507460789208834,0.015721269974369376,-0.03523094246045404,0.0806380950039357,-0.02395059533392704,0.0937982908907595,-0.021484444417852723,0.05956202695334068,-0.04582640446668973,-0.09008556320152333,-0.0732124367760614,-0.08491803744094677,-0.07056071334573234,-0.0074963982875559726,-0.05159049161131658,-0.03057868450606694,0.04041407016295046,0.022740104058658665,0.08721996611395193,0.019632369761742183,0.030734505287880562,0.011887239696619827,0.0040921894108512805,-0.011644350891715586,0.04793870757195746,-0.019797126964885055,-0.0353842254265814,-0.055183690822444856,-0.025610912670939318,0.034790608590407064,0.030150927262091683,0.013161021319097771,-0.014347689650019337,-0.06428615440618539,-0.014132525031557812,-0.04396345027061988,-0.02350340180500848,-0.007697061458878785,0.006026231777563111,-0.049749199808678195,-0.06262272378155814,-0.05657890869087708,-0.07069875507980657,0.0854166916530293,0.03391607830300661,0.03563151843060469,0.0353715835357768,0.05601504626483693,0.019895068115028895,0.09819241461750446,0.05416492194674151,-0.005967393282054723,-0.0428597958972203,0.02367627471291499,-0.015630219092903345,-0.0352382081345194,-0.04202615792353256,-0.033323027925827246,-0.0568348724701615,-0.011312598951341162,0.02145510880633443,0.046963045440878586,0.022496919295214333,-0.009363025487587417,0.001630445535584101,-0.07464210214774038,-0.012662782598125352,-0.006862103112480815,-0.12007694653966912,-0.08588283150356629,-0.004446009592629447,0.014512696737512628,-0.029867863533608523,-0.06923350350178868,0.010528521827826222,-0.009840628382464195,0.0478393736812966,0.034514823114756385,-0.039825047854317897,0.04255258263536161,-0.012123610750810355,-0.06150507489830131,-0.037398943233330637,0.0630613338024108,0.008400065009915896,0.049260007408114884,0.008439756348767851,-0.0030570586822472284,0.060751226455795025,0.037149254109264326,0.049740903656897706,-0.005220432527422466,-0.010504338137661846,0.0030179899683669283,0.03682758910799249,-0.05085042262303124,-0.028947433861187147,-0.03727713543408268,-0.042859773808505364,-0.002067784956848032,-0.0878721333868124,-0.09495081153047284,-0.03492801823195014,0.02552185513848692,-0.013699335182560536,0.04840987453278718,-0.02248242449663859,0.052440088181809646,0.09942107276533077,0.01991668489160529,0.02590440969229712,0.022804060800859043,0.028488887920366742,-0.03087413866614217,-0.02566572996928318,0.02820665143139197,-0.028868310629245237,-0.018752595419163184,-0.01608721891933696,0.0011721422107761133,-0.02978542816818526,-0.02434405751871835,-0.02643443403408531,-0.0054131476062610935,-0.0644457668358255,0.021177652957809028,-0.02580502564759479,-0.04832036390892105,-0.08028512958915215,-0.013779053090219404,-0.011758811679453503,-0.042989089529939774,-0.004682086686330227,-0.06893304847412042,-0.01818462471152296,-0.043164559804631845,-0.04812619464370167,-0.029235062308025382,0.0012057197311907827,0.03704880567169809,0.06342995921092097,0.031436262315988374,0.020369048369633592,-0.03273652989128968,-0.020852400644385576,0.0050676098201322285,-0.056854470912432474,0.024456306214183276,-0.02226759478705484,0.020677840459320432,0.026469176523125863,-0.018917081995232968,-0.04704546129316651,0.005473570768252193,-0.047057659348519854,-0.09705839694250921,-0.0853488003958109,-0.06911750380632695,-0.03665931090520652,-0.03201249777174363,-0.03599065892469453,0.018379363372469055,0.010128181037270773,-0.03121174403252858,0.026738822385277517,0.04746983539468684,-0.03176202903220067,0.03546938358926752,0.021740976550031467,0.004554518853584214,0.018576787748185677,0.01160641206333923,0.028911202827287045,0.018560840806363655,0.008928428627861092,0.007862342377327636,0.02505024743019975,0.018381032397079992,-0.010013564641450885,-0.029940515232226666,0.040131122536209665,-0.14319857643641504,-0.05806568121909959,-0.03525977900586512,-0.024597574546347527,0.015943694733596567,0.0115701685119896,0.03369209909827007,0.04251148188235529,0.054765236316438,-0.022373419751630024,0.03477303460515181,0.01747521333816974,0.01604498244653184,-0.003480430045122635,-0.03865950350968275,0.04290461812161085,-0.020005116348261878,-0.03594181883554486,0.09201714755702668,-0.02683429793645019,0.01514691306822646,-0.052576421859186366,-0.03517843051419827,-0.0054042832393769585,-0.0003453960786799598,0.045473749530257644,-0.010567532674119348,0.024204286363551025,-0.0054521842204885455,0.009037104681831453,-0.005612326842957488,0.04010779570321485,0.03712061576275514,-0.06303306769156433,-0.009348628506589275,-0.027873681937923694,-0.0012705259129607088,-0.0181891622540998,-0.03691403552739757,0.04417656093461908,-0.007963069631521567,0.0005994216257121267,0.015594312960368728,-0.08289901316153203,0.012171265970702085,0.015431263525832344,0.07262257627420561,-0.02202755244121532,0.023180559493486387,0.007285056562355664,0.0004914338499022123,0.014227167580447418,0.05356183846272501,0.08199337939436065,-0.042160366820314606,-0.035745554943829076,-0.1014917737528041,-0.03224652046661394,-0.05744519180387234,0.028550996597469902,0.02267756380236491,0.08286710041656706,0.0037508338991422024,-0.0023388755142136762,0.01955016098391896,0.017064040882177174,-0.011808844661713138,0.010526096998918506,0.004220263386105902,-0.014835464061147934,0.020172881179594676,0.043641641776329836,0.03979101567007978,0.05515895980364616,0.04911260020965237,-0.0007520920991906642,-0.003054878093945779,-0.06862681062560998,-0.06607814465770578,0.011801115647336373,0.04815026925594187,0.06901826080814752,0.0007368141471639374,0.024610012096933177,0.011014377418277179,0.013535228040738222,-0.008658316049146228,0.03280033484163701,-0.00409487060993303,0.0925790140995311,0.06629272739329976,0.03766864434638426,-0.06714449310521009,0.04361828713459846,0.06644225742985566,-0.036373177767493714,0.01900950291877341,-0.04234004422526898,-0.020950186125737603,-0.018270600377861025,0.009547034527218543,-0.044459236319520805
-0.0022620204495593,-0.02884417716926915,0.04327804475619724,-0.03849985140087041,-0.042068170220490655,-0.009920302008598452,-0.03250939190798993,0.01730908500267127,-0.025147590819201714,-0.052044473961938134,-0.010136470109630423,0.02418758156483784,-0.06449862457949074,0.024879268643642326,-0.04233514742021011,-0.018908375925097292,-0.04147934629660147,-0.0349565978771096,-0.041527135137473366,-0.005219069815040493,-0.013956262689053209,0.02723336333972876,0.024901728480802524,0.039815481370210425,0.05031318693859506,0.059008391176135454,-0.001407294463213853,0.03561352389783612,-0.009021433540567175,-0.03917063290883792,0.010111620316098123,-0.01988163442612974,-0.007033719364116222,0.12309102402798462,0.013326102438001029,0.023395222149130635,-0.0005768720819048283,0.0005361833363449165,0.026275885869034146,-0.007680013101483864,0.007163680560035102,-0.044081778435184224,0.07983986991609511,0.009731355434693613,-0.10525467657730384,0.025571878747549636,0.027383366999443454,-0.010859654639356236,0.003061433478205165,0.04967743639863942,-0.06188354737839583,-0.00952804303575142,0.0326001673835016,0.023885484939239716,0.03288721702487121,-0.022253241826604885,0.013733284282829718,-0.024588520887995593,0.005468027300877174,0.037426162240510714,0.0541492800553246,0.0357098501481413,0.05795353716265427,-0.004685737055406499,-0.007554103129041805,-0.02789326285097737,-0.021979428478542017,-0.0031668929470794346,-0.007325755853873246,-0.002385258935114424,-0.016473889689165803,-0.027220662970477802,0.045776609018149554,-0.02943285356497567,-0.06504005400009273,0.010783545061345937,-0.03857815785929688,0.050390472143664634,0.021967300834986606,0.0021102693875744124,-0.0026949057651151497,0.012752619094739294,0.011049247986820396,-0.004358107057549292,0.0072282923580791,-0.0028042337697468315,0.046597397258639775,0.03226989341371913,0.04507799062750222,0.004815645263244841,0.044992202214776025,0.017279081511640076,-0.0032802008294925094,-0.0035784801164048695,-0.048000805229671956,0.021603208361605022,0.02026751242579483,-0.002809246675532532,0.054779174509690144,0.04668158441618383,0.055805159245320084,0.004180064800544562,-0.02476468955607011,0.07733270746382302,-0.060981050510092095,-0.019327502249299102,-0.006486217528169932,-0.10728882109953108,-0.034770724650380794,0.06805377335704202,-0.034420232523886395,-0.04038192786098749,-0.022099896595409913,-0.019693493336903466,-0.01958702676811175,-0.05746520746857084,0.05740419011068888,-0.022191978825783523,-0.01607555927877691,0.013093067293199688,-0.05033695732503422,0.042165668569733104,0.0007081745600506817,0.05401848672409499,-0.005480192331384903,0.11228527570103189,-0.04027740780489697,-0.043887228073990106,-0.040326487228431566,-0.03620158535610142,-0.0391731361560257,0.007013773446646872,-0.014383298558627276,0.018026388808265747,0.017756895683462254,0.0742697082467783,0.08801925131856776,-0.06724175022188252,-0.03829234518194238,0.02243305663384509,-0.01725719166651952,-0.050607297159193564,0.01934039520894675,-0.0124264506593917,0.015413417627848019,0.06748163930113514,0.04191476059751976,0.044273113901986884,-0.05012988614469977,0.024872388793000702,-0.019700870843334585,-0.07240205355740105,-0.006909740684038022,0.026063808011879186,0.005203251755252337,-0.03728628138985097,0.020653355644350387,-0.11473557715221865,-0.08323373529715172,0.03591730742725412,0.002498772172526834,0.024740540779527906,0.003585195744716282,-0.026648122852742484,-0.07826976794428313,-0.03632062812926479,-0.04166772235873375,0.037651612343438376,0.014796595274829459,0.00991698988987943,-0.07254627334846629,0.03825805237189515,0.009679205068103713,-0.08069126559196167,-0.021751989312805836,-0.007552155145146856,-0.04972939777133569,0.008219168298273903,-0.03993866730338213,-0.032354092544607055,0.013677833362521952,0.024862487889867075,-0.03393468700874315,0.013440960819106057,-0.008882428498958784,-0.04285696045296478,0.015592959519597263,0.03209762602942546,0.0880486163210262,0.05348264558546373,0.08474614431687967,0.05797189092430786,0.018089037111488786,-0.0074589953771775274,-0.009626071978148147,-0.027465889849516655,-0.04838586951530529,0.06524980442251424,0.02979193205258555,-0.017113042378887413,-0.010685756058837734,-0.03137174565591181,0.029382709293388105,0.029061462406544836,0.006549074218099759,-0.013576177473687988,0.04048542356206511,-0.027424839662724486,0.034429153108865865,-0.016187348311814884,-0.03874556954652705,-0.03456617764426821,-0.04535986771656909,-0.16647365119323182,0.015029542353445382,-0.05939774012251949,-0.01277832376761371,0.05223992916794255,0.06634571054052306,-0.019756150302409202,-0.04456387358542034,0.01250593946044252,0.005327755187895055,-0.0034807563847346393,-0.0565980793830087,-0.0012686098490541117,-0.03304691816324693,-0.0018370595808915526,0.02626691294556209,0.03172379446382909,-0.06310082677028606,-0.021997421415739436,0.03145524208852736,0.06102492666218011,-0.011025561494629632,0.039025061818198065,0.06058561394339224,-0.03998306566466673,-0.10523360024320577,-0.03462801325595951,-0.023272612941083466,-0.093341594699656,-0.05376024512751626,-0.03339774121982489,0.015111925846499253,-0.027959750413431534,0.06446013603232544,0.031135035942381428,0.040555864069117334,-0.01524527576555327,-0.04837502972876,-0.02965652419954248,0.042186544554077006,-0.03930074214873968,0.05165902415445874,-0.010047350896122208,-0.10495013757196428,0.07863707353702674,0.023175844700383516,0.009400574560830441,0.04713315990010327,0.04841765339057465,0.016079856645872442,-0.028663993390709817,-0.053926482962390325,-0.070900789406017,0.009480964181154503,-0.00638639216179113,-0.013544853794038728,0.04345841466675057,-0.07778065114333435,0.05542295156120656,-0.016332115400692168,-0.032169973226732866,0.037422488086087086,0.07344132034878484,0.005838066212559212,0.021855817377207157,-0.06896300372639656,0.02051793217402585,-0.028322609991346104,-0.027143767052813534,0.05238187611779338,0.048905365643161475,0.003934840817031872,0.02851755231399358,0.01117360099305137,0.0652716876148628,0.03713626078504925,0.009880572556687024,-0.024074771833157732,-0.020714911597779457,-0.029299945332479545,0.022194707253635936,-0.03404385817234294,0.07212288377375202,0.1539992837455789,-0.006280969072095725,0.030636188971120856,-0.10749832226594067,0.002197730321518161,0.019456207986360136,0.005662948995761566,0.024470296424242977,-0.047304184802982895,-0.08277199228202871,-0.013143746604401778,0.003660252642185472,0.04469488113983636,-0.022228164558980096,-0.011064282032171696,-0.02986565804934503,0.032825591920051966,-0.0027666038368927277,-0.011912838943318333,0.08661476875152913,0.023664937107937385,0.04758924003346271,-0.012640917432479448,-0.028853270944455597,-0.047249595014985254,2.2118790798350965e-06,-0.016603048222071592,-0.011130338302237188,0.09112971543728031,0.0341741222420232,-0.013358493983788985,0.0033043779866221185,0.02136976056033579,-0.048189039704911424,0.03888598343672247,0.0024998049260089353,0.016800760332702933,-0.0016925120633477998,0.04819359570795769,0.03926403760263013,-0.05399663825023982,0.010334683416376339,0.004197822574532276,0.004532163607251687,0.03621896479034647,0.08912351143142147,-0.04496492200193912,0.005628711784440016,-0.004266998700380259,0.027398369208826334,0.023953866490673246,0.028720934689639873,-0.0781707595674422,-0.009970122575928058,0.016858985257095966,0.11158810602311522,0.11473229854921978,0.07902441391173963,0.06553155915279904,0.04499480929760366,-0.02803221405237426,-0.014143812773022377,-0.0270733813587819,-0.05650997418717625,0.01957100632361244,0.03395704205495735,0.03904031518427043,-0.03522906207193227,-0.055126429764993747,-0.016953288403884808,0.0034761283799174107,-0.057893400836289674,0.022580366991908254,0.00010591334295631518,0.04597801199035772,-0.019936626289214884,-0.077987050166567,0.05259014870275544,-0.023529883155051202,-0.01802457440512821,0.008357856306413159,0.010316695412640164,0.031850925701724465,0.10301832256188177,0.035028212893075825,0.08690457254632822,0.029241714803189173,-0.02598245459747924,-0.06695248477599422,-0.033184958709541384,0.0009810227432933115,-0.02764126876123839,0.011465801852231429,0.014894501447666077,-0.024169451624188088,-0.036911627037703315,0.052367568226001054,-0.025855935215976646,-0.004200845473779141,-0.013107824637592443,0.06072891534089766,0.025708058137729473,-0.04053000068826627,0.001880925574206483,-0.05567886120427076,0.005387587227660683,-0.022139829033762697,-0.06092744396643378,0.0868498057948577,0.10933091700967289,0.1311136848434619,0.14394108711953757,0.054977700977894985,-0.012379648385438776,0.0825945747461571,0.04889935972369345,-0.030626712622822676,0.010542245872164138,0.008940468716169433,0.047004953846362614,-0.00998687429498123,-0.059276145560899246,-0.03784645659597906,-0.02184731165173628,-0.031069978379962972,-0.07991686927948469,-0.00019393768260251022,-0.009059127347388023,0.03652073920952229,0.04353861434305707,-0.0014292290080257727,-0.06615459970679556,-0.03149389371203056,0.006613362232696851,-0.03428788707535805,0.0003865680440853056,0.0510000629476872,0.1434477529815089,0.15207762039036904,0.11624902277162243,0.049560100221985606,0.09136298988866136,0.048090665076294774,0.0390248674078344,0.0013962242571810182,-0.010618363085049994,-0.04028523457512195,-0.03198297932898441,-0.06427202163726059,0.040271400470746614,0.018553594995327143,0.041836611178997604,-0.010879435142713235,0.08241840596197575,0.07470156071301721,0.037787443677546384,0.02010479743899827,-0.05360624455369475,0.027656350245387727,0.00587822481691698,-0.027428415882302777,0.02463627322912807,-0.011455420323808118,0.03206536274467879,0.09853150357911232,0.12370352416948459,0.12595637871915452,0.09600762712391353,0.06649535417094508,0.0939585935035152,0.009513293595565889,-0.04100822760739012,-0.06058354108783112,-0.03544201954842558,-0.021970855867818797,0.05490593877587205,-0.0018207754074513406,0.0440624945695407,0.027463118455985463,-0.02068833260918679,-0.017569270018002753,-0.0036671686034287112,0.04523030875016477,0.015957651543051687,-0.0449891121494909,-0.04124909712649654,-0.05726381371362447,-0.0822817520617195,0.01267017877342506,-0.046812281496139974,0.0024605781133545373,0.0040715497002809685,0.0396788537967378,0.07777788411007922,0.043026825384716014,0.07871395727716683,0.15490989579955305,0.09674458371651234,0.013004686250306863,0.003142940363229802,-0.023664882448622228,-0.0945077660087788,-0.005049155986898663,-0.02832941571698036,-0.004377562002516354,-0.03346586160820304,0.013798007683125913,-0.032451347274406996,-0.0198648410228788,-0.01995258385009049,-0.0468081615772554,0.04102016936383124,0.030747096847959374,-0.01481140276491683,-0.019227101535465856,-0.04681219266446337,-0.00892481436205534,0.008821440656587277,0.015944045342048505,0.054857776797342495,-0.03303334186372578,0.08878299525298458,0.09870326170549779,0.03758369707779037,0.0742045795350615,0.05338311812886742,-0.045997625600366104,-0.021647211555596176,0.00948833903118563,-0.03955002781545498,0.016181758210882843,-0.01813129253034108,-0.02913698225685071,-0.0044982462338854605,0.0009460631817018167,0.008634507098779132,-0.028996112020147503,0.009201616125820539,-0.07096524093346357,-0.07717393416918415,-0.03069314884389477,-0.09187861948803872,-0.06899516201395808,-0.05184964658603732,-0.11624189747382273,-0.020248693735394827,0.06555315039454854,0.05689254162534587,0.05418141801325018,-0.021720202294131224,0.006895244144653066,0.033910752930581406,0.10932522444132782,0.051914678012717194,-0.06791046564751309,0.038691272829607735,0.011613445871120091,0.05909560176744204,-0.01845002098452717,-0.020723292196349722,0.06502305961209391,-0.02594550207067251,-0.024223817096054614,0.019834218539305993,-0.02480459144498447,0.022703460455309386,-0.0619998179415229,0.05333549639751476,0.033317001604037846,-0.07976686891446537,-0.055802464631524905,-0.09792855252997161,-0.04398764850492213,-0.08502204391564008,-0.06563254083783386,-0.03155795153334194,0.0060504402249504825,-0.006795353845828708,0.01070794532911321,0.005492807939619636,0.0857939455496872,0.016031703132538443,-0.014110771831524186,0.016376736148651646,0.0457046991728052,-0.019101855542799254,-0.07708191352371399,-0.009624482374067062,-0.038926616395467434,-0.0014872640417484258,0.007818932189554467,-0.038792310271919206,-0.011123468325631077,-0.0412442734093729,-0.031400199625886006,-0.03643288267361287,0.006675281671348666,0.0346328380352318,-0.005013887196309055,-0.027628237367739887,0.011748645707265103,-0.04628400115502211,-0.12326474259242517,0.007702765003640212,-0.03587399603978217,-0.06484776000835529,-0.012290399340847429,-0.0005023862508466227,-0.024805592535359376,0.012741167628438771,-0.013202949992653982,-0.029290927886294713,0.030229343615932772,-0.04613548940106264,-0.08164391905012336,0.009288715874723567,0.01847556424546601,-0.0045728249043392385,0.03832463954967668,-0.006109819861894581,-0.004979126624428022,-0.007828985571059583,0.039893588273031404,0.061742165033055664,-0.02945144734118776,-0.0034279179548758875,-0.09109944996301292,0.022011253611743144,-0.006016765764289438,0.04365009016053126,-0.013521668006993203,-0.07519968412991196,-0.0497386106051534,-0.022755821989822903,-0.03002491272763498,-0.10395856850578307,0.01472012343649124,0.01348116740072066,0.018093111380052908,-0.014209492485971805,-0.008846357118207679,-0.016104012847850832,-0.021228198414541436,0.002876184779969699,0.0023261539341585084,-0.04612342308034248,-0.04622830679104955,0.023751380392817257,-0.03379671550053524,-0.02745350333757807,-0.01240488035812389,-0.10183864733312258,0.017399454714558945,0.05290539095361452,0.05317130809117062,0.01325540793433589,0.08756528691660818,-0.02992214699396931,0.0024255322879523232,-0.038346572101949264,-0.028280927951644254,-0.009335731852889415,-0.10733682112185676,0.007574300609148176,-0.003375846995667436,-0.0004831413966976289,0.05016432776355532,-0.03312772139706089,0.041006948060448745,-0.01742855765509486,-0.005015302431591076,-0.022872341293542466,-0.03943830691208319,-0.021403800729932487,-0.02915847039037636,0.08229540795998666,-0.03404295873114409,-0.007874751514005735,0.023449079005677973,-0.013375678967113091,-0.013765706530684652,0.06491108961146064,-0.009625224684579513,-0.0010538624532553304,0.041955982942089964,0.004054525672628562,-0.04538151618559307,0.048499481181948724,-0.013499893327737955,-0.008610259019306956,0.04327216439262357,-0.0372796456883515,0.02180200830418852,0.00943518952898194,0.03257336206655475,-0.016004839538812366,-0.03680796562294479,0.0007162772272695615,-0.005224098895901496,0.03542581603857845,0.06316271084832997,-0.04299563127692786,-0.039312122347910546,0.027772751704256814,-0.0024871096751112195,-0.032800106234653015,-0.017044630197274927,-0.05805267466439525,0.05195619062035092,0.01583686509139992,0.018307779423433184,0.015099147545487345,0.013865467301261173,-0.058582290663348614,0.023500550602229876,-0.057708666933369214,0.02563547908748622,-0.011402289744106413,0.06373136963840136,0.09096972023064467,-0.016036837152523284,-0.010997658563319324,0.08727421565413031,0.0055877703611664125,-0.017421256158595255,-0.015267561971849383,0.01539862668184997,-0.02761190228434623,0.05946311225742534,0.031861727732594824,0.04549432212712337,-0.07572483928339795,0.03296141472231386,-0.04667481991864901,-0.02377976376968075,-0.041442796492232516,0.01662957804959009,-0.03304970169680703,-0.008047484852805922,0.04667131584131064,0.025074180296776348,-0.021262662169789767,0.00705718737287053,-0.028036472001417734,-0.050543278534343525,-0.03866871865636617,0.03933036669467688,0.07322161949411826,-0.012359299717557469,-0.0219659918080054,0.013627310361888858,0.009298739617454225,0.0042865459262487375,-0.009450299972300695,-0.009257913424524368,0.03378299519569145,0.022402634260768748,-0.015106583078172036,-0.05356526758354016,0.02552790599449439,-0.0014635322189541565,0.0013834791071068993,0.0016642968186167057,-0.04222660424164173,-0.058592249478182215,0.02972489352714826,0.0646206335819278,0.03568442809701414,-0.011630906012960457,-0.01650334631835503,-0.006649642611947764,-0.006945711308979511,-0.07801601581395508,0.00490659385809406,-0.008145260192718511,-0.022424015155285446,-0.03016530941689809,-0.040124921431666655,0.041342110041293956,-0.04158903842096441,0.015537352188751878,-0.020706974830364547,-0.007551222597074803,0.015379033068987647,-0.06361782015564522,0.008594459505935759,-0.09211762107740186,-0.01951545210129123
-0.006240143609611749,0.01021305335838651,0.03647737768158016,0.029650008299151886,-0.04891038667763052,-0.026920583017380633,0.029746229558177,0.0015860916494605203,-0.01774508333277826,-0.05889999002358647,0.06710771325409023,-0.00900541724463432,0.029836630207909855,0.05486885069725958,-0.03050834434602123,0.008516047721386475,0.009287898969663585,-0.03388531148614408,0.03994676073366443,-0.027032238629474587,0.004536692511688019,0.03542871182231683,-0.027141465700138315,-0.022557909728295692,0.015945082453230827,0.055340419452644375,0.022720740145376703,-0.020445128884823378,0.056689676694184836,-0.06020823187179389,-0.05349379583667361,-0.03420455580682213,-0.0038194616518650477,0.006814706251727336,-0.012669732394505667,-0.03350371087389315,-0.04278695992679231,0.03244497782791861,-0.06440559246592822,-0.010248160590954047,0.0034355441814306986,0.044874133285853324,-0.07617018405495277,-0.07086333203513046,0.04417848813663959,0.04465245202759018,-0.004067833981427662,0.043669430564828166,0.0302798610022561,-0.04955215450074654,-0.0015840544774819363,0.015473476793451183,0.009788447307204183,-0.019199392046756327,0.05830069859596977,0.055020866603025055,0.03156091001527819,0.023573288652772664,-0.012722083798495256,-0.04273953177910323,0.003759024014745448,-0.012040532855086916,0.04368497019469924,-0.01688906565837742,0.048422526497302346,0.07535846360574941,0.01795215795166116,-0.00044129418400379685,-0.000631363913291396,0.029593687063516973,-0.0129100632367759,0.001276023268848765,0.009712418545299958,-0.023609963194205504,-0.028206331638657937,0.08796388603070758,-0.028543542941469945,-0.03645306075937531,0.012600574038640464,0.020991421033375156,0.030989979788951075,-0.03149874760874285,0.09024097921417246,-0.0011778751769429346,0.004569497542054096,-0.03754984480951655,-0.03083359761953803,-0.0052347568164929,-0.06838336327803533,-0.0193546043349894,0.0142888752519807,0.0035594344353858565,0.007332309069706839,0.0006704799410332824,0.0003440131095769925,-0.0053979118904575775,0.09969642338291533,-0.047912139104050684,-0.007536775100477162,0.009298658366215807,0.04334827877748813,0.006619145666829048,-0.025586294655022625,0.026327085346268677,-0.018267124324174433,0.029300141655545914,0.005750694850592339,-0.027345085566858603,0.008497691295866909,0.015936709790904023,-0.014423170550636825,-0.016201919664688234,0.013902450571489693,0.026429040698675427,-0.014891592428878742,-0.002735600268439989,0.023638307153332105,0.06147560514526405,0.034793708328772766,0.03878145744950832,0.015639607308809384,0.015687852702581682,0.06838783521675378,-0.05858076043858898,-0.026884068754642106,0.06067654769061775,0.019639301570969665,0.027935174069326264,0.08945144733565852,0.042787195407325965,0.04720790574745497,0.03585447966966725,-0.06870895580878907,-0.00183859069590537,-0.003222117821471144,-0.04354279454596502,0.024232061831658668,0.007962851469237892,-0.07274610993647147,-0.006844735005189613,-0.03227519486063904,0.04034088529225083,0.03098690329453759,0.030068602265862433,-0.01044918003162313,-0.016443406541976697,0.005084709735104344,-0.053584148471380176,-0.037064884540997996,-0.015974577642055628,-0.03624850366323073,-0.041222296349917927,0.02572169297205698,-0.0005264019423905133,0.06230401712203232,0.08871672610511595,0.018634665787955494,0.008641886475451907,0.03950387029466789,0.0475964590035885,-0.0021112999446396196,-0.0423793084024147,0.013693042158240402,-0.0725269178820809,-0.055927291082871596,0.03331528702929329,-0.02282444157401525,0.014412791346487144,0.023437723473072058,0.02691428383964382,0.06047979273982813,0.022693488744216485,-0.022524699192883215,0.04138466153891043,0.04558814515983347,-0.07443701145562351,0.03784960785321029,0.04089540800338677,-0.012455050365710447,-0.012652720750335387,0.02903098414628048,0.05981761262656744,0.06938035035853207,0.010844409537465797,0.07873501181926768,-0.010074485727003667,0.00778066759762074,0.03024452913386139,-0.018140290697817304,-0.04186867015991343,0.027452596288766905,0.012831076830715604,-0.045652792810394215,0.08825429143137022,-0.007935408961266644,0.021669766377960354,0.01728487136344761,0.009219483933980076,-0.02232496012478914,0.032136222395165316,0.01122860635812551,-0.003947846840538303,0.028205480180431772,0.029089443403060248,0.01261847598387096,0.04499573297222942,0.060533771860095134,-0.014168200387051579,0.0014548541650016664,0.12268249039338444,0.07158568629575618,-0.005463621315010819,0.042690700409627906,0.023092290741541652,-0.022367957737926318,-0.005860400725935319,-0.019610697437118293,-0.01841023942932133,-0.0031810927297223246,-0.0016425517212955135,-0.020875811301234788,0.04023352471664122,0.04173005952816387,0.048339233229027424,0.024362368030300962,-0.006887420043426678,-0.03229688774918523,0.04849705463494284,-0.015391597298824186,0.04670096411679959,-0.04452930193712501,-0.007100659222150872,0.04245874920097072,0.048669078343059786,0.010089432659255389,-0.03676939593056681,0.03884300215631049,0.05368082601136346,0.08659160134264159,0.07196867417982115,0.10186812795799713,0.04559435514207653,0.05985952293047819,-0.015081667302379769,0.027643801545408582,-0.04195180233925537,-0.028815200001906564,-0.03903684086487596,-0.003876454356448085,0.008977310337399045,0.06328249689463011,0.04374701366525402,0.013035283188545889,0.04752655700758127,0.013205039588007044,0.008636569982744875,0.040361112118291735,-0.024363842048625014,0.034273571544187954,0.0022234088152187255,0.02884245138546639,-0.00256477280749701,0.015008801681235383,-0.0528326467057247,0.03776057568509214,0.07743929244101115,0.018279084008156636,0.02487404413807681,0.11329408023985536,0.04020336299040173,0.045895590769248255,-0.03353423783964537,0.002490853725321483,-0.004736804716758063,-0.13981163726618243,-0.08211815629069369,-0.051327729026114995,0.030869630312801436,-0.03536824105807298,-0.04600693334689583,-0.004606067726071327,-0.0027701673589509814,0.06336103047337843,0.034135163034370426,0.012535866167771649,-0.017785959885414645,0.0406426733547457,0.04935565967716791,0.012868164462150718,0.0004277518750178219,-0.019860735625544676,-0.0670447741572933,-0.03536985548426385,0.044920124789096766,0.14254920458137468,0.16182451697972935,0.034532431453840697,0.003005923874152893,-0.036519024306535225,-0.10516134260590897,-0.07273027460652928,-0.006942430577324922,-0.062252242656802834,-0.03595444889796547,-0.024118719846988778,-0.01285947756538912,-0.01277189362620107,0.017002012793403003,-0.010882807349373504,0.04173870610738062,0.006737465798167904,0.026961455592540064,-0.045969394761771414,0.025822321109140612,-0.03192690905241485,-0.0016728891092733975,-0.04351379756901163,0.010440917275337783,-0.016277442496953957,-0.04058990805745686,-0.005758240083567029,0.006137502012247143,0.04356868043617988,0.12501866881589224,0.023249026784187714,-0.08351279826884077,-0.05781121824269536,-0.03500877693185222,0.0018234327991061524,0.03786505377294068,-0.013672442850155809,-0.07674679040519938,0.03969932855112533,-0.005722555563677858,0.002457262267504268,0.02564929873051532,-0.07318868065773182,-0.04073047934325956,0.02023970910484939,-0.053636254100141834,0.08910312060318784,0.10827026682100584,0.013862494740212509,0.01319987328430324,0.04257489420435143,-0.007037232049316075,0.05966953335457708,-0.028903960341000217,-0.0516631896294312,-0.0023575521069997924,0.07129150546241948,0.07044318340815617,0.032886237982213684,-0.039231783053300745,-0.015136940289929983,-0.042653357113283254,0.001993663544629052,-0.02353090546756291,0.007330917937664144,0.009803739877659562,-0.08988717348607242,-0.0747848010818894,0.01765961663095698,-0.017384152617824725,0.012713614904699378,0.04243624919745334,0.06328106025763343,-0.015067709629877291,0.09093533044431304,0.009701503757966525,-0.011922627272545066,0.06128258215844723,-0.007874272268418114,0.008275757374546047,-0.004155829716551941,0.01996368087684426,-0.07000599255680098,0.03895470115387082,0.10913013917455842,0.09298409709093534,-0.021237568746993632,0.04620194787480781,0.00709575908630056,0.014898707583798755,0.05783735564286235,-0.038864533404660465,0.08071803966745285,-0.09946828090685879,0.04302049083168016,0.0036475850326422193,0.004165472115050761,-0.10625110993664477,0.0028600724837305734,-0.018064709363730645,-0.05779158883867636,0.07276505610690223,0.007165484973904894,0.017191339756360738,0.011891269964656887,-0.008474003623100596,-0.025106921140129485,-0.010244001073355475,-0.03324705965599436,-0.013384300443778682,-0.04345613354421463,-0.0124975757538831,0.08091833436292428,0.011925482236096468,-0.011755956723293465,-0.015323029446144025,0.058386479616699134,-0.0027193419716385354,0.012026846729426508,-0.03666452463208162,0.07640745553266738,0.06606335209274394,0.06874734711938985,0.031349714081347735,0.022558213760513274,-0.020746921115739243,-0.034761791643305,-0.028387951648533565,0.01610627486213121,0.02326111350208904,-0.00044802596924067075,0.04156801084842091,-0.017351603091715406,-0.02634361475457944,0.007168698401306938,-0.0361380485827896,-0.01172392431311855,-0.0180677457425854,0.04960715838169152,0.05201680118713397,0.05816591673332067,0.0722894559963502,-0.014480858818018262,0.11592249304219099,0.00448975423489114,0.019642828587966378,0.03790835419813268,0.03516912243103349,0.03941566728229248,-0.018097247620665263,0.10445602978390073,0.0268333287014412,0.0017721534465939056,0.013369145641661275,0.021250909654906374,-0.03767159568712967,-0.009395807673937022,-0.04434630024438619,0.004658739060353977,-0.011072989562586734,-0.007928234251060208,0.015953746657727124,0.04128432545509019,0.03262852125236572,-0.07567368633219486,-0.01916537517014366,-0.03477418011483079,0.0199020713989953,0.026744808897786486,-0.027035196690107018,0.025287122657139307,0.043925208775629804,0.09589805712192866,0.07338978518408815,0.013706010600158795,0.01905690291752325,0.07196253413896962,0.018283017329829388,-0.03881498427694703,-0.014903822051471472,0.08454250777346567,0.005085005544732333,0.01909243719286473,-0.08732168335051302,-0.01871518756392784,0.016290108042691657,0.0458392117843548,0.05402911795733958,0.05388372473470915,-0.009867864194481732,-0.03849041720252735,-0.049000720320428036,-0.05216933193600452,-0.016569480951323445,-0.0030666800427735868,0.0035238576208546637,0.07891713760950396,0.02342044787782229,-0.028524136923429498,-0.02328924719308499,0.048899505762724595,0.08097893336165701,0.096426835754392,0.010445220554733238,0.01175682882421259,0.0257276062044804,-0.030195728866129274,0.04677072006675488,0.04267954254118486,-0.004392397482805877,-0.01786946686671134,0.03515636627463397,-0.013516135296358305,-0.01466015596664332,-0.027208895556082982,0.009176075331626184,-0.02201996171194145,-0.03129423263472276,-0.024094143859817865,-0.07740988409859102,0.008541723118393213,0.0194184970589394,0.06771614289297122,0.09958681589438294,0.005028043447013322,0.04201550772929522,-0.007941551743541232,0.035866805773139554,0.06422039562603843,0.11292315775895924,0.06417739346030127,0.013151710765263717,0.020795823073634697,-0.04449432264054486,0.0055675495333198525,0.014434066684976111,0.02896349422379028,0.028622933705980885,-0.0518520197134925,-0.04478735563980734,0.02168400128145172,0.05758036090317504,0.016152744363851668,0.011620376826207333,-0.008697275087851473,-0.05240349547414932,-0.039495693666424754,-0.04173185627075502,0.054652518162108525,0.0456544488932005,0.05869123780907063,0.01585837007972632,-0.026347120026928888,0.07842525515128698,0.07711708201749123,0.11853389279809895,0.06325069557054445,0.008124753301165273,0.019340165467732547,0.03904242787190689,-0.04951885266867544,0.08147790479785352,0.022630572929885493,0.034098160075839434,-0.03783574476714397,-0.03328646344761852,0.0550263198452343,0.05672008392890196,-0.04848730265138256,-0.020517746170078576,-0.00047484705533529096,0.047330715674105794,-0.0337223788179359,-0.007723975193168524,0.011654939128323962,0.010623119520212524,-0.027732877595235253,0.08262578534253011,0.06845340391967422,0.011212926863980035,0.02085009643036916,0.056970112801403024,0.054243196499305577,0.05579505773736064,0.0728337298484797,0.04568837646932649,0.025577089100336126,0.027975032172079976,-0.01548810542131002,-0.0038281796168451194,-0.06936184607098642,-0.0578598370072152,0.05137667518094536,-0.0009596804061487921,-0.026403360808426268,-0.009630329479562596,-0.02856319111470618,-0.023890897428696666,-0.001655876366610024,0.07198822040050205,0.013294439388496901,-0.0212563740380131,-0.03277862321095801,0.09082705510920899,0.07736582950923868,0.0690782364794235,-0.004281971193129816,0.04628068692392789,0.1440026075111313,0.027483458928389982,0.02728892221971064,-0.05050475613819997,0.0003154643925613677,-0.02724722461883364,-0.025817717268254044,0.024471226340196685,-0.038782032802992424,-0.08423751042012861,-0.022589650734945062,-0.05672896272219106,0.08613566675570843,0.014025115158990596,-0.04289604632243408,0.02148548901314758,0.01853977740469619,0.028495079470412108,0.038672328746926395,0.04289662430497895,0.03271218769422907,-0.007636124132751143,-0.03171038309332944,0.05410974774003664,-0.00672754610088901,0.03156350623546673,0.009435004273199106,0.0447444537927834,0.021883143133794133,0.02568105903240028,-0.02094748164055176,-0.06000515762498941,-0.012707739908387606,0.012712203111738846,-0.004627361904319919,-0.03502275631697246,-0.004969202478743777,0.015107244291177995,-0.05960668919382998,0.025406920731385795,0.0530544668554382,0.04267823150669533,0.013473098504900347,0.008787930722767715,0.03317020726111765,-0.02664996890174454,0.0194560042624016,0.028966699906765904,-0.055187887765415555,-0.04916778041649176,0.0025084007937622335,0.03821386878955356,0.0033201500550572582,0.05247540139313518,0.07810372743267271,-0.0035191358672229944,0.03253288662431334,0.02593592729365186,-0.08228629824751234,0.025554477021327997,0.0008636554640801603,-0.011083512369116602,-0.004426050114479378,-0.02774590276145021,-0.007840118797072573,-0.0553150493254262,0.024818296621711696,-0.022941107749198424,0.06030898100682247,0.036257441498527505,-0.007620658595320513,-0.009073288839489432,0.02580383862673073,0.008052293386091794,-0.008307389513366679,0.046689148309243984,0.015986866150147067,-0.03994888499597635,0.007860475012805488,0.07045852078925488,0.04919335645437466,0.03312177797655305,0.013001424322366542,0.03274119265792354,0.03403555371968686,0.057967732476115315,0.02265264320962765,0.000978063658963191,0.0217342610813158,0.07657346936994401,0.054262981020128824,-0.04800968429651634,-0.001212260010225293,-0.021417115204129363,0.09363526303118415,0.009613403430067348,-0.006740433949126251,0.06613517852141537,-0.001083648900037743,0.017517576593983526,0.022312240787679013,-0.08795063784844709,0.01102666995627176,0.024322931562547067,0.0174421769732203,-0.028351501350019157,0.05238318271034924,-0.051834098395775796,-0.026727516616817076,-0.006585181969921007,0.07274845461813981,0.05353287247358303,0.020640220228636614,-0.03848590228808603,0.0044227330732212605,-0.04965728672609227,-0.019066932710008797,-0.029906265028951814,0.04920457790394684,-0.025977543359449375,-0.06073406736780816,0.049470383506850235,0.041098900683385,0.006563820571885134,0.0019015669456308455,-0.02561796112800697,0.029489717436138697,0.00010770541710790067,0.007745218475692535,-0.04160108131452331,0.0011761392149401077,0.07510483989922509,0.00849241021325062,0.04942547962969273,-0.047502076398681196,-0.0014811364042959978,0.0216927022153296,-0.03016246274155105,-0.00027424864156708445,0.041215137112380416,0.06347032137696862,0.003849520429895379,0.06294610564069784,0.0077747232671936065,0.004114703196078059,0.019563493125041517,-0.030217601460906452,-0.02296000212436865,0.023670979537981533,0.07875664426392825,0.036701950227126745,0.006371750396303344,-0.03134787600521985,0.03603732948162012,-0.0046880473496907936,-0.002882205026768814,-0.054303471734061776,0.013092827881964286,-0.02591172919700206,-0.0026372130844818952,-0.003741988489525023,0.0037788898676255405,-0.00033607602549899987,0.0034296699815864564,-0.006254764888912205,0.007200813219832364,0.046150500602615566,-0.0028861969307122644,-0.05976821563158781,-0.03621992062429273,0.0010241141279454587,-0.00756712157885894,0.0396558566690141,-0.015747833390260136,0.03492009542330746,0.025897458775787686,-0.011470705384657102,-0.00217189092596089,0.024977800493365027,0.007609728712373869,-0.01451858419483023,0.03523283059670653
0.0675327945536448,0.08809109623193656,0.05897360620137413,0.011979170207474323,-0.019109530192740816,-0.030542503599763158,-0.03752021361524798,-0.022876218366374965,-0.03830775759340002,0.034368653415942155,-0.008257146267143592,-0.014623383823892538,-0.030666252733728576,-0.008735733365171368,-0.024138992926993428,-0.05148435442600242,0.04306020960170045,-0.048735650390034434,-0.0378378322583055,0.0010527240311299676,0.011793981245969642,0.009583177960489832,0.021710531201837562,0.029846639567915376,0.03594419615654163,0.06376037650736417,0.03794746966494282,-0.0062655623471759994,-0.0447514791125914,0.014314803088407772,0.014636646394417686,-0.017147494982445735,-0.006406871242950704,0.00992944017159229,0.02786054032382112,-0.010800874927757973,0.08082515517290242,-0.11175779421784064,0.0051719383151484334,0.11425555950405245,-0.00041190554549222583,-0.00370238931583303,-0.03135132342549131,-0.038001598967046815,0.02117995503197502,0.03207456374900504,0.016168202305588738,-0.017342988882232808,-0.013978984831544788,0.012964861199648674,0.020827939637619575,-0.03960157311991709,0.0018407139919878143,0.023332029634516416,0.01581104070169854,-0.0005273965271788833,-0.025205071144926813,-0.01135526144723566,-0.007940909972606849,0.03615278789950823,-0.002160768330976746,-0.01106871739211325,-0.023300257372087074,-0.0538824015783251,0.01106721696661242,0.04929234836301408,-0.032299164740828834,-0.013160778215649316,-0.04804489407100555,0.037948568812840575,0.01136512223311735,-0.0009493167289274339,-0.029278675661289756,0.04267188663115591,-0.020803636263989376,-0.03360474402336923,0.012048582496522839,0.06191583576216285,0.004239056685597669,0.05438313146636842,-0.06213985834722763,0.05408755797710702,0.02772791352985257,-0.030361213004192762,-0.024865216321483134,0.02649756217310005,0.012975325168867086,-0.009737998208845848,-0.044493929898526866,0.07527080424588314,0.005181384485717803,-0.016797691838247083,0.033393227021730976,0.009987914376188359,0.01378784719816252,0.012176584652766935,-0.00813879556215669,0.025125643669772088,-0.03836807040434736,-0.08716545052463548,-0.09454521643095352,-0.04922193060872513,-0.07123907632067618,-0.015098988014290781,0.02176564579545058,0.01707915967236903,0.04526841886224663,0.045393635725678776,-0.03186434206193714,-0.025637514722393673,0.01262992599736551,-0.02121360442043369,-0.00843060754563573,-0.02679554053344687,0.019482679461537936,-0.035855159466859556,-0.023872977958492195,-0.02061471417217527,-0.05359937052895514,0.055869478261058654,-0.007027812155255689,-0.006395149060744767,0.03508399086028259,-0.043769781685833384,-0.048484209206387074,0.0880945203137924,-0.022195806396993444,0.003821322768246388,-0.02598379160651373,-0.11484568291696803,0.021660478046757498,0.028594992575364693,-0.025332689874035752,-0.01220242628376102,0.014226040727791878,0.07984973316007092,-0.03495561675465978,-0.012664926080592661,-0.03233579905930159,-0.006245719209370524,0.031149014239454976,-0.015589400823954241,0.05522652851846078,-0.010661463574757769,-0.013787734049405365,-0.008074591044415318,0.06925769789891262,0.031009698961106495,-0.014777217816012569,-0.0247202096403077,-0.03421788054218159,0.01112442845717586,0.04865774558173144,0.06303875522400575,-0.04033161008888017,-0.025186333255020413,0.02493270175846902,0.06106000365291836,0.02467224957944601,-0.00274217027875742,0.04777653173557853,0.02510271502437897,-0.027137845280392578,0.027888156556890982,-0.010638628769610838,-0.02606969689993605,-0.004672769397469696,-0.020160782093923045,-0.006664008029574794,0.008769364287534786,-0.051884722063359055,0.020351365502192503,-0.04172268183136545,-0.03989991895182718,0.01731187901722105,0.09300441302812332,0.009710657365116691,0.017349870805316647,0.06500405026737174,0.146183529079005,0.03767568148134843,0.07589358995335213,0.027769193022027443,-0.019978738460947464,0.09700627797232453,0.1078401896801062,0.07500576305870982,0.04769940146482982,0.03270713198360765,0.03774371628640639,0.062028397456851105,0.04797731814153138,0.007540731278608148,0.022032340444492208,0.019537507013131124,0.02118913574216839,-0.01493054264425911,0.03396439556035113,0.02182420091196004,-0.070325455437945,-0.02733700640969692,-0.043066912386680936,0.02245736366263636,-0.0463068954813947,0.028350180445239886,-0.0003204948575636883,0.024372934668990733,0.11002275084338096,0.02939800874021948,0.04636448121905098,0.011983158319908533,0.032176096236816505,0.13071621740848496,0.10573458618311289,0.07184218790988552,0.1202561021451863,0.0640966663559871,0.07057663712889105,-0.062255898249349635,-0.028841416051811047,0.01485033655132834,-0.03786200124091367,0.01784891235650974,-0.007950320142907634,-0.05717642613280523,-0.004359626681284745,-0.005561009978892086,0.05675393130574362,-0.0038988214373085663,-0.06325360529250744,-0.08386276749253295,-0.02556095413740854,0.01779056546781285,0.04726615782249739,0.09010250109988854,-0.005796480963695355,-0.018060113498151478,0.007450066405355347,0.08289266678171556,0.021665692409246807,0.10487843557604654,0.027810853897061158,0.08501040456422634,0.11018638978858698,0.07323315550283595,0.05739859862387473,0.08974513632338084,0.07778964184845033,0.10808457135427456,0.059825718990029426,0.03991142805201536,-0.03835862219810126,0.004365217366020126,-0.00399819379858465,-0.013549014683600476,-0.015825853073495603,0.005684240199976999,-0.04213782740742542,-0.08589868944668859,0.017262010167419496,-0.0304293505210938,-0.000714975392742366,-0.03101783753841039,-0.010597037712868422,-0.05518477159286119,-0.01352956874713065,0.013136884099950315,-0.012932734233603638,-0.10010283577508973,-0.05633172117862785,0.09070771607220489,0.06769569591678275,0.12371114731750668,0.0558635646050255,-0.007549897155232396,-0.03658739610331221,0.028918393289204754,-0.05295783215841377,0.0922922141619097,-0.022661099430416762,-0.03329051347567203,-0.009672434855063305,0.0525510466509245,0.0634303458047601,-0.019787977343778556,0.054956019278223286,-0.008119716125526547,-0.020498394977866714,0.00036709993666132594,-0.03656135789734648,-0.015358364273409834,0.001136482517003242,-0.07101723624212782,0.003622318840371022,-0.04022185143956084,0.012318664469178819,-0.032827304783379856,-0.03135210763755178,0.08322178616120275,0.017509799430416445,0.010453721050896654,0.013182064358393811,0.040019548141074876,-0.016968295649061604,0.052621595182814604,0.06369273474013505,0.002708790192994436,0.001808792858937768,-0.05170436579270648,-0.04009583788336203,0.0020754268733192602,0.01935301609911497,-0.05473703758731208,-0.003370956690774457,0.004964096725678161,0.06020899429418664,-0.018638405289549655,-0.017597236441763378,-0.09526239439439771,-0.004973789101521983,0.024920893016265204,0.011451029587055794,0.06743662073803537,0.11390559531263005,-0.03846081880247673,0.001846901281484205,0.05081475208466626,0.031931934745455984,-0.043388845438754875,0.0012830521555388613,0.009673793115146802,0.020626943812602896,0.03200890197056482,-0.0065002141914938215,-0.026675524149016923,0.026062474109164412,-0.009247311243293553,-0.02397755842407993,-0.017426044462249487,0.003509392405219606,-0.0017660458835449132,-0.020868702350168883,0.04067524895129971,-0.06989289022202709,-0.035782938784252205,-0.023412953478284926,-0.14413240333525845,-0.004207483960189101,-0.039303487787759286,0.021387583704052096,0.12612230415904482,0.016720905374042427,0.03127746024081734,0.03571540391664128,-0.04453627757655637,-0.0911785100542551,-0.02618070707806221,-0.02006431282307356,0.00997444937068145,0.011989922171551474,0.00028993149792763483,-0.01136984411718335,0.026406342155094242,0.03606952077834698,0.021468378626284236,0.04944665939249493,0.007390310260264297,0.009519517924732997,0.010119942994739273,0.019680477972540956,-0.04761173005477165,0.01305798474796345,0.0764951046040673,-0.052186183328627206,-0.0565937814277755,-0.024435885858524183,0.019847675757873138,0.0652830052278148,0.06341719193624296,0.04824773065495352,-0.09589152630629764,-0.10742865725355707,-0.05855276519463338,-0.03023706933724911,0.00037110913401132466,-0.013639656895211145,0.047109105501289716,-0.00881901128409205,0.0010712346478218139,-0.03440475512407021,-0.025570984364561844,0.018881230403488738,0.011745678978877246,-0.006175641897922149,-0.0007385994535292179,0.023208617511546743,0.02659350747902383,0.047645153282424565,-0.09175043139947042,0.028859380324398838,0.02062026912654194,0.002865207704510645,0.03442171370866208,0.018851144468474464,0.021984802759856367,0.09065260098224587,0.035365441597037583,-0.043367992581157463,-0.0414531422770101,-0.08000509566603244,-0.0742306675272857,-0.05675210147733298,-0.06229127121797174,-0.06611544335718943,0.041753169488547376,0.010091364205977931,0.009604897916508343,0.05974576408239012,-0.07268230686771009,-0.023129534925512514,-0.030439757560540133,-0.026494032123111008,-0.05080132867444002,0.012323453190448221,-0.006504268941620179,0.008642034143640936,0.01060551984394759,0.03760810904709664,0.07487429059700905,0.04171310272013948,0.03287410389332415,0.03498084660181803,0.07139175476050974,0.006558077532032234,-0.07393815022785255,-0.043345307022930574,-0.03778176740771102,-0.044928529618601554,-0.051742412768973504,-0.06797273207026014,-0.04182601157602627,-0.03359736801769882,0.006841601506434269,-0.020664432618955265,-0.04521202603123319,-0.029875536088603546,-0.03369312193826579,0.056136231078075256,-0.01015179015709626,-0.04624554876428712,-0.006943037386333871,0.004769312031891838,-0.04176307983713738,0.0032087283679754774,0.009105004757449811,0.0733632365406006,0.04523046291824815,-0.013037499724943336,-0.04787735916784935,0.027632862243437136,-0.032545410228588346,0.004362534364268222,-0.017215987351831972,-0.0279841483709066,-0.005897951840434434,0.019040001758228047,-0.025073650761731094,-0.060444475594461686,-0.013127809254201844,-0.0456405274888805,0.05599439350744649,-0.057953270787459245,-0.025914753586618187,-0.051530351116725916,0.04032887180606272,-0.04446341608832855,-0.013090840142634837,-0.029170398917910366,-0.005644798589219319,-0.014662881277216239,-0.0203243184853903,0.027620073643263125,0.009312156385719604,0.06758264514516195,0.01010038355760124,-0.002915645308677853,-0.029049592442576277,0.03363456402003161,-0.060416734728470436,-0.029565528910194847,0.029589193417293047,0.059484235405496265,0.08469311740807298,0.02875282739690011,0.014342362998113242,-0.07530870987897921,-0.010157847120263998,-0.0023631631562813127,0.004846813039959724,0.08022874357161423,0.07871556521115294,0.05537638626282815,0.002643102762869253,-0.014728579634751854,-0.045015457365960486,0.05659160905287095,-0.026049743784490664,0.07051856101805294,0.036681141145842026,0.017700073884113595,0.08123073572978143,0.01127981013717921,0.028746005360715407,-0.05598256427367539,0.007083855355712219,-0.07429444646785806,0.012309996817621136,-0.03627985362342339,-0.019373995262645636,0.03313121548559692,-0.06121397336260581,-0.0005132564576243655,-0.056658683207233856,-0.031754615305107835,-0.02323934739450816,0.028263286414517814,0.0009454445344726222,-0.00022373525527686887,0.05354527437838866,0.027054228568788807,0.02582051929005789,0.02664158322028062,0.034175789568430266,-0.01324617289512774,0.019685423709184764,0.027181427742056632,-0.033374128066489976,0.06611209240450569,0.0836056663493715,-0.013104436095524238,0.04163870900334042,0.012154902985451289,-0.07482924017431822,0.005968990818895751,-0.012482670457707283,-0.048992919371032645,0.028898815781918094,-0.060084296512051424,-0.09373866828768683,-0.01888834336355094,0.012826930122271759,0.02048540543481796,0.030737949985547706,-0.017333857934410838,0.0808000561976532,0.05529574756949571,0.022816371449959374,-0.0025099475354216634,-0.005379757577873081,-0.014008241211860496,-0.03282214478494973,0.030475121367448073,-0.012699947239749109,0.032914518684899224,0.0033075295209056017,-0.03546067639794747,-0.0006649281577701741,0.10225118802116383,0.09770945211414932,-0.023792702932023194,0.008653110220417986,-0.03181451339935325,-0.054345227084720595,0.008295696920518217,-0.021587223134839906,-0.030993095211108202,-0.08010403858089767,-0.014380815940975311,-0.036456139420957365,-0.0255265934648872,0.03899348046411674,-0.010921993964204318,0.022437667505535608,-0.008000250685248449,-0.024166871848642066,0.023487268974134095,-0.031209635963388428,0.021974145817422443,-0.014647405444250743,0.002372509036789651,0.0037218393988212918,0.04591795955976313,-0.01905197441960188,-0.05489994410538485,0.05869696515359993,0.08994846625841511,0.04810753269809252,0.011071183869184383,0.03707590471896036,0.006128451399167148,0.05970277575307198,0.08016319875516312,0.02367746727545467,-0.03762912910523711,-0.015319756326015021,0.05210475534570853,0.026454530519533493,-0.04035865447139428,0.03771984540143493,0.0785921481864863,0.03074199508071053,0.025254935825314098,0.05840849168961511,0.0008136414767682254,0.0362344646489581,-0.0475282813332471,-0.04010796280667439,-0.008200776793229836,0.005849483022903919,0.057136501617057155,0.05051101135819378,0.0010186985708912101,0.0076969784708752495,0.047661394230192486,0.016830335978441777,0.08330174250258972,0.025720404283316664,0.10405438383452761,0.10748351663978857,0.08718202331435676,0.0032060563292970463,-0.06328899558771875,0.0006364266744419872,0.06177563540022787,0.005084305196286301,0.02284033712561872,0.05415324731590169,0.019822969969286418,0.0033993270368496043,-0.04194817025230656,-0.009742246288949527,-0.010327387216904575,0.013272747260368926,0.048634003170737135,0.014889837805604128,-0.00425327424245715,-0.04794480349534315,-0.006946918564702125,-0.03109020018700932,0.005510926264026722,0.05386615194999873,-0.0022718491526202244,-0.00015274071147448686,-0.005495683887439233,0.022167349105699407,0.08363185469518214,0.09601442289541672,0.06742411579762232,0.01467330287390063,-0.030550067827292905,0.022253528899919276,-0.027204074335830532,8.480277068982062e-05,-0.02786954199520765,-0.004806713270412151,-0.04643918490566453,0.0661021677676803,0.08659073696666983,-0.030397901242580887,-3.2853519845826005e-05,0.0032536724765941448,0.013680632447515613,0.02384204870667391,-0.0745189678669068,-0.0008934591176797093,-0.055489483661468275,0.020818167369083537,6.40323599561209e-05,-0.006356403711594523,0.025947429172570417,0.002025105585727577,-0.010804832477200592,0.09790218616168586,0.04213436800046624,-0.017065187969637092,0.0020400781482673097,-0.07481634523340269,0.0824415516522953,0.04261974997103315,0.06230212164761732,0.02513907216883331,0.01102842361150819,0.01802983654242489,-0.09418990508350425,0.036991430103729274,-0.04044023747147286,-0.012895335413076029,0.016932457333276356,-0.02686221007063822,0.007044972462846966,-0.003524351226740725,0.01095156471254163,-0.07475228090460503,0.022961414916130303,-0.027627949524950155,0.009240080134668212,-0.014871659369131675,3.6304902928269625e-05,-0.0913427687533057,-0.034439958474910354,0.019665106750994706,0.04120539405184387,-0.017541499510094403,-0.03073285039390787,-0.011487754813988225,0.032380152567173415,0.05602648819353806,-0.04284618390128866,0.04111119650373202,0.0419306584042917,0.0008105221392946945,-0.015764424428832746,-0.0018286210315941395,-0.012943786662479796,0.033701513741243326,-0.01745201867621231,0.019829253492176326,-0.030897190244358674,-0.05653645474313723,-0.002497584090325426,0.013937237968229169,0.018467592879699384,0.02745403287801771,0.04110343586930536,0.03004633853672111,-0.04112349390206164,0.03273125131385522,0.0006337035588053644,-0.009214372682885847,0.03746531332518044,-0.09629643395673196,-0.012233192890837123,-0.032499848256374975,-0.05005979500588802,0.02523102265786271,0.04498461927073214,0.004973826255046329,-0.04532431844888037,0.013830540241713065,0.015549912655264779,-0.00934726776324955,0.054431013277027485,0.01245941634065904,0.010110993502065374,0.03197865856896587,-0.03559108391989549,-0.04050744997546814,0.029207063287620433,0.01231575983251448,-0.006605655425878713,-0.048978194806747345,-0.012263507436528341,-0.0029834763716839684,-0.03589452240259192,0.03507057198705702,-0.02110685648559286,-0.059890096180764144,0.04118206300806651,0.023176639733437678,-0.09123645165708942,-0.009273342080328553,0.008378929457988411,-0.027236161018421183,-0.0025501155379804804,-0.002028804154948399,0.02638330968054046,-0.015853332751224265,-0.015083383784045053,0.04311986925856512,0.018507115942564774,-0.011243633820139782,-0.006651419316713653,-0.004780843976714147,-0.03145940800720073
0.0046105829652827585,0.013876361785989166,-0.003463941383706165,-0.04842797727676564,-0.006163605450874314,0.0728129180411139,-0.0033440076348801254,0.033534238715504754,-0.006282817838075586,-0.003470263423733167,-0.020417651055463493,-0.07306486969296178,0.02831767611477533,0.05386066901766616,-0.023848078917386127,0.044408276047593044,-0.07644994268431103,-0.06741501928045479,-0.013534278612122886,0.0186807996159388,-0.05913286497253189,-0.06738877512619239,0.00755969717104586,0.05660372400513191,-0.004229406609009334,0.07228932357547718,0.01208236141005385,-0.015364362221556334,-0.011267675592335553,-0.025011061325691714,-0.008395339929127507,0.01050072636962598,0.033460715303835445,-0.033641085442753946,0.01854669934693616,0.03650886314738834,0.0032781909700573967,-0.06197561678668469,-0.010555997300128203,-0.023187458763364695,-0.009612972273527467,0.005235496362458056,0.059357661201506845,0.036850220654252044,-0.039669963985745134,0.01597417573562336,-0.09131881349359977,-0.018772606058757732,-0.017419590168756275,-0.00530366161857174,0.007573791786288144,-0.06216817223320453,-0.0008513040162961788,0.04438775868399316,0.0354826887576534,0.05198765857405275,0.029341382069222155,-0.0031379360040433932,0.025617733112314998,-0.008642024747584298,0.02061254572597386,0.025630558396867523,0.006572213404071173,0.03209229823992657,-0.015027934393090478,0.023180735573359913,0.003161699240514116,-0.047392980342299815,-0.04405030838126755,0.036241741068265214,0.03189889149614456,-0.021203959072696853,-0.030327220461363,0.06055901502353535,-0.012004811264768623,0.015034532574332488,-0.027293307377159653,0.024809902689934098,-0.009087697605095337,0.003686788662532029,-0.012424152008463921,0.04249484175432203,-0.0062799826932141735,0.005032642855000704,0.030708873560983004,-0.027067520270716062,0.01756862342015333,-0.010690108476512826,0.001743947243147424,-0.0014558137023625833,0.05968506136886865,0.018281551087643642,-0.02453808443749747,-0.03936374020734711,0.03175762340173171,-0.06425489411379423,0.04047333298238295,-0.015723602264101202,0.030203147039156254,0.02077024997886897,0.05403727133999421,0.0754628477430867,-0.018939718113385014,-0.016929909669251245,-0.023515036095866342,-0.008430149975348739,0.013750516943094928,-0.001616940676679382,-0.012406988889809694,0.01759466787142316,-0.002701314257393889,0.014576279235913566,0.028033669067741993,0.06495386569774968,-0.05932576014866141,-0.05440961912378415,0.01910388640560959,0.025728833034774246,-0.05743981024990667,0.0018482573325949887,-0.0014403038789558686,0.05897123038932508,-0.07118879986666367,-0.025295841508350184,0.02501886700750453,0.05914929231256585,-0.024046612389529324,0.05875517499090186,0.08896399268203989,0.05587429124365287,0.002778986527295894,0.03631938368083834,0.017428169045720893,0.053220510265850576,-0.043153835603758156,-0.004625328896731878,-0.040240174400915915,-0.03253893420374227,0.003301968870357862,0.0344992052298523,0.02016808864799119,-0.00870108924434034,-0.0006916909769730559,0.0382458717975661,-0.06123762285361016,0.0782049044714916,-0.013486081469309916,-0.0031929590044007215,-0.006259469422456201,-0.05808450170152822,-0.024790627757182295,-0.02476398300074216,-0.00984584257435231,0.05291818730276862,0.025018148022811843,0.035946179399494474,0.03101471209310364,0.08505903544386059,-0.016187376742847506,0.07037863026092554,-0.001634632635830145,-0.05144378447231611,0.00955106745371145,-0.02837908514910605,-0.0109565551245241,0.021139379420310817,0.04569655310218305,-0.01636192274775702,0.009781942317505923,0.024960216059814525,0.046928036520130605,-0.029857805732229906,-0.031109617620067923,-0.03190682784428993,-0.023424815038113028,0.029174443831347093,-0.0038097925703686956,-0.06379319290831514,-0.0867258734114918,-0.08641189941631108,0.005478683728654105,0.06835870591456365,0.07925436903150031,-0.055875274813188165,0.0017370997541174239,-0.0023183477889910102,0.02716060336976809,-0.022916050841838686,-0.014997715158459064,-0.01336450943764497,-0.0007719938408662785,0.0028848923029108397,-0.04867111929804852,0.0020445215005501474,-0.062424754659702264,-0.038827426265393546,0.0034597106256365404,0.07308980247116104,0.005288125570612602,0.015824422720239473,0.00656219253071148,0.026180331829626802,0.011840944467070156,0.022294567822158797,0.0016240798982619202,-0.12052572616939403,-0.05251190035398541,-0.14180825320154797,-0.006638012799495756,-0.03555759862601278,-0.026038824242483945,0.0024119773867037533,-0.0063427191919017125,-0.058248145232829014,-0.012776215276209672,-0.0626692627428053,-0.06767245338852752,-0.02789987797763687,-0.021856868544709317,0.02378740380626101,-0.03978166540522826,-0.06447905516076548,0.053635253307975916,-0.035623543952929465,-0.026318619975724156,-0.027284071483775315,-0.041644982542688946,0.013497411680618963,-0.05364490659634134,-0.025890002683201577,-0.056074286012605994,-0.06504092381358981,-0.07424887890374558,-0.11530147963547473,-0.1337645899615489,-0.09083897157940438,-0.009151562355830896,0.027058389016279546,0.018309572879825507,-0.01578935983097545,-0.016772758356518837,-0.03316943407149795,-0.013056443433629227,-0.060087952520712445,-0.07811478453230956,-0.07166047477737678,0.007262315117981461,0.03842040601020893,-0.024114372251089387,0.004436704242869398,0.08906783397609165,-0.033258512400740604,-0.01998399909135851,-0.0005127496928460308,-0.06910302923139726,-0.0110619271903454,0.037209873877968036,-0.01651215931708051,-0.08673816585489338,-0.05957250223522682,-0.06678331244186825,-0.04723364826323229,-0.004935454904682275,-0.025545166545435496,0.03754732814652372,-0.026688613255678416,0.07195795535022328,-0.0686386573047333,-0.05000785321455769,-0.1216669746713752,-0.04145788637799109,-0.1112402739775954,-0.15638708994333783,-0.1387234243803919,-0.026183624102217088,-0.03211476590759596,-0.007739713195680212,-0.030147998232581966,0.016656425236853154,-0.015079161006617589,0.07027816253017426,-0.030245509641190094,0.008971039983453976,0.002303593091541951,-0.002521395556419852,-0.021902839981910643,-0.017994480184491974,-0.014300187817492888,0.054522854196373566,-0.0918260311958943,-0.04660045893159363,0.022457101901590084,0.08515841573889502,0.001620545195099326,-0.01674902769123095,0.0020969571300539116,0.005790337792858304,-0.03317069415175876,-0.13912465480197625,-0.13442765148658387,-0.07869129964938813,-0.06882704621471412,-0.021711046838015773,0.028963802299565994,-0.014721062468357658,-0.018076982053702034,0.030571176535775287,0.016011534018400036,0.0707568857258116,0.03158545296101507,-0.03978062063898129,0.012563517416689415,-0.013279448045782842,-0.08194807517234252,-0.007488499490407791,0.04334540171208677,-0.001030537502166395,-0.10545615243236198,0.01113949234019975,0.06621982416231305,-0.0280939979392196,-0.09117646719451132,0.011235493973989,0.010937573028115925,-0.04052987870097832,-0.05880843039057795,-0.012367738157609616,-0.10550360841335052,-0.06496073703876507,-0.04210490044454559,-0.005244335610092634,-0.0017251331367963878,-0.029547104582703897,-0.025993273645555988,-0.020984114537483802,0.032054647240348705,0.027151766228418216,0.022695060557403515,-0.07060459226380096,-0.04650309515734407,0.04045278904696268,-0.044880761263236146,-0.06849587531533619,-0.03271841974118436,-0.019137012657931315,-0.055372971770738716,-0.02221692184507684,0.002190918720049792,-0.0837745379330611,-0.019523842143000587,0.09318716474066416,-0.03252728214544305,0.04180095207116663,-0.0257609626708844,-0.04135756495758723,-0.05704395614742976,-0.051209746329910814,-0.02049729879779553,0.05282602941001447,-0.0020813020444438073,0.07103541906891947,-0.09107593176630358,0.03707073972789126,0.0032922650513762582,-0.0017921174139135898,0.030569755177756754,0.03506743944330408,0.022491284698235022,0.012403325534427252,-0.020699115275498073,-0.05866696126255703,-0.00827373500405561,-0.0506922606358636,0.007743228623209538,0.030278379137122738,-0.032215710772162405,-0.053019573565480094,0.04314656783342359,-0.0258606522579443,-0.005576202407988222,0.0350516190677924,-0.048039667267649376,-0.03765303210778772,-0.04321468825292278,0.030662429813353816,0.07893455569985527,-0.04536471691749481,-0.030728227787104205,0.033102594174726635,0.03876459915172639,-0.025536682494967346,0.07194378077591965,-0.0037355422740041897,-0.050902886685275504,-0.007098001207532125,0.02395087343408897,-0.04330117195359505,-0.00765052840565911,-0.04332011466432785,0.013772204316462111,-0.01895061514108997,0.06688213978213127,0.015525503833257848,-0.022040238999267776,-0.08238041642883635,0.07322956274410491,0.06459197153559273,-0.027389383975794903,-0.025321423267883128,-0.008358021838092136,0.011472554619234866,-0.0038471848716333376,0.031183181287902935,0.08386776114967032,-8.356640650530058e-05,-0.05353099002425343,0.016384508477284652,0.02358617711080088,0.023352840957428476,-0.01794177226441828,-0.00896804193341428,-0.06784926488139711,-0.02311318234967547,0.041925832280490266,-0.04680700950556127,-0.033221456715361065,0.001103661658259491,-0.021190117758677088,0.00549731957838758,0.034672407701514724,-0.018176265988891386,-0.05896990909119598,-0.07902611319018969,0.08654732365392866,0.02137561397755141,0.01735273118513472,0.0031163324135855563,-0.058943508224796465,-0.034741733046893174,-0.030239675197962248,0.027522322163033134,0.04507709596235989,-0.016432357639117184,-0.040584056466701574,-0.03225085374902134,-0.012604709105522973,-0.0262399733673094,-0.07640121933348126,-0.013552654655722769,-0.0470798091023847,-0.009467135279848656,0.0778194525906046,-0.027055193481241403,0.007915307860404416,0.010572941310060407,-0.04439916105124778,0.023723458762588856,0.032116015944297464,0.046377605695308355,0.02750437382831995,0.016204323817532847,0.043581460795939435,0.04757988862131774,-0.039716311913047926,-0.02342260543575292,-0.07903534560094319,-0.04300500006495445,-0.012076758758693837,0.05886225878966719,-0.04653983221934674,-0.016554635894406096,0.018534920366696846,0.01799893700065275,-0.019608976141631165,-0.005532369517765361,-0.058457540100710186,0.0164523617790563,-0.014941321705131058,0.005996983354729268,0.019817771994214303,0.0008563646482221367,-0.022317173890133924,0.014432642235654063,-0.0758593432446827,0.025957417244149027,0.06169810587350946,0.01422752963449909,-0.018917228674375095,0.029401679119893952,0.11138209749673225,0.07633196072049596,0.007194497065478884,-0.010776102234507763,-0.05464550439891619,-0.04742504210899817,0.039216387341973157,0.04029018011119082,0.011771404477315013,-0.0039722929918380575,0.024331283464140034,-0.013989530552907171,0.023027648706353425,0.043067237798330785,-0.033708894242123644,0.008359408180054796,-0.0030201961752011836,-0.01707381654086025,0.05906147871288134,-0.007206765762504212,0.011144913116005089,-0.002332267208132836,-0.08280046071200756,-0.07919577435824411,0.012902589619273276,0.08857786570873563,0.009687475976420203,0.10047325049967687,0.028850556070438987,0.09993951738515251,0.05290756973839135,0.003049504475154549,0.039618333048728464,0.05150946977196846,0.037578566372820095,-0.007565041873096714,-0.07580679566443757,-0.023014858034274978,-0.025656990419978376,-0.005748584105364694,-0.020487521419375487,0.04974014881895322,-0.00386030151399955,-0.039355406232657056,-0.050147834343199325,0.040565108872303114,-0.027056311865162483,0.039291332253930715,-0.04849225521987144,-0.000406475209811813,-0.06591083892369713,-0.0713153474387165,-0.012156140330189602,0.0205411294155069,0.04629616940528704,0.00534895201123256,0.05444075851354507,-0.003152120622315514,-0.037035642094370665,-0.019065228579859872,-0.07687984297410919,0.040519719208392174,0.08289559823122976,0.022493846357572424,-0.016930280063761464,-0.03829914481441033,0.04227016386581413,-0.01994375501698184,0.02880958325558261,0.03224516385072217,-0.05291050536129204,-0.0286471515082833,0.03642865788296258,0.010824156708630793,-0.023485839124638877,-0.009124172794220928,-0.0493750692370064,-0.0357518740490668,-0.05510633185940149,0.011448384286153463,-0.028389883614968445,0.0022738407310611266,0.05781822144404284,0.07815003034435306,0.024784506013969407,0.06258229725561139,0.04178758851745704,0.008354022279217764,-0.0005187260911726366,-0.005947112776790109,-0.029419820950755998,0.004214221282963438,-0.0829586242581876,-0.031605110844085134,0.04121775854189987,-0.018730082992178928,0.027275558313307496,-0.04615572953470776,0.025967148016564794,0.009623615575926876,0.02459815937169208,-0.06269381325960625,-0.03423353713674379,0.002238016783223151,-0.039147180840692644,-0.02192853937377278,-0.05904100630794499,-0.09424036292460397,-0.030913804916536794,-0.033907129975242645,0.039549933320800104,0.05460809860109399,-0.05037235025968427,-0.015711174151160003,0.018092332323487746,-0.014174073152242641,0.038041375622722896,-0.025753524250675324,0.0029305039133430354,-0.021484139340310043,-0.07471061039919971,-0.03432268610065117,0.02053064694066352,-0.01064734608907981,0.06251486353108503,0.0827359029852413,-0.04160304685717722,0.04818548200955023,-0.06108204243178217,0.021235828420986896,-0.04166760129361461,0.00036066611249832705,-0.02415704579243953,-0.030690859200484026,-0.06087036562412441,-0.008681809977975527,-0.13425925649511855,-0.012268877758697802,-0.02196574821061603,-0.07152724741651253,-0.08712618837641162,-0.03179961606987623,-0.07848839046706933,-0.11596611743857335,-0.04534801691665378,-0.074449338591326,-0.017200057158264285,-0.04008603493186303,-0.034713658947705124,0.010173125146673288,-0.013555945972300521,0.008572890062551724,-0.019914021587356417,0.045051532089209395,0.012901579958907082,0.030475166291481667,-0.009656269527402084,0.04579810990827546,0.011230869856177784,0.041542706766577814,0.0709589202961838,-0.019635347181620483,0.03788973109629535,-0.0317802782875303,-0.031732897841143144,-0.007832884296513805,-0.0635779221697823,-0.10627092852930656,-0.059324160176236866,-0.017503557605283545,-0.07142882032991717,0.011939525620357045,-0.01481344695990372,0.01134290096207033,0.0039011060746310406,-0.07433557847359654,-0.014085361873050354,-0.03193658920829034,-0.03011946664931736,-0.04497538227206094,0.02892408811377046,0.015885099214241194,0.0036724700157957065,0.040158722498835835,0.006735918661612585,-0.03839396067125322,-0.0054958591737266135,0.0487130941679599,-0.06367304639147384,-0.014846172846113982,-0.0002978164726292493,-0.08766334430933476,0.02427973940564112,0.08001290436844836,-0.044963956428398365,-0.06454981605482099,-0.06434211000350373,-0.023307426794009916,0.002076516175011559,-0.04407089900627181,0.059895527341409883,0.021157779355195607,0.03767259308824549,-0.04730516690314207,0.0011819144248195429,-0.030054095761120333,-0.0006790621680639985,-0.014618470361623122,0.020812116177147892,0.03679427440998171,0.026548898760084778,0.0033872057734148807,-0.0027686385539722686,0.0033540418625070557,-0.02764706018493687,0.012275474043588273,-0.06213905471715465,-0.052724648652913673,-0.02977122873691627,-0.06111891229239561,0.006269656044559457,-0.04703310419560078,-0.09105500877009969,-0.027941950059050622,-0.07146495458014879,-0.05574061408451009,-0.02294445506596283,0.03621613760597037,-0.06003987341467487,-0.04816167473843805,-0.016926053425457707,-0.057475561426231336,0.000576470947459805,-0.03886502015977223,-0.026459292683486707,-0.06123722500024266,-0.015505845620400145,-0.028106010339440546,-0.01654873961158301,0.0025325154259525457,0.01610970551568352,0.006548222617563474,0.02267241808405009,-0.0025816004321476526,-0.008334955103672693,-0.0572952547424224,0.017779911004785102,0.0015876875097076727,0.016080885733210887,-0.022865243966891664,-0.03656634919752873,-0.05309159581044609,-0.024167936178479354,-0.010836247217731975,-0.05648988030229245,0.007614704209101745,0.015876392626908944,-0.004592173357516472,0.02088956948240601,0.0033540546235446746,-0.002720662694242945,-0.03272419515532232,-0.012641906791804007,0.0574539612037683,-0.03839287455420858,0.06975071560907255,-0.040826647853509104,-0.03878091590090772,0.05723136435127589,-0.032191981711641726,-0.02692181167302092,0.010807194006888454,0.037733303903542535,-0.06321553382479517,0.02591676936996946,-0.06142632102882741,0.004997846342772177,-0.02572179362615779,0.034134949041181,0.0061846816301023184,0.0017371882447717846,-0.015960124978771775,0.014624034530054352,-0.0927143152442763,-0.028184480877459502,0.035805029969362016,0.009787623530891215,-0.010073609507868194,-0.009631712414131357,-0.06598908627562701,-0.008174842790734453,-0.08343960589175387,0.02482983926160106,0.03053205002110457,-0.009318200913046776
0.04577697459414047,-0.002791339852075549,0.0028214896133778164,0.01346492089306599,0.015024743377087762,0.01205319057481661,-0.012188534703903667,-0.0003508015577998886,0.014765952338723475,0.003621292840944278,0.015946386397447866,-0.016116695304233885,-0.037999732343351786,0.010725901209369757,0.0023903443155241684,-0.05472909802486835,0.03827356235247051,-0.07201914257992115,0.0820036228447433,0.028693223977738994,0.0019837483006598182,0.0018305930096942456,0.059003725630557696,0.043359434329693,0.04592762155486857,0.009743213716557111,0.03978708813357386,-0.016454368255756597,-0.04335456691244126,0.10182068401396077,-0.014928508889533548,-0.004280009090421506,0.018889026283626282,-0.055225103380989196,0.022448184183330375,-0.018215183093911007,0.01600496577008231,-0.04344838363198779,0.034407499483805976,-0.031293251985976815,0.09927622338896294,-0.022912969364803373,0.01492945688120316,-0.028600504949619417,0.024382223156234364,-0.05424665767601304,-0.007275911406535822,0.013264648613076455,0.00921056830137704,0.002642493205452535,0.016933917688229987,0.039960715629177496,0.04365700575611675,0.017784211947391524,0.02467909653722408,0.022989650204375045,-0.0349546276675779,-0.017541790045092858,0.009839779557556563,-0.037821364124956194,-0.026363113087648604,-0.0415356441210481,0.012244179668937667,-0.045939071028365946,0.021848381041611634,0.01088948257680016,-0.06419308597505255,-0.07338819968065088,0.03189798439619511,0.0038425807398938163,0.007450036053313045,-0.013492816068620433,0.0691084072538498,-0.07343051405836022,-0.062888190027135,0.07138217231638486,0.01512445940056368,0.023929288586235213,0.020111830025249997,-0.04156387679668179,0.01906226845200022,0.030988766751772725,0.0004434104289736835,-0.01420090872895858,0.023938203565931123,0.05138460768984701,-0.04009439951565068,0.046374050788496574,0.06551432161504345,0.034423874763445106,0.015204423327924026,0.036715147445882695,0.04436922836245419,0.052489505716864254,0.010137697002143736,0.03425639707904878,0.026566328585800908,-0.03438624161685763,0.0010789845994244015,-0.042136776009457845,0.05610571392562368,0.021099512883729202,0.022143382496786726,-0.010097960368404747,-0.026960399458295852,-0.03747824341612947,0.02504089384102194,-0.012148540421824361,-0.03372992284720484,0.10767266987294252,0.03623870390516232,-0.0020133225157483517,0.020564867801370183,0.057799780581739124,0.025776462799995115,-0.0031677672898973745,-0.011259212295669166,0.046875411260462074,0.02216660066261754,-0.020061026163812137,0.04567906365516437,0.10739467378486701,0.014082390061627035,0.030475861117349165,-0.056077310958350994,-0.032392921631604094,0.009565948742516959,0.026534457134141497,-0.04878268139992055,0.004661845976083004,-0.02902761316853593,0.024639841639220433,-0.002691924108689621,0.03749922326710437,0.0015744900107879907,0.025688136415283478,-0.0008049244046760985,-0.04729579053586609,-0.02896329138469988,-0.07525273520209019,-0.03994519125062175,0.02589978966659297,0.006180302250292525,0.04681518408335143,-0.04458310910234037,-0.007116984968308797,-0.058146185996877944,0.00914657525478364,-0.01301495355882412,0.021554407385297583,0.014487345862663351,0.018010210962559205,0.030029418554425882,0.05694820679609394,0.05673731654100046,-0.029706292523463896,0.010319990069857678,0.06709168516345987,-0.040308546839828104,-0.02460481692776168,-0.05585706436492716,-0.0583251642988954,0.018043154419840716,-0.04007275054332231,-0.026697502650796453,-0.03431137818688694,-0.048726476481593076,-0.016057799416832105,-0.03943132362554251,-0.0008066405123510871,-0.054799840610637696,0.0009504146169956016,0.005317033733472326,0.029431527657461477,0.018822429004186708,-0.045735088039142835,-0.013996385449540585,-0.008562849594195218,0.018132836938317385,-0.011152563643000084,-0.06894120761102951,0.060780786780072676,0.0036324762143747002,-0.02463865021865119,-0.06454866576311075,0.008641510406632854,0.00025389557372398766,-0.07122096549437042,0.02104840465390601,-0.09911285338760827,-0.028745343353396735,-0.02692727304848085,0.026650655434028225,-0.018995764965627705,-0.0415826398785914,-0.07629301249018569,0.0014954187707002008,-0.08037185286735102,0.009295263195468806,-0.02243137675534094,-0.014210761971769405,0.0031399895711810176,0.018189915932127362,-0.01569006910660593,-0.01414871280479565,0.06422745609296518,0.016200057436251178,-0.038009210043537765,-0.02053414432660423,-0.040287022808490315,-0.00960577883985143,-0.09856294841628245,-0.03821217812063592,-0.026842789228073302,0.004719183807366065,0.05040223457859499,-0.058350949180265385,-0.042267638063231174,-0.03402733232707663,-0.014665855522256363,-0.023496647625048245,0.01653938338688977,0.025695819913644898,-0.051894308756216784,0.030298942542104287,-0.013018383795904092,0.028644161780113093,-0.046981193792725105,-0.009884390941278865,0.08243218899620253,0.06418981660157899,0.04471500160714525,0.001912043667344205,0.019528815727013923,-0.03127264992569102,0.03245888894970888,-0.04040449935810556,-0.07994998263815466,0.04241837784745223,0.04673809624812044,0.05462562856148088,0.06978419438871836,0.030421835769626322,0.05506564211249117,-0.1057039991433965,-0.1039745130639971,-0.04975110455046829,-0.005954448189089731,0.02315084125624041,-0.04342782904454243,0.002752779821839303,0.025399022726179714,-0.007202015050953458,-0.03290381667047205,-0.03644213827396345,-0.00556954411221256,-0.051142288622529584,0.07217302611252097,-0.019302703171330562,0.05093838548256174,0.007218104828417697,0.09450782366252508,0.031037688494100997,-0.0086573143403494,-0.0041808388391217435,0.057582862794247916,0.1941299800171142,0.17986346258126124,0.16028786405425346,0.12699425649028376,0.12227962652033679,0.02764084181944538,-0.08140681641071258,0.002328485443604625,-0.030441397850029913,-0.053611215325525145,0.07894422216841276,-0.0027814091317533247,-0.0098595680617351,-0.04272811673007837,-0.0038977648262579897,0.007605057911252837,-0.0014000284651225449,0.013346722922808143,-0.062142801752479375,0.06986855248777324,-0.0013871873443690274,-0.0177450605408204,-0.011692550332130344,-0.06399069022519403,0.04241655256852651,-0.04935846200079886,-0.07500694539165922,0.04116068957522272,0.08517762576471814,0.14074825726764967,0.090397238143923,0.1361319892355405,0.11164029613612302,-0.03712331499876893,-0.014128955791799548,0.02195218076341846,-0.024725632202571537,-0.08963652800545327,-0.0020272966488593214,-0.03483801842200317,-0.018500861539590855,-0.055132357182288205,0.0005216372931117403,-0.03095486177496479,0.052499604814688836,-0.04396771436500368,0.00202156811020919,0.014820338831896472,-0.022056542755456224,0.005611436142875627,0.059626681152709846,-0.03664328964578942,-0.03702744807090557,-0.08521875851789339,-0.14964835023757075,-0.0018363881625903726,0.06414382739056222,0.06631036741348485,-0.017824433608249413,-0.04226736083226828,0.006370092615445887,-0.03542960110015069,0.00048295118907658123,0.00494347707461694,-0.07207737595135641,0.002995303607366954,-0.029715194607312593,5.6637448234008734e-05,-0.04456206741125128,-0.05567128105353654,-0.0315510827363583,0.012030223057319772,-0.03300341732342009,0.010400229921134157,-0.08276679290292424,-0.045171875864165954,0.008780651239098129,0.12591988656202624,-0.020361998374678406,-0.020899083592388158,-0.10435252603065048,-0.13574680081519366,-0.14304868821053182,-0.1014031555927414,0.014633510904973907,-0.035090944509760726,-0.10481940468362692,-0.05011221055815979,-0.009702512832669973,0.02035246168983253,0.04047109862291859,-0.030073146888661074,-0.07283320459638906,0.01238961018652509,-0.06813389969400456,-0.04384780713176757,-0.0120349193265389,0.008795361820944175,0.054039691211364024,0.02161544113660722,0.03135524843077517,0.017944601120322173,-0.027517662230645026,-0.05011086345882562,-0.00016557496998293562,-0.01077814321708314,-0.03857797619730934,-0.05458410234341017,-0.1404102128067744,-0.2886578276918956,-0.2166546218035685,-0.011058955732979745,-0.060638104009702286,-0.07180596393206136,-0.18686136742480525,-0.07807773413548447,0.007477919196067036,0.01151475351926633,0.03889582554315035,0.016928023368348588,-0.11099732011114462,0.05594960869433655,-0.010134342128532679,0.00787671614614715,-0.008655820758974102,0.03271785687247758,0.009235294183981136,0.008977791047032184,0.01981656947688246,0.07216011241041512,0.040375393564595206,-0.050108624924294284,-0.06923365795649243,-0.019739253500036212,-0.11993602610501664,-0.14694722179702704,-0.23561592749361038,-0.13308672187782147,-0.16398943885708075,-0.09460629930697852,-0.03578562988746865,-0.012068242422306577,-0.0693769479326517,0.029049975598084053,-0.0848187072941234,-0.06791075650760506,-0.143165936684411,-0.0826470721552832,-0.029580170893976136,0.0035017702697326884,-0.015515235839855824,-0.02332849887070017,0.06195090795045198,0.03733652508971111,0.0530888288706874,-0.0199259518138398,-0.03730057184049888,-0.026966043655252313,0.03902126392249495,0.0023956639973726867,-0.05069030237039205,-0.1005517884042216,-0.14305142686063238,-0.17595420146499832,-0.1260224439029629,-0.12775834988394447,-0.08665498754655891,0.03700620814527217,0.0002331788486764363,-0.06493255633610276,-0.03851084783314178,-0.0010003614966154332,-0.06052853296884487,-0.039775142984731705,-0.01799847791426365,-0.09431698919693625,0.08583387940672751,0.03982307913511392,-0.03750010487349768,0.0311993079010991,0.05212426813067578,-0.002810480099361577,0.06006338419604822,-0.04984964138566288,-0.003444347891009949,0.05953169405257723,0.04848594291928271,-0.0278943414481782,-0.07271250429579827,-0.11078834935497497,-0.13111313430860222,-0.08121908578061192,-0.076652604491526,-0.02076976373577383,-0.008330973616820994,0.10715677083968592,0.06638184754327583,0.06926558603718941,-0.056260228154048235,0.0413475124144242,-0.06290921241767622,-0.0054631467199858395,-0.004522113539167217,-0.08242316545487953,-0.05668494257669829,-0.06840598999905106,-0.02558069961066459,-0.01820432018596515,-0.049003653230119626,0.01517631693861584,0.013657983378748306,0.009231221338216722,-0.04683865824307788,-0.024125085880318323,0.031176387671003076,-0.017010296238600776,-0.11526940114645064,0.04627375441096718,0.007765312315582978,-0.06756377063827419,0.0182369004238085,0.029437882633399873,0.10550423220260616,0.07780979069711189,0.12896091106109886,0.09072554619568882,0.12602121406613437,-0.05663912449424671,-0.07642201936450001,0.0196894078959632,-0.010056504052976895,-0.0718358415173567,-0.08492248994598257,-0.08803749734960192,0.0051761583856332685,-0.015137693960915674,-0.020629429357346022,0.03611538353006767,-0.02216354090347469,0.02461419237872955,0.012354108666216309,-0.0656635025411611,-0.05584229513897563,0.03619924448967894,-0.05239233990794518,0.028527214841735794,0.007998161673366741,-0.051441882200992155,-0.04803719530410574,0.05779049068128285,0.10198898129766432,0.08654978979653527,0.03655269868181678,0.07496552694476454,-0.021698694249175917,-0.048193433862784726,-0.08447854891415571,-0.02415421274158097,0.04350265981283784,0.038227270033152905,0.04920892173334003,0.021417274304601077,0.043735657429433826,-0.03548606408898086,-0.05203644193329175,0.014199238790789666,-0.010846659519405832,0.04252142262650234,-0.021396048609627315,-0.006586723611436637,0.014900976078833575,0.04340688412916749,0.022741632576491606,0.0014046270631081074,-0.07486302388992726,0.01547839660333755,0.014480854868226582,0.11488826145882125,0.07305940034708029,-0.011700351255340215,0.1327141880237794,0.0717983633580762,-0.020263759363974544,-0.040138432152652524,0.010944463946082669,0.08200032057053899,0.030697146497716286,-0.08841156526903286,0.07527092287706506,0.056748421996074154,0.02027353125032084,-0.01905471746560697,-0.03482569365580246,-0.004137883188022704,-0.05168879098619804,-0.05039317524608611,-0.025214021055646203,0.04328597912349311,0.024053054528733797,0.059572705538994825,0.032313083780868265,0.039446071274466116,-0.00027133065287030395,-0.015025223339749169,0.04531773747719043,0.10075720289658506,0.11095976270596714,0.07186546061432446,0.10137809014435273,0.11925349633873275,-0.037270200131141455,-0.12213069357093023,0.02081438626023805,0.07281608857368084,-0.07492837010493082,0.010455688278395419,-0.08035086251879608,-0.0027605500971917708,0.03340676726562686,0.009142212798774378,-0.05331113175654499,0.005792496207199891,0.0097268721100816,0.02837623292742258,-0.041991236315305325,-0.003809827004074755,0.08788499971522364,0.012049083788755736,0.05364295363114065,0.05035483101920006,0.04882843572150091,0.008032795702393195,0.0780855293378501,0.10195949555440319,-0.03349351859033211,0.0011140010846175381,0.04981029566138964,0.012535831960504824,0.023910768395474798,-0.08286450330741936,-0.10376690353695585,-0.018981463177909906,0.017643756157846333,-0.00040990921773759393,0.0185742650256327,0.044416550318118024,0.03572926722952817,0.006324106874837355,-0.005640150426832375,0.00816187325224065,-0.029144010598683903,-0.0109084693035714,-0.016019273664747657,-0.015197412953591805,-0.043430470473214945,-0.023641401810093228,-0.022256264504176893,-0.0031849435168666705,0.028743787373902402,0.05216500084981983,-0.03337302562028875,0.00826554235023916,0.016493305597066365,-0.01895762364782901,0.019668062495046906,0.009480511913840825,0.030993843716354465,0.030515956100062344,-0.03440262445517521,0.005038325156218427,-0.029058172905616204,0.027204005085394254,-0.04536510035267991,-0.03288738720298982,0.0005826789718726254,0.03808050512164893,-0.0401267582122183,-0.05525436830794768,0.01258057118430652,-0.0008455927523138185,-0.13705015966443745,0.06023691776566363,0.0513041584474558,0.06107102485956496,-0.0031553940628411513,-0.06981301850427907,0.011113990402918321,-0.03065708962784776,0.011041912605032728,-0.04469060953613833,-0.14772801762175913,0.0028637889438882197,-0.06096360651679845,-0.05342177312695668,-0.0003138216665391211,-0.03569509562318479,-0.031135346336774325,-0.045921183971835464,0.047392735197553104,-0.03362648481085665,0.09726728102305844,0.04307725456213848,-0.0011437478960055949,-0.053882634279874456,0.024206998640517147,0.01146411765023974,0.02733493132919845,-0.013828199521901001,0.0006677409964545376,-0.006589184241932569,-0.03988621820575848,-0.00925846684572839,-0.03639816229351924,-0.051932562192293995,-0.02634759793830935,-0.05972509638925411,-0.11018598519147872,-0.11559015962674062,0.07477080530720591,0.005158694760977012,-0.03167567428269119,-0.013943074731199618,0.035155319516966474,-0.02539657627822148,-0.008535588635854335,-0.03621947567336137,0.01372282163698216,-0.016304375726382405,-6.0294450037115933e-05,-0.054406790804046055,-0.054569401935530115,0.01797223180852178,-0.010314785666617685,0.05520898402720319,-0.01690930932309544,-0.032145257919053774,0.0357718413619799,0.03464872590855099,0.03760802067005216,0.008908289336878148,-0.017180333286039504,-0.029792734845605618,0.023406693788465004,-0.028636957733191762,-0.09081950496386026,-0.05859340800566194,0.05859269645357065,0.04948575742207356,0.048829705605680625,0.0015319693983588234,-0.0020237374032421977,0.060363396878156485,0.002124288554058007,0.06545488378341849,-0.027278444280174355,-0.026413741004944816,0.014855910816073698,0.009366469303867482,0.023407033008481754,0.05798013195541578,0.018620808625509067,0.043725375336030575,-0.013499447754210154,0.058140535983003366,-0.0949525553869019,-0.01821778615433599,0.007237535740855081,0.006055551657877073,0.04445889819293538,-0.03621893927241922,0.042399054177987686,-0.05451841030401322,-0.022732891827459956,-0.006885182194834701,0.07367072515453554,0.058599660264314804,0.07100311818294959,0.01577340253635306,0.009611776283074192,-0.012878493835386803,-0.003516169688865562,0.038624769337609874,0.01246928905822334,0.027279223788864628,-0.00540267018645545,0.018674003424890992,0.012745958752436065,0.004414775777109923,-0.044724052213344995,-0.026661649199152572,-0.061835146243115424,0.0640209174690401,-0.03575593275003758,-0.00602030952231744,-0.0200131935080304,0.021889151097796697,0.04569972166424787,0.02733575362699189,-0.0022157448956587277,-0.017199248041823666,-0.0024730362432439914,0.05667826966148169,0.07465130723114799,-0.014882833691700155,0.024824115777470766,-0.02238909909674557,-0.023296574190482845,-0.024672591365722554,0.022558090089513618,0.02785367410735936,-0.039389287080678084,-0.06662027862098999,0.048295873929173144,0.04444551357052484,0.015019262468148472,0.014492254371346455,-0.03347730211775819,0.038301277801977396
