Input-to-Hidden Weights
0.04829515828506829,-0.002482822653662086,-0.012581324566919579,-0.040389545060351535,0.030755065803433835,-0.02339234735650795,-0.01106908148775576,-0.039005416868362806,0.044245568775061,-0.01931044358829837,0.06384394182848507,0.016901232719265136,-0.028301795564537532,0.014340192299935854,0.019862258940288206,-0.08075848881596574,-0.008433157005601955,0.0028166848212097403,-0.04239714717809366,-0.008554582238670824,-0.05685696103868266,-0.023631615907487014,0.039126115468245265,0.014519071217939558,0.0128454425192718,0.07531552911892841,0.03148165113290678,-0.01629324389833831,-0.011329483880961663,0.04041812928149136,0.014995629942203471,-0.021946543930583103,0.05232223542752659,0.028019439958406236,-0.05323386312928949,-0.00962913925937891,-0.010779857961687442,-0.006497468466993805,0.03841764483670042,0.004377070143471662,-0.02013222703242693,-0.028783638587571637,0.0034401794563721625,0.0383743014814724,0.06095353145078162,0.019065514330939014,-0.01390272751812139,0.062525693442104,-0.0005445866703294733,0.031975987017776014,-0.02105510252543186,0.005973846716265412,-0.009417544002108152,0.0138362634932925,-0.056026205545678096,-0.0008922731896776065,-0.022749915744179384,0.05950875568707712,0.014170953239654631,-0.06331834127928718,-0.02822097431108213,-0.012193450901532671,0.02661065971698983,-0.015226301830600825,-5.969049710318154e-05,-0.018922324132232212,-0.01442389934632145,0.053903495509214,-0.012760410225940065,-0.0176647688540582,-0.04321088190017448,0.07028253437547209,-0.030749600767021452,0.0509145633274035,0.01748278535257362,0.03571474785509985,-0.002569491245614532,0.001647277061749188,0.007394934907347638,-0.020046574127152255,0.026977587317327828,0.013534259446744095,-0.04376400401845113,0.03622766000631225,0.035761949644548326,-0.03414963877032074,-0.028621348169631154,0.018790952179700265,0.00789678725252829,-0.05616650914878514,-0.037761689498488286,-0.04006836751179711,-0.04712058746774962,0.0023557743807762323,-0.03156586758546729,0.014295945560228868,0.012263408475518444,-0.0011207788376951485,-0.030374425535854382,-0.06112342341071252,-0.06989793099053201,0.021766832219715686,-0.041048668141125004,-0.015771170624692934,0.09320593258212906,0.043237702574910206,0.03216858932777284,0.025651280797996272,0.019612241263047888,0.004465216040947217,-0.07450188447895871,-0.014622634756827898,0.015217203587575326,-0.0003644531235406772,0.03171938193252322,0.025480950919064903,0.021041899635234017,-0.04042877560081569,-0.0444630437816243,-0.03868541723307839,0.019519570076687854,-0.0064276579200203965,0.03538136022246669,-0.003235697562330287,-0.0731677377702198,-0.0050295393785145795,-0.0037842963124333517,-0.05848069919763118,-0.033155556221658486,-0.061036285202495925,0.06052746889104394,-0.00022705302755813913,0.02061247797441996,0.05960481415482031,0.03286214946791171,-0.029509204729988216,-0.003243737144548041,-0.052772347471841695,0.03420676506266757,0.01809570830124825,-0.0005876268416375171,-0.04098214596887647,0.050442532956998444,-0.020417044768532528,0.04376686521193377,0.07581502847361214,-0.01104186927549663,-0.006004686638897771,-0.00433397863001372,-0.0478890163024919,-0.03466173053406395,0.022629839509789,0.003919223735751242,0.007292916624034058,-0.018340869949527387,0.04824936110953961,-0.023892816109185325,0.022630771554561998,-0.06627794945932296,0.03380891407014507,0.021295555651983274,-0.11062273350075918,0.03160775212769931,-0.038998970663806413,-0.047472718703620936,-0.015838449329198277,0.06291329314191084,0.009002218104069414,-0.06255846609633857,-0.030634654219783664,0.0014236759155265945,-0.025996311330383392,-0.02892984885664884,-0.0008164788962295946,0.06179092789753734,-0.002688945011400275,0.0402377620375693,0.0030216766256797646,-0.05607460103035665,-0.05502915688841305,-0.06563295692156443,-0.02250029497073908,0.07399850929055232,-0.007422602544462216,-0.06605229138205189,-0.06134858095403176,-0.015304677055265782,-0.0308880086909483,0.006407924551938844,-0.023978670827903358,-0.027105495145952695,0.036495235936399424,-0.03926357355059779,0.03503069274728611,0.0001649354527675578,0.011239268494908609,0.020968867722188544,-0.01943565482806527,-0.026552689616902037,-0.06203139498133739,-0.01047602664663424,-0.045532957263849504,-0.012044581590266513,0.044456607327456495,-0.03595122725578737,-0.08181435266406895,-0.01354894944723627,-0.08900581272487215,-0.009331822041440674,0.009766717341725704,0.030879381017759992,-0.03509835653646471,-0.03189246128114127,-0.05094738391101917,-0.11066170029484387,-0.027287966832716854,-0.11560698523892396,-0.0670128246329023,0.00457668931934508,0.01085276493328418,-0.02345614823565147,0.029384558116561287,0.04154306896353564,-0.0041247482949673875,-0.0227503475327112,-0.045296128412647754,0.020295981472734,0.05343182775831918,0.040015836413007246,-0.04513643441232072,-0.09562186870063473,0.014404851841486203,-0.044902495501929096,-0.05749574770602239,0.0032899519268775553,-0.030892268487809516,0.00924723811205429,0.0792783275372692,0.08380092556877734,0.02539005209786455,-0.0148252804815196,-0.019223017056265126,-0.04129509712383212,-0.027491359928914667,-0.001811293573287417,-0.012659632015133846,0.008436858838525609,-0.02690135410717861,-0.030310213875260797,0.002042841790725129,0.0007196272206363212,0.02469376002744516,-0.007717482623567996,0.04923337133079654,0.0525430755997521,-0.0472269613481206,0.07979569175077071,-0.06546341661025819,0.04710310498008458,-0.02227068930737213,-0.016002902679034328,-0.0303003721313865,-0.013945716172088328,0.001835723695551696,-0.03868973152300934,-0.058615525642063716,-0.05591522093643517,-0.03614096481057802,-0.015860848367092256,-0.025367143895543908,-0.02412031684627801,-0.0025264945344874545,-0.030567223119538457,-0.0613459841333693,0.04033566873453579,-0.037498563303976364,-0.020798280779920214,-0.07275051185285666,-0.026210808796538844,0.003754893578714613,-0.02933239004385847,-0.014742470083445123,0.03958311237769045,0.026335280667826692,0.04590570171154841,-0.011131476141758308,-0.053246213592461504,0.009242633879990934,-0.05039495604934198,-0.023721338779908133,0.0003361607382778687,0.05576399639642905,-0.03945875974020853,-0.07948165679818366,0.04408433114110523,-0.011316678546433269,-0.04676785702004522,0.0022362104013322645,-0.018833638284825534,-0.025395008639180365,-0.07878823281390154,-0.01319286799399616,-0.04938111836843353,-0.026693206129497726,-0.046943543226436804,0.023781411399500366,-0.01670239563839774,-0.0005441454210331335,0.019308831610234913,-0.041682349870980864,-0.013164157717587782,0.007314698762271019,0.024247842407446176,0.02802493558315386,0.14484512146691894,0.006535413847310635,0.02499892391049724,0.054350562267637764,0.060408833921042474,0.039739678473482865,-0.0349846225310564,-0.018005024001795045,0.023844150135227307,-0.0032006340884132524,0.03449628173641184,0.03471763202071497,-0.02338099752322893,-0.0063179037352839185,-0.006392495409561629,-0.0018088665617851454,-0.009301476905893906,0.04112107992659592,-0.022050662172292762,-0.039762204602036076,-0.0022756730041923806,-0.04274791386024834,-0.005958959923633669,-0.012182463537622205,0.06668083112485843,-0.02798521779039328,-0.020535617447070297,0.0022009507989181765,0.0091566932541344,-0.017609716230688112,0.08133712624907025,0.05116815033797025,0.05308068920999533,0.036686223973761464,0.03595223471753806,-0.009423369461045845,-0.02669915580180155,-0.014103562709980104,-0.02107218005288554,-0.01022659620930923,-0.01887933348981912,0.019515751758419672,-0.04527895399339702,-0.02322767013552656,-0.0017361506028111223,0.023570293895296923,0.030640961115880678,-0.0695092558799509,-0.07812073166264855,-0.02949743255562587,0.035061872006558595,0.0006800518679587782,0.02118044724369381,-0.0020686952030920993,-0.03453283993778124,-0.0003514507282248153,0.010451940448524332,-0.05466734930328913,0.025397014061077715,0.028011356862189165,-0.037478579227766234,0.06028105803505219,0.050344257296532066,0.051468937542716545,0.03145657711683489,-0.020703011152312198,0.023630391284899174,-0.003734064863018435,0.006550141497605112,-0.07038530016831406,-0.047467490939076616,-0.01847763857572117,0.029728616968595325,0.02833356160104259,-0.06012080927866155,0.001967606401908612,0.021533962830944553,-0.005986135950476408,0.03738322923720675,-0.051356476794871285,-0.029365746029673668,-0.03657013224515849,-0.017954464688434528,0.0043723202725587575,0.0577078749452786,0.018266909593027854,0.007541494775761255,0.061482441159459354,-0.014766366069206328,0.007778456892162145,-0.03018932516028768,-0.03865150796435577,-0.03204418016400921,-0.009885716286023786,0.09662341740552445,0.029370784652939356,-0.04602917586788632,-0.05995667815166483,0.01648712083330547,-0.06240786940047244,-0.014664912705590906,-0.04030491508070342,-0.041118663503889645,0.021893018844107694,0.04258839157900845,0.0326516835684914,0.07379046242173137,0.0022259289321220543,-0.04880363989918612,0.03226280117524835,-0.03205639116819357,-0.04997025853043328,-0.04150874204691685,-0.04792246342263446,-0.10028156881134964,-0.016748616573124025,0.01507372524414863,-0.05929211957067154,-0.0015443374398242313,-0.048455489312716066,-0.023870917138047135,-0.06482734020036911,-0.003889693308482332,-0.01576256168778239,-0.04368105883766309,-0.020713512897809632,0.023726444691603628,-0.0034472392794428924,-0.021479534043767505,-0.05783900408710845,-0.02646718480531955,-0.0005574064391666169,-0.022727631579217145,-0.009492086229988253,0.020673946533989296,-0.004651561789335396,-0.06317624630806716,0.0938062968542462,-0.016113265293632204,-0.051777359883628755,0.001342099990633249,-0.011263967356735488,-0.10017340471211385,-0.01021374612752006,-0.051763425711975036,-0.0586888111014073,-0.07789869975511436,-0.03377934810552978,0.03808163432354774,0.010914109371487502,0.038770885292725994,0.0015578715570471054,-0.052768424237857554,-0.05056035763591244,0.020396640361576825,0.0043323933644884936,0.01648091427048868,-0.03045910663354836,-0.023687830615604824,-0.04372862030628129,-0.009223822078135796,0.06252227942857773,0.018428047408354922,-0.0009479749396098769,-0.009412521763347328,0.04181919892776044,0.03546262344722429,0.022012882287191747,0.053893539293809134,-0.03951713757914043,-0.03347469997234047,-0.08173129105793031,-0.06214369578606616,-0.0544259687674563,-0.08596185939305846,-0.010700952195155565,-0.04712638840826981,-0.006707818251051103,-0.06081788753837656,-0.0020584509893727338,-0.03695925354624013,-0.042815939694650196,0.024756263398798675,0.04167242228071231,0.029849268469857027,-0.09568991721769096,0.00532309422781904,-0.03343313715904213,-0.026940789587138515,0.03464403611343946,0.02648137977315708,-0.009993495240432535,0.050918619107761895,-0.03689513101051645,0.028866303059089635,0.0405007530252458,-0.03185727133851032,-0.014990148993230297,-0.04312335456644834,-0.014383968741160916,-0.0014344909190067733,-0.06666239109597479,-0.07492488514312076,0.003943618908696615,-0.03817279794317437,0.006770067349734046,-0.057000008117779326,-0.016472989615187925,-0.04550219562075378,-0.027757365105847222,-0.008388657790422843,-0.09254366524784502,-0.08570464922203985,-0.024411560638630203,-0.04216738568418847,0.025924051357327327,-0.06727166485932815,0.03994226222672871,-0.009646036583752257,-0.0033835256107618626,0.00230628336106058,0.028474793496893785,-0.028518016672181415,-0.027978390850414418,-0.06573832318251843,-0.01795491770298266,-0.05331386378057225,0.012478583713110237,0.007203456824233955,-0.09501498316682873,-0.07103574956763682,0.004697714829289034,-0.02679908827364004,-0.030841175281264257,-0.02953779885306304,0.030160801944630243,0.03983198625540996,-0.029527681570718747,-0.024150087157388013,-0.0836150671503871,-0.015718347802171056,0.036248936826998,-0.02066520757142531,-0.06718984897743215,-0.0014421423004469813,0.008951794102724973,0.03910335558913371,-0.004883235461555207,0.009032177170981408,-0.05676965157679808,0.09054555520789676,0.02786078380928375,0.006592862492665495,-0.032817687717297206,-0.0019043394091751047,0.01658972409213024,-0.018197043239859285,-0.06472637532509547,-0.07548572432386583,-0.0672221181801279,0.037930358376302105,-0.018380429401745692,-0.021785745114215452,-0.04033194656598894,0.024101776217431935,-0.009547992639149032,0.014826283839160794,-0.015007137484375708,-0.01924027626344582,0.011594550758647735,-0.002407109721759063,-0.022664575270070948,-0.020102734096689806,0.021975739818957722,-0.043636418656124214,0.014538740028495409,0.008036544002815577,0.0056551619105943635,-0.008867300253022844,-0.004729831534422915,-0.04735248587642403,-0.11222658877094742,0.027223924652616183,-0.0569903689611209,-0.040171244735462575,0.02519803830479048,-0.04904494704831573,0.007934184010995231,-0.01996725178671521,0.003773744226594371,-0.055214335069975605,-0.039640593099523475,-0.026357124153312806,-0.03144400947366898,-0.0009729764930495693,0.007527530072775059,-0.03635163561377073,0.012175583556644897,0.008615675397273863,-0.00586498434042323,0.0690105187197258,-0.024296034138664678,0.08675568802278234,0.014796531236469762,0.02441265022733114,-0.004097027794742242,0.0015191401004096662,0.0044123733604292305,-0.02408526633267292,-0.04575815118079127,-0.019235411803343757,-0.022883928189412855,-0.03003667916447206,0.023033859916034814,-0.00543697640297539,0.022597279848033388,0.012907180696205297,-0.02642241440079135,0.023812333181535954,-0.0031773054495638706,-0.04822613833599444,-0.013469858834931993,-0.04431016734905677,-0.05598158199932183,-0.05081615748158305,-0.030453410007062587,-0.039932787342789315,-0.023184748902529733,-0.0465846181161738,-0.031498520297761255,-0.02505564923712338,-0.02115425564109329,-0.0032011471983841144,0.03957921528612451,-0.053070511449342814,-0.04234172446281963,-0.05101385520504874,0.01584564835906077,0.11177368150346345,-0.06167410151422408,0.013177712796754174,0.016510422342270972,0.00772571877533034,0.003069353263756347,0.005560405715370991,0.013284172635382013,-0.04975296534820482,-0.02904955751791839,-0.002955766768201455,-0.05167683319565219,-0.024680334576346222,-0.04139744890895184,-0.042210094179563125,0.00778141668802622,0.004107656580743031,0.002807831882876725,-0.012804126200022348,0.013235439414093024,0.02327434441292668,0.06251967959317901,0.014198892512808902,0.01846938826566177,0.07417695313099434,-0.07746814709517362,-0.09744298840785001,-0.009943696505634642,-0.03688444989845138,-0.02811000373392964,0.059935799633444885,0.020487406612527195,-0.04142039042533605,0.04711133627815108,0.02059448901675975,-0.06779738227119476,-0.03285204411911354,-0.0019516220508714432,-0.07754871219222316,-0.07880467768230394,-0.001867473963358853,0.04403163007847324,0.02910084881959399,0.05341159286918262,0.0013060599173807955,0.03368704739953106,0.010467961137509366,-0.07229722357585179,0.04779566160921184,0.06323368533075682,-0.028622343795983694,-0.008847421233598145,-0.025002891780149798,-0.08218092200732766,0.03434216201471435,0.05765330391588498,0.003284744874519735,-0.048754114601548416,0.04098991817294904,-0.016991703911116294,0.04044208890730311,0.023666007584075013,-0.018573292438928846,0.04345401110562839,0.06873536345443622,0.0409647874298906,-0.040502804941043066,0.04489968859744247,-0.051105685589844296,-0.0091807536040467,0.08115311962827756,0.022725364409004283,-0.05848499343589379,0.04806155466539179,0.040262321735338995,-0.034654219612548706,-0.010636960506375083,-0.04915341449720622,0.039845730294018736,0.03958835771608664,-0.010303583607958359,-0.047203332872345544,-0.02937133377377302,-0.0001458814451045877,0.09821935417951048,0.08253118726086267,0.044289523406439026,-0.03925067962689344,-0.030843273914765098,-0.07467929192379955,-0.018387779780672027,0.0029920038910968313,0.023523947784593817,0.0007846902418185223,0.017217358575105486,0.07971520770626507,0.02875602338724894,0.09424576682318235,-0.010723427677897843,0.0508637773879899,0.0019766378338441962,-0.05433742256751025,-0.019161664582161998,0.03888486678708705,-0.029809287666975437,-0.07053431270450851,0.03359937658603113,-0.009465220146799916,0.03581856836474902,-0.03277800605648246,-0.031989642512376196,0.030384232978661677,-0.031392879203453475,-0.01660054118910105,-0.028605690230910242,-0.007770047567239561,0.0015737851059304286,0.019620244288586178,0.043869237007029355,-0.04529251233853975,0.039293043938002356,0.08278336137769039,-0.010158618293881958,-0.0030549614630948924,0.002956037772214014,0.1095322066910578,0.042751315120304875,0.016322448845611355,-0.000646826386721414,-0.09734634374890669,0.040812867785339026,-0.006428781438763028
0.00445345788445549,0.002947242346073418,-0.026827471676479163,0.01015439381530158,-0.05496929024850017,0.044458652238048145,0.028071926444053256,-0.004708626024609259,0.03718770148311315,-0.037726579182176055,0.009592844153274238,0.06520101713810116,-0.016539624747854656,0.003364669705016039,0.0143541890721468,0.019097663328407653,0.025028252227990978,-0.020035235412239127,-0.0450797426150483,0.09834714776865106,-0.01075474484707106,0.000994176240573096,-0.023632848565514192,0.020931931764556877,0.03400134052275222,0.021180797212658604,-0.011610277978339023,0.001470276571891978,-0.0014364466661350819,0.08307627240025521,0.1660551437982519,0.03331733857004216,0.015535582908768044,-0.0247545171947244,0.008078192090017453,-0.02442731634772032,-0.0172436366878599,-0.005746999043077875,0.004456210240815983,-0.03947875487041258,-0.0018709422692513517,0.0286853138860461,0.035142180492966565,-0.02568966234924807,0.010803750924817406,-0.009834978056952165,0.00846551890684749,-0.04744568270588677,-0.03857309828588288,0.0011182353139505994,0.036308050587161085,0.012765361081774266,-0.011333601367035694,-0.022347839412035872,0.02494562880974743,0.09478250605253016,0.002536273216932315,-0.006716989950953625,0.05418674123371239,-0.09557176161337706,-0.003077476617608175,-0.04512347010982153,0.01849432697847475,0.01316408689476128,0.006647555182718891,0.013038724125319756,-0.013995217621067669,-0.08796067692598998,-0.04510769169163225,-0.0038485589219941618,0.006247849350599876,0.008565480043008436,0.01006746125706066,0.024003362539521678,0.002778674890082037,-0.030317310190814396,-0.07060946746323693,-0.0040917047899483175,0.027619920442360547,0.06579751148022521,0.04479984884621147,0.042198716128269496,0.04232652247634764,0.018880837489173338,0.03461584703494572,0.007549894862459131,0.02157032541041241,-0.04587196815321355,0.011786581485709472,0.0029229786163801302,0.015583348982684745,0.02249849836600371,-0.03261122301989553,-0.01619242429903613,0.0545354438697935,-0.005137989091963955,0.032704401597916634,-0.03313183508035464,-0.027558410517444266,-0.017088070471484116,-0.029966568664552082,-0.09747726771362121,0.024979216304268588,0.05658215104801734,-0.003820844516478339,-0.015205158909699689,0.08739616113941483,0.021659124170486037,-0.03880616944877879,0.01082770887817758,0.006160827798456821,0.014005721566546763,0.052955929655193246,0.016303183825919835,0.0008120416241054525,0.010637597426019578,0.08319684547243733,0.043810896394544996,0.08043264344617723,-0.04634838747646525,-0.024107915765252428,0.017325629600309426,0.025981462136843884,-0.04960055075926363,-0.011566513460048888,-0.05403679034825813,-0.01614470077100067,-0.01564329661120688,-0.08242115270145689,-0.009908288420406568,0.01754873243917131,0.03186591563602076,0.027160800136080625,-0.038307364557388,0.04958231369038922,-0.06899150106834417,0.015305685769823585,0.02446337474725321,-0.019158792499122446,0.03660662469721249,-0.009192749497587901,0.006584011726092781,-0.016359654877055537,-0.010575323978786126,-0.00033177125335895704,-0.029104609805088773,0.032785417479250775,-0.03890523310137439,-0.02984802869520723,0.029871310629151326,-0.016723856598786155,-0.07357082171525221,-0.015133271729879267,-0.027380001909731323,-0.04019670977406748,-0.0638560987120862,-0.07960018114925083,-0.02781437248518258,0.05121306414373549,0.08032405729918322,0.0038559738328719146,0.025032685791531256,-0.05908886480600353,-0.011813197534434534,0.00379312349667851,0.04271290143581308,0.03255144042913439,-0.014897033405732436,0.04054806107633411,0.056214250278361355,-0.026117363280501786,0.07949675376651157,-0.03930442170820215,-0.03803116043371322,0.020302581132288333,0.017090451934816044,0.009801735276095612,-0.03213581067556445,-0.05421476667325962,-0.02045463355577046,-0.016706280173217538,-0.04676883577408213,-0.0370425535605732,-0.061399355431940986,-0.05732639258340823,-0.09297819166967922,-0.02640962893213799,-0.0845708611079961,0.0021091695076231255,-0.06654860378086384,0.04014329766177537,0.07899033213674514,0.0008529128451673338,-0.03422637269630765,0.0642027123694973,0.03588140785306788,0.03274388023557414,0.011410266545671345,0.01208306997582281,-0.010434261154040293,0.027875098244209643,0.009110082801660358,-0.007119775517025045,0.03413697178875528,-0.008362231874630208,-0.060537010779717654,5.155972421627716e-05,0.06291603196778113,-0.03874359215483758,-0.01789997345811287,0.02879931804290059,0.05628163505315526,0.019649521694399198,-0.03170442722527444,-0.03289571739276764,0.006880319948037121,0.003531562254724957,-0.00015656440076025534,-0.024084473367885523,-0.001935941200488066,0.025802473179892465,0.024365018636545773,0.01723106011862593,-0.05114637287248722,0.017767585666048295,0.007419824571609514,0.015127536617967936,-0.027685420668928835,-0.039347206904762254,0.013838346454773026,0.09342683253066611,0.05381739759633065,0.036204602312868775,0.0385101320234042,-0.033714392392401385,0.0099152717153654,-0.017007919496632794,0.04503122614389873,0.07303077980786152,0.04746677260127373,0.041950314332626415,0.04758188850495459,0.06448476314117502,0.0739403593146636,0.013104792784351095,0.03822082253420078,-0.08750909416231654,0.028225124589018685,0.0065169927635843625,0.039254742643542596,-0.01019123192988039,-0.009295015276896528,-0.1260368004013432,0.03499303342621057,-0.026287843364515524,-0.02734305752069435,-0.0555377291315221,0.03239042920494672,-0.024553529975117543,0.004127766362225784,-0.01011423027434745,0.031812763304954014,0.06285447719425871,0.0353390409295305,-0.01797676266072694,0.01526290455654357,0.03141555274687005,0.07453060847432026,0.03479398602385433,0.039364686706996756,0.1293951343871975,0.041151562527302565,0.1014550653245154,-0.0001629978052096176,-0.01064563733358593,-0.009813270585646721,0.05608278043730271,-0.018298758558273724,0.04597962453967676,0.07545045188167786,-0.0030587000126343594,-0.07484132194007724,0.007398296538393416,-0.03925272348338716,-0.028139187633440702,0.026048949340020385,0.03464032718429996,0.013531198623391123,0.017469416521285242,0.005655129673381633,0.024753049242691994,0.03155450859255172,-0.01795762339123986,0.0044662572161865985,0.060862454332514894,0.07287497599996609,0.12539503495566975,0.059759338409798676,-0.003986900552258847,-0.009556686684035455,-0.0074204284511312345,-0.0138497343681137,0.026108821029921805,-0.029328918512948245,0.0558119049588341,-0.010007757851818863,0.0011267689568403645,0.02011605144970015,-0.04299214439917908,0.021786371155310777,0.053282443044209524,0.04042511069057202,-0.04345476768864729,0.028647731979681415,0.02535049865939355,-0.0657940145517009,0.10777491083093316,0.06793185894613067,0.02882361236547249,-0.05765618120960885,-0.003782297803564721,0.00293513383866045,0.08674885766126915,0.14110951135675037,0.07121230882282834,0.05397546480749078,0.012114870855036937,0.0272006780429862,0.016704979165015742,-0.05618272654632509,0.029593550492464073,-0.018021248093665145,-0.026276851471265465,-0.011581386541901108,0.014065687164279703,-0.02629420867615502,-0.051125768561382214,-0.03808887580764931,0.015336900894917885,-0.03704497487443807,-0.02877502319061636,0.021195010877631336,-0.07211107338852761,0.05981816442940985,0.05501955298145648,0.06684432393280072,-0.054433581019453024,-0.04692865319242981,-0.06559641867503398,0.048404497912897956,0.035210590791437395,0.018076620533165166,0.0525226990253308,0.03216533289830395,0.036415940439434,-0.018787153332471062,-0.0630513253952409,-0.0016220288961850099,-0.029776244999051356,0.037548775633366956,0.005641603462699536,-0.010578640323238407,-0.04264687543533708,-0.025482741988363342,0.00016096392257373802,-0.056320324768000064,-0.008578001543414022,0.020580122243822965,-0.021668006193050447,-0.052085632207384165,0.02034591782237857,0.0493880534659198,-0.0074020446766184834,-0.038850184554280534,-0.07077324181660556,-0.10107864923726881,0.02293643059454908,0.09303079971282699,0.05159616562507498,-0.0017898931985377933,0.0018797046414729378,0.020366741379849018,-0.044197220505951665,0.025716253632358434,-0.04748104586974143,0.02104401047404081,-0.0027603063059065502,-0.014788577625536746,-0.006005642502997212,0.004431317621625709,0.0018635282356811611,0.030019894025302696,-0.028056748740840493,-0.05031649795858944,-0.004868987557708221,0.0385167037417585,-0.007780917249568032,-0.027245420248875156,-0.06588388107888034,0.0017930790328895949,-0.024471621832239977,-0.06554542572059785,-0.08861729946828226,-0.07270204279544784,-0.07294363733143953,-0.07681733149135851,-0.042144528093937414,-0.056855277149117554,0.03196270049793462,-0.003492346124485119,-0.052596765280559135,0.01557138820840976,-0.08612645852605624,-0.00793895379627373,-0.047026725662916775,-0.045342546294988864,0.016092563012430137,-0.017855156054250306,-0.007375782511822109,-0.007948983158609719,-0.025121278890571693,0.0527020599528171,-0.06909624742612819,0.010102525712994033,0.0041127679128262935,-0.0387929603755567,0.030799865935089394,-0.04128843023630622,0.038079363637077174,-0.006736369897481377,-0.07225505213293339,-0.12377626467329214,-0.04399609710746164,0.05410148622764561,-0.05407141563835179,-0.02583372382527192,0.01770903644981574,-0.029503891969687588,-0.03122423853698581,-0.00724500941161685,-0.09876107686570886,-0.06104772300229224,-0.004230364986019676,-0.013665649614756761,-0.04873084228813013,-0.0336022490538537,-0.0759822512640897,-0.05295554668897662,0.009860185626755221,-0.011432809682035389,0.04151124555367877,-0.033371841226843585,0.045328982728561784,-0.06156795745052081,0.03240183441513944,-0.007225900437607979,-0.050936783853688716,-0.09923462417884724,-0.021579088836152546,-0.024705278435003558,-0.011725156709694491,0.056228596964112136,0.08389608900538778,0.026696729535566965,0.04159749032909508,0.08974192083923403,-0.02708644122906606,-0.09461056568710992,-0.030461267983002284,-0.014698697713415832,-0.014078783554565634,0.03016514356873364,0.0009275815923324683,-0.00556916079098253,0.04942544133974494,-0.02549236409180148,-0.028259563324804317,0.03411666008957359,-0.010556658563068366,0.014339708793662073,0.012885017164360505,-0.025389214697010193,-0.012622002185032326,-0.023803176306291293,-0.058027276604441354,-0.02320601780334326,-0.06702869270815118,0.047067698111512485,-3.898867133485773e-05,0.13678326723902723,0.07732275182210008,0.05737853366586695,-0.00828753704913693,0.0053922124959811,-0.07677821582805842,-0.054486354087554485,-0.009677923159386318,-0.03584088012180804,-0.062172151092333254,-0.011583766461982874,0.000630739284832776,0.054455590289560755,0.02687806793353416,-0.005348737419872387,0.0185645924599457,0.02113822735704386,-0.007241443424937475,0.03735555333862692,-0.04439074495511379,-0.04762450095547892,0.0013224094697596481,0.015564731130139895,-0.05626471992927989,-0.1432592571507806,-0.06722553016002464,0.06266591951174431,-0.047678360818776286,0.05693153203928499,0.01688037210242793,0.05356595016540552,-0.008996738687058185,0.03346593505131479,-0.04274521182083605,-0.02192844964553167,-0.008820646697719994,-0.022538863177019905,-0.030420222109766297,0.032919264979280875,0.04393807414594798,0.008545454995705824,-0.04663215489588699,0.020321263968008877,0.016004129254739024,-0.006636288330979806,-0.011609845611590685,0.01288752982063789,0.06126895856242979,0.018737731951319888,-0.0351143058383035,0.014958389938785049,-0.06778711906751562,-0.11515934155062223,-0.04040508706889891,-0.010073641022590082,-0.012063200644665777,0.03261042979535601,0.06227454732724244,0.006256232906947993,-0.03848244349436967,-0.023788728273525787,-0.10036092744476187,-0.020947070998248996,-0.03630715418768384,-0.036007380996900276,-0.0006769007289819298,-0.02481122619704551,0.037910601932998826,0.0248190845041751,0.010201323453154653,-0.05207243742441514,-0.01486890658489378,0.008270824393543782,0.011891581507527397,-0.018972741018865674,-0.06681474341836166,0.05760264563439206,0.009714275350946074,-0.0800104264374456,-0.004254439375112699,-0.02020482398683256,-0.01689782215733005,-0.05949951956136727,-0.003697613437158369,0.004929088092344301,-0.023657654602517963,-0.04262971794117541,-0.07313177399782302,-0.00989404440428396,-0.013119604658397616,0.015537233495223953,-0.0172263329971525,-0.08096168895751363,0.023199667197811157,0.06325240905526928,-0.00604608178205236,0.013540168002457382,0.0633402521018338,0.008995020362044404,0.009076320381426818,0.009807889086918865,0.039641990657671156,-0.0458313180032953,-0.005123443323502534,0.004706179950306713,0.0028394093054570383,-0.06659492767683152,-0.02195260930987851,0.022820770874421904,-0.04946862275174478,0.0382993427882515,0.0221328419424786,-0.020653200256433205,-0.06718810115732944,-0.055346331009597655,-0.045961038692390384,-0.0303434280363273,-0.055039555893067756,-0.0013867779486736549,-0.006932926648536907,-0.04914880602258387,-0.005503226050569594,0.01267058076774867,-0.0653705105663031,-0.01225801802465304,-0.012448612689128606,-0.03878835563359839,0.017331018519341535,-0.007552526659270601,0.03935852942078494,0.014873196408096532,0.016757147782844737,0.036777834240819124,-0.0025049856965899406,-0.1253783282497237,-0.04151287527512834,0.05093411949659989,-0.0022219516356439947,0.005745401780700577,0.0038623629070354275,0.03208492260462626,0.03214139201176967,-0.03387909188770925,-0.07202067899730359,-0.03710766268402779,0.0030966975524511046,-0.02042755536012855,-0.057461937399671884,0.030679242355033942,0.06358324959293446,0.002718915896064663,-0.005747155348029107,-0.06875905350024576,-0.01691052742730871,-0.04151957090433825,0.04533379417744154,-0.027549185909669874,0.06617523903567522,0.01846785787400117,-0.01770220207890495,0.009281299142057655,0.016027827568925613,0.05020143837976731,0.019107407311713724,0.02511820891561323,-0.0077892571057797165,-0.004688945432487821,0.02715049115909906,-0.003201423961810423,-0.0015650777654394844,-0.022939920947442252,0.022942428703518612,-0.04755055992181065,0.00811079279093661,0.029259348126461412,-0.0018101595492144731,-0.0557769928822719,-0.02426887504964907,-0.014223095421719649,0.030632582593507998,-0.0390196168367406,0.03656691306544537,-0.011026613203632416,-0.011776302933545221,-0.030077640657032747,-0.012234221686450757,-0.0065182326604756825,-0.0004768640819736778,-0.0031572533484164915,0.05379171085441767,-0.032387173453093,-0.002599527178906266,0.03355460388459009,0.03635780027042227,0.003639613211951107,0.03952175114818362,0.08915479608205863,0.024741224053153564,0.025225020159103436,0.008559195466466059,-0.024640465622161507,-0.03376162696215373,-0.0010750683215721576,0.015088708310855058,0.03462435399365954,0.0746320571985741,-0.02401840023650818,0.02063967199626429,0.03211639087532793,0.013340815647890868,-0.036850455635499,-0.033408456213617314,0.015579060642543618,-0.029751696127429415,0.015784703685135848,-0.006745204566550132,-0.023287332406344285,-0.011601739184353073,-0.005801735697129503,-0.013010945676824308,-0.04453263571850254,-0.0010539897316196856,0.05543481588394397,-0.02566256224803254,-0.02812569344310753,0.07908717746286616,-0.04048099415203043,-0.04386180153100752,0.008714868328318484,0.03505864391988069,-0.06410743859300988,-0.05723615701085962,0.06184578973466847,0.012808061021529621,-0.050219323410682526,0.06642241817151845,-0.08387757945323263,-0.011889690223669076,0.036543012684053584,0.005833714974250199,-0.024944804644513232,0.05970358271897214,-0.03422368195339018,0.034389249562879136,-0.05028418437640603,0.015499307650493968,0.024497785518582612,0.011560596714779946,0.07808869042075042,0.0149483635264488,0.06334554841390298,0.08411483150967,0.09245762104403976,-0.03534099162257063,0.025413365721048332,0.03576117576722422,-0.00867376177886069,-0.004825580760850751,0.028669179896761095,0.03727135397813299,-0.024910122912526297,0.011416905279274034,0.026938964667196242,-0.05092816086186545,0.006650418427967995,-0.016822821766152164,0.0505076452664121,-0.028728387262191832,-0.059193571977172656,-0.054674873560477795,0.03628963251003908,0.018408319607259235,0.0028547342348848375,0.028400226128170176,0.026026868997417046,0.04454591247644023,0.004747392747748893,-0.06276400499640668,0.009077869106191882,-0.024176901374835115,0.05449900151452241,-0.022126787581649265,-0.039984741304766015,0.028181294471063205,-0.002249140389940832,0.01983890416986898,0.06261342364002198,-0.09444049798270851,0.01628560120798473,0.015227608160926064,0.045278376363424445,0.020416584191979305,0.05896673247165511,0.06560653279894689,-0.009707252327773502
0.0305350526875665,0.040052751720731666,-0.07301884034394962,0.008279934130480135,0.06120147813799541,-0.04842548725400115,0.01756500597929426,-0.02567262956846087,-0.0026442969505587302,0.008653089949354159,-0.042666813735594035,0.0022736916359735863,0.027142545409574795,0.00957656137708584,-0.047547088143944774,-0.03444692775795451,-0.03043316208045486,-0.08821697869565748,-0.00047072695452326683,0.035016975469009455,-0.010586671529589623,0.07094279067400917,0.014639078441835195,-0.029150522645305082,0.0030442977683677176,-0.017183960809773167,0.021784510243706527,-0.010347854005868509,-0.037019225181378644,0.03686645208416071,-0.008423229896262341,0.04275302860531325,-0.008112930562086616,0.02402766892996232,-0.019224201810482344,0.03576201605448285,0.03375598147925324,-0.03304536524184835,-0.01581358933450779,0.0004994208079060309,0.023513393129456266,0.03641365266594155,-0.019956781820335816,-0.002494266342031862,0.02789994961583938,0.044297279382184286,-0.021262939669190524,0.024561693072819996,-0.0028950015458362103,-0.012890402284079063,0.026347718833944888,0.00936274556869216,-0.05870948019907219,-0.002581568863492995,-0.04808533515667458,0.04134973061721534,0.013123641037444731,0.07833641257714297,-0.016113778640764666,-0.02098277492927242,-0.01439479675728744,0.0770029092339089,0.034416478327740564,0.06239491906470937,-0.0348792182436281,-0.042409084733399806,-0.07688598533360608,0.08238391350920013,0.019595707874725213,0.011233144402408432,0.022908192047361144,0.013536440840460994,-0.023905996331152493,0.10889900330944531,0.008959213529437344,-0.05586351501513337,-0.005035637986128708,-0.0235683656574268,0.056736646468066955,0.01837785098215836,-0.02680959483005859,-0.03881193024890167,-0.015336559459200814,-0.05839698515740565,-0.029591454230844513,0.039067407476718996,0.04514601312024142,-0.032790252126331576,0.04264890670669965,0.047060433236021555,-0.04444605686245474,0.0024096928504523676,0.04204755203536264,0.0026450731871752457,0.038189657271320954,-0.015434465695830481,-0.022612114839406807,-0.002964190814560251,0.01086405542796759,-0.039557114573318806,-0.004438838112038598,0.04475145646006395,0.06955483422026097,-0.0008238514360543372,0.09154670035121168,0.013125505284615242,0.017057268535959912,0.022400243876452255,-0.004552695214931418,-0.02407383930871641,-0.018427681566723947,-0.014316039328593223,-0.042441448426588785,-0.006910575016581416,0.023910864571920255,-0.008228928078610686,0.03357006679401056,0.02922786989719787,0.022250507070404612,0.05642969495722158,0.039198113958284535,-0.016346700174953918,0.06768037776961931,0.02012326700125164,-0.0029119815267727705,-0.028573687082678333,-0.03927499119556755,0.1150635216138006,0.03850555419402838,0.03373935492765281,0.000591195529580261,-0.04013624261087354,0.050602167082565666,-0.011528080850748348,-0.020937520513504122,-0.042678585515638495,0.04339940064858981,0.027125568817367433,-6.65352406433138e-05,-0.035578771580053736,0.008959160633747016,0.0030874046440137006,-0.032396073003951344,0.0312980466952818,-0.018658267665218716,-0.025076884498183856,-0.017020844452696273,-0.03800618321217575,0.07189194183072221,0.0011456408996814709,0.036459542296611164,-0.003987252980732733,0.10263479146514524,0.045879860402180894,0.06626036840816188,0.05176677123803852,0.003782622000944068,0.03363431934324654,0.021189797061398175,0.06929737968837632,0.0161578083956673,0.0017214066442464862,0.011392135711269213,0.0071649200866453575,0.03487012821485858,-0.013969096600264559,-0.03811991359668465,0.026526515762540406,0.029313820050305632,0.04193748575676682,-0.007448784942661938,-0.021231962354672503,0.031484847545097054,-0.05211464762287273,0.06946451207880568,-0.0359779092560441,-0.03802899753438745,-0.006294845805407754,0.05384517354074624,0.042275402621733814,0.032405197778389704,-0.00970714556123584,-0.016791805845087975,-0.004863645631446425,0.038298965395602805,0.032244400591530116,0.053263599135960134,0.0735627723795971,-0.08348804304144923,-0.056446144702380054,-0.05322593689835649,-0.04194347690607773,-0.0699601632166274,-0.009760459084491814,-0.04039490138987539,-0.007122147752570502,0.011496472305812746,-0.03895360187555582,0.022717539078122826,0.009291278148867241,0.013787117590574034,0.02560417846611773,0.024756562978887692,-0.001346046815180092,-0.0107234952948111,0.020566311901945324,0.03842791558836561,-0.04215649724081386,-0.0007161189186504189,-0.04392909911227521,0.043231734823559624,-0.010978122103340104,0.011235889739557763,0.06577610734748911,0.008560213535825128,0.009779836306045005,-0.06634687298076171,-0.03059580750771638,-0.006981142179129473,0.03749471142801658,-0.018128351106749256,-0.006926823975772307,0.020615295193073795,-0.0031398400819985747,0.029516955272484345,-0.06444702920125328,0.029196345699356908,0.07204390922483299,-0.012504681180438303,-0.03913254216970562,-0.03065043559983038,-0.013497446340708494,-0.030847999153061134,-0.0021363929641907003,-0.030130166752589792,0.0008359710110435387,-0.0029520851862587863,0.000831438093271686,0.07461453600861472,0.009557763950749518,0.04912910911038637,0.024297740700895576,-0.03896010935703946,-0.04848442613213561,-0.015845871105310612,-0.06769590034859473,-0.03251756279381332,-0.0039300992067725265,-0.01003098520450222,0.002981247373829109,0.021117282183041628,0.046262036234474946,-0.0173970519742346,0.012066499590702492,-0.01554486350733021,-0.03727463338190676,-0.026490994227488532,-0.028582862874054045,-0.020698197370301565,0.06023356264471037,-0.055722776189945394,0.019159858222531155,0.0024665780707330146,-0.0012233871275642873,0.0133902531525542,0.04229971314784967,0.030840472572262575,0.0891143298132163,0.006522253241996544,0.052309734161047255,0.022002788088367337,-0.022343978699380398,-0.05830547485474864,-0.04950914160204426,0.015341364038733946,-0.04609239454933884,0.04721345350901865,0.011912223870055366,-0.012142032748573119,0.050940054069706635,-0.01039752081413744,0.00104647529610153,-0.03670451776976534,-0.0012496796172948214,-0.034923601645006,0.0006359038604014113,-0.04336077600848787,0.05960563912489171,-0.012670806338928019,-0.07215490488500886,-0.07170269159383351,-0.03432541371691396,0.032489216349239694,0.06331456604024079,0.03855768208398484,0.07207022154660324,0.04985225149511338,0.018126277823568154,-0.047633301469747785,-0.03700422034451886,0.026486461490338137,0.036796927660353064,-0.036331112484402496,-0.03516160477889655,-0.02411273464312906,-0.05248075302725379,-0.021430104069229166,-0.03804556507975898,0.027070583683825106,0.05634043919609077,0.022309206673796992,-0.0270746141677906,0.024697305219143834,0.0026729262240847724,0.0072095400276938415,-0.041503985214425256,0.059938441292688674,-0.004355678723648455,-0.01293486096716342,-0.04150690607502506,-0.11123907340698554,-0.0005246383175842658,-0.006293840262593802,0.03422902621663891,0.016925425896833525,-0.058112848262432786,-0.035723934604775076,0.005173591781351479,-0.04898274972864875,0.023468488007485806,0.039536770831388963,-0.014960884507629904,-0.052078195306539364,-0.014279264907690223,0.0029653125695695355,-0.05850783306278609,0.055459811884574266,-0.03187486185441634,0.03758082672177279,0.03302976502532179,0.0641619442807124,0.019046355556761256,0.023625926248123295,0.051617793274575156,0.018886353463425848,0.03793599710937106,-0.00958239800358322,-0.05299811119533746,-0.09135680455872619,0.007298174483698359,0.05573773422645971,0.05086047632237355,-0.020372566836023953,-0.06871665238778452,-0.03422668576840393,0.030125624808797498,0.021627390875741618,0.02099288106482549,0.07498757999880383,-0.02759468187735511,-0.021226844505324607,0.03276326406168236,0.028761272941880738,0.028614787128744084,0.018615559438463342,0.06334951557751879,0.01787845150380644,-0.05423594586046997,0.036723375196714265,-0.033506346194754205,0.03799451475056705,0.06677446991151859,-0.012678955799157642,0.06977603574503903,-0.057078204842693374,-0.07134883347906888,-0.05761025552021116,0.015021809229903479,-0.04875160914088583,-0.030704434211812,-0.031850396040472816,-0.11249656106835433,0.0317350972564832,0.0361555371642794,-0.037759088286019205,0.07914645110559675,0.05613813327832782,-0.026799237598859996,-0.05040203809581057,-0.0062595765469203885,-0.0197731862193056,-0.004506457330133005,0.011097817159872526,0.07097525680916149,-0.005582266852636593,-0.036147465421607974,0.024244399699271342,0.07524371435523974,0.03596510813341033,-0.03510674067668388,0.017889104178913883,0.044490135116193076,0.05063132182359353,-0.034394187723899475,-0.030597400480337864,0.0009108433985997366,0.03536771407700501,0.028845610042023018,0.030569250611071113,0.035144738132110914,0.0069136263293784,0.02935611825309707,-0.006593910390406729,0.021203109074407298,-0.07084275992539077,-0.04513626965329517,-0.05587430899528448,0.018274536082776637,-0.0037790078710044604,-0.002551021366774676,0.028313305743365304,-0.028761502375796614,-0.0010309482424167406,-0.05340220751074965,0.027178092355043853,0.01579824236253508,0.0018656227661292884,0.07379981037670093,0.020450734640775983,0.05865442559102829,0.04398736240325588,-0.06674645024696803,0.056533484889176096,0.01027938908894912,0.023657286351005863,-0.013713613487992191,-0.056257096710909824,0.03010764342275984,-0.014090639648176662,0.05621687119970775,0.04603823375402106,0.04812292224242621,0.03849963766405325,0.02869316802587409,0.007063574603589373,0.03577278335413535,0.035224141127539445,0.05401250760342091,0.04256427868652715,-0.008376344840185396,0.07829119834142655,-0.015425796031335296,-0.010777832782293177,-0.0362002975134448,-0.005562591418073386,0.04679274740165337,0.08722911591092913,0.09791366811094397,-0.007386482517035777,-0.02484280398468609,-0.027582467071035354,0.03747457706079411,0.026558016606932973,-0.09442067952932534,-0.009605575046228792,-0.00984602088830455,0.01813478275677522,0.07854529798425683,0.06761271774578977,0.028309253644859124,0.03214874671867326,0.025134358512650553,0.03061392498723617,0.03974402494743423,-0.04247172788071549,0.00963148773583737,0.004751519315728514,0.00919095545878196,0.0012318268494949504,-0.012024442135495821,-0.0865100460433569,0.049277093657726645,-0.039545568681806906,0.05217433048994582,0.012247893322501027,-0.002941914607162015,-0.016304125355737845,-0.027187330474714798,0.060185790739455965,0.06863263721483948,0.025574694828095594,0.056715613692725646,-0.056405414986500764,0.04684713564158653,0.026723251685861732,0.07692670715672269,-0.031031949361295975,0.06080180958346368,0.029559162974554506,0.008765626668183934,-0.01771141105029184,0.043270987014062866,-0.0407640601840563,-0.005784158767008585,0.018889457153242226,-0.005340566248377737,-0.04847849916882514,-0.04886556520830505,0.04136810012483867,0.007460023147306049,0.0030965128479929745,0.048184368989633755,0.045122342755383425,-0.011303977915261595,-0.015540285781808398,0.014553526324032137,0.024822583655831468,0.02824415537033516,0.1277734724765319,-0.003156168700714768,0.03538082166637623,0.031221629851912923,-0.031606032763057366,0.02192641820054773,0.055655943129210225,0.0511028937744694,0.09336065362469666,-0.007175677352766576,0.0139714899344686,0.0049476849464004475,-0.029191263244771733,-0.009920318396944577,-0.02921904226033633,0.06873597069703974,0.005609702008604962,0.06749007633651978,0.04081492916299374,0.055168751188566706,0.0897809199509265,-0.017385605902092274,0.02965814947325197,-0.023092864343999327,0.05928025903228974,0.07525719583084818,0.0669906565363307,-0.05987644200761515,0.02115024670113873,0.018656585794679766,-0.041156704432355605,0.016650161869916903,0.05155431498952962,0.029659684981870035,0.007979474478494841,0.0528887722696221,-0.049362374305063024,-0.018666668935333742,0.027215995845170055,-0.044764649501818306,-0.04810525754951997,0.08531731170048001,0.0007722535545492056,-0.04947390416311895,0.10332059079219194,-0.025142200889773564,0.0044908464633300685,0.03869595348041964,-0.024015097070515926,0.0462336882898187,-0.05856639208565084,-0.03591207030349541,0.004583912512722459,0.16489696537216691,0.04367759445639849,0.0006785115905731634,0.04456272336871065,-0.04124779612895534,-0.05127427934042622,0.0012293224077064625,0.011399576311576454,-0.005686291546435459,0.06411070055280953,-0.016308595576558105,-0.0064786057103273405,0.009864900825150668,-0.056289427639425724,-0.02695495905826152,0.009817916235064035,-0.014938837654428426,0.05804511487763093,-0.05338953139159248,0.0030807416771662303,0.041568265023702866,0.029391260581454227,-0.0012881475411240346,-0.0032603781790418187,0.03690868787523644,-0.05940886984877059,0.051354605278163504,0.013920798341588452,0.15001959811462737,0.053831944132950206,0.05830624634165007,0.025404240451101866,-0.00436957819571128,-0.007249147217397479,0.05840774588724933,-0.06085646320012117,-0.005207344777315244,0.003448622652342509,-0.026234778356229525,0.00399258325015828,0.053743757494979866,-0.01317281740204491,-0.01352488755821561,-0.026747919509216372,-0.002334789157733041,-0.04398153956726178,-0.014273748218702973,0.026070106906681087,0.02951830748989961,-0.029785769313145857,-0.07964715006750014,-0.01577959983582911,-0.02563044379081719,-0.07738906318930396,0.051390610445809747,0.0653110569699428,-0.005662021005636936,0.0944596032342863,0.08239407039122594,0.030235789890950056,0.06608330592713284,-0.023905134442811764,0.0015488530626305594,0.015806185425211856,-0.022103622329602186,-0.03782525237634706,0.0728510422158112,0.0724116140420266,0.004779098749978839,0.03251395965475798,-0.06219035655451228,-0.04613766602610076,0.012897310574368935,0.016735291530643508,0.059751135879278716,0.10260927922637841,0.012830899904543608,0.04032167621311781,-0.05955378640397033,0.014600786041609875,-0.012040756628649436,-0.0060001833019164945,-0.04740701865569776,-0.03200946659588027,-0.000723592377306984,0.050929438243762316,0.05330677056948354,-0.03699801350920265,-0.00844655613203942,0.003483373416592775,-0.07438109624472788,0.056314728017089595,0.07570501957860613,0.005665689747648,0.004928947569235046,-0.02726074976101989,-0.03324414882314671,0.03962826782278756,-0.003070396805777196,0.004418861810246613,0.01315532086018222,0.06679782030503392,0.0023678771502616694,0.026057554476532293,-0.016775856498140226,0.0839139371811402,0.05560952899100108,0.00869760850034855,-0.032519728297754395,0.0016414872341499473,-0.09457114323835049,0.01943714635260215,-0.02900961416111955,-0.09792138523154469,0.04372722590450829,0.005280327888267186,-0.014803218953309749,-0.04750753128632063,0.03435940324670824,0.047323759311160535,0.03238805068380664,0.01212735750177112,-0.012535374628595936,0.002944981585758022,-0.004751146958126547,0.036066392702821776,-0.013664066244257518,-0.0217528573820449,0.010331910663839173,-0.0681361351462586,-0.04390767468512772,0.01784535240890835,-0.018401660125839686,-0.013277777539978315,-0.02639634361140858,-0.04980666924299657,0.05437895702002603,-0.030623306670590992,-0.024802677219853027,0.030472686567762964,-0.014711356137101509,0.031187936768048242,-0.03572032469321535,-0.03238176232620245,0.012279187081183437,0.02382155243304253,-0.04896232623825975,0.02081401524566759,0.024937294027843785,-0.011253741406153182,-0.01143476156149153,0.023630927176186128,0.020178390898867613,0.037363996435796326,-0.00884376785495109,-0.03614752393983175,0.039174891139433406,0.02363187461830432,0.024529470697775058,-0.04773543072818809,0.04717202973910606,-0.020359053118702886,-0.07491769781621326,0.003453984048062153,-0.013109483874565257,-0.06292237191008285,0.001954271911090782,-0.0063363447952360374,-0.15111463291013424,-0.01931832635500296,0.03420462404332714,-0.011169843145032523,0.07513173006966636,0.02381625480920708,-0.017194895330157372,-0.0013998153762377356,0.018959868203485008,-0.025488639397405678,0.0009259708409851958,0.04309217516456519,-0.023915612238963067,-0.032125131595918406,-0.05622936165606915,-0.021246056771550052,-0.015951789243046976,-0.056146253618931476,-0.10892654771334044,0.01644721120791058,0.01826142437523914,-0.021019575908024384,0.060839813647625376,-0.02318323090196588,0.029990386319620827,-0.022219034807711747,-0.007161458984122304,0.023587149122694363,0.03538324765559454,0.013831086838534156,-0.0841418563116949,-0.00898887455204708,-0.02915894290837489,0.017785215693470344,0.006928441811957945,0.07648967293302804,-0.002297677042277137,0.012979469099404157,-0.0030138616591339896,0.07124212913286869,0.03955873007557863,0.04539980625910735,-0.005941642410380731,0.004141074751584286,-0.007009005653517767
-0.0270843590115126,-0.03826247250736506,0.040670885782983626,-0.040054207627147884,-0.005784792502247178,-0.0002665194054833178,-0.03832476496220725,-0.03041297562723783,0.014395985307241073,0.01595561206030654,0.02232104487807893,0.011755105464304536,0.07838762410385663,-0.032307416354586074,0.009692310544015845,-0.01310554101504128,0.005456285937095809,0.00903051642128407,0.008884062121034797,0.06798422682453695,0.02608010781762926,-0.0777016252982006,-0.08065337161810324,-0.008911564958558337,-0.019462397284576223,-0.05234621914525116,0.003344486164599776,-0.019902505278755516,-0.02765168903491678,0.006871834385469632,0.01633638297514326,-0.027492914760504528,-0.025830614138724728,0.02050937492724392,-0.0021482041038788464,-0.018166836975677354,-0.0404069629982798,-0.08222881944740781,0.023864944204109922,0.038408760630096336,-0.03444528524944225,-0.040420718071224125,0.1037497262046712,0.054294835198066375,-0.012642505872093738,-0.041618465810593815,0.006355770873471169,0.06897420702129117,0.04185260344494601,0.020988818611314734,0.0024757321642798888,-0.0005369937002147477,0.03794902075664959,-0.0427225051228727,0.004842315133840603,0.05032011269970723,-0.016061273635605403,0.03143665966405008,0.04600388259560602,-0.00973982586354101,-0.0017451781015228173,0.06436472391323754,0.06332981812298236,0.027933605488836197,-0.07647327431576043,-0.015183779246935631,0.023490091176884102,-0.0036861130890256566,-0.019475176595971873,-0.02950119937069273,-0.04097160927902719,-0.008000796569228289,-0.007815594148624783,-0.006148040494390324,0.0047795346911357105,0.05214462752785265,0.04390835663166058,0.010757285594643382,-0.04370445487464217,-0.007763685377701663,0.03679870197355018,-0.06018382715541181,-0.05303002640289167,0.0011199999615624206,0.023329104533085534,-0.007025691838440066,-0.015369116400273344,0.01029576806578026,0.012252867889219175,0.03835723625858516,0.10422895547569515,-0.04201529897430425,0.008352241062201348,-0.007366829762189189,0.015746202914973705,0.016643630053598573,-0.031240428092902096,-0.02514178958825029,0.026167195402351264,0.027777959012539544,-0.03423238500484602,-0.057166420805917835,0.049200283077986115,-0.04089119388715931,0.019865382692681132,0.01351577114403963,0.030805964031254303,-0.006523012245991035,-0.03234140154457888,0.006946397772893669,0.01670976680173604,-0.016086852186858756,-0.03820194352270648,-0.0012219864979955712,0.0015053427358766517,-0.036984755581126356,0.0012264001218572124,0.05419307955233532,-0.04304778857663345,-0.03402230949003083,-0.009599222955681126,0.03918872444944143,-0.027938185531251516,0.022959836436402082,0.018960009372568247,0.031451651684312194,0.0006734634397726107,0.010256326469653892,0.019486064029486418,0.0015515118265457023,-0.012153718724780731,-0.06961594989335358,0.04956289892773386,-0.017614275814227406,0.005974268018136969,0.017478900734946474,-0.027688497863866922,-0.029135740152242365,-0.04803491083776958,-0.002944442585307414,-0.007200965724382011,-0.017556416124689937,-0.008546417705656745,0.047937941887820884,0.03201509850337921,0.056388590362228756,-0.016944269237198696,0.012637077113131036,0.04543681357264228,0.06853938932135617,-0.04345014616092515,-0.046427710282508194,-0.001056296098142781,0.032724493555704004,0.03044827773691014,0.07173361899944933,0.0005210010931414336,-2.0425817700831655e-05,-0.02801626699436708,0.009992372005985184,0.06890845107312002,0.05179874305481452,0.008772814563252351,-0.00613131671776098,-0.003118271190107298,-0.08274068062370972,0.015568409109195486,-0.004691240031745347,0.01549301165874562,-0.07033746410956865,-0.03723437402538791,-0.033248942692219015,0.0632253557796554,-0.05320207191176873,-0.013942348903090774,-0.031089456909566916,-0.03342377879958603,0.023343043286491328,-0.030108675482677014,-0.03941213853510404,-0.04124191508182139,0.0692300134489133,0.05784256528560143,-0.029350013183869175,-0.0588830237943845,-0.0010543496949790673,0.005906829149224694,0.049135958384379626,0.021067586860839274,0.04453636226826832,0.016650552585669984,0.012247572596060657,-0.051754500379932684,-0.06358386544823746,0.035546406139094676,-0.03525790300147431,-0.03349111427760461,0.017631061003212125,0.010136592885423332,-0.02660884534719738,0.012229548498433166,-0.0006394049505242936,-0.016969554164254542,-0.09551133584488314,-0.07394620025972022,-0.05301744484050219,-0.0857616101702703,-0.0369584389025507,-0.04313982214126487,0.06987190125022558,-0.037877625798450804,-0.10286157084380808,-0.07058299550670856,-0.011389048927928358,-0.062452334721576665,0.01914904268829693,0.043135631551015324,0.019647651448155515,-0.024821077097892164,0.06565317153359952,-0.01788513452102093,-0.012118349644660962,0.055229653199529785,0.053957575248859545,0.027733619692601522,0.04273975498585752,0.025671941782627664,0.014881256006598901,-0.017757439735178567,-0.10155738849382932,-0.04838506021789642,-0.01375599336251896,-0.0029528970651578686,0.028926936960957807,-0.059494662196594626,6.025327024891747e-05,-0.006816161155728502,0.013468778618846116,-0.1195093776079213,-0.10556770663044504,-0.12383291740434295,-0.05426774174736793,0.010812807093416024,-0.037716339050588125,-0.05462897675666666,-0.011015924758476198,-0.013470420783687058,0.037978447917527004,-0.01959726873518978,0.0017463265782068859,-0.05677164032531656,0.050312508943115945,-0.0135168036987283,-0.023959262164184356,-0.04842136023967909,0.022781570716082798,0.02801992650882131,-0.02416820481935863,-0.0764432804720955,-0.01322291953209822,-0.03405400362235895,0.042095291213102966,0.010423684138800942,-0.0562489035370291,-0.04785628497265313,0.01734467906421896,-0.007093654361031222,-0.06343075452963662,-0.10446068762548483,-0.08045408917596254,-0.09673621974744583,-0.08110152122666638,-0.04170600164237039,-0.038580724548493005,-0.06883935442112865,3.310484100074909e-05,-0.07153024086202471,-0.0238064163872709,-0.048492904846165835,-0.024555434264703017,-0.033882512941233324,-0.05033451205659547,0.012024302735495283,0.0233675083353746,0.04222437437762531,-0.027302245205604623,0.012627718602760376,0.005205230348681905,0.00842159509683337,-0.09805585858787874,-0.01649638901253785,-0.06532637361133709,-0.09389274164208629,0.02796938957203495,0.020771604455201136,-0.10863449465952425,0.03382866111883505,-0.04258676737404251,-0.02108292707969684,-0.03355935794114273,-0.06543742172758175,-0.09743181322932923,-0.0409447180819817,-0.07628417963795593,0.01667669909858632,0.020929494252193682,0.0030680286470798003,-0.04220667222255851,-0.039428787384338,-0.05038582156921642,0.00024220396283380837,0.03312470181055657,0.05977854490853403,0.03386220335368724,-0.01669105955314156,0.007452116566678351,-0.046033031515732764,0.0021010983686406155,-0.05113601362047354,-0.006123940039700496,-0.01102743992203649,-0.04540862290897748,-0.07724701635938369,-0.04866153563397367,-0.014890010880166515,-0.003792423843027247,-0.026636158064025722,-0.003751726585257024,-0.0351171887543969,-0.024154106185871358,-0.015983642766218848,-0.043610186699619954,0.013938336010483351,0.01112930739231691,-0.024299423309253023,0.06049400101922234,0.03894316931817953,-0.020573121318296732,0.018538122174148842,-0.021430955687136998,0.03446000415126507,0.015417054685043164,-0.03114823108265725,-0.06517503251803589,-0.011078092596309111,0.01850376659167664,-0.011748530199194753,-0.08909057804034312,-0.029593896844929045,-0.01045496483258291,-0.011873226065583166,0.1141357885970587,0.08156772796754294,-0.006287406954232455,0.01036659572430204,0.03206592087584194,-0.03502793222886194,-0.06376277796779047,0.014770528233692895,0.02200478473507624,-0.0013360341523354303,-0.005959459452646547,-0.04826062367308685,0.04961254135003184,0.025761018350588787,-0.011970394202217051,0.012165446222043368,-0.024474972865640456,0.039005098021130745,-0.06360301432674476,0.024870798539306967,-0.053881671719562325,-0.00861320696888148,-0.011263258475206758,0.020295510068746043,-0.004927929597565847,-0.009875374476370961,0.01876498721603546,0.04869418124430923,0.08638423696353216,0.023567517847228298,-0.05056572102315282,-0.013947394594565864,0.002697736469539929,-0.005342827997238854,0.06108123156187446,-0.028304548937358426,-0.05902177050607481,-0.01930257663805743,-0.01710220365737991,0.003636566798435226,0.05285613416457013,0.034280362518581034,0.010607677585018429,-0.05573063162923933,-0.012196262391647648,0.07519328439391015,-0.05127645054780812,-0.030307228723930834,-0.0013351761594243682,0.07424447394888821,-0.008481011938002448,0.018465218344262718,-0.07077399518652261,0.06798743120868257,0.07003529897175934,0.08761618166606094,0.07906589006412358,-0.004925461426714547,-0.014518659986804355,-0.08330243354731229,-0.02166857662211092,-0.048513818363477304,0.03812436682361425,-0.012888372787109983,0.10496826079686146,0.02529769443975365,0.004891938333989926,0.050963580184932966,-0.013088007748757326,-0.020805159796570483,0.02920560842141972,0.02115385721660297,-0.022576240310688774,0.003851305003688828,0.01000203585840261,0.0564678278887494,0.06164108171765303,-0.004021137404764448,0.040809299108542245,0.12058436512693915,0.07238337193936796,0.08994601944115783,0.17085670593431412,0.07546375146949823,0.08147894259143469,-0.028151563521132888,0.08466834340738066,-0.033088497415900864,-0.017593466405034373,0.027697742178093794,-0.008437692528459304,-0.07495538385648035,-0.01752854839897406,-0.04955389587543675,0.04487852371310532,0.06480768492703284,0.020827067838114628,0.004826200403990424,0.031287402487090055,-0.037913406299833245,0.04399009034580538,0.021200639869559154,-0.01323935531584551,0.07306500407632412,0.030767553993303387,-0.012656974415015076,0.05802226813716916,0.030953678039488373,0.03675841354770088,0.1351625778443192,0.16394506791327873,0.10499489806493889,0.09876910818567773,0.032747950955320355,-0.046933619999982204,0.002529278110438827,-0.036207349229937624,-0.03634176997108436,-0.04869501891335356,0.003060551812813126,0.007963153312159072,0.03429409592937559,-0.04281318924686257,0.013607960699840965,0.004148271583579907,-0.08369894862013615,-0.06173005201006716,0.007244755479085938,0.007014650628403786,0.0012406088256533177,-0.04301613155250379,-0.008726190768287996,-0.05589096573712706,0.03875592771090767,0.04981487465941301,0.07614878704170025,0.10371580445016698,0.043163101799357805,0.10630002048051672,0.09592094801716389,0.0733136980060943,0.09103509179097707,0.004875344938675786,-0.008551568031883302,-0.010295782929046317,0.005207632822945203,-0.007950149835241093,-0.0456291163777047,-0.050924438787466546,-0.03862352247865955,0.031075009791098198,0.034785167186368315,-0.04140711194526912,0.02911548002581962,0.04921468667313317,-0.024260199054452532,-0.03764986153343698,0.028424849196458792,-0.03301247311781952,-0.06151895790427557,0.01275565001320949,-0.07182211955289977,0.0486304347219994,0.09698321115992989,0.06144716139427158,0.07693981569463926,0.1044559570689568,0.08326114328152984,0.014992163838507508,0.009216889816771526,0.043406336097636014,0.030794755407135953,0.020741680155297218,0.033087791407554364,0.05465827644902456,-0.056685769927051585,0.009100224832610759,-0.00827578803290269,-0.021472195083687695,-0.025009539387975763,-0.0316633763770063,-0.005592977714989176,0.04394120395128137,-0.01943465617209682,0.025377022522513924,-0.031324534168895045,-0.11321896843635317,0.0036295186269683683,-0.0563144412168037,-0.013642807489491341,0.021865754739768088,0.012503382247425289,0.005104169411706191,0.018475313329835857,0.02425574067846178,0.00838003508755272,0.07711209273620484,0.054497822404297624,-0.05339087283486803,-0.030294285853058735,0.03702088422391658,-0.0049328707501334074,-0.07385277719180651,-0.022329200399885105,-0.0890873529347106,0.013109378340491886,-0.06599650346211511,-0.0042462252490499935,-0.024634773614220132,-0.03205201227625117,0.025659175590104687,-0.03066501794494233,0.022256132316465914,0.0018786174192459437,0.027056686136221496,0.0038428576121744703,-0.04995304689503472,-0.05495526083802097,0.038964510388434195,0.018152866556716357,0.08816621964557876,0.03450687525744569,0.04581255579989326,0.007304531689443447,-0.027297347670441844,0.03754013761286107,-0.02307542455158065,-0.07821804223488583,0.025609411372322408,-0.009553884496138974,0.0007610036282034326,-0.04664291081146308,0.04489348195494567,-0.06322313766960784,-0.051148487737803755,0.01926620450576899,-0.01958060119394483,0.04474515460681978,-0.06501957936796715,-0.008814085051312565,-0.0024399372424395486,-0.023711683918656374,-0.0961301145834612,0.020246470972538073,-0.043815230005255286,-0.03514325127316448,-0.04297244614940873,-0.044250084420968706,0.02785478538371835,-0.04142220530247295,-0.007393507738068373,-0.02927922368713423,-0.06671845107202441,-0.059093123301595246,-0.03927945706747602,-0.0059249637077282875,-0.011980132749713603,0.047693862168001956,0.02251473254362529,-0.051673192081627434,-0.006011874655435506,0.0095048163025806,-0.014858146265807632,0.013819623176349542,0.04158640576306179,-0.028736077807573302,-0.03354006834597008,-0.04661634173061944,0.03044752116671966,0.000554370202622856,0.03771134428370719,-0.03150777718410166,0.029736341596685836,-0.04086572084560211,-0.0456289198400717,0.04350587667889205,-0.14800316785159381,-0.017583425503652113,-0.012857119011876984,-0.04924018720308766,-0.0350142855777332,-0.0924448440803896,-0.04014595733777373,0.017460293284889242,0.06527766691409706,0.015471995312413063,-0.06389813581481359,0.010348319394959874,0.026556531530860485,0.056389397270762164,0.006057727534937361,-0.054998026735755545,-0.023622313541783596,0.002122100257745974,0.05886894548739996,-0.011706300833538113,-0.005755139956597429,0.022910702194968643,-0.061186871059208184,-0.018433193458055205,0.07986371739264342,0.01590111010485078,-0.053634439491009475,0.03710038534427548,-0.02434974194034269,-0.06219921019770961,-0.08164836697270308,-0.00019339778532387905,-0.029781787786351543,0.03351549394759582,0.016880688360608086,0.02514573146275594,0.008913345362953799,-0.03277224502593309,-0.02846201035099724,0.004222905613448082,-0.012804861884741829,0.02723527000309024,0.02460943901417651,0.03688917398248202,-0.058884219568272854,-0.03749805243921595,-0.026779232427112474,-0.00012309641918673765,0.033768498996066536,-0.031798961279783385,0.04498290282408397,-0.030816290071626163,-0.026314629281906022,0.025594690437738953,0.015628949719558312,0.015033538471805587,-0.05694330393468409,-0.037935141736595755,0.010908681363381622,-0.06265373259041737,9.881385595410556e-05,0.021140031002039452,-0.0037581472685156193,-0.027639162554932963,-0.032345993782508464,-0.03400370197636361,-0.03078417961406149,-0.04377934891595058,-0.038292470276273534,-0.047333542273648686,0.062311719647567494,0.051163833907930376,-0.003974917203893849,-0.022796101090711812,-0.016433744532897393,0.03324555210077087,-0.03312738531950265,-0.026622884798880336,0.034380282001890604,0.019971938336953498,0.018840218089971574,0.007969546708804268,-0.05888659972331774,-0.032373455841913666,0.04979097004906709,-0.04873136671420035,-0.04811558718704054,-0.02664219131259588,0.02096149685596607,0.002769668218277408,0.01502088328899311,-0.0901929480255706,-0.06965492884659467,-0.03509423475904445,0.012079824559372832,0.05487008048483599,0.01146878211150743,0.04859777438908885,-0.02745504288620193,-0.019546617093109658,-0.010375741104760673,-0.006419471593931223,-0.0004915274075359992,-0.021080843129778606,-0.04212255308645227,-0.05521208115663242,0.0425688890085626,0.04419130501355421,-0.04486351076776681,0.02231489941182156,-0.07153259911783966,0.013768020416685692,0.04920802223570029,0.06142259259148336,-0.014553350847496928,-0.02139094175405854,-0.04411117773258799,0.004374116396972512,-0.014761163796007793,-0.012495634782432088,-0.025376872468681342,0.015339027765133259,-0.025471942320262328,0.008911044959793016,-0.022626980060935067,0.00851335964413871,-0.027106389146400425,-0.024480872323164385,-0.01351046156640049,0.04325357651692597,0.03558742003874317,0.016160289649350266,-0.028356940247794647,0.05965793888973785,-0.005600658980696615,-0.043705315725909626,0.002441289091311086,0.08877478260375447,0.021397214985031894,0.00442185412282472,-0.007527782173823676,-0.05181739370171845,0.09328543160019416,0.05977886458650919,-0.017908282279995226,0.001977253707374575,-0.010198932380526543,0.015866187113162563,-0.004363414231146386,0.10381471335576471,0.020382053955138466,0.007573173907885738,0.015337797579765793,0.012059575817917704,-0.022544546812273913,-0.041153558475054954,-0.012912972835158822
0.06202234006752261,0.07140347014056804,0.03727103377472775,0.05707968505105743,0.00392652438687737,-0.07261570987330095,0.006564364300855631,0.01712674168282341,-0.0175244680633383,0.06348519038964448,0.0008439509668778409,0.04288476671028544,0.038340615921550976,-0.03970522510468373,0.05704635352094538,-0.0220215678481146,-0.05199882213877746,0.014813715081036873,0.0393669426526838,0.03908387879942892,0.006622098394858733,0.0529504264520971,-0.040429176261865915,0.024426295086930346,0.00043710373711234804,-0.07501273543413267,-0.013476231111817533,0.015049734704553203,-0.002178488408639521,0.008356667245613358,0.006857124223224101,0.04232428520293828,0.05429827279117999,-0.06199327313583089,-0.04124076020208908,0.027646061848980392,0.004497816057537654,-0.0263188664469373,-0.02216719121884573,0.003558708367453421,-0.017954486891737793,-0.04716312107635339,0.024080001790860193,-0.02554568994806662,0.022745136375383234,-0.016255093653089348,0.015836649092804845,-0.03583192728725371,-0.0074712700844540665,-0.006468644636244403,-0.06714441772654488,0.042189532547368416,0.03439404287332061,0.05861443656733534,0.02609676184287114,-0.023689556478476464,-0.004593086386098227,0.052281954801790924,0.008691067544918475,0.04364691047889756,0.04631399718362161,-0.013242476049245337,-0.016753942410249408,-0.023942256386329994,-0.03497090885208855,-0.028918223228343982,-0.04109400304455697,0.011641476469179506,-0.00558355660683857,-0.007948946610876799,-0.02778925416971133,-0.021601506373597385,0.030486217801397795,-0.009451328518494846,-0.055539751361330096,0.00684739539984349,-0.049294646095655974,-0.06680565943266838,0.005868511782430522,-0.03147890340002337,0.02322794199716822,-0.003207120045977216,0.005965838333802857,-0.04712009310846138,-0.021786431571431616,0.057532984490337,-0.017714627684766306,-0.009273033642786071,-0.017603388896747257,-0.02769502329687441,0.0418339137701259,-0.058724077187448175,0.007043443649846547,0.0320826585245196,0.06478977698185956,0.007570412350557856,-0.03338988658321652,0.022768753217995538,-0.018720999321471987,-0.03590728633313487,0.04083024615024008,0.010601210206535221,0.04433882254483411,-0.011947580479680645,0.02824430924399091,0.0614965997115653,0.059568498648625685,0.06073002622570901,-0.006164426710750096,0.03891833207146634,-0.05312867421840703,-0.007008327012797391,0.006642605484210738,0.01594914086307777,-0.015736682156678096,0.03306629366020476,-0.011132465735202064,0.029150111937452438,0.021808755824762244,0.012176785004867706,-0.05347557859712432,0.025741693562766083,0.038670249999513316,0.016674244242485987,-0.04192647554097586,-0.006025492517856041,-0.018207076610521653,0.07900957571111214,0.02335796861973001,-0.03929597343357475,-0.016511707025095496,-0.04432524111037826,0.023996388291701753,-0.03808900133390479,-0.05983606873499236,-0.01567582942884474,-0.029031277663502685,-0.031248250037683264,0.0521506956968317,0.022907957214436607,0.0776907214281385,0.06837808842513825,0.011937393345725179,-0.012116125584105453,0.023905281444613378,0.017320299905375362,0.001296952721113183,-0.025682686562665553,-0.0646059725579369,0.013767952711694679,0.01675601570431552,-0.04184304118367242,-0.015607128392207844,0.015268325694406669,0.029446960574857965,-0.04838708659485027,-0.05751542879568892,-0.0497372674307616,-0.04695622524047456,-0.002432038468982073,0.006214137273397787,0.00062596352766316,-0.01436454528739346,0.03569808308549296,0.03614467615491157,0.039265196113249,-0.007030250274668183,0.03244272853767398,-0.06697275435336542,0.05627710857372172,-0.03599899752811074,-0.011001477634390713,0.04057460902074087,-0.11031674598767878,0.004731816366732418,-0.057070184137340566,0.024153061983563186,0.025128853825997447,-0.05431697918646119,-0.0865024603750666,-0.03489217731860703,-0.01584383506110996,0.002880410157363594,-0.09300999653152137,-0.03699951425599388,-0.10931158541869956,-0.11628184380349667,-0.027544232741543172,-0.06978129981703236,0.0801864495806273,-0.00731664465368478,-0.010435858543135194,-0.07247248690664607,-0.027775777886755428,-0.004322236349983753,-0.006276188040866259,0.021223285186643993,0.0010017018297461544,0.0001917994917954211,-0.007990568395972812,0.0031980019016843854,-0.035467843958574566,-0.0020599150774953524,-0.03462555548825256,-0.05809751044845554,-0.07160997204636936,-0.024616010205689792,0.01333843075075046,-0.057641106329281135,-0.03214595507952232,0.02286986814502391,0.010773537612195152,-0.0345618195210285,6.728301436822819e-05,-0.003949079902465296,-0.014273385905160462,-0.020069316147123668,0.011903575778492298,-0.01922988991585446,0.003463781614637418,-0.04745090287640292,0.029121223685726134,-0.008915973045512476,-0.01861538732913841,-0.015331863227067382,0.015054512471949135,0.030560704930779684,-0.08591612814776607,0.010777261670553154,-0.026350782005287697,-0.033548086557642375,0.001752610097879779,0.02470626213480178,-0.005450510703043568,-0.026522895721015974,0.025250117815486695,0.045866591567239344,-0.022527742495369703,0.04411175206912146,-0.020074454841439243,-0.09420205144835289,-0.03354936596968533,0.0390480641673585,0.005196477091042684,-0.02347858042409419,0.02320700629010344,0.061413359195521516,-0.01419567855530647,0.039579146658524494,-0.005026876777646096,0.032469387759915175,-0.014345064565553092,-0.0033827000509760443,0.0337931262509323,-0.02889801968369549,-0.016906456807549652,-0.017183082568866682,-0.05048571486053599,-0.05716169208758651,-0.017772954099581836,0.022805208877728127,0.03149656057579417,-0.0027484506775092084,0.037180494757298524,0.05943504785018561,-0.027180569587208797,0.021037971709931647,-0.0870666318014142,-0.0765220046450406,-0.05502270579681931,0.021396807040898688,-0.00018269828963383934,-0.007637645965589783,0.04258471614710597,-0.0046774316998781686,-0.0456617294478134,0.022878707440458505,-0.009082655273650967,-0.04431860165148112,-0.005931612557053914,0.11109245021747609,0.04359546403863449,0.015646037740969482,-0.057496626933122054,-0.000535637738099139,-0.033914093481808204,-0.02354784499011352,0.07879649692994509,0.08796691873044027,-0.03059158669958529,0.04544902160482098,0.09259268006346665,-0.04749889308189147,-0.09402018255854408,-0.0379658694269571,-0.044522787423485685,-0.042977816851354406,-0.033192797610814506,0.036946002480474006,0.030735455482886562,-0.022525414506410053,-0.006665411708747773,0.015627469571756165,-0.025068811461784423,-0.0059155392648486075,-0.02159623735761035,-0.0264203971982924,0.004477624017871368,-0.03128814368287017,-0.0019537552164637733,-0.026214505626196094,0.002928569476734383,0.02963127723807044,-0.017135705942026427,0.016158922376327912,-0.04573676613312813,-0.028697367624357407,-0.10407146836585474,-0.031120812121904994,0.037940010949502195,0.013445930292950034,-0.005118260295183622,-0.04575396479574343,-0.028947864741046544,0.02641951119779825,0.10300065546669625,0.12638314428996833,0.04331867344178814,-0.006289249342874587,-0.014750991650743813,-0.06772838162905909,-0.037462252118336835,0.00594595306762734,0.01639347299444342,0.053847943690414395,0.009053092808621075,0.0018340439984128598,-0.01757555196962951,-0.036316513819074754,-0.008952327033755387,0.009473014900197698,0.03962761898757239,0.05545079076537468,0.002941594453748852,0.010547075713334507,0.003745313418869278,-0.00801714212919439,-0.03224710243599936,0.022926135011413495,0.029202291081471227,-0.024450243782790548,0.03828550958545656,0.13022306811108214,0.12263337953321309,0.08167502856635511,0.04378491683670626,-0.04450613350389036,-0.021570682385873986,0.043593296213673575,-0.02284319583094109,-0.05331870009535579,0.04103904893948817,-0.04281535851476388,0.04334848446519935,0.048098572477959275,0.06728187210249792,0.025461153525688604,0.01532860464270052,0.014585195091540971,-0.022158076675074193,-0.03176133106745878,-0.011500040478915046,-0.024180174934202336,-0.037466734640621537,0.028493750006750255,-0.0025005666990349676,0.009455399260272135,0.03433300210193173,0.013181179883519063,0.11176352468995275,0.06606772507303656,0.11277090308142576,0.029994954213615584,0.03939440048942934,-0.06251782257343468,-0.016094447639572112,-0.0060496135013958716,-0.016217075338082036,-0.03747749070901509,-0.015948367567867168,0.037649766064439226,0.03939711417144943,-0.060767911114682015,-0.0075498867958417515,0.015111529554175558,0.00237679533154374,0.014829960352373156,-0.019697154055427192,-0.015155393630654952,0.019011995802000477,-0.02837220920843491,0.02390825009562126,0.002164262252769582,0.030371682816229602,-0.035585646551820956,-0.016020064855559957,0.027259819076473964,0.07376861493725397,0.0978539701773014,-0.0033418734363424908,-0.034886535420283256,-0.005836880107319304,-0.0656478166070993,-0.04270061371139625,-0.021012640216715464,-0.02230445924103907,-0.03838033155970304,0.02974175837284965,0.001396082283765945,0.004299731179338666,-0.03282643688682918,-0.016579290468264993,-0.022089187207935502,0.04429646342768912,-0.05126734346897452,-0.03987781052521015,-0.04140233371994262,0.001029520434149802,0.012833546918361272,0.03660386043707853,-0.03270569129274657,0.025095974133886745,0.03583628385126792,0.0024009927631718016,0.06964136261461389,0.0419830663758341,0.0784505913826547,-0.03879498864311926,-0.0827152513092732,-0.047626075429261845,0.007589907182301561,-0.0008480022212586296,0.021110334491217055,0.0538359352211308,-0.04192102075083069,0.07488940780132333,-0.016078876107158656,-0.05340841804461864,-0.050519413111452374,0.015691504663063103,0.013367557373697058,-0.01956864245766927,-0.02713272993339888,0.02918293250081421,0.020977848628214158,-0.04517990656846963,-0.008533434116438456,0.040870491611233385,0.045413142360756824,-0.001523592247767977,-0.028774181762012276,-0.014440848293027182,0.04951243725165538,0.011118183913384082,0.03350142107225136,0.04275400606758262,-0.03847114850278716,-0.09578782481211386,-0.06780783161300614,-0.0033455983263173594,-0.03825408840162607,-0.08069154513566743,-0.024848607785107123,-0.029628225818306653,-0.008635342036565588,-0.04234692929977659,-0.00987624734728849,0.005450124554695076,0.00604504107763154,0.006211109978217393,-0.03758025469559427,0.02031808498106872,-0.023935140541755606,-0.07999666960838102,0.01086998434594916,-0.028366376553348213,0.03723912053987507,0.022631784694012298,-0.022564546718632592,-0.0008769867301745585,0.09598002361204354,0.05667188052128981,0.04088230537820367,0.0022988123665622384,-0.0947577717917261,-0.09708495198358966,-0.03529505873047496,-0.04464473706535062,-0.007918295922248686,0.04468346355134712,-0.03431089343351301,0.02882733969947927,-0.030096547025814272,0.06073863586287884,0.013501154805238998,-0.03419869289973196,-0.013605326361890508,0.03208654764354895,0.03403294399684701,-0.03490079919001123,-0.05538074872000555,-0.004305405943010496,-0.026791014635599637,0.00627614699715977,-0.014957583633673359,-0.010912315792621235,0.034933762224958045,-0.0019448898666932647,0.025945986427644663,0.07362908491508462,0.03651758360911246,-0.08650138467382922,-0.08680062079241892,-0.040529678906587895,0.038756606858166835,-0.030524511073984805,-0.030086178464357963,0.006308635373263349,-0.017380000478187874,-0.03836364546413285,-0.004586146863576565,0.008460988126123125,-0.019825388902494342,-0.008433505430862485,-0.020429501885847582,0.07726832004189145,0.018127345517183008,0.06399298807618252,-0.08838573518139266,-0.07864102466053634,-0.06548182558651544,-0.04451682810296623,-0.02269519346472743,-0.07546611982716209,0.024518991156513733,-0.025075956955352613,0.06535330135244147,-0.02693337867033681,0.022584029117592355,-0.04577797701695003,-0.032729513747247405,-0.09567576466358259,0.028016374526011842,-0.046676769518729025,-0.045775415471204194,-0.0310735138160722,0.03186193913894881,0.027043130678017134,0.035678535722735855,-0.022995299667550057,-0.012476870727247045,0.03218910554024925,0.025599691955199382,-0.01313867325738317,0.06636153414388457,-0.00238516471850701,-0.04299917985390416,0.027647355117207766,-0.008210263602896072,-0.08320331167562763,-0.05256530692020956,-0.015476282500322498,-0.0003939186861025691,0.11439617901717143,-0.0064059363206029575,-0.006395464933228743,-0.0583941164237115,0.0463472958212173,6.217893936759875e-05,0.02637118627428944,0.025999661243714296,0.04415267081860431,-0.009790001690752084,0.0245218195678667,-0.009100333609848282,0.004994593781734595,0.02262564255145685,0.013071018890542189,0.007787030894138068,0.01992313725594745,-0.0015725772086025956,-0.005541579273262439,0.028444844581340337,-0.05622858950747981,-0.013770084938033715,-0.04777784087114463,-0.07705969956478742,-0.04769995261902621,-0.09953676923618276,-0.016229666554076597,0.07226807462322818,-0.025994681627267785,0.0009312202785139015,-0.02616569634426057,-0.0625237756555275,-0.01813539508509585,0.0020980731301618863,0.050239183936496006,-0.06662054190537975,-0.06443526306507129,-0.04070745311713091,0.035406278146916784,-0.04887043767610515,-0.05475573351128768,-0.020980549955812496,0.051927299783450995,0.0239457013801898,0.0072170488855476484,0.0015451010081829124,0.021934759505934345,0.011607434060762119,-0.011974165239989726,-0.026618059558298664,-0.03532970527407532,-0.052098492022865754,-0.06627397242632038,-0.07372370280135424,0.015498511713945024,0.0049152829242824925,-0.006219644407063416,0.006215797271180217,-0.06188204491290184,-0.058892515097262774,0.04324216801027397,-0.005659070357996849,-0.030709202354745058,-0.03562742388433724,-0.038313142391211884,0.004842895511324704,0.007067796319838241,-0.0003331314627612311,0.09500267340505891,0.010224436048112025,0.005578561524854171,0.03309852928547301,0.0041624444994862965,0.0373884680787982,-0.029328411646910683,0.0055521559708526695,-0.011166501236837758,-0.0476462863120013,-0.00020176945085949581,-0.05077233797408665,-0.023773715414796566,-0.03969951092050893,0.010138712453322348,0.02615173817383598,-0.05267492614084142,0.02632953987577882,0.02498832369895264,0.016835270836383247,-0.020830573286187808,-0.03630502837791055,-0.0335480814631325,0.06239297898353936,-0.04389502099113984,0.022233354147859492,-0.03631618294828958,0.004278942563609603,-0.02402133159494812,-0.006274912142124399,-0.032171160119992825,-0.0389712652222008,-0.03350192167984904,-0.03676658760119369,-0.022169052463856483,0.024800289882143008,-0.07479497191689131,-0.06832188958297711,-0.02537697074633023,0.03615418552310657,-0.0034572763305337406,0.10945716113584303,-0.05288391465456492,0.01813272022900592,0.0700600034762847,-0.05885950311052899,-0.04611104763639366,0.07579170405276547,0.033383337919006766,-0.013479212365091635,0.016043667912996242,-0.06342585795173507,-0.011624611438078478,0.07251038427875132,0.0012926325434806988,-0.028253035694230853,-0.03466792102569463,0.014417554705251134,0.04422343192747167,-0.012088293868389041,0.04606477215336417,0.020095688760936068,0.01179588323239733,0.017043654048567124,-0.0482611739405399,-0.006900023115801163,-0.027117341485789426,0.054621969511684354,0.0051368136964939255,0.04172436928620435,0.09759576530715736,-0.02841095819600477,0.02229324311979945,0.044905192491214656,0.027522523693230213,0.06722867610072399,0.026844725158806707,0.0380621482895239,-0.010327895212068165,0.030868243815206337,0.035865923334821116,-0.05747372778837388,0.02172655370488564,0.02109802664929376,0.012134583523433329,-0.04325080839615616,0.0031537367189642465,0.020683950941666314,0.020129307884637144,0.005992680293658612,0.006018450452187439,0.06454396059221197,0.08282952929861577,-0.05309699871041189,-0.003731469203132059,-0.013456240129495062,-0.004678875201983411,0.06971468310895704,-0.01711405977574629,0.02037469070247409,0.03538303332441219,-0.002880765963955254,0.054646500889325086,-0.0658887591958399,0.02798118510459165,0.05852792125266066,0.05735954913463726,-0.043923265401298615,0.011346118792441729,0.0038852208639075796,-0.04192545453100061,0.034171574449563695,0.054114821612389424,-0.006912434800016532,-0.012486249600283099,0.0007558538815817798,0.044188121527366585,0.042875552599003296,0.07398169376954639,-0.027137898996242527,0.005027639348881006,0.012478012837630946,-0.01569616399770711,-0.029782775042525182,-0.0061767541057589715,0.0692105058570601,0.021362864475548037,0.03350500120631892,0.025075043619873102,-0.0797609293201631,0.07420959046775859,-0.021286723445975667,0.0268502375465988,0.028997139314615776,-0.0021810062004163347,0.012326244962392582,0.01996975106367935,-0.025515399943979344,-0.023029608826287396,0.022755759340602186,-0.05628233160513501,-0.03758212484240477,0.019694825749413333
0.010329485508307132,-0.03328236322601298,0.05100476907560128,-0.06786420244753948,-0.04046488958867216,0.045328169396981824,0.024847022241857745,-0.0154752338936674,0.07924116643679695,0.0030200812643663825,-0.02638590273817616,0.0426861652317027,0.033085044735452554,0.011990637710356838,-0.03333579136041814,-0.03350199955011718,-0.018050804423829836,0.046092179348133866,0.02173909028673884,-0.013966447297099716,-0.06489002760719058,-0.02627128926466266,-0.04576187994091323,0.02300468832359776,-0.019971045191192492,0.054387464714562905,-0.015276289446049592,0.03161621327201887,-0.06278585974210854,0.009982535744168314,-0.03506883754442448,0.07034218139215394,0.03306802307979878,0.028366838183460755,0.036582679139667534,0.021835967655706535,0.034219587647866825,0.08799305260750363,0.01959196132455224,-0.003339951126783733,0.032428949354935496,0.017832457626235594,-0.08190156879100643,-0.006834332497732134,0.01072120083734935,-0.04698471959339583,0.05709215813546001,0.011007898812581247,0.032113474495637465,-0.03981885947389603,0.04210816492013057,0.010366835282778406,-0.03676258330521555,-0.021174784768130134,-0.09359868428917414,0.027665629475889703,0.004940462417719108,0.000739329036773108,-0.04820035434991783,0.004757908087131022,0.07868802064115224,0.0034420321304918715,0.009046518677394384,0.00518791684050916,-0.01667145542753026,-0.0453822564912886,0.007828257425235028,0.04200770236018751,-0.016979971706309945,-0.05740325615348324,-0.034923239088429495,-0.003203019748215209,0.0005544388320220961,0.01076607484084796,-0.020167704950638975,-0.04286064889898232,0.0016783614201326276,0.00939055100306322,-0.02055324942586973,0.047367181379297296,-0.04354329477422787,-0.043763518400897955,-0.01717326832905216,-0.0020156450208083936,0.03232814086205488,-0.049525629968663304,0.03904589619918421,-0.029892340895733425,0.0009375804752871983,0.03499967289052554,0.024467797510780796,-0.05300969558436723,0.030477521696311245,-0.029039298650881572,0.045238503410289566,0.02760589333723612,-0.025158842267540497,0.04080471950668201,0.0591995261369687,-0.02598477736281294,0.006198199323142002,-0.012828356530532357,0.04257546300447552,0.012148493868264483,-0.031504825700516985,0.040135830393738706,0.04699017175164873,-0.002201561120133771,0.043330187518024574,0.029519477843738214,-0.009592116492904364,-0.05736104499895242,0.013427691114708581,-0.02106187867443662,-0.016339771777444376,-0.03510572737966215,-0.02838765719085765,0.014982407041895917,0.021407377031646344,-0.02234338682619407,-0.049141831340534695,0.000539488721953759,-0.0300383962084946,-0.0741070979381151,-0.01322177471834084,-0.10518362329520249,0.04808781710229895,-0.023462567201729973,0.042408290291480515,0.05347658145133732,0.014248868129314751,0.01834115884670411,-0.016283992510665195,0.013086376485303608,0.04083789276487357,-0.009940841439494728,-0.01121503467986621,0.004629280972427039,-0.047087431402455845,0.02004492748126052,-0.008743098781223934,-0.01541691024804413,-0.07758007020051687,-0.02851993614695796,-0.04021192520388741,0.07298354549873831,-0.0005815633744265417,-0.06161246599696761,-0.024326494382742456,-0.019876282787050673,-0.06635002502784382,0.027914654971529413,-0.023711320395337833,-0.02523211019786929,-4.913299577184638e-05,-0.018795656862346515,-0.04754105302196338,0.0050950410521005355,-0.036905439358348356,-0.013046846201330549,-0.03758836621762543,0.00016992244585964947,-0.031799931849987466,0.04057561681500571,0.0783080628442012,-0.03706617133604859,-0.03067121339308807,0.04318462376064697,0.016546410096691697,-0.02460652552243754,-0.0012219238602676193,-0.03267951076033045,-0.03384173712753822,-0.03942820284259791,0.03157011272365722,0.025580626114468232,-0.030844016911866584,0.012882475866105013,-0.044353373519777965,0.017990108583019197,-0.06276996043496609,0.0024199748679808925,-0.004037760098511857,-0.037528263063170156,-0.058645684154578506,-0.028047895575456495,-0.019078524354806118,-0.07021690792436731,0.007052811943714883,-0.013526032140954563,-0.017030579361776235,0.007976313677845655,0.04621395560044882,-0.010949157581557758,0.03952439778926413,-0.0030098669539657644,-0.026034736755628094,-0.06148800163645207,0.006934764517710842,0.03660903863448859,0.030383108228685448,-0.025829415006551174,-0.07205534988016069,0.02519322551960158,0.03411942116657917,-0.011843951723660734,0.0065776936002568094,-0.07473757528954739,-0.036652302970317595,0.004042044577798374,-0.09098648640580466,-0.015531766417197397,-0.06699677223645611,-0.05248896713377406,-0.06052481307584585,0.002638748739157102,-0.0468266104787103,-0.05841406271859622,-8.936080054149092e-05,-0.0330738380814733,0.008073181898134071,-0.02860407802754233,-0.001801034650922011,-0.010298496589926986,-0.014709726281200118,0.003992599430202811,0.03778194209313179,0.011273524246631233,0.006439488232387186,-0.05354818962075105,0.022930212182435922,-0.01291983174390536,0.022937827492148677,0.01307912025196168,0.03520523903395226,-0.019158847991407876,-0.032349431936067055,-0.0003982578819243575,0.00272905278764955,0.030891492497995394,-0.00298794727947011,-0.051462123966254596,-0.07624605949288285,-0.021754778198815435,-0.05672376435272324,-0.07549338913691066,-0.011469126354194533,0.05094869650931572,0.04062815106672175,-0.040242847897266766,0.002684406603577398,0.02251365225802365,-0.02327238508248958,0.03967260120478332,-0.02311073329341134,0.03815976127152421,0.06169930150073489,0.04802956620773557,-0.02918458300510764,-0.02336711396712635,-0.019731614993307254,0.008024049314794546,-0.03212071874249724,0.04689784821638384,0.03004276668482275,0.014359835229286324,0.06635610320306887,-0.0006901735966878828,0.06045715504865084,-0.03296019361000951,-0.032546890900943336,-0.042394141251877356,-0.06732867446946497,-0.007847769900849809,-0.008397896052944331,-0.05165490212825079,-0.015292451095511238,-0.009476005713737934,0.02518328541135986,0.011848585426474885,0.0208561962050874,-0.02966564101293485,0.03810256227001428,0.010189831694720085,0.0028477822625910722,0.0039165900835778766,-0.004486012176096923,0.03878948015850184,-0.06486450112597461,-0.042801760820013614,-0.07034735244843437,0.007927275242348326,-0.02785998519225104,0.02107943871715376,0.08079840820379237,0.06630178467921263,-0.008197994581228355,-0.07369038569887927,-0.06675597297258501,-0.10092919943748431,-0.0826836614621863,-0.1118161215002926,-0.02573158560843524,0.017929662523965533,0.07404558081180879,-0.0697239511213404,-0.018579372012557813,0.04350708236489827,-0.02526533280708838,0.015847726095111,-0.046841863383979596,0.04265939662576613,-0.0062160713216301506,0.018139813200292405,-0.023221692353716517,0.08052835028384582,0.01604583160449244,-0.0737353928966539,0.00024122797686981196,0.06114099412938035,0.019156116499572738,0.036593024402838015,0.09318739015286491,-0.015846873476443958,0.011459914019322774,0.003193477741095356,-0.01746947560511349,-0.05436237136035276,-0.09596614843346996,-0.08131169938722038,-0.014900058989349863,-0.0028373256229176874,0.06351564571927971,0.024885068247034847,0.012570954138085125,-0.06728903493987876,-0.02417329231279511,-0.05077496958390812,0.003048297900234122,0.013000528871127163,-0.019028176228757698,0.010093167167681251,0.011628796657623479,-0.04862898876890285,0.016391448137959327,-0.01257996725705412,0.0030577331867563604,0.05053986101141882,-0.00826385667675292,0.018834887801007037,-0.020634064429162075,0.04482772815322551,0.024557777239150945,-0.02791499007919794,0.004280280065551638,-0.023292419564544562,0.006146289037622396,-0.010921556736067426,-0.014167415471619028,0.0060180767877699,-0.021259370503732295,0.04007644175493248,0.009712874464622035,-0.051287259619461484,0.0646349861670022,-0.011374175406844666,-0.028932360824905273,-0.022014576753386035,-0.015481640313083253,0.04420978228284843,0.06434886984011765,0.01527538616467227,-0.030114957554767226,-0.09088262874702105,-0.002278762456479734,0.05329310679278934,-0.06052295113541127,-0.015308485624481725,0.07143136840966358,0.06873103995499065,0.0166107181014714,0.00516411818549619,-0.03130287090721591,0.009078561205248038,-0.007342147147095718,-0.05591121687078185,0.0004631223115017411,-0.022517598778188895,0.009493903827298695,0.01928172310921754,0.03577922692461584,0.02079614180651504,0.04088850471665015,0.03477954033538187,0.015291211975618335,0.007774201515288627,-0.039706686127028865,0.009514705441323934,-0.06310490814589527,0.01894920697087829,-0.04401481234693074,0.008044777448429128,0.0032129507237260778,0.04780159392288034,-0.03434023822934282,-0.010385671057979134,0.07538060540375971,0.07518097638617373,0.034953065909667944,0.00478472160100831,0.06455519992642329,0.02631757118997,0.0424319153604218,0.003885114870616666,0.0006855244198269938,-0.06037660492090809,-0.0210289055024495,-0.008121714190417136,-0.06879715633865352,0.00039788502898237987,-0.026853233997276255,0.028915862467995792,0.06642207453425514,0.032057902721205,-0.07233566768527146,-0.04963100341222591,-0.027759421303889652,0.014845940951069083,-0.05646109188103242,0.0007388118903819997,0.0263162362734566,-0.06505716507735032,0.024170644686001264,0.10474591776172595,-0.07229277345794612,0.054527306227040856,-0.0707290575371793,-0.02249514908206126,-0.015881368422078698,0.011906861539282948,-0.05777346549248141,-0.05246662399229513,-0.0216481381424143,-0.055068800359797075,0.00034436467344016935,-0.011374707966885236,-0.03298730356585036,0.029535295364687512,-0.003090625245904081,-0.09042722284614665,-0.025107781736664007,0.01347899689553831,-0.04603359780299635,0.05181521356424498,-0.0035590737015051594,0.008357773640413972,0.005581489130922522,-0.027125789804724302,-0.09286473888112955,-0.010947727454802594,0.012703429372224614,0.03073960824523808,0.06246677112330421,-0.009493903477637539,0.026025586685890535,0.08703087938490334,-0.03443252722622698,-0.0017290230836730122,-0.03899030751443486,-0.011469966637769226,0.01219125126800583,-0.06950286136835059,0.023860564326608803,-0.03240820614462929,-0.06057397177648147,0.017163189758259634,0.01646252857293652,-0.01935253312849663,0.04193468857555653,0.09789161889272327,-0.04772733865632718,0.03454740854400793,0.03440125635983943,-0.04364302864276899,-0.09717821236466459,0.0016183833234184894,-0.0799232999914291,-0.028628912611125074,-0.006923276431807314,0.0017752653949984637,-0.009159711644456758,-0.009201200092951889,0.039262581993394156,0.010217760013065952,-0.048657614074092026,-0.0006338816434313296,0.01703250159092488,-0.035942472200316496,-0.045616714720372764,-0.0033585135257261063,0.020130258997581984,0.025405755055940747,0.047032829008294225,-0.06516450051840693,-0.02844088306239625,0.029974216293541446,0.0034078661661839584,-0.025707397904130513,-0.0014017702604876261,-0.03015385228976843,-0.030774782627920362,-0.06918978522312078,-0.03382716526503512,-0.043286483342646176,-0.04082293520063821,0.014497973712833543,-0.03824718215125132,0.0028766879079944073,0.02488384710861398,0.03318192194625333,-0.021608629970115215,0.03496537203868923,0.0494069783258794,0.027301456996899225,-0.016748861758069784,-0.00904374493605835,-0.019461989525053524,-0.06366396949595521,-0.052756665609899056,0.027161616367413013,0.02982061732640309,0.06791524792871595,-0.03826474110849054,-0.0890864719019522,0.010015764446248139,0.04372144347113277,-0.004789376383270272,-0.05826555751006256,-0.05024019467644274,-0.008107998411495213,-0.11341206379865945,-0.03961507642428414,0.05979591563494327,-0.06919444063021327,0.07071367000405421,0.050647401987151716,0.08348875980252586,0.002093311732609033,0.044005089029820005,-0.026405101393499036,0.037974677154874376,0.06997895684418531,0.03585166166766662,-0.03126174461901863,-0.00942652485733367,-0.05654882008245239,-0.06851917311774632,-0.06678589709252568,0.057957314237417096,0.06424812431747122,-0.0009027246616825575,0.015239170174513737,0.012933504694076482,0.039668459980505597,0.017645647967937998,-0.025745228155544957,-0.04383227543986901,-0.087246508502212,-0.03778316431628727,0.028340450775284784,-0.019849449381371977,0.05802315805199049,0.02066870941576368,-0.06471498328964925,0.009627225851314062,-0.013539708273324872,0.03564525589188691,0.0053259783697580726,0.009637018116142029,-0.024061899279240188,-0.01893734943476954,-0.05798879762716752,-0.026146558057244976,-0.03153488597774365,-0.05680000486275952,0.0014017768987780474,-0.014288168208035835,-0.015602515869555734,-0.015898584702545984,0.013771227986272644,0.019301652449948463,-0.11589157527557353,-0.018530111516891705,0.004874387412147805,0.020563369468130005,-0.005089270019936291,-0.054033835834962185,-0.045532564216742025,-0.027162100672596404,0.040704676638233274,-0.010750889879982035,-0.014261929122586165,0.018254641570251504,0.01246282594205639,-0.00031150024892079997,0.009738023874362005,0.007109527625421646,0.043025199491335105,-0.02903350880160165,-0.040846303331353924,-0.001805026228327249,-0.03754680873835725,0.019623341300826526,0.0022788306347141488,0.006184613819194302,-0.01539744381541797,0.003498271472343924,-0.03657483205816085,-0.02570563339113983,-0.04546803960990377,0.035157606728315666,-3.0244662460776506e-05,-0.008904297659151723,0.011006277081072893,-0.06088247692083224,0.05418154871385645,-0.021936498688901327,-0.03012938584406448,-0.08377347725605158,-0.015144890370221332,-0.014950476889598541,0.022109006287432908,0.03549333485300924,-0.02731442745742731,-0.08213646672101414,0.01634489658517028,-0.019990614739750043,0.011634322075781368,0.013646124838157522,-0.04073113100259519,-0.0363432516284464,-0.05214193910278096,0.03492722548709992,-0.011463523651774932,0.03022745297151246,-0.025020195092762623,-0.04559726912049741,0.029702608457434648,-0.012051900529570909,0.021960953502038506,-0.02760667940330285,0.04907051958883485,-0.013974666972557783,-0.032510262208493214,-1.2564692853088552e-05,-0.036044365315067904,-0.03225788769900559,-0.08376534516575736,-0.08948549198982268,-0.03285708523238318,-0.05078192887031962,-0.04185844716302123,0.0133096726358586,0.04183021108148465,0.02279906492416866,-0.007755765227901752,-0.01648576872666428,0.028729639200658456,0.045209712937498106,-0.004100566425931246,0.006077889470111728,-0.007594512252366744,-0.03705585340191171,-0.00650163110400771,0.024901059676750225,0.06625504763032831,-0.013595504856104718,0.0497906516759203,-0.02086679650616096,0.008237845250424584,-0.020847520380271257,-0.01909516103006974,-0.034356002047446155,0.03272887425102325,-0.008505920017275166,-0.03347482014212062,-0.07817649014532525,0.05282582452083662,0.009439445007469748,0.034498131118611344,0.026623366934011627,0.044714844046572416,-0.013092522502365467,-0.031761355742994275,0.06652154841448461,-0.0006385904014918228,0.008217107772752297,0.00921077237883294,-0.07129569473287323,0.05472750644043668,-0.07210306805942537,-0.06309186974089541,-0.08257427626603257,0.0321639180311664,-0.007854661113456094,0.050068456485011514,0.015789548818387497,0.013033563416526575,-0.023460367218653314,0.038347621461627714,-0.04271444689445599,0.018058549146797942,0.09942715055046263,0.014630798243203322,0.02296917176088236,-0.017238281673399265,0.022898939825609293,0.013144580430510646,0.017833871563524673,-0.010388856924290268,-0.016304337191436112,0.015326664718366793,0.046870038628167965,0.01674555124568213,0.0155372630032975,0.012377155026817938,0.02430090804014253,0.00391054907957019,0.029590735858884113,-0.00797957865251582,-0.011239527811535432,-0.009650525404909748,0.012226651838585952,0.017166137799242774,-0.028172912689363786,0.026066660532610586,-0.042782610849450765,0.005120700007639431,0.011387953466100184,-0.04456533638426664,0.026838085857022166,0.04586097054433812,0.024880221587611894,0.002981461123883105,0.03243957757334887,0.011567471858000762,-0.026748396966195347,-0.07589091110339152,0.024061000189719264,0.004594861010515881,0.014713337937382585,0.06644634950400433,-0.0006398041588739194,0.005703678792188871,0.08001762681648429,0.00782367098246814,0.009668485512063164,-0.004196954550542114,0.07452040719783042,-0.02283877055091129,-0.037194637628317345,-0.014277939441870674,0.07091632682841237,-0.0032394268496145446,0.028518663880907232,0.0399424752150854,-0.034019965808062255,-0.006125084646015922,-0.0718553885867405,-0.06808219946291895,-0.028064938160919765,0.029831677938560487,0.07176558089217029,-0.014407022296943895,0.02239508193254111,-0.039532890422021585,0.006412242482814241,0.02827511595239945,-0.03539086294241463,-0.02177230727473772,-0.011102544064827052,-0.04634776030656022,0.06901404476162822,-0.015410819498095675
