0.056763,0.005882,-0.064293,0.082135,0.069263,-0.047332,0.033937,-0.054126,-0.032085,0.033389,-0.049397,0.052605,0.066869,-0.052446,-0.063278,-0.059434,-0.052998,0.005305,0.026208,0.028522,-0.064618,-0.032827,0.070529,0.068677,0.014830,-0.029157,-0.005286,0.057671,0.080939,0.053239,0.060375,0.009959,-0.064089,-0.034742,-0.058774,-0.027002,-0.079462,0.011517,0.071129,-0.079745,-0.063189,0.054158,0.053931,0.012919,-0.058795,0.068918,0.058741,-0.080709,-0.038215,0.006445,-0.078505,-0.007802,0.081605,-0.051521,-0.078687,-0.044793,-0.019657,0.046189,0.009883,0.045673,0.067402,0.026028,0.065430,-0.039466
-0.062794,0.022598,-0.028475,0.012716,0.074642,0.033693,0.017897,0.057801,0.079136,0.052504,-0.009334,0.031189,-0.005720,-0.061608,0.021521,0.067099,-0.045396,-0.035347,-0.018775,0.060649,0.058834,-0.029016,-0.040967,0.021297,-0.049251,-0.036611,0.042378,0.057695,0.046334,-0.006776,-0.034280,-0.038660,0.032017,-0.024874,0.039148,-0.072460,-0.036678,0.003379,-0.055635,0.045804,-0.002094,0.049089,-0.022815,0.051167,0.068773,0.041209,0.018537,0.040493,-0.025083,0.080717,-0.039507,-0.057468,-0.009571,-0.045049,-0.075867,-0.077339,-0.015220,-0.013119,0.084115,0.018386,0.035073,0.026498,0.017370,-0.064133
0.019711,-0.038855,-0.041644,-0.024640,0.041751,0.026531,0.043754,-0.062803,-0.060625,-0.012443,-0.005578,-0.068147,-0.008825,-0.068792,0.040657,0.023484,-0.006946,0.067520,0.065877,-0.055396,0.004496,-0.057261,-0.053634,-0.014632,-0.042716,0.016973,-0.072482,-0.011977,-0.077758,-0.005788,-0.068346,-0.069415,-0.080098,0.059101,-0.065516,-0.014264,-0.013363,0.074795,0.079750,0.015123,0.034607,0.047017,-0.036575,0.056359,0.005827,0.057358,0.051879,0.014364,0.025636,0.017069,0.002259,-0.069647,0.023763,0.022638,-0.082146,0.030384,0.082761,-0.039976,-0.059578,-0.012175,-0.019865,-0.003360,-0.079394,-0.011689
0.074509,0.065019,-0.048007,-0.031101,0.027409,0.065206,0.074610,0.008475,0.017028,-0.004391,-0.046048,-0.051935,-0.013302,-0.048398,-0.064108,0.057336,-0.036437,0.065090,-0.034679,-0.049312,0.001184,-0.082810,-0.076017,-0.039596,-0.034732,0.037979,-0.016687,-0.026071,0.012873,-0.033638,-0.032192,0.045809,-0.036796,-0.016230,-0.054395,-0.049404,-0.026975,0.083021,0.070327,0.019436,0.033325,0.023239,0.015307,0.025269,-0.063452,0.083521,0.020059,-0.030348,-0.018190,-0.007965,-0.043368,-0.003249,0.079773,-0.031844,0.066717,0.079122,-0.045164,0.073856,0.081607,0.038394,0.012230,0.079722,0.075107,0.050379
-0.003014,-0.043735,0.017499,0.040237,-0.076623,0.083668,0.080795,0.051816,0.070637,0.053750,0.001303,0.042341,0.082763,0.007708,0.067561,-0.018214,-0.032205,-0.072185,-0.040496,0.076381,-0.009726,-0.005750,-0.004662,0.075413,0.042313,0.076674,0.079273,0.034053,-0.052823,0.073794,0.030459,0.038759,0.067582,0.052134,-0.020774,0.008540,0.030407,-0.023975,0.054508,-0.016189,-0.064441,0.019932,-0.036778,-0.048818,0.080856,-0.048378,0.060580,0.044720,0.007983,-0.063269,-0.083507,-0.014640,0.052396,0.023104,0.005640,-0.081333,-0.048543,-0.042150,0.036690,-0.077481,-0.002854,0.015615,0.033837,-0.073378
-0.005054,-0.067247,-0.071887,0.082880,-0.027102,-0.006752,0.073596,-0.064627,-0.033859,-0.014308,0.059625,-0.077510,0.073212,0.078822,0.030407,0.060892,0.026145,0.043948,0.076754,-0.028720,-0.006514,-0.024871,-0.018258,0.045144,0.007612,-0.046080,0.020738,-0.067901,-0.009241,0.082816,0.024395,0.035408,0.010501,-0.039529,-0.040691,-0.053759,-0.055525,0.044325,-0.048727,-0.030600,0.052606,0.072477,0.002457,0.029940,-0.020136,-0.060673,-0.062865,-0.032845,-0.078021,-0.065268,-0.000060,-0.061208,0.031604,0.058942,0.047719,-0.040170,0.043456,0.081945,0.004353,-0.008195,0.068355,-0.051926,-0.062781,-0.062488
-0.054917,0.060159,0.077317,-0.066677,0.054055,-0.032806,0.057559,-0.028531,0.082748,-0.068114,0.064527,-0.003243,-0.000715,0.040317,0.015654,-0.035529,0.005093,0.057019,-0.060630,-0.024790,-0.074142,-0.004495,-0.077009,-0.059887,-0.051027,-0.037301,0.053142,0.079647,0.077598,0.040040,0.021101,0.024235,0.073779,-0.028895,-0.055910,0.047285,-0.053133,0.058432,0.080964,-0.083298,0.072481,-0.038425,0.066733,0.051350,0.017053,0.000324,0.031495,-0.005200,-0.041917,-0.052009,0.079126,0.011476,0.020097,0.073457,0.051402,0.074663,0.075729,-0.041398,-0.035286,0.074540,0.079127,0.021337,0.059679,0.070482
0.054756,0.082514,-0.062718,0.052088,-0.060561,-0.080486,-0.077888,-0.062513,0.072187,-0.038725,-0.074716,-0.029034,-0.070455,-0.052171,0.036594,-0.072727,-0.062450,0.022969,0.049983,-0.062951,-0.018485,0.079221,0.061285,-0.055807,-0.025888,0.072860,-0.022789,0.079163,0.013188,-0.031768,-0.046070,-0.013906,0.061405,-0.010354,-0.010107,0.062844,0.054617,0.078231,-0.019905,-0.028577,-0.010263,-0.054670,0.037009,-0.068220,0.058606,-0.000023,-0.064583,-0.043798,-0.003832,-0.071677,-0.065328,-0.038955,0.016512,-0.011406,-0.029981,-0.055501,-0.065972,0.038162,-0.000228,-0.025035,-0.072660,0.082113,-0.047541,0.075564
-0.055436,0.071966,0.066134,0.007975,0.055634,0.064185,0.001172,-0.026907,-0.073835,-0.084007,0.027763,-0.031656,0.068001,0.075203,-0.077904,0.016357,0.037944,0.037676,0.061897,0.013440,-0.005862,0.040959,-0.021469,-0.019408,0.038571,0.057789,0.037464,0.054912,-0.015504,-0.078298,0.053576,-0.004135,0.074526,-0.033851,0.056657,0.047432,0.031861,-0.009719,-0.079059,0.016883,0.046670,0.078511,0.000813,-0.015768,0.061826,0.070720,0.070146,-0.071962,0.030116,-0.027593,-0.007966,-0.026217,-0.051239,0.033647,0.010258,0.039720,0.019519,-0.047012,0.048565,-0.082555,-0.041865,-0.042080,0.051399,0.018758
0.032297,0.002846,0.045470,0.023384,-0.075659,0.065832,-0.052461,0.055307,0.039674,0.003194,-0.035893,0.081862,0.057443,-0.063241,-0.003236,0.055997,0.003277,0.012911,0.065653,0.016358,-0.021771,0.067229,0.041512,-0.062899,-0.064676,0.083494,-0.032604,0.077383,0.015749,-0.060799,-0.047675,-0.011076,0.009352,-0.068337,-0.057159,-0.005282,0.079257,-0.023819,0.034824,-0.034833,0.017472,-0.028725,0.012995,0.048205,-0.068082,-0.042263,0.083088,0.083934,0.030408,-0.057176,-0.033576,0.027377,-0.073462,0.004416,0.053722,0.070784,0.010213,0.074853,-0.036125,-0.080098,-0.015128,0.009913,0.056375,0.043714
0.031819,0.052648,0.010951,-0.079258,-0.033402,-0.072246,-0.059777,-0.009058,-0.055258,0.041958,0.055692,0.018283,0.075335,0.054379,0.065519,-0.069923,-0.036086,0.017216,-0.038587,0.069057,-0.045845,-0.001734,-0.042838,-0.070541,0.002386,0.073982,-0.003370,0.077315,0.067625,-0.082993,0.028668,-0.075228,-0.051268,0.022025,-0.046716,-0.074924,0.082627,-0.021721,0.006957,0.001922,-0.001642,0.074091,0.030797,-0.006324,-0.042946,-0.082300,-0.040358,-0.021574,-0.055145,0.020316,-0.050464,-0.025062,-0.034473,0.059165,-0.018325,0.026170,0.069653,-0.012017,-0.038837,0.061685,-0.055281,0.002730,-0.057365,-0.038163
0.049206,0.051743,-0.064307,-0.078740,-0.048473,-0.044335,-0.051312,-0.028719,0.028945,-0.006257,0.076863,0.076518,0.066201,0.010986,0.023326,-0.053998,-0.052881,0.042138,-0.008069,0.045894,0.034431,0.054064,0.057333,-0.060801,0.050172,0.026266,-0.042224,0.013882,0.007456,0.022271,0.044598,0.026096,-0.037465,0.058356,-0.042516,0.015607,-0.028128,-0.032679,-0.009239,-0.030845,0.002403,-0.064199,-0.036423,0.008574,-0.049144,0.037560,0.026580,0.003999,0.060828,0.035117,0.071143,-0.009331,-0.044633,-0.070560,0.024050,-0.036288,0.073839,0.010706,0.007129,0.027490,0.046262,0.044359,0.000087,-0.070852
-0.021816,0.072120,0.077403,0.075178,-0.043087,0.069674,-0.058037,-0.015617,-0.033472,0.016804,0.036110,0.077161,-0.004636,-0.064848,-0.012337,0.020539,0.087282,0.031380,-0.031384,0.013308,-0.028643,-0.012192,0.098476,0.004082,0.021083,-0.074039,0.003435,0.051554,-0.092660,-0.040376,-0.044409,0.063378,-0.072908,0.059106,-0.018423,-0.002292,-0.062122,0.041958,0.067341,0.034548,0.002099,0.059158,0.038388,-0.064147,0.024934,-0.045488,-0.076700,0.024592,0.009390,0.056208,-0.051948,0.050908,-0.046092,-0.033016,0.035872,-0.042436,0.051998,-0.102315,-0.016215,0.014005,0.038740,0.063266,-0.021971,-0.024569
-0.011353,-0.029500,0.030727,-0.002073,-0.052242,0.103192,0.042359,-0.002216,0.057691,0.095773,0.008926,-0.023340,-0.076322,-0.003258,-0.082027,0.002513,-0.046799,-0.000841,0.001374,-0.006818,-0.047860,0.046121,0.043049,0.070787,-0.024116,0.002341,-0.065845,0.073353,-0.116756,-0.011848,-0.072113,0.000155,-0.047454,0.032708,-0.053570,-0.100404,-0.072318,-0.017835,-0.066411,0.054857,0.061456,0.033466,-0.042490,0.033377,-0.011710,-0.038383,-0.021910,0.051250,-0.069873,-0.065140,-0.046219,-0.046681,0.003673,0.013686,0.007317,-0.071362,-0.037884,-0.086411,-0.044047,-0.027746,-0.014231,-0.000764,-0.020004,0.093555
0.019077,0.000502,0.017404,-0.013417,0.077334,0.009292,0.016170,0.049620,-0.059944,0.020415,0.048367,-0.077936,0.038291,-0.016363,0.078726,-0.098192,0.046221,0.029236,-0.029934,-0.044240,-0.011859,-0.021601,-0.007135,-0.078685,-0.010834,-0.056616,0.061468,0.079881,-0.018503,-0.040978,0.073679,0.033507,0.064098,-0.032272,0.040040,-0.010467,0.007585,0.078124,0.001975,0.069035,-0.060201,-0.029385,0.069877,0.085692,0.079368,-0.069356,-0.059881,-0.023958,-0.023577,-0.059508,-0.014251,-0.057112,-0.039210,-0.074908,0.036089,-0.017991,-0.005000,-0.017735,-0.057291,-0.044805,0.030071,0.042782,-0.011876,0.007084
0.055563,0.002181,0.002877,0.085914,0.007876,-0.055450,0.050116,0.021545,-0.085052,-0.007979,0.001974,-0.041294,0.082068,0.003390,-0.042925,0.081868,0.023592,0.057155,-0.085242,0.041832,0.013322,0.054433,-0.005133,0.061712,-0.048438,-0.051371,0.002393,0.079028,0.089880,0.054121,0.015052,0.023232,0.068864,-0.036317,-0.016278,-0.039383,0.033119,0.042200,0.016120,0.045969,0.075941,-0.038820,0.012466,0.066680,0.042102,-0.019686,0.077681,0.042323,-0.001891,0.003837,-0.032874,0.013936,0.034503,-0.048545,0.040626,0.035564,-0.069634,-0.057438,-0.062616,0.044864,-0.017931,0.042677,-0.045836,-0.066308
0.043512,-0.069062,-0.066592,0.039113,0.075003,-0.070696,0.004918,0.016540,0.028940,0.076460,0.044804,-0.007231,-0.035074,-0.024499,0.059104,0.029980,-0.022833,0.052675,0.037156,-0.018472,0.074157,0.053643,0.027297,-0.020213,-0.054525,0.055824,0.008474,0.068726,-0.007218,0.072077,0.034454,0.000410,-0.083347,0.077574,-0.058113,0.034746,-0.008299,0.020459,0.010398,0.008032,0.004764,0.043920,0.061164,-0.039951,-0.024485,-0.080979,0.060418,-0.020272,0.083179,0.044787,-0.000137,0.076524,0.046099,-0.016569,-0.024098,-0.081001,-0.032862,0.071900,0.048403,0.058644,-0.024598,-0.070523,0.081551,-0.046027
0.053858,-0.005765,-0.072772,-0.033403,0.062911,0.028230,-0.065009,0.045737,0.045597,0.035894,0.010252,0.037103,0.046666,0.040474,0.037790,0.016719,-0.070938,0.079807,0.076914,0.083763,0.021711,0.016367,-0.030694,0.079192,0.025793,-0.079084,0.044643,-0.045938,0.025920,0.021198,-0.016460,-0.053862,-0.064229,-0.074562,0.011501,0.018766,-0.077387,-0.023495,0.047158,-0.006549,-0.046099,0.051117,0.034919,0.073255,0.003176,-0.072947,-0.054082,-0.024106,0.030442,-0.035632,0.071568,0.032196,-0.067215,-0.018080,0.008859,-0.018826,0.039555,0.080236,-0.018159,0.056688,-0.068696,0.045053,-0.056875,-0.061607
-0.012405,0.058976,-0.043876,-0.056403,0.049164,0.030996,-0.018517,0.016971,-0.035471,0.000035,-0.058260,-0.015600,0.028396,-0.022966,0.014212,0.053230,0.075085,0.012662,0.015506,-0.008231,0.063657,0.023753,0.058841,0.016073,0.009652,-0.031728,0.018597,-0.062926,0.063203,0.000752,-0.010317,0.074480,-0.077946,-0.029498,-0.038424,0.033851,-0.036484,-0.039764,0.083531,0.071308,0.043749,-0.061514,-0.039409,-0.034553,-0.055722,0.080665,0.028896,0.072381,0.006267,-0.071346,0.081990,0.047230,0.000417,-0.058253,0.033167,-0.053277,0.037892,-0.073608,-0.034437,0.063226,0.042793,0.021656,0.044511,-0.079454
-0.026485,-0.021127,0.025133,0.008677,0.013263,-0.015380,0.007455,-0.032202,0.005209,-0.023753,-0.025264,-0.032434,0.035212,0.083053,-0.079778,-0.050566,0.047553,-0.052294,0.030301,-0.076872,-0.013012,-0.080858,0.068156,-0.073478,0.010791,0.029151,-0.035018,0.057635,-0.071487,0.026671,-0.060316,-0.049717,0.003092,-0.015327,0.012370,-0.067761,0.047785,0.083596,-0.044819,-0.020183,-0.047299,-0.045825,-0.052475,0.020969,-0.040502,0.053301,-0.016982,-0.071892,-0.072496,-0.058360,-0.016924,0.025623,-0.070957,0.071281,-0.037720,0.074034,-0.081207,0.068023,-0.056951,0.061726,-0.029664,0.050692,-0.002834,0.024376
-0.030451,-0.076400,-0.045945,0.053593,0.080740,-0.059446,-0.048246,0.054902,-0.029231,-0.033951,-0.005564,0.006773,0.011353,-0.068101,0.050456,0.037593,-0.076399,-0.027724,0.004388,-0.053102,0.014756,0.002529,0.073133,-0.078486,0.033949,-0.072787,0.057644,-0.079797,0.045766,0.038529,-0.036635,-0.057135,-0.050094,-0.018607,-0.062634,-0.000280,0.053054,-0.032470,0.055749,0.076457,-0.083677,0.006371,0.024320,-0.058799,0.038724,0.050931,0.001373,-0.047187,0.003694,0.072392,0.072365,-0.083508,0.049073,0.054750,-0.021630,-0.006088,-0.080621,0.058536,0.063107,0.022743,0.034306,-0.007168,-0.026250,-0.080146
-0.047367,-0.036628,0.033922,-0.055465,-0.020285,-0.032697,-0.008736,0.070091,-0.044887,0.040355,-0.056984,0.075919,0.021845,-0.041132,-0.028745,-0.001839,-0.034344,0.073387,-0.017468,-0.011169,-0.074078,-0.025516,-0.083550,0.002800,-0.060378,-0.023625,-0.063555,-0.036684,-0.025163,-0.013166,-0.038594,-0.004693,-0.064169,0.062719,-0.011801,-0.082308,-0.080516,0.066040,0.065873,0.029547,0.067016,0.059370,0.028033,0.081488,-0.061726,0.023950,-0.082488,-0.021529,-0.029286,-0.018678,0.045584,0.011713,-0.041502,-0.074726,0.002247,0.061242,0.071498,0.012243,-0.009101,0.040283,-0.049415,-0.010362,0.047009,0.034453
-0.028149,-0.010122,-0.045844,-0.067571,-0.049726,0.062467,-0.068035,0.026344,0.007553,0.020976,-0.026930,-0.021538,0.074853,-0.040168,0.005677,-0.063927,0.038723,0.065498,-0.068326,0.030592,0.067494,-0.065988,0.058289,-0.008142,0.056640,0.004544,-0.082996,-0.014819,-0.073684,0.082554,0.022851,-0.068477,-0.017610,-0.081424,-0.078682,-0.079998,-0.001180,0.039024,0.051405,-0.001705,0.015321,0.037073,-0.010075,0.080848,-0.069791,-0.080926,0.005719,0.049825,-0.007292,0.009371,-0.045584,0.032787,0.043843,-0.030579,-0.042765,-0.072866,-0.004260,0.028597,-0.082042,-0.024541,-0.073778,-0.021981,0.037871,-0.027645
0.042238,0.031034,-0.025383,0.009584,0.052923,-0.048165,0.082842,0.067146,-0.036485,0.015269,-0.023822,0.008710,-0.009662,0.019329,-0.010514,-0.078761,-0.005335,0.031199,-0.051144,-0.017570,-0.074961,-0.071507,0.043224,0.062421,0.075929,0.031820,0.049236,-0.065234,-0.073897,0.004758,-0.016943,-0.031428,0.031996,0.076750,0.066175,0.007950,-0.003343,-0.051412,-0.032579,-0.023462,-0.004534,-0.036509,0.001519,-0.040243,0.037272,-0.072455,0.062851,0.016524,-0.070128,0.065680,0.043889,-0.081976,-0.003114,-0.013962,0.068827,-0.025690,-0.062297,0.027759,-0.074579,-0.082535,-0.018016,0.081394,0.051507,-0.081141
0.028824,0.033380,-0.076240,0.039855,0.002553,0.025463,0.082345,-0.057190,0.037019,-0.076329,-0.026501,-0.063118,0.043038,-0.041708,-0.064660,0.078023,0.058005,-0.002780,0.004277,-0.024112,-0.049959,0.041579,0.070946,0.070417,0.018079,0.034993,0.012650,0.033450,-0.012151,-0.049592,-0.044380,0.047769,0.009737,0.023954,0.072382,-0.053363,0.000610,0.025013,0.043957,0.005549,0.036824,0.016055,0.039517,-0.045793,-0.022870,-0.077392,-0.036225,0.050342,-0.054364,0.040452,0.005406,0.000843,-0.056778,-0.080680,0.022675,-0.005022,-0.056158,0.017908,-0.014749,-0.001022,-0.081805,-0.063714,-0.072644,0.043421
-0.007969,-0.060184,-0.031026,-0.011440,0.077567,-0.056225,-0.078143,0.060932,0.074504,-0.030584,-0.075787,0.063364,0.062663,0.032351,0.000253,-0.050601,0.017043,-0.029175,0.047022,0.035179,0.018623,0.019707,-0.033676,0.067468,-0.083240,-0.007243,-0.078116,-0.072624,0.044643,-0.082735,0.020633,-0.061406,0.063857,-0.002275,0.020303,0.046272,-0.076272,-0.005172,-0.050648,-0.029839,0.057566,0.013170,0.078552,-0.063167,-0.016576,0.049566,0.016705,-0.025565,-0.053198,0.024800,-0.051619,-0.019823,0.077648,-0.028330,-0.004210,-0.059143,-0.075157,0.016758,-0.077397,-0.059481,0.071274,0.027974,-0.064326,0.058122
-0.078121,0.059143,-0.035161,0.009633,-0.006048,0.035491,0.031356,-0.078039,0.015024,-0.038709,0.033517,0.024695,-0.057569,0.005409,-0.071484,0.039083,-0.017502,-0.044279,0.052461,-0.019148,-0.045243,-0.022492,-0.057014,-0.020484,0.037749,0.043323,0.045300,0.002492,-0.042975,-0.045517,-0.006903,-0.070867,-0.022352,0.025197,0.032081,-0.023498,0.072177,-0.034523,-0.007611,-0.073985,0.014753,0.020390,0.016326,0.054880,0.073405,-0.059648,-0.022041,0.021293,0.038825,-0.055387,-0.007742,-0.050923,-0.009053,0.071824,0.007870,-0.062166,0.059421,0.064479,-0.065543,-0.011168,0.005615,-0.031405,-0.049832,0.010554
0.047737,-0.073594,0.041502,-0.017799,0.057676,0.002236,0.062927,-0.070918,0.034948,0.067825,-0.046359,0.072852,0.070510,0.041455,-0.028854,0.007938,-0.002720,-0.001933,-0.063706,0.076325,0.032278,0.016837,0.074050,-0.003968,0.033451,-0.054233,0.048646,0.047203,0.062002,-0.010364,-0.040244,0.061056,-0.018751,-0.046954,0.076287,-0.055670,0.003766,-0.072330,-0.029857,-0.022490,-0.070682,0.037864,0.075216,0.071091,-0.038444,-0.001860,-0.080228,-0.025349,0.078954,0.032593,0.021586,-0.023704,-0.039324,-0.029186,0.005492,-0.014380,0.032423,0.047299,0.015305,-0.059956,-0.039302,-0.078075,0.073925,0.021493
0.025233,-0.021778,0.014057,0.048575,0.052506,0.069151,0.062139,-0.064701,-0.049544,0.036970,0.002088,0.046662,-0.026368,-0.056217,-0.039672,-0.025845,0.076239,-0.010592,-0.057693,-0.029827,0.035599,-0.072041,-0.002196,-0.062977,-0.030635,0.034682,0.039571,-0.014856,0.060545,0.062934,-0.008275,0.025639,0.074020,-0.022793,0.056820,0.073403,-0.047320,-0.047722,0.016114,-0.062963,0.046384,-0.031668,0.083753,-0.037071,-0.070911,0.013822,0.080181,-0.012720,0.021071,-0.025638,-0.067443,-0.037189,0.004004,-0.064788,0.015473,0.024991,-0.016200,0.001792,0.069868,0.020295,-0.062357,0.044598,0.023734,-0.055825
0.025361,0.000679,-0.064842,0.074052,0.062149,0.020017,-0.041980,-0.083130,-0.034283,0.081325,0.021180,0.033853,-0.058943,-0.013720,0.055917,-0.012874,-0.039308,0.040477,0.019167,0.077362,0.065108,-0.023950,-0.037944,-0.058343,-0.005414,-0.008902,-0.020326,0.003195,-0.020169,0.071851,-0.027644,0.031589,-0.009470,0.009434,0.083927,0.035201,-0.038066,-0.007631,0.000011,-0.020868,0.035475,0.029222,-0.041412,0.044221,0.053593,-0.020362,-0.008552,0.006122,0.053504,0.055415,-0.004513,0.032117,0.069476,-0.068728,0.074267,-0.033837,-0.067808,-0.068074,0.077363,-0.048697,0.070783,-0.017393,0.033887,-0.009051
0.034565,-0.057034,-0.080134,0.067150,-0.032014,-0.059709,0.068218,-0.008387,0.054008,-0.038410,-0.002482,0.081386,0.025210,-0.065385,0.039839,-0.063180,0.060377,0.022796,-0.062285,-0.033075,-0.057766,-0.046943,-0.052535,-0.057464,-0.037424,0.025882,0.066050,0.056251,-0.054215,0.062967,-0.004222,0.048511,-0.040180,-0.047020,0.013143,0.002736,0.058741,-0.042548,-0.001362,0.067599,-0.024874,-0.059605,0.046919,-0.050587,-0.042671,-0.005039,0.055137,-0.061153,-0.003926,-0.028051,-0.026372,-0.074370,0.060371,0.083984,-0.064811,0.024663,0.077385,-0.002339,-0.020809,0.067937,0.029985,-0.006641,-0.018974,0.052822
-0.005067,-0.026907,0.043039,-0.069717,-0.050007,-0.017600,-0.062426,0.024169,0.071183,-0.033620,0.018926,0.028914,-0.027238,0.080347,0.040427,-0.016486,-0.061615,0.057249,0.006326,0.035479,0.018919,0.026263,-0.047837,-0.067917,0.075475,0.006840,-0.042766,-0.071170,-0.040046,0.002734,0.079254,-0.025824,-0.044704,-0.066101,0.038143,-0.006116,-0.016579,0.028287,-0.014009,0.053779,-0.003073,-0.041178,0.023134,-0.018561,0.036715,-0.077927,-0.071338,-0.069822,-0.013330,-0.016680,-0.000184,-0.016752,0.027512,0.037213,0.002227,0.038033,0.006391,-0.030222,0.000201,-0.035192,0.032110,0.026644,0.074989,0.034178
0.061170,-0.056246,0.013066,0.050257,-0.052885,-0.043295,-0.049870,0.075926,-0.019487,0.078757,-0.012354,-0.020028,-0.029861,0.053150,-0.058767,-0.043384,-0.036380,-0.089183,0.062162,0.027192,0.044251,0.083532,-0.023392,-0.044806,0.078957,-0.033944,-0.056423,0.005761,0.070724,-0.026799,0.061026,0.041841,-0.066455,0.044466,0.040382,0.017053,-0.042760,-0.065474,0.053305,0.079256,-0.051144,0.006012,0.074007,0.019017,0.065431,0.062038,0.058518,-0.082941,-0.040910,0.008201,0.013314,0.037243,-0.026710,-0.037968,-0.005988,0.016227,0.041822,-0.044915,0.050190,-0.071922,-0.058546,-0.072450,0.058822,0.044918
-0.014972,0.014989,0.000081,-0.062212,0.008196,0.063122,-0.021387,0.073638,-0.042442,0.085145,0.097064,0.080243,0.004255,-0.087345,-0.028600,-0.027940,0.025957,0.053396,0.005568,-0.040958,-0.046727,-0.017909,0.031696,0.023131,0.072542,0.014826,0.044962,-0.019537,0.071403,0.018731,-0.010243,-0.064896,0.028613,-0.036897,0.069658,0.004568,-0.018091,-0.042827,0.070041,-0.060800,-0.079230,0.051692,-0.043117,-0.033642,0.039274,-0.012897,-0.015691,0.060636,0.076142,0.067871,0.026193,-0.037783,0.018032,-0.089500,-0.022979,-0.022707,0.105364,-0.088295,-0.012277,-0.004801,-0.056810,-0.048809,0.039687,-0.029935
0.075656,-0.032487,0.040870,0.012720,-0.113279,-0.021098,0.031927,0.068154,-0.014419,0.009243,0.074922,-0.016292,-0.139556,0.026810,0.067468,0.024271,0.022540,-0.068687,0.019394,-0.061862,0.024559,0.019695,0.072453,0.000885,0.003468,-0.010756,-0.129885,-0.045114,-0.054076,0.007432,0.002998,-0.128865,-0.124998,0.051422,-0.019799,0.046743,0.028602,0.127793,0.048947,0.027645,0.005583,-0.041248,-0.084100,0.019406,-0.083994,0.088645,0.012357,0.024285,0.050233,0.020456,0.048739,0.079826,0.078485,-0.044210,0.018333,0.056373,0.025989,-0.069085,-0.048309,0.044660,-0.096001,-0.048537,-0.026016,0.051910
0.082151,0.106360,0.049703,0.122641,-0.127388,0.039305,-0.039876,-0.032310,0.006578,0.072836,0.119461,-0.082024,-0.106443,0.051546,-0.066597,-0.006059,-0.001455,-0.112672,0.024781,-0.107959,0.105025,0.121727,0.031149,0.006658,0.094906,-0.053219,-0.086381,0.067036,-0.076055,0.036721,-0.028502,-0.049579,-0.098162,-0.065287,0.032785,0.000723,0.049802,0.052701,-0.073286,0.070281,-0.124290,0.057509,-0.033524,0.007131,-0.079205,0.056517,0.001598,-0.021750,-0.032691,-0.024627,0.066935,0.036229,-0.048759,-0.032148,0.094538,-0.067955,0.157824,-0.111227,-0.069034,0.026866,-0.023219,-0.133867,-0.114413,0.145119
0.145220,0.082472,0.157377,0.168482,-0.017733,0.041106,-0.033367,0.008059,0.052089,0.079334,0.076921,0.037752,-0.061212,-0.107162,-0.107962,-0.121425,0.028543,-0.070017,-0.027556,-0.019236,0.059366,0.096779,0.050866,0.033312,0.110633,-0.057976,-0.006951,-0.000726,-0.114740,0.110105,-0.041069,-0.108221,-0.092163,-0.008745,-0.041409,-0.019029,0.121426,0.100277,0.047468,-0.052198,-0.004165,0.032249,0.070843,0.043182,-0.004069,0.055863,0.037933,0.077771,-0.066511,0.062472,0.091486,0.054402,0.025894,-0.111011,0.022443,-0.117463,0.011064,-0.038039,-0.153946,0.046277,-0.028984,-0.054759,0.001107,0.123878
0.022652,-0.016522,0.137493,0.044838,-0.129549,-0.012908,-0.036974,-0.003804,0.029385,0.028775,0.091133,-0.010329,-0.013427,0.024227,0.005764,-0.076327,-0.006269,-0.122147,0.105633,-0.078395,-0.056116,0.052342,0.002973,-0.006696,0.070230,-0.064795,-0.035030,0.064663,-0.015316,-0.024773,0.018308,-0.109194,-0.076127,-0.060687,0.035339,-0.079887,-0.036687,-0.003478,-0.077152,0.064447,-0.169484,0.142804,0.038813,0.081294,0.050223,0.029142,-0.114461,0.024423,-0.005889,0.067708,0.048412,-0.020319,-0.072375,-0.073491,0.003652,-0.007868,0.085263,0.008072,-0.109152,0.057182,0.000765,-0.048668,-0.002496,0.022632
0.123796,-0.027926,0.048534,0.006330,-0.110594,0.107187,0.032565,0.015012,-0.007780,0.102878,0.099595,0.031871,-0.102775,0.017689,0.034909,-0.016211,0.095395,-0.007549,0.183297,-0.067364,0.041776,0.153428,0.094911,-0.071847,0.038772,0.052798,-0.056049,0.070219,-0.062233,0.113924,0.081212,-0.078124,-0.160582,-0.010524,0.053939,-0.011737,-0.003173,-0.009876,-0.058983,-0.090276,-0.148922,0.093763,-0.013662,0.011312,-0.084013,0.036180,-0.088776,-0.109188,-0.020744,0.066523,0.114045,0.024599,-0.102694,-0.027105,-0.022033,-0.002867,0.034196,-0.157420,-0.084897,0.100798,-0.125637,-0.022180,-0.068942,-0.002858
-0.152390,0.046579,0.038011,0.230327,-0.070956,0.034356,0.025172,0.046239,0.039277,0.101885,0.035914,0.048273,-0.110054,-0.015899,-0.041706,0.045584,0.021790,-0.080623,0.172430,0.014325,0.054228,0.188857,0.150378,-0.181460,0.094736,0.106768,-0.054683,0.029985,-0.107535,-0.050784,0.048635,-0.091745,-0.121214,-0.055573,0.067420,0.032508,0.183342,0.083706,-0.042609,-0.097929,-0.140757,0.086550,0.009035,0.140087,-0.022657,0.050182,-0.008639,-0.012893,0.046170,0.037691,0.096835,0.078821,-0.044432,-0.056469,0.019499,-0.035456,0.116502,-0.096633,-0.126246,0.173082,-0.038381,-0.157278,-0.192258,0.104701
0.035633,0.020960,0.113679,0.153639,-0.092428,0.141221,0.056254,0.080251,-0.120067,0.110831,0.129578,-0.044032,-0.144200,-0.010861,-0.063611,0.015973,0.041250,-0.038803,0.218468,-0.095554,0.194563,0.113637,0.098084,-0.115421,0.087732,-0.031038,-0.189742,0.119869,-0.119835,-0.073283,0.083824,-0.136254,-0.095964,-0.058560,0.091143,-0.023371,0.075047,0.143387,-0.037622,-0.079902,-0.030850,0.097931,0.066895,0.210609,0.085832,0.173504,-0.067575,0.048807,-0.076358,-0.043719,0.120684,0.062862,-0.079493,-0.199576,0.002243,-0.136840,0.029595,-0.157599,-0.049775,0.087967,-0.060934,-0.220468,-0.137135,0.026020
0.012973,-0.105562,0.108976,0.095903,-0.068813,0.103771,0.113175,0.042249,0.014008,0.112020,0.058801,-0.037012,-0.085216,-0.122326,-0.132613,0.045760,-0.052846,0.028611,0.096506,-0.047026,0.152984,0.119592,0.208445,0.008970,0.067637,0.062609,-0.060209,0.072346,-0.118326,0.059069,0.070626,-0.100527,-0.044554,-0.134506,0.101324,0.095572,0.077544,0.080813,-0.042865,-0.083541,0.056526,0.123929,0.032230,0.134915,0.013836,0.164405,-0.078730,0.019471,-0.041554,0.106398,0.069300,0.012781,-0.027747,-0.015384,0.091540,-0.023676,0.050299,-0.043891,-0.079054,0.016899,-0.103594,-0.123536,-0.058027,0.019543
-0.068163,-0.051084,-0.046182,-0.035481,-0.009923,-0.039058,0.160587,-0.064366,0.046285,0.053917,0.063801,0.005426,-0.041538,-0.113333,-0.104175,0.020209,0.058285,0.082543,-0.046508,-0.063882,-0.009092,-0.048618,-0.045635,0.152146,-0.123706,0.000943,-0.035509,0.065960,-0.055169,-0.051426,-0.000805,-0.034268,0.068205,0.089706,0.038976,-0.083823,-0.072385,0.015205,0.025591,0.050785,0.172539,-0.026557,0.009574,0.025555,-0.117821,0.113584,0.092592,0.030865,-0.050797,0.068263,-0.040549,-0.098969,-0.139715,0.073155,0.029064,0.102454,0.031451,-0.070226,-0.074483,-0.071359,-0.023590,-0.148038,0.046048,-0.035776
-0.035474,0.160747,0.002642,0.080454,-0.008344,0.093953,0.091083,0.115970,-0.071528,0.089814,0.185335,-0.013432,-0.059986,-0.202256,-0.024351,-0.127233,0.080753,-0.108290,0.042572,-0.015393,0.180665,-0.075923,0.037418,-0.011948,0.109365,0.051285,-0.122407,0.022483,-0.028844,-0.153429,-0.067617,0.063140,0.017030,0.008115,0.062343,0.127787,0.058749,0.080730,0.169341,0.021363,0.110206,0.039339,0.098561,0.073606,0.107787,0.109308,-0.004472,0.154676,-0.129215,-0.143798,0.142336,-0.096113,0.049845,-0.210088,-0.096579,-0.045421,0.240239,-0.097896,0.000620,-0.047182,-0.031065,-0.145371,-0.161981,0.143738
-0.157157,0.094377,0.052046,0.121834,0.008417,0.054257,0.131666,0.148472,-0.188314,-0.063845,0.089923,-0.128056,0.046442,-0.124350,-0.023570,-0.028869,0.083233,-0.009231,-0.007318,0.018302,0.186832,-0.081617,0.198683,-0.134484,0.221471,0.071455,-0.225861,0.055358,-0.009884,-0.151464,-0.083281,0.029163,-0.074248,-0.242089,0.059995,0.129040,0.151556,0.140745,0.070946,0.238106,-0.050098,0.129070,-0.005886,0.277920,0.143946,-0.009561,-0.087255,0.065347,-0.129281,-0.053802,0.011500,-0.029230,0.037050,-0.191832,-0.102233,-0.018861,0.145542,0.032276,0.028329,0.042171,0.100941,-0.127503,-0.282211,0.147354
-0.094088,0.170153,-0.031419,0.185367,-0.019229,0.147463,0.115174,0.107065,-0.081071,0.065316,0.153976,-0.141358,0.056151,-0.054537,-0.002500,-0.058773,0.114680,-0.053216,0.018457,0.026896,0.270370,0.142536,0.138475,-0.119767,0.109349,-0.029350,-0.144965,0.082304,-0.032051,0.015941,-0.001185,-0.004410,-0.067443,-0.223830,-0.006530,0.082964,0.080622,0.197339,0.111840,0.044867,-0.114743,0.074086,0.100662,0.119243,0.143499,0.113893,-0.189725,0.025486,-0.115951,-0.143111,-0.006807,-0.021085,0.027753,-0.052621,-0.119283,-0.080202,0.182345,-0.076345,0.083130,-0.017475,-0.021817,-0.086795,-0.117140,0.069692
0.012250,0.139430,0.168542,-0.031871,-0.015678,0.117594,-0.009169,0.044013,-0.042443,0.123677,0.052547,0.076101,-0.103204,-0.059304,-0.099098,-0.127020,0.063522,-0.177016,0.149547,-0.018280,0.207857,0.073393,0.165764,-0.027407,0.132451,0.083013,-0.018557,0.104486,-0.073771,0.105106,-0.042383,-0.104016,-0.094215,-0.063858,-0.076713,-0.031116,0.020450,0.115988,-0.048748,-0.021004,-0.209613,0.109290,0.085402,0.120204,-0.092519,0.136247,-0.207976,-0.075252,0.020383,0.035400,0.083723,-0.013142,0.018538,-0.035187,0.031706,-0.035333,0.013010,-0.109447,-0.092122,0.065971,-0.219734,-0.081314,-0.028912,0.122272
-0.042081,0.020250,0.101433,0.083393,-0.105895,0.176740,0.015177,0.114530,0.034797,0.199769,0.137888,0.124017,-0.136614,0.034850,0.057905,-0.116824,0.079027,-0.175915,0.029552,0.038004,0.099305,0.008380,0.038973,-0.111096,0.172982,-0.059419,-0.029239,0.069130,-0.084249,0.109276,-0.015984,0.021537,-0.059390,-0.109091,-0.081581,0.043497,0.036877,0.176574,-0.052482,-0.133282,-0.140580,0.144658,-0.033077,0.084765,0.020135,-0.013115,-0.178021,-0.031585,-0.031877,0.155343,0.048607,0.086573,0.035264,-0.022699,0.136679,0.034557,0.161218,-0.101894,-0.161085,0.128110,-0.116761,-0.050259,-0.170074,0.008720
-0.012580,0.116726,0.058294,0.137750,-0.110648,0.038936,-0.007593,0.187176,-0.030826,0.134694,0.079948,0.157675,-0.056034,-0.000014,0.047205,-0.055716,-0.079728,-0.126165,0.145954,0.056281,0.093090,0.063177,0.175588,-0.162649,0.141655,-0.055360,-0.071347,0.113074,-0.033977,0.061593,0.013035,-0.123744,-0.083198,-0.029047,0.057078,-0.038687,0.095236,0.093193,-0.039879,-0.129715,-0.111296,0.143423,-0.009860,0.125850,-0.053219,0.042860,-0.144771,-0.013011,-0.049312,0.081192,0.039226,0.125985,0.021193,-0.110508,0.043144,0.024853,0.027293,-0.109922,-0.155166,0.157153,-0.198103,-0.115412,-0.024537,0.059779
0.070801,-0.015123,0.041559,0.021009,0.006436,0.089157,0.042853,-0.013779,-0.072416,0.072628,0.058147,0.043562,-0.009284,-0.096848,-0.079279,-0.077339,-0.076284,-0.060046,0.099732,-0.043936,0.092922,0.065607,-0.004039,-0.000160,-0.020564,0.053613,-0.124433,-0.022648,0.020839,0.045460,0.077104,-0.076548,-0.108300,0.056054,-0.044694,0.043117,0.082700,0.077551,-0.006032,0.026886,-0.083917,-0.007665,0.034084,0.096554,0.041624,-0.037770,-0.091977,0.085977,-0.027938,0.070808,0.071007,-0.028371,-0.053008,-0.068592,0.049452,0.014116,0.098160,-0.105881,-0.112565,0.135733,-0.090388,0.018420,0.004675,0.032928
-0.057592,0.088050,0.033923,0.062046,-0.027983,-0.017044,0.000189,0.089505,0.003075,0.032136,0.065682,0.076312,0.002173,-0.123388,-0.062775,0.002419,0.028299,0.015444,0.060185,0.022309,-0.031950,0.030221,0.052103,0.048013,0.123293,0.081351,-0.047327,-0.026801,-0.030387,0.026493,0.013704,-0.033656,0.007852,-0.025668,-0.051151,-0.031195,-0.005669,0.038345,0.071570,-0.045472,-0.020690,0.083089,0.049853,-0.009688,0.093859,0.125147,-0.019582,0.115206,-0.066915,0.053424,0.005253,-0.004792,0.011335,-0.063844,0.034261,0.005866,0.094525,-0.068600,-0.017332,0.022875,-0.055411,-0.040112,0.023561,-0.022910
-0.074160,0.074894,-0.012466,0.146446,-0.011172,0.002638,0.079061,0.011395,-0.095338,0.103306,-0.022379,0.090224,-0.054786,-0.019324,0.068473,-0.041562,0.097678,-0.060349,0.047916,0.080948,0.062362,0.031562,0.131557,-0.012479,-0.004724,-0.012127,-0.004531,-0.005620,0.023743,-0.077244,-0.014320,-0.062531,-0.143074,-0.076156,-0.031900,-0.005823,0.029116,0.002037,-0.052848,0.020439,0.013791,0.057613,0.007453,0.103684,-0.070475,0.092474,0.004434,0.101625,0.037208,0.018162,0.053111,0.136062,-0.120597,-0.104890,0.046992,-0.007260,0.097825,-0.105228,-0.080587,-0.011653,-0.065444,-0.064844,-0.069811,-0.007781
-0.030377,-0.007266,-0.065658,0.017782,0.010365,-0.073748,0.006816,0.050632,-0.047601,0.012581,0.010537,0.021866,-0.031397,-0.020856,0.041790,-0.060524,0.056181,0.005344,-0.029971,-0.005692,-0.044420,0.002082,-0.051021,0.005227,0.050162,0.008354,0.008038,-0.023764,-0.045978,-0.051310,0.064613,-0.041494,-0.009354,-0.052473,-0.020041,0.026055,-0.010463,-0.006530,-0.026386,0.043842,-0.038261,-0.058870,-0.026822,-0.080678,-0.060693,-0.014808,0.078752,0.081715,-0.030060,-0.079205,-0.047659,-0.043538,-0.047041,-0.077392,-0.020311,-0.012259,0.044552,0.018109,0.075210,-0.022856,0.001054,-0.074579,0.021669,0.052169
0.036374,-0.082505,0.024164,0.050184,-0.016912,0.039497,-0.055334,-0.073521,0.013525,-0.057669,0.077356,-0.008468,0.041156,0.044027,-0.027488,0.013338,0.002217,-0.067471,-0.078014,-0.028518,-0.057447,-0.029469,-0.079009,0.033868,-0.005006,-0.034285,0.018308,-0.027816,-0.022607,-0.071828,0.061685,-0.018384,-0.006093,0.079971,-0.081235,0.016809,0.012088,0.015400,-0.050317,0.057656,0.059891,0.068455,0.069640,0.078627,-0.069815,-0.070594,-0.067225,0.057450,-0.015056,0.046519,-0.005112,-0.032610,0.021894,-0.023309,-0.072536,-0.048178,-0.022038,-0.045100,-0.043903,0.069176,-0.075417,-0.056155,-0.049836,-0.026534
0.080808,0.020375,0.024079,0.072699,0.033068,-0.029760,0.064811,0.050245,-0.033151,0.068598,0.031749,-0.054030,0.050118,0.019229,0.061930,0.045104,0.035994,-0.043675,0.061379,-0.027320,-0.066474,0.055309,-0.031574,0.044233,0.010826,-0.016855,-0.078202,0.004184,0.058401,0.043950,0.052499,-0.026027,0.030432,-0.056198,0.046092,-0.079564,0.077572,0.006873,-0.028020,-0.074400,0.067516,0.078034,0.042205,-0.034035,-0.051009,-0.045221,0.035420,-0.047844,0.011828,0.009570,-0.082550,0.023380,0.055964,-0.031826,0.031598,-0.042940,0.078460,0.079957,0.037352,0.041123,0.019845,0.008309,0.032323,0.066703
0.040545,0.079948,-0.028037,0.040280,0.057660,-0.024904,-0.082514,-0.080613,0.035506,-0.044901,0.054995,0.046069,0.003685,0.029785,-0.057650,-0.067681,-0.060377,0.059146,-0.034103,0.062194,0.030220,-0.043192,0.082198,-0.083491,0.041308,0.057464,-0.070879,0.015279,-0.035392,0.072765,-0.083605,-0.069235,0.019498,-0.061751,-0.034246,-0.007213,0.015894,0.038189,-0.029966,0.011181,0.070309,-0.058390,-0.061891,-0.019044,0.078422,0.042283,0.068588,0.046248,0.020020,0.057900,-0.036925,-0.015700,-0.059340,0.011026,0.080737,0.065691,0.010579,-0.038191,0.014418,-0.007115,-0.028136,0.051749,0.012775,-0.057507
0.067550,-0.062142,0.049081,-0.060309,0.070467,-0.034628,0.076493,-0.029397,-0.047444,-0.038496,0.037234,0.068887,0.047234,0.060279,-0.060247,0.022356,0.049741,0.011892,0.008209,-0.052299,0.082658,0.054336,0.004454,-0.028242,-0.058666,-0.039466,-0.065468,0.051104,-0.061948,0.047325,-0.001872,0.081819,0.066165,0.054477,-0.018558,0.054978,0.077221,0.068066,-0.037744,-0.080342,-0.072062,-0.080781,0.082039,0.016065,-0.009768,-0.022389,0.035347,0.034136,0.068983,-0.056242,-0.039420,0.075252,-0.014680,0.055595,-0.016513,0.051033,-0.066290,-0.015620,0.069406,0.028856,0.020034,-0.078801,0.041152,0.080101
-0.016394,-0.065416,-0.032296,-0.003911,0.004076,0.082502,-0.061348,-0.069148,-0.077541,0.014330,0.057874,0.013250,-0.006477,-0.012222,0.048633,0.070608,0.008970,0.029205,0.006224,0.010822,-0.073434,0.049898,0.001740,-0.045526,0.045381,0.001822,0.056508,0.046293,-0.054844,0.020653,0.066567,0.082420,0.030282,0.078727,0.018757,-0.073694,0.043712,-0.056873,-0.065486,0.053298,0.005167,0.082910,0.065892,0.051842,0.019521,0.003396,0.041253,0.080298,0.050528,-0.044630,0.074868,0.034364,-0.018062,-0.012218,-0.049659,-0.072196,-0.040453,-0.034171,0.055696,0.007086,-0.063841,-0.063887,0.059948,0.049850
0.053335,-0.062789,-0.063910,-0.002273,0.018371,-0.040518,0.037832,0.064280,-0.057233,0.017036,-0.077546,-0.021827,-0.050229,-0.037177,-0.001114,-0.033507,0.019105,-0.007618,0.044344,0.039273,-0.017498,-0.021503,-0.044786,-0.000718,0.016906,-0.014786,0.068795,-0.027331,0.053863,-0.058489,0.042449,0.035396,-0.012439,-0.005514,0.055594,0.070885,-0.044178,-0.024962,-0.003507,0.015804,-0.051331,-0.064987,0.057789,-0.067900,-0.034707,0.081561,-0.058528,0.032266,-0.031582,-0.063911,0.053577,0.083304,-0.024330,0.004437,0.010848,-0.022322,0.051661,-0.027375,0.029485,0.036268,-0.090282,0.029502,-0.000571,0.021403
-0.118407,0.008183,-0.126276,0.098582,-0.035649,-0.045213,0.095950,0.123090,-0.075031,0.109423,-0.000877,0.023880,-0.088245,0.048934,0.089454,0.035155,0.075140,-0.145186,0.037980,-0.113637,0.014739,0.097553,0.130875,-0.097264,0.085563,0.047652,-0.113887,0.106976,0.033957,-0.060609,0.007337,-0.046349,-0.084022,0.083812,0.041327,0.072169,0.023686,-0.024928,-0.019046,-0.025094,-0.022524,0.039626,0.005282,0.097763,0.023329,0.054799,-0.109821,-0.022984,0.039525,-0.045248,0.043878,-0.082781,0.060668,-0.113624,0.003468,-0.045708,0.001308,-0.038032,0.076060,-0.028349,-0.166451,-0.004924,-0.055126,-0.025684
-0.075314,0.055631,0.070437,0.152399,-0.103618,0.141415,0.039212,0.032224,-0.030576,0.039311,0.115355,0.029318,-0.152253,-0.047436,0.001247,0.035336,0.076305,-0.158084,0.028642,-0.014787,-0.035638,0.097382,0.071088,-0.077630,0.146035,-0.041843,-0.016796,0.022649,-0.005508,-0.042605,0.053730,-0.106269,-0.171566,-0.095966,0.073513,0.012031,0.075139,0.062439,0.013208,-0.010639,0.065316,0.066296,0.036009,0.120231,0.014041,0.049685,-0.038885,0.076607,-0.055429,0.086786,0.015419,0.087000,-0.028204,-0.148029,-0.002943,-0.022279,0.041010,-0.021479,0.034857,0.074692,-0.163916,-0.029617,-0.091553,0.096186
-0.097866,0.065488,-0.042473,-0.033101,-0.017087,0.115930,0.098884,0.057084,0.007701,0.025745,0.040186,-0.013217,0.046012,0.062367,-0.011697,-0.014409,0.110971,-0.041041,0.064222,0.041690,0.015842,-0.034023,0.076933,0.068182,0.069498,-0.064527,0.034379,-0.031277,-0.050245,0.126525,-0.021548,-0.044928,-0.110901,-0.050763,-0.081984,-0.104999,0.013996,0.089029,-0.035647,0.047686,-0.129717,-0.024581,-0.093951,0.036326,-0.055840,-0.038161,-0.125393,-0.027868,0.079519,0.039712,-0.070552,0.047477,-0.079766,-0.066010,0.053769,-0.101667,0.139380,0.066491,-0.139889,-0.024099,-0.100345,0.041155,-0.032993,0.055526
-0.028788,-0.004314,0.157221,0.146637,-0.037259,0.051771,-0.055435,0.032173,-0.034662,0.029108,0.087479,-0.028982,-0.088440,-0.049766,-0.001923,0.008451,0.051831,-0.029806,-0.005675,-0.015462,0.103632,-0.002606,0.073221,0.075557,0.058595,0.047051,0.026869,0.067765,-0.051119,0.135200,0.009338,-0.119975,-0.143993,-0.155850,-0.091275,-0.011879,0.008036,0.147559,0.024081,0.048520,-0.041628,0.094703,0.018732,0.114681,-0.064667,0.004737,0.024827,-0.074626,-0.052364,0.009506,-0.022090,0.020094,-0.047227,-0.046235,-0.049520,0.063814,0.053918,0.019166,-0.090301,0.000737,-0.085006,-0.109420,-0.048312,0.010694
0.094206,0.095361,0.181057,0.137048,-0.187123,0.137676,-0.014976,0.019540,0.033404,0.137315,0.191695,0.009988,-0.197540,-0.066741,0.009161,-0.098614,0.019615,-0.026213,0.081882,-0.047367,0.015881,0.131979,0.052802,0.004825,0.091674,0.082779,-0.099347,0.014083,-0.143825,0.059259,0.060079,-0.215573,-0.167538,-0.165573,-0.087852,0.035863,0.107515,0.121521,0.025137,0.051997,-0.094075,0.127135,-0.002539,0.123482,-0.007767,0.122764,-0.007355,0.022606,0.047886,0.077346,0.125248,0.165118,-0.012704,-0.083061,-0.025723,-0.080858,0.150869,0.042793,-0.095118,-0.036445,-0.156624,-0.141376,-0.105070,0.181508
0.018323,-0.000442,0.101746,0.115273,0.057168,0.099496,-0.041536,0.034738,-0.021230,0.183447,0.137511,0.044584,-0.124603,-0.169218,-0.012389,-0.152939,0.139114,0.000481,0.110170,-0.116673,0.010368,0.063736,0.225080,-0.111798,0.198125,0.163634,-0.098097,0.103512,-0.082787,0.171296,0.015629,-0.198093,-0.091208,-0.004660,-0.012208,0.034080,0.156893,0.163709,0.002485,0.020264,-0.170882,0.214711,-0.053526,0.211674,-0.040514,0.059046,0.033255,-0.012089,0.143178,-0.015866,-0.021773,0.162229,0.134490,-0.195657,0.005146,-0.134150,0.266394,-0.038622,-0.192694,0.081155,-0.117050,-0.140489,-0.097095,0.131243
-0.078453,0.059941,0.137337,0.168328,-0.033196,0.043205,-0.177716,-0.005252,0.020054,0.078174,0.060683,-0.051198,-0.067721,-0.115530,-0.049707,-0.087048,0.140884,0.115733,-0.048836,-0.067078,-0.102979,0.014214,0.177045,-0.078674,0.063699,0.103913,-0.170740,0.179613,0.088283,0.045988,0.024014,-0.172959,-0.012496,-0.138138,-0.006407,-0.042378,0.069878,0.223019,-0.028633,0.094597,-0.118128,0.099322,-0.114343,0.096798,-0.115388,0.054805,0.058815,0.038645,0.067997,0.003894,-0.002948,0.035948,0.132407,-0.176542,-0.036467,-0.094722,0.238341,0.132463,-0.111691,-0.039770,-0.109918,-0.197826,-0.180554,0.184735
-0.170343,0.167308,0.214223,0.130889,-0.060357,0.106588,-0.121158,-0.001253,0.027324,0.177506,0.013022,-0.105724,-0.015750,-0.204442,-0.063871,-0.198888,0.037060,0.020055,-0.027257,0.000366,-0.150986,0.023437,0.231815,-0.181746,0.136481,0.183028,-0.260580,0.248187,-0.004511,0.058176,0.010507,-0.270488,-0.025875,-0.216343,-0.118218,-0.040782,0.217665,0.222023,0.014564,0.134406,-0.049115,0.121556,-0.046613,0.301457,-0.046869,0.131384,-0.004867,0.051369,0.077202,-0.176124,-0.068521,0.093017,0.015958,-0.116288,-0.078933,-0.079054,0.178734,0.139545,-0.095105,-0.106304,-0.146485,-0.223293,-0.166709,0.143006
-0.046028,0.004868,0.220315,0.194765,-0.058099,0.140822,-0.069340,0.073011,0.074564,0.087095,0.099428,-0.211219,-0.109086,-0.149608,-0.060994,-0.247879,0.070377,-0.031054,0.111843,-0.164706,-0.144869,0.167007,0.206311,-0.022783,0.278077,-0.013015,-0.228639,0.104547,-0.044603,0.168495,-0.022678,-0.148893,-0.145447,-0.203834,0.007931,-0.089066,0.179540,0.150178,0.068469,0.053617,-0.017882,0.217457,0.035510,0.199814,-0.045194,0.147059,0.006275,0.063469,0.222833,-0.093670,0.052569,0.245957,-0.106108,-0.159943,0.036083,-0.023791,0.191728,0.044067,-0.092234,0.024216,-0.120794,-0.168772,-0.071940,0.194225
-0.096271,0.063053,0.112421,0.178171,-0.065704,0.169657,0.099056,0.086854,0.054156,0.102691,0.053343,-0.122915,-0.132049,-0.101234,0.045192,-0.187368,-0.043849,0.006669,-0.051488,-0.131315,-0.068699,0.000031,0.179937,0.065946,0.139474,0.050029,-0.123516,0.121606,-0.085625,0.148016,0.027585,-0.074205,-0.115363,-0.027467,-0.009095,0.026158,0.168343,0.072432,0.137998,0.062170,-0.054619,0.083812,-0.050933,0.222364,0.025983,0.071712,0.109921,0.037569,0.152558,-0.009081,-0.066576,0.151902,-0.006034,-0.211134,-0.041257,-0.058680,0.182590,0.035575,-0.175751,-0.113309,-0.079807,-0.040599,-0.182034,0.138170
-0.090030,0.014831,0.194286,-0.005260,0.048600,0.151330,0.066346,-0.015636,-0.050068,0.056021,0.185059,-0.159939,-0.128278,-0.199830,-0.120973,-0.233040,-0.039783,0.047843,-0.020662,-0.137681,0.152405,-0.058835,0.028695,0.086063,0.018225,0.016317,-0.148579,0.146163,-0.201171,0.060075,0.073342,-0.018218,-0.015341,0.039083,-0.083811,-0.010660,0.012824,0.052520,0.081859,0.107520,0.011524,0.062463,-0.107342,0.017851,-0.202415,0.125084,0.025431,0.075956,0.236098,-0.106023,0.101013,0.049059,-0.160442,-0.168935,-0.012849,0.173908,0.143025,-0.055355,-0.223739,-0.219115,-0.122461,0.068927,-0.136064,0.100009
-0.127988,-0.032363,0.206581,0.063956,0.023408,0.093021,0.117361,-0.034409,0.174128,0.090131,0.199512,-0.233356,-0.089275,-0.205732,-0.059653,-0.223947,-0.049823,0.055471,-0.026644,-0.070715,0.113276,0.069250,0.044174,0.045297,0.063945,0.003536,-0.192569,0.041281,-0.233248,0.138810,-0.010404,0.030826,-0.003178,-0.129603,-0.173605,-0.017577,0.228292,0.059577,0.013261,0.090724,0.035705,-0.019586,-0.122079,-0.007837,-0.212063,0.150884,-0.072037,0.050049,0.114588,-0.157577,-0.048930,0.087052,0.010494,-0.202831,0.070365,0.032091,0.153730,0.013879,-0.206059,-0.142885,-0.121761,-0.072741,-0.142630,0.053026
-0.088792,0.090493,0.122890,0.026603,0.018882,0.081920,0.061457,-0.041835,0.034889,0.103835,0.162187,-0.156364,-0.131241,-0.114012,-0.075197,-0.147296,-0.031908,-0.035064,-0.073129,-0.077662,0.243741,-0.018398,-0.083580,0.122666,-0.011367,-0.003313,-0.223814,0.005902,-0.291599,0.067822,0.072656,0.028124,0.060574,-0.017882,-0.050854,0.015511,0.037997,0.231380,0.111453,0.109566,0.023501,-0.013589,-0.048907,0.073717,-0.220408,0.078718,-0.083662,0.076195,0.204629,-0.129821,-0.012752,0.040298,-0.123395,-0.207892,0.001336,0.051497,0.241004,0.057960,-0.146078,-0.109857,-0.137609,-0.168629,-0.079792,0.195190
-0.062744,0.068826,0.042060,-0.024437,0.173319,0.072833,0.032860,-0.067266,-0.035343,0.147994,0.245085,-0.270276,-0.065529,-0.210594,-0.074444,-0.049634,0.096968,-0.073085,-0.057012,0.083115,0.322682,-0.010296,-0.019381,0.093551,0.094280,0.052179,-0.227389,0.068932,-0.121588,-0.112947,0.050026,0.149264,0.012480,0.108675,0.007281,0.053137,0.036454,0.190760,-0.009316,0.139499,0.007738,0.015872,0.149882,0.054155,-0.072071,0.024058,-0.136926,-0.009393,0.095014,-0.070217,0.074272,-0.000425,-0.155333,-0.103887,-0.011370,0.103452,0.189639,0.017600,-0.063614,-0.052556,-0.084771,-0.144897,-0.152872,0.037210
-0.031890,0.081831,0.009124,0.050231,0.198822,0.029023,0.051509,-0.098463,0.134168,0.085497,0.219125,-0.140031,-0.031341,-0.158155,0.001660,-0.145703,0.031563,0.121632,0.051870,0.095783,0.310400,0.045465,0.080500,0.105893,0.056227,0.181253,-0.112460,-0.063061,-0.067920,-0.075103,0.046877,-0.029146,-0.044662,0.020002,-0.011138,0.008833,-0.023155,0.063038,-0.003786,-0.006638,-0.107433,0.135365,0.165285,0.094148,-0.089638,0.098447,-0.110135,-0.101863,0.019433,0.072716,0.031729,0.010628,-0.087564,-0.140887,0.004147,0.022390,0.117354,0.101021,-0.116166,-0.154692,-0.059956,-0.192206,0.039226,0.008476
-0.016963,0.187348,0.141502,-0.027104,0.234946,0.131122,-0.078315,-0.042124,0.168703,0.116644,0.162412,0.018386,-0.117198,-0.113877,0.052335,-0.105685,0.076434,-0.012574,0.001917,-0.018807,0.257381,-0.026788,0.300249,0.056724,-0.024979,0.154458,-0.035626,0.037546,-0.031142,0.003317,0.040598,-0.051907,0.017646,-0.062028,-0.114459,0.042379,0.002387,0.033160,-0.008797,0.071892,0.023871,0.288628,0.021938,0.103874,-0.024298,0.143961,-0.143022,-0.043452,-0.012189,0.018680,0.164938,-0.016583,-0.046787,-0.039009,0.092550,-0.088916,0.161722,0.061247,-0.088625,-0.016912,-0.147599,-0.141324,-0.087868,-0.029854
0.116763,0.116891,-0.037094,-0.010263,0.128314,0.092941,-0.126097,-0.026061,0.073265,0.070476,0.212661,0.236450,-0.202365,-0.058346,0.056186,-0.122801,-0.004718,-0.122040,-0.010298,0.054112,0.051896,0.108343,0.074582,-0.017896,0.003652,0.097235,-0.125967,-0.036374,0.000428,0.010939,-0.006968,-0.090868,-0.115904,-0.088203,-0.133785,-0.119744,0.095472,-0.008950,-0.226655,-0.059916,-0.090453,0.168131,0.167862,0.025071,-0.146458,0.193818,-0.048471,-0.018630,0.024912,0.062795,0.151711,0.014078,-0.086336,-0.247217,0.187373,-0.013686,0.052644,0.009541,-0.054185,-0.057016,-0.212123,-0.180442,0.042165,-0.024175
-0.011083,0.179702,0.004416,0.040367,0.004518,0.010613,-0.087992,0.104095,0.078843,0.054362,0.155008,0.238008,-0.212604,0.004885,0.052462,-0.121252,0.027153,-0.091907,-0.000670,0.030624,-0.059037,0.039056,0.158410,0.006917,0.020935,0.103208,-0.113312,0.038231,0.021189,0.038113,-0.065285,-0.109681,-0.057022,-0.062083,0.016645,0.039214,0.031139,0.058120,-0.079531,0.060721,-0.083054,0.140591,0.076323,0.064036,-0.061974,0.109394,-0.164518,-0.121660,0.072769,0.057721,0.066082,0.053526,-0.104481,-0.198650,0.113481,0.037163,0.095445,-0.017726,0.011463,0.150309,-0.259961,-0.075856,-0.056406,0.137520
0.043145,0.195802,0.060084,0.083217,-0.093757,0.025940,-0.125364,0.205690,0.091952,0.117604,0.124408,0.068618,-0.141283,-0.044361,-0.009870,-0.079100,0.024838,0.048777,0.057535,0.014034,0.019584,0.096669,0.135729,-0.161848,0.182028,0.047709,-0.134788,0.078061,0.010968,0.113669,-0.001555,-0.178273,-0.151139,-0.110489,0.008198,0.044093,0.131268,0.078852,-0.076665,0.028441,-0.051314,0.171488,0.142632,0.069024,-0.030902,0.152762,-0.250200,-0.086801,-0.046022,0.049646,0.129870,0.060768,0.018973,-0.083940,0.050353,-0.042568,0.128825,0.116451,0.026921,0.237791,-0.128101,-0.170031,-0.113777,0.043889
-0.003374,0.147804,0.059255,0.128742,-0.099564,0.168387,-0.003533,0.198870,0.120159,0.169500,0.056354,0.196289,-0.083080,-0.102605,-0.008359,-0.033171,0.039773,-0.050387,0.173720,-0.036544,0.044642,0.110272,0.125638,-0.084397,0.164617,0.118272,-0.016964,0.008226,-0.013384,0.011721,-0.062823,-0.122528,-0.106119,-0.125044,-0.055181,0.033653,0.088007,0.114105,0.017583,-0.065192,-0.115322,0.167242,0.020269,0.093649,-0.056223,0.051098,-0.111252,0.075320,0.093871,0.073943,0.051662,0.119713,0.013531,-0.060775,0.068526,-0.120980,0.094756,0.038703,0.046959,0.128644,-0.161521,-0.063164,-0.089433,0.161357
-0.050567,0.132526,0.039469,0.140625,-0.071753,0.112742,0.010279,0.165539,0.029086,0.057684,0.117230,-0.013361,-0.117892,-0.140737,0.042123,-0.043948,0.062443,0.000590,0.029150,-0.028127,-0.187030,0.113425,0.151850,-0.004774,0.038273,0.026906,-0.097334,0.072891,-0.021463,-0.009957,-0.019272,-0.220916,-0.025843,-0.173784,-0.060398,-0.006631,0.054905,0.014369,-0.053501,0.003711,-0.127042,0.106095,0.031694,0.067660,0.037210,0.153850,-0.111541,-0.035118,-0.050146,-0.048933,-0.028941,0.084608,0.077308,-0.106149,0.025456,-0.007270,0.115367,0.028787,-0.031973,0.127681,-0.103039,-0.201289,-0.216890,0.125091
-0.152974,0.067655,-0.057920,0.063631,0.086142,-0.089300,-0.060106,0.100847,-0.018930,0.019072,-0.055565,0.015206,0.060252,-0.062148,-0.059711,-0.086914,0.014974,0.077833,-0.131292,-0.039754,-0.080430,0.018180,0.019868,-0.118111,0.076844,-0.037723,-0.004419,0.140711,0.078438,-0.105348,-0.004069,-0.026518,0.090287,-0.071616,0.022239,-0.021579,0.140819,0.041331,-0.010798,0.093747,0.053113,0.015964,-0.049809,0.050451,-0.010055,-0.059662,0.037015,0.053505,0.123650,-0.049271,-0.096601,-0.065050,0.034528,-0.046658,-0.032624,-0.088238,0.146001,0.103121,-0.001564,0.117993,0.025751,-0.039256,-0.041416,0.159969
-0.071243,0.061735,-0.139101,-0.004548,0.045190,-0.120666,0.054981,0.098436,-0.047236,-0.012934,-0.099816,-0.024580,0.015627,-0.100346,0.008906,0.001820,0.043818,-0.004453,-0.027708,0.000078,-0.026295,0.036226,-0.030630,0.019321,-0.019637,0.092872,0.034992,0.023370,0.158754,-0.021636,-0.038736,0.066472,0.034733,-0.109529,0.011268,0.033473,-0.042744,0.168018,0.017017,0.010722,-0.022652,-0.085212,-0.024478,-0.001075,0.144208,-0.009142,0.121730,-0.066749,0.048801,-0.119905,-0.032661,-0.064252,0.083159,0.050392,-0.102498,-0.050515,-0.019008,0.125639,0.011032,0.101434,0.141505,-0.025415,-0.107007,0.059544
0.076082,-0.071066,0.052033,-0.015075,0.080326,0.050714,-0.050110,0.056647,0.043543,0.058005,0.065438,-0.049344,-0.030172,-0.079904,0.023361,-0.067598,-0.029042,-0.050845,0.054425,0.012977,-0.003441,-0.017149,0.000988,0.063865,-0.073987,-0.035308,-0.011655,0.000361,-0.044798,0.010873,0.013909,0.050227,0.083986,0.046969,-0.069962,-0.023993,0.043335,-0.061567,-0.027966,-0.054044,0.048218,0.083517,0.020026,0.067933,0.077362,-0.032543,-0.050359,-0.040901,0.053133,-0.038162,0.017720,-0.040639,-0.070560,-0.024384,-0.009794,-0.035427,0.041608,0.065909,-0.071668,-0.015473,-0.020326,-0.075534,-0.063700,0.027514
-0.050205,0.026161,0.046811,-0.046463,0.048426,-0.026143,-0.065055,0.026010,-0.059628,-0.078968,-0.021582,0.062142,0.074703,0.036436,-0.033057,-0.068960,-0.010620,0.036747,0.059023,-0.027648,0.058121,-0.028211,-0.026793,-0.012066,-0.015120,0.020396,0.022646,-0.060084,0.058581,0.046114,0.056620,-0.013087,-0.026417,0.064317,-0.012235,-0.071970,-0.063985,0.010375,-0.012466,-0.062439,0.065684,0.000068,0.081567,-0.044732,-0.046597,0.074227,0.017122,-0.047941,0.038229,0.025411,0.037624,0.035833,0.052495,0.073473,0.042240,0.007767,0.069859,0.060746,-0.054210,-0.053696,0.056678,-0.056071,-0.059371,-0.070912
-0.009470,0.064529,-0.034585,0.057304,-0.006125,0.042470,0.049765,-0.004521,-0.054668,0.083369,0.004904,-0.063113,-0.052647,-0.014484,-0.021954,-0.069253,-0.083242,-0.054268,0.011773,-0.036268,0.025330,-0.069079,0.048844,0.004107,-0.063899,0.054825,0.033795,0.020184,-0.054727,-0.008495,-0.005399,-0.012067,0.050008,-0.077369,0.077839,-0.028490,-0.003832,0.073876,-0.074689,-0.052283,0.011604,-0.077348,-0.069874,-0.050961,0.007356,0.030526,0.080031,-0.039690,0.031552,-0.073051,-0.012113,0.028472,0.021327,-0.057559,0.043873,0.065575,-0.038682,0.021057,0.076904,-0.024243,0.065443,0.016140,-0.055834,-0.052811
-0.054559,0.005391,-0.004539,-0.058256,0.000883,0.047530,-0.033641,0.063576,-0.046690,-0.015226,0.027227,-0.079114,0.053987,-0.044023,0.000980,0.069104,0.067834,-0.081287,0.061081,0.061230,-0.062457,-0.012865,-0.079911,0.083604,0.034319,0.022938,-0.070189,-0.020265,-0.049648,0.013687,-0.048333,-0.029738,0.033395,0.026220,0.023143,-0.056223,0.026656,-0.068186,-0.056438,-0.060088,-0.030516,0.078854,-0.064383,-0.079541,-0.057598,0.008636,0.031262,-0.039577,0.013472,-0.022247,-0.018406,-0.066908,-0.083777,0.025528,-0.081147,-0.010679,0.032797,0.051132,-0.055651,0.045873,-0.032971,-0.078486,-0.023920,0.010256
-0.032473,0.129209,-0.070454,-0.028279,0.018373,0.061972,0.040745,0.005403,-0.053534,-0.023051,0.065321,0.120036,0.103641,0.109499,0.053958,-0.027736,-0.007012,0.026788,-0.052336,0.042217,0.152998,0.088068,-0.057522,0.096615,-0.014828,0.064349,0.108923,-0.026614,-0.061730,-0.074197,0.064891,0.096631,0.136174,0.135220,0.041788,-0.003125,-0.088011,-0.052168,0.079382,0.121054,-0.010608,-0.015866,-0.054832,-0.090857,-0.004217,-0.085205,0.160066,0.030441,0.019276,-0.010701,0.082756,0.011466,0.112462,0.052500,-0.013515,-0.017817,0.030884,-0.000835,0.067737,0.102461,0.055755,0.053791,0.005665,-0.066865
-0.034464,0.091371,-0.098909,0.091116,-0.102949,0.084223,0.154910,-0.004989,-0.039923,0.093633,0.113969,0.013704,-0.107673,-0.045506,0.030949,-0.052982,0.064159,-0.139947,-0.041918,-0.048544,0.202060,0.114787,0.068319,-0.044664,0.090850,0.071646,-0.037055,0.075986,0.047531,-0.055811,0.023890,0.003206,-0.112831,0.137535,0.031824,0.059532,0.070607,0.049902,0.063950,-0.005271,0.098135,0.125989,0.109334,0.053014,-0.007222,-0.000738,-0.154401,0.062474,0.097838,0.001912,0.101639,-0.004456,0.059361,-0.090422,-0.038833,-0.021552,0.071292,0.010073,0.039597,-0.016960,-0.040509,-0.040671,-0.151194,0.092807
0.119885,0.133886,-0.037051,-0.044989,0.000766,0.016280,0.047346,-0.017290,0.123405,-0.105970,0.135903,-0.039317,0.009741,0.074968,0.054279,0.028402,0.051578,0.030844,0.056074,0.003238,0.064734,0.118254,0.117767,-0.096709,-0.000069,0.079054,-0.080470,0.031027,0.054074,-0.031369,-0.035012,-0.133513,-0.038248,0.001610,0.093322,0.049085,0.023290,0.091739,-0.013558,0.050714,-0.145298,0.030939,0.153070,-0.028627,0.032582,0.109920,-0.108953,0.001348,-0.071079,-0.062916,-0.023724,0.121375,-0.030612,-0.106600,0.126066,0.050617,-0.030415,-0.089098,-0.090989,-0.111381,-0.161456,-0.070049,0.089715,-0.057319
0.129376,-0.072192,0.032463,-0.008039,-0.093941,0.105586,-0.147107,0.019203,-0.008458,-0.074916,-0.094157,0.087124,0.030444,-0.010287,-0.018076,-0.036111,0.036018,-0.004522,-0.039688,-0.054933,-0.252413,0.111075,0.023036,-0.006228,0.064508,-0.122592,-0.110092,0.052307,0.016923,0.048573,-0.013066,-0.127164,-0.142052,-0.045090,-0.156004,-0.050518,0.097963,-0.021900,-0.056156,0.106034,-0.112777,-0.013220,-0.001859,-0.043727,0.103295,0.120990,-0.024306,0.080108,0.018481,0.002416,0.083273,0.103654,-0.013075,-0.045330,-0.005571,0.053330,0.152978,0.024781,0.058219,-0.017849,-0.145426,-0.025899,0.028217,0.049215
0.088424,0.024968,0.187228,0.066227,-0.036587,0.074583,-0.058542,-0.128718,-0.019098,0.019760,0.030618,-0.085099,-0.056448,-0.025540,0.013690,-0.094450,-0.057116,-0.039812,-0.034900,0.032128,-0.178026,0.047773,-0.035366,0.079263,0.221245,-0.041342,-0.064110,0.087350,0.007726,0.108533,-0.070668,-0.162716,-0.020479,-0.080666,-0.056020,-0.049468,0.131458,0.139935,-0.028073,-0.011706,-0.091498,-0.060332,-0.032452,0.058865,0.000286,0.107641,0.021384,0.072137,0.145991,-0.124860,-0.049892,0.061364,-0.091892,-0.176799,-0.077800,-0.036145,0.167703,0.077498,0.036620,-0.050714,-0.184887,-0.099125,-0.084373,0.160950
0.037150,0.034711,0.133938,0.019233,-0.002887,0.080817,-0.112012,-0.044791,0.036188,0.088080,-0.007738,0.028095,0.044672,-0.039582,0.041550,-0.048179,-0.004485,0.065038,-0.086162,-0.073591,-0.084809,0.009498,-0.057664,0.169830,0.146731,-0.047600,-0.299922,0.018847,-0.005399,0.061456,-0.045148,-0.135802,0.053755,-0.191175,-0.021441,0.003256,0.044702,0.002016,0.071264,0.034544,-0.102143,0.057584,-0.070485,0.115520,-0.009392,0.096345,-0.027868,0.127690,0.138897,-0.049094,-0.090102,0.243219,0.030368,-0.085668,-0.070248,0.014292,0.142635,0.040693,-0.032696,-0.119530,-0.158366,-0.120193,-0.092531,0.240023
0.022490,-0.024524,-0.000526,-0.046726,0.060185,0.053972,-0.201392,0.123626,-0.058908,0.090904,0.030325,-0.153936,-0.062835,-0.083789,0.083745,-0.049587,-0.065556,0.004878,-0.021164,-0.063962,-0.151766,0.062346,0.150125,0.112595,0.254296,0.009064,-0.239371,0.052313,0.118826,0.044041,-0.078433,-0.110048,-0.100501,-0.073232,-0.017438,0.039631,-0.011732,-0.050870,-0.007932,0.112324,-0.203062,-0.015370,0.024855,0.068742,-0.000123,0.023479,0.028837,0.187328,0.079441,-0.140640,-0.059784,0.190075,-0.084972,-0.282047,-0.044678,-0.146537,0.193566,0.056894,0.075475,-0.130831,-0.115929,-0.149839,-0.081610,0.167047
0.000316,0.030043,0.191067,0.140505,0.078524,0.090462,-0.069583,0.091296,-0.051123,0.060539,0.061876,-0.179888,-0.066481,-0.130899,0.123159,-0.149735,0.086449,0.120085,-0.050168,-0.032131,-0.089146,-0.044566,0.209627,-0.010178,0.200012,0.048735,-0.261333,0.045829,0.056921,-0.026995,-0.060213,-0.251281,-0.068952,0.069560,-0.035189,0.140252,0.138595,-0.016974,-0.049636,0.227798,-0.090130,0.039547,-0.107744,0.147881,-0.078772,-0.035090,0.120295,0.108832,0.091987,-0.219592,-0.087027,0.179923,0.044875,-0.152802,-0.164473,-0.033183,0.199760,-0.052875,-0.066952,-0.017742,-0.026279,-0.068984,-0.103805,0.093858
-0.024320,-0.099901,0.132629,0.134892,0.043332,0.081700,-0.185080,-0.087280,-0.042051,-0.006566,0.058391,-0.120570,-0.011863,-0.134286,0.098199,0.017734,0.069062,0.058919,-0.018371,0.014142,-0.159401,-0.001265,0.138473,0.081348,0.240584,0.194086,-0.223916,0.105633,0.041498,-0.051767,-0.035597,-0.258319,0.039962,-0.017113,-0.103434,0.101427,0.011762,-0.012691,0.048858,0.313058,-0.002852,0.134354,-0.162559,0.095511,-0.013613,0.100809,0.052237,0.044069,0.122194,-0.075780,0.010009,0.174770,0.010387,-0.204498,-0.213366,-0.033035,0.208809,-0.012850,0.006420,-0.193370,-0.112690,-0.075713,-0.163364,0.154879
0.045860,-0.065647,0.141292,0.061149,-0.000365,0.143044,-0.184036,0.021392,0.065200,-0.001046,-0.024405,-0.311831,0.032384,-0.113680,0.069983,-0.088858,-0.075421,0.092943,-0.033747,0.014749,-0.214768,0.085654,0.176106,-0.034185,0.170705,0.157572,-0.320441,0.089792,0.036029,0.116916,0.070369,-0.126617,-0.029807,0.053094,-0.215488,0.082556,0.009802,-0.001538,0.113014,0.252717,-0.071274,0.217752,-0.060713,0.070695,0.048169,0.121605,0.037093,0.094480,0.062318,-0.138913,-0.146048,0.285622,-0.026746,-0.135188,-0.193085,-0.076420,0.087763,0.054263,-0.063470,-0.270948,-0.123024,-0.114517,-0.109925,0.154928
0.008456,-0.075548,0.006346,0.077478,0.098170,0.174030,-0.052133,0.048590,0.004388,-0.014651,0.000168,-0.357608,0.020964,-0.187384,0.187514,-0.101930,-0.059044,-0.076011,-0.023257,0.115762,-0.125225,0.090977,0.178562,0.124207,0.204640,-0.002674,-0.343349,0.030926,-0.040028,-0.086033,0.033855,-0.107123,-0.093455,0.062635,-0.144104,0.033164,0.070810,-0.022892,0.074069,0.191800,-0.054088,0.104419,-0.003970,0.007960,0.027533,0.058625,0.126121,0.156799,0.118572,-0.200658,0.046222,0.213663,0.000321,-0.188564,-0.135098,0.025135,0.227004,-0.068524,-0.046844,-0.322544,-0.165198,-0.103504,-0.122269,0.185514
0.056858,-0.075862,0.043970,0.145961,0.018538,0.128397,-0.071587,0.076987,-0.137970,0.086172,0.149877,-0.480099,-0.057919,-0.096834,0.066439,-0.044229,0.032252,-0.046056,-0.067565,0.074291,0.050517,0.100620,0.270662,0.062777,0.192151,0.084811,-0.250617,0.075624,-0.109073,-0.000179,0.047739,-0.067173,-0.016750,-0.062834,-0.120303,0.017800,-0.040113,-0.027192,0.140103,0.225744,0.068144,0.175105,-0.074425,0.079319,0.075377,0.038238,-0.134346,0.129226,-0.069393,-0.118860,0.083925,0.045538,-0.052370,-0.317738,-0.088722,-0.011936,0.183779,-0.002602,-0.114066,-0.368889,-0.141028,-0.151034,-0.058181,0.094487
-0.007757,-0.063324,0.074470,0.137408,0.058194,-0.001034,-0.036232,0.189963,-0.057145,-0.003047,0.121738,-0.237150,-0.007396,-0.204673,0.068535,0.025136,-0.073248,0.020400,0.075978,0.084557,0.075932,0.087151,0.146419,-0.014336,0.200313,0.121995,-0.262119,-0.001300,-0.082093,0.021056,0.018076,0.062259,-0.091172,-0.057229,-0.081546,0.032167,-0.029142,-0.015480,0.075880,0.260134,0.046661,0.029617,-0.049084,0.111889,0.076058,-0.009582,-0.135396,0.089019,-0.004104,-0.080325,0.021157,0.133980,-0.154041,-0.181782,-0.131054,-0.053526,0.075033,0.078097,0.042183,-0.302068,-0.108209,-0.087741,-0.071242,0.094005
0.082793,0.037689,0.013865,0.081619,0.158341,0.081148,-0.106509,0.173328,0.042323,0.022025,0.121581,-0.272875,-0.092866,-0.100886,0.093544,0.006004,0.048040,0.089563,0.028667,0.199625,0.197828,-0.021403,0.215273,0.049883,0.131073,0.081810,-0.199741,0.070973,-0.073333,-0.061265,-0.068148,0.028654,-0.012344,0.020283,-0.104364,0.066504,0.015599,-0.097914,0.009838,0.226354,0.071248,0.038295,0.076996,-0.049002,0.033736,0.009456,-0.262971,-0.110171,0.028484,-0.025593,-0.048338,0.111991,-0.070980,-0.281370,-0.026414,-0.077752,-0.006548,-0.045193,-0.054868,-0.171688,-0.127200,-0.066620,0.026397,0.127186
-0.034017,0.047980,-0.063634,-0.000438,0.093316,0.037757,-0.020575,0.180210,-0.056353,-0.029532,0.085008,-0.276694,0.017393,-0.109870,0.136213,-0.039240,-0.051900,0.073474,0.020305,0.259892,0.192735,0.041491,0.063976,0.123979,0.106777,0.035574,-0.224852,0.033432,-0.197462,-0.071260,-0.000274,0.174647,-0.007723,0.099922,-0.157807,-0.012606,0.009603,0.049405,0.114194,0.124149,0.252239,0.104399,0.078630,-0.062925,0.053423,0.045373,-0.307320,-0.074309,0.141026,0.109946,0.098954,0.063613,-0.159209,-0.119107,-0.007125,-0.093273,0.110239,0.087861,-0.032665,-0.170791,0.025118,-0.005163,-0.032633,0.145388
0.060715,0.050255,0.069935,0.093926,0.142369,-0.002523,0.037642,0.079917,0.063233,0.087640,0.214429,-0.136376,-0.032604,-0.126999,0.150729,0.058634,-0.031506,-0.047402,-0.051088,0.124274,0.089190,0.088693,0.168970,0.067657,0.073277,0.039355,-0.074538,-0.112511,-0.182445,0.044381,0.011213,0.053839,-0.017659,0.157686,-0.132513,-0.007455,-0.119208,0.040049,0.034528,0.196118,0.205705,0.086394,0.024738,-0.085769,0.044527,0.076131,-0.305420,-0.073300,0.094172,0.114694,0.012235,0.078886,-0.146989,-0.199214,-0.063937,-0.162782,-0.015743,-0.000628,-0.100383,-0.184976,-0.046074,-0.049288,0.038555,0.049313
0.061717,0.096285,0.022560,-0.011331,0.066386,0.012645,-0.083373,0.116772,0.097491,0.073613,0.167802,0.011196,-0.099874,0.037824,0.014655,0.016997,0.099336,-0.010285,-0.067104,0.123964,0.122380,-0.011865,0.114375,-0.088928,0.020531,0.105922,-0.016389,-0.018336,-0.133092,0.077751,-0.054779,-0.107964,0.039959,0.192586,-0.182462,-0.001582,-0.100023,0.005122,-0.022680,0.152675,0.113178,0.211649,0.140488,0.018221,0.000888,0.071556,-0.267673,-0.263517,0.130228,0.127463,0.086013,0.135976,-0.163520,-0.196190,0.104054,-0.137598,0.067405,-0.080133,-0.159828,-0.158862,-0.194081,-0.038715,0.007814,0.129581
0.062113,0.025874,0.061586,-0.018119,0.035639,0.097845,-0.090466,-0.050552,0.113394,0.081670,0.147938,-0.055117,-0.165393,0.010607,0.019110,0.010429,0.049560,0.010432,0.103216,0.032790,0.041735,0.147594,0.151784,0.091381,0.022199,0.083221,0.017959,-0.068876,-0.016562,0.000840,-0.024212,0.010483,-0.068571,0.155109,-0.113954,-0.204892,-0.068147,0.059188,-0.087145,-0.004912,-0.032670,0.081052,0.084672,-0.009048,-0.113875,0.182293,-0.209528,-0.259508,0.012890,0.133507,0.083816,0.123033,-0.135988,-0.059869,0.085812,-0.068193,-0.015028,-0.036368,-0.204054,-0.062720,-0.277259,-0.007365,-0.018509,0.007964
0.090538,0.133036,0.018391,0.006262,0.105848,0.047055,-0.054969,-0.045162,0.039832,0.002714,0.131657,-0.048156,-0.140474,-0.043944,0.095435,0.085030,0.059538,-0.008536,-0.009074,0.023008,-0.113513,0.121756,0.054427,0.122005,0.020620,0.003632,-0.008211,-0.072187,0.025527,-0.031938,0.040847,0.007338,0.024569,0.137116,-0.148492,-0.131557,0.026257,-0.015728,-0.074334,-0.014842,-0.019482,0.037323,0.229347,0.006837,-0.082727,0.057584,-0.293054,-0.206097,0.101129,-0.017386,-0.003784,0.194830,-0.180030,-0.103405,0.000776,-0.136888,0.000187,-0.066164,-0.114692,-0.087594,-0.282309,0.075711,0.059356,0.049361
0.053348,0.045976,0.048056,0.079962,0.024639,0.137744,-0.179556,-0.036384,0.239424,0.082249,0.118636,0.091271,-0.143323,0.052295,0.031888,-0.099622,0.019243,0.080970,0.036681,-0.003229,0.022128,-0.035675,0.124380,-0.016082,0.126648,0.085361,0.145947,-0.054974,0.064908,0.078337,-0.042424,-0.122324,0.035571,0.146528,-0.047621,-0.120864,0.043335,-0.060905,-0.206407,0.037664,-0.103996,0.110585,0.055367,0.048299,-0.090468,0.061506,-0.194514,-0.098009,-0.072207,-0.032153,-0.088220,0.114017,-0.110786,-0.113296,0.036343,-0.080752,-0.060069,0.020826,-0.199334,-0.013975,-0.196280,0.100192,0.124086,-0.017911
0.032918,0.160808,0.070565,0.034149,0.050788,0.060996,0.009859,-0.055991,0.091726,0.034750,0.027923,0.151637,-0.053064,0.048283,0.056207,-0.006911,0.098435,0.131501,0.201843,-0.218747,-0.055820,-0.034452,0.010941,-0.120326,-0.056410,0.043602,0.114128,-0.015875,0.042381,0.151564,0.053690,-0.278940,0.016588,0.035473,-0.048422,-0.110219,-0.006467,-0.009668,-0.153886,-0.017313,-0.008181,0.114286,0.031187,0.032516,-0.008156,0.007269,-0.149007,-0.108937,0.071825,0.002476,-0.034129,0.092359,-0.011246,0.005805,0.122341,0.006828,-0.052420,0.090738,-0.188288,0.038043,-0.121713,-0.077894,0.098760,0.001820
0.047064,0.136899,0.070542,0.014567,-0.032215,0.032650,-0.147284,-0.003345,0.124413,0.204921,0.121326,0.113040,-0.017402,0.118419,-0.014668,-0.125837,-0.013321,-0.021565,0.249660,-0.074405,-0.114416,-0.066442,0.162670,-0.098399,0.097337,-0.082268,0.028183,-0.049979,0.114494,0.108360,-0.046387,-0.353239,-0.103126,-0.039471,0.058030,-0.113611,-0.067324,-0.013160,0.008133,-0.027989,0.003184,0.056077,0.000575,-0.026333,0.057985,-0.041992,-0.135686,-0.119665,0.092744,-0.022231,0.027620,-0.022813,0.111091,-0.033403,0.088743,0.077419,0.110218,0.027162,-0.085685,-0.040323,-0.032270,-0.039312,0.058541,0.112168
0.013619,0.087035,0.010484,-0.017440,0.074804,-0.045184,-0.091141,0.124975,0.057851,0.088889,0.148687,0.060029,0.029361,-0.036970,-0.102385,-0.090227,-0.075672,0.052428,0.108459,-0.024427,-0.007349,-0.073151,0.217568,-0.139010,0.021573,0.034834,-0.024346,0.144197,0.193979,0.048812,0.002208,-0.159119,-0.098754,-0.090547,0.096215,0.031853,-0.037744,-0.094170,-0.017278,-0.084577,-0.133021,0.089360,-0.027407,0.032263,-0.010486,0.015147,-0.131728,-0.037096,0.002156,-0.002899,0.025644,0.028204,-0.019381,-0.147383,0.053619,-0.039640,0.029603,0.015751,-0.050589,-0.056409,-0.005516,-0.078265,-0.003320,0.101858
0.063469,0.189506,-0.073355,-0.080551,-0.019071,-0.110412,-0.006261,-0.025820,-0.090821,-0.033564,0.043401,-0.005567,0.002533,-0.091468,0.141282,0.036535,0.118308,0.069713,-0.065378,0.009465,-0.016835,0.044486,0.169527,-0.064177,-0.038754,0.115595,-0.152360,0.003319,-0.027364,-0.003239,0.018543,-0.023532,-0.017261,-0.078619,0.026318,0.071141,-0.062770,0.036574,0.094348,-0.058366,-0.019101,0.094159,-0.009673,-0.007951,0.012292,-0.070198,0.090256,-0.079128,-0.032146,0.033969,-0.002915,0.058125,0.103943,0.051284,0.050450,-0.017717,-0.104861,-0.000992,0.042552,-0.032478,0.122705,-0.030998,0.022581,0.014689
-0.108094,-0.021730,0.040645,-0.020159,0.010468,0.081050,-0.137349,0.132651,0.143910,-0.019398,0.085273,0.057940,-0.140212,-0.128718,-0.036370,-0.082890,-0.001519,0.130137,0.111271,0.016356,-0.103086,0.050903,0.146747,0.129863,0.116229,0.007667,-0.106879,0.047861,0.083864,-0.028941,0.035279,-0.059338,-0.116193,-0.057858,0.055090,-0.102248,0.042262,0.087994,-0.120192,-0.048976,-0.070469,0.051429,-0.084253,0.052388,0.044838,-0.022841,-0.137004,-0.070508,0.016281,0.089562,-0.032922,0.059074,0.024030,-0.136798,-0.048258,-0.163200,-0.081037,0.034642,0.014731,-0.060820,-0.112313,-0.044030,0.061459,0.036360
0.076326,-0.035101,-0.078111,0.053018,-0.038403,0.003113,-0.009840,-0.004482,-0.047356,-0.067007,0.002958,0.009621,0.051602,-0.012158,-0.009265,-0.018570,0.002675,-0.077107,0.018560,-0.004508,0.057678,-0.013340,-0.071079,0.063027,0.007815,0.001293,-0.054983,-0.035108,-0.052537,0.013831,0.024632,0.000679,-0.080211,-0.076403,-0.054831,-0.005015,0.043955,-0.014669,0.001512,0.032449,-0.025709,0.051903,0.080661,-0.018135,0.053604,-0.068884,-0.026331,0.059654,0.031345,0.043822,0.024299,0.050748,-0.002210,-0.078157,0.049554,0.064412,-0.066206,0.016746,0.018761,0.056211,0.064413,0.071301,0.075690,-0.075004
-0.003485,-0.070210,-0.024198,-0.020381,-0.055521,-0.055022,-0.077367,-0.027086,-0.007843,0.004226,-0.073449,0.068920,-0.014586,0.066167,0.013342,-0.055971,0.059064,0.022228,-0.079067,-0.037291,0.020031,-0.001386,-0.028210,-0.003762,0.078112,-0.009678,0.064208,-0.065963,-0.034113,0.063514,-0.063269,0.023890,0.003189,0.071775,0.028104,0.037517,0.024713,0.021723,0.009343,0.000233,-0.024097,-0.030269,-0.054084,-0.050265,0.062037,-0.064053,-0.062500,-0.040996,0.045661,0.057157,0.058765,0.069577,-0.029695,-0.068174,0.001780,0.019432,0.062867,0.074460,-0.068917,-0.019400,-0.000505,0.010315,-0.003093,0.077276
0.042438,0.027773,-0.007436,-0.001200,-0.038784,-0.038987,0.019230,0.036840,0.060510,0.004717,-0.001950,-0.015320,-0.043153,-0.025576,-0.077849,-0.014886,0.030983,-0.037318,0.082002,0.061683,-0.050758,0.072766,0.034118,-0.021253,0.081591,0.052079,0.044854,0.039861,0.078848,0.087747,-0.040759,-0.003019,0.031974,0.043651,0.009388,0.000039,-0.025433,-0.037749,-0.015215,0.085229,0.056928,-0.070826,0.062140,0.021512,-0.016668,0.011804,-0.074197,0.081033,0.093096,0.021175,-0.035952,0.013358,-0.091592,-0.054264,-0.067672,0.069761,-0.074074,-0.045077,0.027425,0.083409,-0.020318,0.027418,-0.012971,0.016611
0.073415,0.058236,-0.101752,-0.148508,0.015611,0.015057,0.124216,-0.058454,-0.037981,-0.025530,0.045426,0.032953,0.116991,0.166170,0.015602,-0.027635,0.094117,-0.026750,-0.053441,0.038146,0.128948,-0.043377,0.023183,0.129539,-0.080692,-0.070507,0.188633,0.064748,0.092329,-0.064067,0.038780,0.054079,-0.028285,0.026518,0.073560,0.024875,-0.021842,-0.012443,0.001500,0.132597,0.066403,-0.127290,0.102975,-0.045247,-0.020999,-0.055480,0.161076,0.054527,0.074798,-0.118220,0.129637,0.024030,-0.001446,0.001165,-0.070767,0.087797,0.048281,0.046230,0.166572,0.119178,0.070069,0.169754,-0.037589,0.066120
0.022747,0.024741,-0.142306,-0.119909,-0.149160,0.067900,-0.023688,0.036229,-0.088254,-0.003571,-0.017594,0.007703,-0.025935,0.030918,0.045493,0.023427,-0.059859,-0.199537,-0.150837,0.108228,0.005495,0.118865,0.013570,0.114791,-0.053451,-0.099617,0.008391,-0.049670,-0.005382,-0.083885,-0.070818,0.028899,0.017997,0.193809,-0.057928,0.008605,-0.122122,0.034215,0.093320,-0.000215,-0.058176,-0.011910,0.104688,0.029758,0.109712,0.015425,-0.000685,0.086738,0.142065,0.001131,0.080386,-0.042327,-0.039970,-0.016597,-0.028964,0.032698,0.016567,-0.106506,0.152119,-0.047035,-0.045165,0.052905,-0.039617,0.023730
0.058105,-0.067805,0.066219,-0.002104,-0.126698,0.146319,-0.068409,-0.023671,-0.057330,-0.087785,-0.126074,-0.085128,0.040268,0.085825,-0.065924,-0.104462,-0.106204,-0.090841,-0.016634,-0.018412,-0.082099,0.056149,-0.100672,0.038518,0.090252,-0.094857,0.054383,0.012935,0.027884,0.179518,0.053554,0.027546,-0.138113,-0.048779,-0.100992,-0.043015,0.139159,-0.049358,-0.101446,-0.085112,-0.071698,-0.065751,0.165528,-0.012132,0.009838,0.001418,-0.091669,0.076258,0.063798,0.042855,-0.031396,0.103961,-0.048232,-0.008733,-0.132181,0.129531,-0.033737,0.024720,-0.043222,-0.050861,-0.055243,0.116279,-0.009076,0.021774
-0.002233,-0.045573,0.130037,-0.040439,-0.046119,0.126391,-0.100410,-0.083853,-0.018298,-0.039433,-0.129486,0.023316,0.018854,0.029073,0.006624,-0.135922,-0.061387,0.055476,-0.141290,0.013890,-0.049542,-0.115740,-0.224216,0.126053,0.198162,-0.157146,-0.081301,0.103136,0.009185,0.084344,0.046050,0.087109,-0.107964,-0.067758,-0.121695,-0.045520,0.174150,0.116308,-0.016966,-0.073650,-0.103193,-0.128344,0.075596,0.059152,0.044560,-0.070110,-0.127159,-0.003861,0.142794,0.069015,0.009370,0.051963,-0.025050,-0.015767,-0.178578,0.068655,0.113854,0.051603,-0.025512,-0.006453,-0.075161,0.044676,-0.195007,0.187026
-0.013235,-0.000096,0.060064,0.074290,-0.000859,0.100724,-0.154924,-0.030783,-0.103572,-0.062928,-0.123064,0.007361,-0.029120,0.020710,0.046857,-0.058688,-0.115028,0.011305,-0.169036,0.001072,-0.008554,-0.014918,-0.114484,0.095738,0.040470,-0.039310,-0.037668,0.006133,-0.001096,-0.079106,0.016396,0.044699,0.136232,-0.170786,-0.148760,-0.008398,0.087489,0.009361,0.048313,0.033205,-0.103890,-0.054365,0.041356,0.059492,-0.102712,0.040799,-0.005483,0.020791,0.038110,-0.088507,0.061192,0.058461,0.011149,-0.149265,-0.115821,0.139179,0.161355,0.132821,-0.008182,0.147619,-0.019573,-0.000699,-0.157083,0.174863
0.020902,-0.020182,-0.015615,0.114955,0.026603,-0.034813,-0.132137,0.076880,0.008299,-0.099591,-0.150336,-0.188849,0.001215,-0.108904,0.102447,-0.016805,-0.076281,0.008030,-0.014173,0.067438,-0.201854,-0.029797,-0.071052,0.101343,0.019247,-0.004574,-0.218378,0.015442,0.135999,0.057733,0.059955,0.045670,0.001551,-0.247364,-0.103824,0.012954,0.026242,-0.131739,-0.045678,0.095155,-0.125620,-0.067979,-0.115582,-0.113285,0.038385,0.011785,-0.060200,0.041406,0.068439,-0.168530,-0.062944,0.036931,0.025428,-0.135681,-0.180997,-0.028526,0.103746,-0.049611,-0.019358,0.048436,-0.068520,0.012726,-0.070012,0.001876
-0.010361,-0.108834,0.100722,0.048604,0.031390,0.077694,-0.108159,0.093287,-0.075103,0.037906,-0.036475,-0.139137,-0.053461,-0.137389,-0.006556,0.032488,-0.158652,0.066943,0.059916,0.062533,-0.254223,-0.044459,0.024173,0.036359,0.008144,0.034442,-0.190454,0.017311,0.134704,0.088107,-0.020075,-0.133292,0.062523,-0.170769,-0.161045,0.020881,0.009164,0.022357,0.099255,0.159137,-0.022967,0.029348,-0.087249,0.038509,-0.048914,-0.034661,-0.082960,0.128298,0.169544,-0.206339,-0.046810,0.049064,0.036164,-0.002136,-0.220676,0.089414,0.136307,-0.000431,0.058762,-0.047552,0.019136,-0.010192,-0.147458,0.205242
0.061689,-0.165994,0.087299,0.105791,0.113420,0.173075,-0.099851,-0.055252,-0.102698,0.010069,-0.121366,-0.159415,-0.012229,-0.159382,0.139950,0.064144,-0.014778,0.055223,0.066640,0.074235,-0.130814,-0.074802,0.022558,0.062657,0.104411,0.088123,-0.111105,0.101935,0.131673,-0.046361,-0.012040,-0.003716,0.086817,-0.183232,-0.221104,0.026011,0.005703,0.016104,0.132946,0.263853,-0.128208,0.063373,-0.034911,0.013175,-0.003537,-0.054488,0.013804,-0.024276,0.071907,-0.128897,-0.003185,-0.004804,0.073958,-0.048367,-0.138303,0.111968,0.049816,0.032413,0.036683,-0.143717,0.056434,-0.018098,-0.019053,0.153960
0.094423,-0.152368,0.040755,0.014193,0.035598,0.181711,-0.159111,0.048699,-0.142320,-0.082644,0.009160,-0.261762,-0.019214,0.020983,0.045737,0.002899,-0.045744,0.091254,0.039094,0.138261,-0.168192,0.103872,0.064767,0.073912,0.007996,0.058042,-0.196064,-0.032293,0.156766,0.005602,-0.017482,-0.135501,0.070766,-0.017217,-0.200476,0.013758,0.088746,-0.013069,0.046097,0.220703,-0.096197,0.142929,-0.016624,-0.009212,0.025630,0.026306,-0.135850,0.074057,0.036844,-0.101301,0.025065,0.036562,-0.057308,-0.019968,-0.185853,0.122796,0.065208,0.011863,0.024291,-0.125484,-0.003204,0.012817,-0.122883,0.074889
-0.016891,-0.226391,-0.016995,0.039154,0.018549,0.048191,-0.080185,0.113936,-0.160713,-0.105060,-0.065555,-0.377943,-0.021433,0.015356,0.185736,0.086244,0.021119,0.121876,-0.012881,0.099498,-0.086247,-0.053581,0.092240,0.025434,-0.038615,0.014040,-0.101854,0.000599,0.120251,-0.020571,-0.026775,-0.063177,0.065434,0.051574,-0.245568,0.053626,0.035105,-0.100263,0.074642,0.179770,-0.115103,0.144850,-0.064141,-0.086724,0.141187,0.028100,-0.092691,0.136400,-0.048715,0.003111,0.089864,0.010857,-0.087508,-0.125242,-0.061739,0.015595,0.003542,0.056589,-0.059156,-0.258984,-0.003086,-0.048404,-0.077840,0.067061
-0.033025,-0.150911,0.041935,-0.017160,0.073826,0.109039,-0.042108,0.100168,-0.109446,0.073022,0.019698,-0.464072,-0.009117,0.079788,0.106573,0.070783,0.010523,0.078857,-0.047968,0.080651,-0.022202,0.055897,0.067349,0.059912,0.032491,-0.001562,-0.143383,0.017293,0.060138,-0.109311,-0.044171,0.003950,0.108279,0.009177,-0.146205,0.089871,-0.067248,-0.103649,0.094235,0.217126,-0.040149,-0.035828,0.007240,-0.023907,0.065986,0.023011,-0.088993,0.066462,0.066382,0.002464,0.051546,0.045644,0.002140,-0.020470,-0.011209,0.171891,0.000925,-0.000097,0.015423,-0.275032,0.013484,-0.044586,0.006238,0.099228
0.052884,-0.137725,0.139751,0.086342,0.014964,0.065998,-0.063282,0.146944,-0.078449,-0.001403,-0.027620,-0.312307,-0.043362,0.070264,0.124833,0.009109,0.039752,0.012795,0.069906,0.094273,0.077032,-0.021994,0.051957,0.090704,-0.055831,0.037005,-0.146134,0.105106,0.025263,-0.044615,0.075691,-0.005493,0.071587,0.130240,-0.127532,-0.017304,-0.079730,0.008432,0.106191,0.179758,-0.019123,-0.085229,-0.008209,-0.014692,0.058735,-0.015084,-0.018293,0.119198,0.010759,-0.108616,0.054309,0.041105,-0.153308,0.094425,-0.006128,0.127077,-0.031408,-0.042386,-0.037951,-0.226068,0.024224,0.001337,-0.044348,0.051011
0.115299,-0.080136,0.145298,0.071035,0.091578,0.122845,-0.030658,0.121609,-0.070790,0.104065,0.061882,-0.314381,-0.068651,0.005207,0.051195,-0.008493,-0.057149,0.039164,0.050844,-0.032052,0.236676,-0.025373,0.158437,0.158139,-0.100347,0.014489,-0.092269,0.027970,0.013452,-0.027460,-0.033658,-0.109684,0.060252,-0.019740,-0.234937,0.087520,-0.067487,0.003542,0.150268,0.261090,0.085000,0.073087,0.033020,-0.025831,0.116143,-0.063049,-0.108536,0.003527,0.039688,-0.090167,0.067546,-0.009723,-0.085907,-0.083532,-0.001924,0.077797,-0.074803,-0.109328,-0.145797,-0.041582,-0.045745,-0.057022,0.046981,0.014437
0.092261,-0.004204,0.104365,0.063073,0.141870,0.017541,-0.053835,0.157007,-0.037891,0.060462,0.141586,-0.263499,-0.078176,-0.017086,0.062989,0.086427,0.045067,-0.038531,-0.052683,0.062415,0.176840,-0.046831,0.175355,0.131097,0.017626,0.007225,-0.075628,-0.029972,0.047151,-0.064256,0.049266,0.128355,0.081445,0.142337,-0.104038,0.123670,-0.181159,-0.031747,0.124489,0.227641,0.101227,0.088332,0.059119,-0.023296,0.131133,0.013749,-0.220770,-0.059375,0.025913,0.004658,0.063893,0.012180,-0.101728,-0.095265,-0.024574,0.024243,0.018705,-0.073266,-0.041054,0.036078,-0.042038,0.036059,0.059392,-0.027782
0.022527,-0.092384,0.064240,0.050238,0.133495,0.117830,-0.068945,-0.004231,-0.125892,0.132275,-0.084511,-0.129223,-0.117847,0.023843,0.035923,0.124797,0.001775,0.088886,0.046085,0.106267,0.107719,-0.041636,0.166566,0.145235,-0.027020,-0.051928,-0.077983,0.087527,-0.002593,-0.131334,-0.045781,0.158266,0.075900,0.142145,-0.116599,-0.014428,-0.135341,0.053115,0.084052,0.164815,0.224395,0.058057,0.101842,-0.078068,0.030983,0.006667,-0.239684,-0.135608,0.061638,0.106539,0.089591,0.071888,-0.036380,-0.078745,0.042508,0.019039,-0.017307,-0.039461,-0.016831,0.024603,-0.055496,-0.061755,0.034762,0.101844
-0.039392,-0.054822,0.036393,0.137952,0.145515,0.013057,-0.055395,0.077512,0.053824,0.018204,-0.009700,-0.084160,-0.062772,0.049478,0.038672,-0.019959,0.052328,0.205551,-0.056098,-0.041354,0.061829,-0.017115,0.194521,-0.052951,-0.082466,0.006517,-0.035928,0.036717,0.014926,-0.091535,0.022973,0.154492,0.070465,0.054247,-0.150419,0.117916,0.011912,-0.019378,0.095928,0.048162,0.226653,0.130444,0.090808,-0.055314,0.052373,-0.038936,-0.199363,-0.227893,0.010735,0.066991,-0.037189,0.026952,-0.107044,-0.116891,0.065207,-0.056646,0.034562,-0.103053,-0.021069,0.052414,-0.102626,0.045058,0.012045,-0.008001
0.067015,-0.054538,0.043475,0.094821,0.106819,-0.054184,0.002321,0.079640,0.007239,0.032550,0.115622,-0.097378,-0.044434,0.025427,0.006025,-0.003449,0.073940,0.168893,-0.006242,0.032928,-0.023588,0.010608,0.082815,-0.011717,-0.008157,0.043364,-0.029614,-0.013498,0.067330,-0.034242,0.034813,0.092642,0.090025,0.122020,-0.134949,0.131490,-0.092379,-0.114973,-0.020140,0.175426,0.117275,0.171111,0.111754,-0.098437,0.040558,0.105023,-0.146245,-0.194159,0.054771,-0.017904,0.022201,0.027997,0.007349,-0.141958,-0.042288,0.022014,0.051638,-0.080678,-0.057344,-0.013779,-0.134108,-0.036459,0.036077,0.086655
0.055845,-0.049110,0.042974,0.132227,0.142542,0.112446,0.000111,-0.002291,0.067181,0.076423,0.078644,-0.053220,-0.113291,-0.074207,0.079591,-0.009276,0.058670,0.101065,0.044666,0.059682,-0.057900,-0.005414,0.040852,-0.025875,0.069611,0.078762,-0.012948,0.048826,-0.017389,-0.014239,0.013984,0.109141,0.020124,0.148230,-0.209997,-0.070675,-0.012198,-0.003515,-0.001904,0.101819,0.114742,0.028475,0.048246,-0.109970,-0.013604,-0.069769,-0.273817,-0.155971,-0.011410,0.068894,0.075222,0.023535,-0.083729,-0.011706,0.076315,-0.057878,0.057890,-0.096292,-0.132018,0.080335,-0.079137,-0.006288,0.033591,-0.020241
0.015222,0.044288,-0.007102,0.117149,0.127638,0.009860,-0.177550,-0.093106,0.079229,0.120843,-0.035893,0.002624,-0.094025,0.032064,0.083177,0.008630,-0.007240,0.010793,0.150450,0.028168,-0.093629,-0.004931,-0.005039,-0.053043,-0.047238,0.000374,-0.018415,0.009246,0.060974,0.037434,-0.083268,0.115686,-0.041716,0.050839,-0.083226,-0.064836,0.039715,0.012326,-0.171549,0.032454,0.147692,0.081864,0.006384,-0.109604,-0.105133,0.050755,-0.251558,-0.131301,-0.093485,0.008378,-0.043971,0.011363,-0.020945,0.100548,-0.038218,0.023026,-0.000604,-0.141097,-0.161448,0.028443,-0.175464,0.133591,0.040419,-0.059691
0.115784,-0.051039,-0.009701,0.127584,0.090258,-0.002572,-0.180553,-0.127842,0.092701,0.049644,0.168866,0.055844,-0.038267,-0.083841,0.028448,-0.021818,0.124083,0.009240,0.113701,-0.072002,-0.015178,0.097632,0.021554,-0.089982,-0.044942,-0.030907,0.049677,-0.107848,-0.043150,0.103866,-0.055520,-0.045653,0.029928,0.109090,-0.056563,-0.144584,-0.025480,-0.082507,-0.209118,-0.149339,0.038705,-0.013615,0.053998,-0.214068,-0.141748,-0.004967,-0.283900,-0.175714,-0.088904,0.051029,-0.092226,0.063696,0.026361,0.030679,0.127118,-0.015590,0.039370,-0.175828,-0.088133,-0.026609,-0.082764,0.128713,0.200958,-0.060832
0.053701,-0.074034,-0.019799,0.138027,0.030538,-0.051295,-0.208618,-0.099969,0.024727,0.053591,0.068788,0.009743,-0.109129,-0.073435,0.097813,0.008666,0.008725,0.106539,0.246308,-0.089718,-0.223947,-0.000164,-0.004333,-0.017743,0.045478,0.066143,0.076586,-0.052717,0.099605,0.050427,-0.020380,-0.170925,-0.044699,0.012932,-0.003666,-0.157480,-0.030360,-0.169569,-0.129159,-0.083190,0.079060,-0.050377,-0.004123,-0.063344,0.000944,0.153608,-0.086504,-0.224087,-0.002419,0.004371,-0.095870,-0.028353,-0.044465,0.024046,-0.004544,0.009588,-0.042162,-0.134064,-0.052761,0.094035,-0.142635,0.013917,0.052284,-0.066938
0.053861,0.057435,0.010752,0.092549,0.082966,-0.044140,-0.161614,-0.081222,0.160992,0.002381,0.162672,0.214540,-0.125445,-0.111155,0.047531,-0.043614,0.130928,0.015132,0.216273,-0.174210,-0.152743,0.055282,0.076175,-0.190633,-0.066980,0.040834,0.059814,0.039348,-0.016081,0.079099,-0.081497,-0.288188,0.044356,-0.067338,-0.035825,-0.053101,0.014198,-0.191524,-0.229760,-0.135684,-0.053792,-0.020088,-0.076880,-0.166029,-0.099770,0.003681,-0.195861,-0.014911,-0.095438,-0.022647,-0.004252,0.032400,0.013310,0.104473,0.117546,-0.138043,-0.101828,-0.117492,-0.090368,-0.052768,-0.154942,0.029076,0.136592,-0.091459
0.110299,0.102077,-0.042567,0.025268,0.231295,-0.034568,-0.061065,-0.074785,0.096241,-0.025481,0.011624,0.027164,-0.106809,0.062820,0.035927,0.098460,0.024705,0.106918,0.094737,0.063019,-0.198310,-0.155273,0.057572,0.054467,-0.038659,0.090683,0.130873,-0.194273,0.229566,-0.020897,0.043019,-0.277447,0.158404,-0.019213,0.022745,-0.107212,-0.170646,-0.135509,-0.158547,-0.081944,-0.171990,0.039466,-0.029421,-0.083400,-0.084412,-0.084790,-0.108665,-0.074018,-0.050834,-0.090688,-0.184251,0.188818,0.053735,0.097619,0.048717,-0.123012,-0.187286,-0.051101,-0.103930,-0.232020,-0.075130,0.065296,0.287463,-0.056381
0.117520,0.122520,0.017961,0.026532,0.214830,0.021184,-0.124598,0.069089,0.164535,0.040955,-0.022592,-0.110367,0.121589,0.162552,0.051891,0.153792,0.083332,0.123152,0.006415,0.047531,-0.064540,-0.094346,0.150999,0.115404,0.007109,0.031778,-0.085667,-0.154363,0.107839,-0.059919,0.001691,-0.127746,0.167583,-0.120551,0.087936,-0.010199,-0.167221,-0.061440,0.024565,-0.057416,-0.061306,0.015239,0.027075,-0.091080,-0.020710,0.001470,-0.080456,-0.127889,0.012381,0.065790,-0.087619,0.138656,0.113594,0.046324,0.053980,-0.014122,-0.101726,0.090976,-0.061833,-0.257067,0.040074,-0.068754,0.124612,0.094199
0.151391,0.093600,0.017258,-0.170958,0.085168,0.040838,-0.018135,0.134263,-0.024822,0.141667,0.073145,-0.031414,0.068728,0.154394,0.001147,0.041984,0.060254,-0.032932,0.035990,0.085319,-0.027887,-0.016966,0.132781,-0.009343,-0.030626,0.056498,-0.012439,-0.004771,0.090714,-0.016140,-0.064074,-0.120447,0.007064,-0.124194,0.106773,0.096585,-0.116924,0.124653,-0.015535,-0.030037,-0.090805,0.174242,0.058199,-0.045539,0.071901,0.003934,-0.014904,-0.088977,-0.054089,0.140965,0.052988,-0.069920,0.047953,-0.137435,0.013813,0.018463,-0.022741,-0.028306,0.064911,-0.006312,-0.040430,-0.132681,0.237178,0.006760
0.066650,0.013544,0.042277,0.047187,-0.032949,0.072138,-0.170964,0.183173,0.082870,0.094687,-0.039870,0.026326,-0.020199,0.037596,-0.112561,-0.076378,-0.037115,-0.028253,0.100753,-0.005345,-0.013666,-0.024325,0.174007,-0.095297,0.113464,0.016323,-0.057505,-0.007372,0.003559,-0.018084,-0.074123,0.006488,-0.010120,-0.136051,0.044280,-0.038440,-0.017159,0.077907,-0.046421,-0.119293,0.060015,0.135105,-0.052433,0.082293,0.039508,0.017764,-0.032619,-0.064301,-0.017107,0.137436,0.079509,-0.064646,-0.028029,-0.101888,-0.050971,-0.004650,0.102060,0.037975,-0.072338,0.047561,-0.075841,-0.028323,0.014340,0.066121
-0.065073,-0.035575,-0.060990,0.047253,-0.015443,-0.039390,0.040962,-0.066505,-0.030597,0.009499,-0.073060,0.032039,0.077520,-0.073896,-0.010768,-0.014026,0.008749,-0.076861,-0.071729,0.077960,0.039928,-0.048347,-0.082532,0.048791,-0.020729,0.079452,0.025575,-0.011750,-0.067833,0.027943,0.068557,0.058066,0.028251,0.043640,0.014041,-0.009093,-0.001553,0.024034,0.005995,-0.041865,0.020468,0.000828,0.072532,-0.039472,0.023013,-0.002851,-0.013847,-0.030223,0.036203,-0.001516,0.032263,0.014773,-0.042424,0.013580,0.002573,0.073202,-0.051766,-0.057939,-0.024276,0.080671,-0.016739,-0.040513,-0.059231,0.053096
0.039257,0.029771,-0.048111,0.061493,-0.016290,0.008368,0.019507,0.053614,0.005565,0.058896,-0.062143,-0.055574,-0.071730,0.047929,-0.043699,-0.031090,0.014749,0.037131,0.044309,0.064046,-0.022245,-0.011045,-0.052018,0.009117,-0.045508,-0.061788,0.025063,0.041582,0.002183,-0.021638,-0.041322,-0.048316,-0.041878,-0.046488,0.083515,-0.029483,-0.052471,-0.039497,-0.012884,0.080126,0.005600,-0.044610,-0.009523,-0.043311,0.052304,-0.021983,-0.001690,-0.003279,-0.012525,-0.047863,0.073995,0.002382,0.017199,-0.000822,0.055187,-0.029686,0.007237,-0.070866,0.073868,-0.071153,-0.065149,0.082440,0.035224,-0.040415
0.079577,0.084997,-0.033211,0.055776,-0.065005,0.070385,0.098010,0.011860,-0.092164,0.130354,-0.064663,-0.037087,0.024960,0.052312,-0.077099,-0.067413,0.055296,0.015597,-0.027706,-0.045650,0.043346,-0.060848,-0.008550,0.096862,0.051772,0.019623,0.012026,0.020081,0.043045,-0.005965,-0.056388,0.008989,0.031575,-0.030153,0.037698,0.100414,0.024583,0.030156,-0.026901,0.067571,0.072633,0.027188,-0.045210,-0.056772,0.039168,0.069062,0.026792,0.163566,-0.040261,-0.061719,0.080418,0.023295,0.083720,-0.018787,0.043671,0.042379,-0.037112,-0.086452,-0.067767,0.073747,-0.083103,-0.021666,-0.180674,0.069706
0.012776,0.014021,-0.007427,0.060126,-0.010267,-0.053021,0.010529,-0.130908,-0.134611,-0.128303,-0.042824,0.095710,0.013197,-0.075899,0.094278,-0.006144,0.053945,-0.050956,-0.110295,0.038742,-0.127663,-0.130693,-0.024418,0.127257,0.046978,0.038553,0.053784,-0.026674,0.018220,-0.078073,0.039472,0.152292,0.023038,0.055688,-0.080341,-0.012624,0.030194,-0.002895,0.060116,0.046458,-0.141705,-0.001813,0.093494,-0.078080,-0.028035,-0.046155,-0.121130,0.031352,0.043918,-0.088773,-0.063881,0.060963,0.074716,-0.133136,-0.055453,0.082061,0.148877,0.073432,0.044176,0.054345,0.023424,-0.077334,-0.123235,0.004665
0.036830,-0.011416,0.104171,0.000192,0.001628,0.044017,-0.114497,0.000465,-0.079910,-0.142458,-0.142710,-0.024394,-0.035638,0.010753,-0.132651,-0.062400,-0.150797,0.023075,-0.078915,0.063274,-0.058347,0.075425,-0.053256,0.128355,0.083429,-0.073232,0.050761,0.071629,-0.051133,0.057935,-0.063924,0.012451,-0.094468,-0.013331,-0.057407,-0.047226,0.100662,-0.023343,-0.034920,-0.064467,-0.222785,-0.141038,-0.031352,-0.024343,-0.016204,0.007521,-0.086377,0.169057,0.155528,0.058111,0.011085,0.146749,0.016065,-0.132984,-0.177846,0.247886,0.122629,0.001256,0.075182,-0.003769,0.048621,0.001399,-0.153684,0.213794
0.021934,0.039351,-0.038809,-0.061630,-0.047653,-0.016988,-0.123988,-0.119094,-0.039034,-0.127548,-0.080039,0.002126,0.104032,-0.020903,0.007810,-0.145902,-0.095788,-0.078863,-0.138386,0.190470,0.094865,-0.139703,-0.271255,0.121850,0.074414,-0.167615,-0.002656,0.008058,0.022118,0.007869,0.001222,0.104209,-0.079169,0.028828,-0.050508,-0.200884,0.022137,0.019906,-0.179819,0.004116,0.054607,-0.281906,0.088989,-0.099763,0.010573,-0.029672,-0.136601,0.066224,0.227260,0.035182,-0.009900,-0.073294,0.024358,-0.061860,-0.125371,0.172128,0.053311,-0.017843,0.052546,0.143123,-0.036171,0.054745,-0.076887,0.140305
0.074268,0.017156,-0.107758,0.003452,-0.002581,0.027668,0.031242,-0.095562,-0.108555,-0.120335,-0.079631,-0.106951,0.044739,0.016576,0.097014,-0.130312,-0.206982,-0.012192,-0.090264,0.239966,-0.065353,-0.037754,-0.158795,0.143314,0.056762,-0.047634,-0.013102,0.049409,0.044458,-0.020962,-0.005907,0.104545,-0.126098,-0.075534,-0.069999,-0.021403,0.182057,0.070912,0.025292,0.044928,-0.065024,-0.108659,0.008309,-0.053551,0.025959,-0.091832,-0.172715,0.115156,0.029488,0.024717,0.134657,-0.089737,-0.003282,-0.010248,-0.145421,0.060642,0.134665,0.054089,0.124888,0.072684,-0.022068,-0.017106,-0.035496,0.019580
0.077443,-0.058470,-0.135335,-0.017500,-0.042777,-0.044654,-0.034027,-0.057839,-0.048386,-0.056076,-0.123657,-0.127325,-0.029001,-0.006414,0.058462,-0.093765,-0.088992,-0.018240,0.005204,-0.004690,-0.075930,-0.062819,-0.173977,0.014566,-0.013709,-0.105470,-0.047264,0.023981,0.012316,-0.021897,-0.084752,-0.029214,-0.087429,-0.180007,-0.088573,-0.144660,-0.047985,0.083913,0.040936,0.104678,0.041823,-0.024716,-0.098941,0.033879,0.005871,-0.059865,-0.052823,-0.021565,0.042899,-0.023939,0.093189,-0.045316,-0.026485,-0.134368,-0.150138,0.000202,0.063868,0.109176,0.004533,0.106114,0.065568,0.099903,0.021281,0.090984
-0.002161,-0.086073,-0.072257,0.061242,0.018417,0.009440,-0.037919,-0.012463,-0.030912,-0.124688,-0.044727,-0.094360,0.085410,0.023586,-0.028352,-0.105586,-0.144684,0.005583,0.099012,0.109837,-0.107961,0.087773,-0.050095,0.088601,0.076306,-0.050062,-0.106815,0.142679,-0.041676,0.160948,-0.007848,0.067510,-0.092074,-0.211147,-0.134268,-0.101336,-0.022573,0.079532,-0.054702,0.108425,-0.024701,-0.033043,-0.004088,0.016055,-0.103182,-0.082302,-0.138730,0.001414,0.025384,-0.093872,0.068665,0.031637,-0.039426,-0.135118,-0.178832,0.004811,-0.001391,0.064736,0.031015,-0.145147,0.005709,-0.119086,0.129541,-0.055422
-0.048042,-0.151005,-0.059122,-0.086652,-0.051125,0.035811,-0.043683,-0.107114,0.091514,-0.198889,0.094588,-0.119856,0.019241,-0.096368,-0.010978,0.042623,-0.027680,0.063217,-0.008732,0.066456,-0.194366,0.025367,0.019853,0.072562,0.035681,-0.028388,-0.082558,0.021102,-0.029815,0.010278,-0.091477,0.075618,-0.055590,-0.148638,-0.194399,0.007302,-0.027286,0.088395,0.012684,0.039836,-0.131611,-0.015796,-0.031875,0.017982,0.047397,-0.044833,-0.203719,-0.026268,-0.051810,-0.035614,0.013386,0.065321,-0.010161,0.011835,-0.199894,0.032773,0.033702,0.002084,0.009819,-0.058088,-0.067876,-0.064690,0.091439,0.010193
-0.074534,-0.196931,-0.007034,0.001451,0.081626,0.001549,0.002400,0.067885,-0.018091,-0.103061,0.052106,-0.172242,0.076071,-0.016502,-0.069561,0.080203,0.080740,0.107307,0.064523,0.035599,-0.146072,0.067979,0.028873,0.073024,-0.046446,0.107802,-0.095988,0.144827,0.055487,-0.042862,0.074579,0.063351,-0.030877,-0.003163,-0.159742,0.045802,0.011332,-0.012196,-0.074164,0.062473,-0.075207,0.133127,-0.087513,0.033607,0.059927,0.119242,-0.064672,0.124490,0.025371,-0.117346,0.023238,0.053360,0.049920,-0.041248,-0.050038,0.016598,0.047077,-0.078991,0.076700,-0.212224,0.034064,-0.080171,0.024672,-0.006075
-0.048204,-0.080182,0.033885,-0.044707,0.003681,-0.086650,0.058522,0.102842,-0.073970,0.069407,-0.033158,-0.344120,0.031264,0.145358,-0.097998,0.139709,0.002240,-0.047688,0.082008,-0.050084,0.008444,0.013558,0.099742,0.104858,0.019520,0.122286,0.028734,0.037150,0.160062,0.032997,-0.061511,-0.148805,0.075450,0.009637,-0.138783,-0.033678,-0.061162,-0.030336,0.010521,0.171566,-0.126051,-0.019922,0.015112,0.067274,-0.009431,0.030673,-0.199663,0.073656,-0.035092,-0.095989,-0.114392,0.008689,0.043346,0.018622,0.041104,-0.017184,0.032819,-0.060118,0.063840,-0.188175,0.075275,-0.052969,0.014377,-0.004083
-0.028611,-0.036694,0.037682,0.092757,0.012373,-0.061503,-0.091435,0.093410,-0.014370,0.087292,0.005420,-0.308001,0.087372,0.025886,-0.143405,0.104703,-0.034640,0.032564,0.022229,0.019866,0.040427,0.014778,0.043842,0.024731,-0.095515,0.095816,-0.029486,-0.054902,0.150777,0.076076,-0.075838,-0.104225,0.028001,0.020898,-0.130157,-0.036682,-0.049075,0.069163,0.027821,0.201508,-0.092735,0.027622,-0.038161,-0.025699,-0.066020,-0.014958,-0.168590,0.060296,0.007132,-0.062127,-0.082264,0.073010,0.094248,0.115915,-0.006275,0.070049,-0.057013,-0.054712,0.059466,-0.239253,0.015820,0.037309,0.042461,0.008387
0.054238,0.054691,-0.030768,-0.011594,0.010236,-0.052781,-0.052545,0.043973,-0.049142,0.125304,0.111590,-0.200750,0.016895,-0.032691,-0.042095,0.076472,-0.036216,0.040182,0.079554,-0.028736,0.135926,0.127170,0.037869,0.152962,-0.080266,0.058540,-0.073197,0.031599,0.187491,-0.058073,-0.073761,-0.172970,0.039849,0.000542,-0.063595,0.037758,-0.164041,0.020893,0.058738,0.172887,0.008582,-0.038390,0.028647,0.161412,0.021272,0.013946,-0.119504,0.042382,0.071983,0.081858,0.038586,-0.073627,0.034585,-0.001420,-0.016661,0.081099,-0.091065,-0.038677,-0.023910,-0.082562,0.092774,-0.030995,0.074998,-0.015303
-0.027652,-0.080677,0.054513,0.057198,-0.019973,0.024605,-0.080454,0.123715,-0.009336,0.046505,-0.003539,-0.181553,0.080459,-0.010404,0.060378,0.111293,0.021297,0.013724,0.057622,-0.012533,0.150097,0.050090,0.096212,0.133611,-0.053590,0.103504,-0.086909,0.033866,0.051582,0.097880,0.064647,-0.031931,0.030141,0.047466,-0.057186,0.073023,-0.066993,0.089705,0.086999,0.139792,0.070996,-0.023087,-0.007429,0.065524,-0.043974,-0.071984,-0.081160,0.047478,0.001165,-0.032154,0.015651,0.050465,0.011670,0.036217,0.049280,0.054354,-0.110138,-0.149071,0.006553,0.053655,0.055381,-0.041029,0.001113,-0.025284
-0.030556,-0.121372,0.039364,-0.008514,0.016419,0.036925,-0.053991,0.052225,-0.038414,0.038241,-0.016717,-0.113937,-0.031388,0.089651,-0.052718,-0.008169,0.062829,0.072139,0.074535,0.007607,0.262105,-0.064116,0.073159,0.107333,-0.034821,-0.014970,-0.049328,0.081039,-0.016830,-0.061014,-0.090250,0.041027,0.128704,0.056873,-0.025739,0.052417,0.023666,-0.019722,0.159219,0.153483,0.038378,0.028894,0.137164,-0.015217,0.039834,0.063121,-0.031578,0.005753,0.056298,0.099905,0.019356,0.031967,-0.003382,-0.074179,0.036514,0.098925,-0.076755,-0.094176,-0.004251,0.114522,0.117503,-0.019501,0.001517,0.003940
0.052896,-0.047306,0.080818,0.029777,0.070174,-0.016964,-0.124276,0.119432,-0.042271,0.127370,0.078055,-0.133164,0.027876,-0.019803,0.043453,0.079353,0.078136,0.114858,0.023500,0.036723,0.126979,-0.071005,0.123875,0.176082,-0.091810,0.112404,0.017819,0.040002,-0.037011,0.024829,0.026489,0.049021,0.179476,0.058196,-0.157620,0.133055,-0.004122,-0.032265,0.066619,0.134756,0.208850,0.040238,0.032716,0.043920,-0.003556,0.022139,-0.100131,-0.006327,0.047311,0.027975,0.003819,0.000953,0.029271,-0.105035,-0.048307,0.035048,0.011243,-0.110103,-0.083805,0.068614,0.058041,0.027530,0.061094,0.003609
0.037830,-0.180356,0.008831,0.079494,0.085106,0.049443,-0.210799,0.130469,0.039776,0.050783,0.058802,-0.111894,-0.087703,-0.049700,-0.005778,0.120085,0.125764,0.037236,0.016676,-0.079342,0.048168,0.079962,0.086064,0.060732,-0.033036,0.061256,-0.010192,0.083061,0.099590,-0.087541,-0.082260,0.087737,0.148913,0.027059,-0.055579,0.158104,-0.023817,-0.071775,0.008424,0.116217,0.269737,0.105937,0.017482,-0.057986,-0.012988,0.074643,-0.174054,-0.196685,-0.006717,-0.018963,-0.034536,0.111208,-0.003688,-0.068651,0.014278,0.053599,-0.027456,0.060669,-0.067201,0.152120,0.073118,0.024024,0.058733,-0.047477
-0.016146,-0.090382,-0.013410,0.062690,0.095624,0.074750,-0.154946,0.128813,-0.057209,0.101852,-0.011394,-0.077650,-0.121193,-0.122471,0.049634,0.021013,0.031352,0.066791,-0.046654,0.085361,0.138738,0.124467,0.039558,-0.047225,-0.046189,0.164185,-0.069598,0.060519,0.092106,-0.015272,-0.075385,0.182629,0.155575,-0.013940,-0.033266,0.042115,-0.003647,-0.018980,0.018979,0.020827,0.274422,0.079635,0.108351,-0.161878,0.011058,0.029508,-0.298536,-0.032503,-0.092833,0.025753,-0.019197,0.062198,-0.049721,0.001997,-0.001130,-0.026135,-0.049734,-0.041098,-0.095490,-0.012469,-0.038536,0.001386,-0.137016,0.070218
-0.012310,-0.103300,0.085986,0.082983,0.062194,0.095072,-0.059016,0.124696,0.034794,0.128005,0.036713,-0.033914,-0.152425,0.035281,-0.093849,0.014536,0.029771,0.133956,0.039906,0.094996,-0.010766,0.119307,0.078731,-0.082647,-0.062003,0.000656,-0.047782,0.078098,0.072716,-0.011810,-0.027970,0.149527,0.045325,0.020844,-0.072054,0.134935,-0.038915,-0.088103,0.022151,0.067829,0.272906,0.121022,0.151055,-0.081938,0.027800,0.042838,-0.303114,-0.122604,0.005451,-0.101755,-0.019121,0.095828,0.035115,0.044559,-0.004714,0.007749,0.014044,-0.025673,-0.125282,0.028109,-0.094243,0.083055,-0.121804,-0.014976
0.078208,-0.060614,-0.028126,0.045857,0.149928,-0.021169,-0.152323,-0.026382,-0.080138,0.121327,0.104434,-0.002759,-0.201775,-0.005854,0.065208,0.017655,0.111123,0.157755,0.077290,-0.022481,0.067019,-0.021696,0.131356,-0.025724,0.000440,0.135006,-0.074367,0.019112,0.101216,-0.029480,-0.004309,-0.058873,0.065452,-0.004714,-0.014911,0.078388,-0.071196,-0.086264,-0.000867,0.055546,0.273140,0.091913,0.016280,-0.206539,0.033151,0.119839,-0.245360,-0.153613,-0.066608,0.009932,-0.036653,-0.053279,-0.017893,0.130249,-0.001465,-0.046101,0.058765,-0.146580,-0.127473,-0.082206,-0.023038,0.086821,0.011732,0.091819
-0.051607,-0.042650,-0.048736,0.118639,0.115651,0.103113,0.040850,-0.028546,-0.020558,0.067316,-0.001095,0.009851,-0.140988,-0.103071,-0.003354,0.020419,0.140338,0.088251,0.001425,-0.006690,-0.005214,-0.053989,0.104796,-0.070423,-0.040498,0.084799,0.038807,0.013952,-0.016211,-0.130238,-0.023129,-0.013711,0.108837,0.115030,-0.127451,0.064125,0.014973,-0.065489,-0.041312,-0.019798,0.162035,0.092270,0.073723,-0.143013,-0.022386,-0.026535,-0.214922,-0.196822,-0.049956,-0.115476,0.025512,-0.048718,0.022753,0.066790,-0.023427,-0.003176,0.099595,-0.163187,-0.149712,0.079919,-0.013924,0.037225,-0.029580,0.028251
-0.028746,-0.100622,-0.116098,0.047037,0.057435,0.054318,-0.037342,-0.044938,-0.056704,-0.093873,0.084726,-0.013456,-0.155989,-0.015963,0.090340,0.047308,0.146297,0.061613,0.013026,-0.025436,-0.149722,0.074434,0.077893,0.029974,-0.076883,0.110594,0.033702,0.067082,0.023880,-0.081395,0.040139,-0.035315,0.023259,0.009459,-0.118835,0.058252,-0.050764,-0.091989,-0.055057,-0.141544,0.109263,0.060225,0.062370,-0.124731,-0.149314,0.032960,-0.134532,-0.160156,-0.128159,-0.032732,-0.071687,-0.083095,0.090622,0.068736,0.094271,0.027415,0.020579,-0.185286,-0.020886,-0.047065,-0.023923,0.069256,-0.038746,-0.039603
-0.049596,-0.002389,-0.010516,0.159214,0.080266,-0.021275,-0.031300,-0.154337,0.033264,-0.021558,0.008783,0.152724,-0.137842,-0.099321,-0.013144,0.012421,0.008889,0.140561,-0.008819,-0.026707,-0.160518,0.051700,-0.013322,0.005752,0.059707,0.009633,0.061515,0.036906,-0.046490,0.029684,-0.048504,-0.044591,-0.007729,0.005401,-0.110207,-0.157083,0.014227,0.061589,-0.133197,-0.103278,-0.053204,0.053784,0.008773,-0.210467,-0.053767,0.054645,-0.127897,-0.087854,0.063355,-0.040963,-0.070730,0.023382,0.108602,0.139838,-0.029932,-0.088900,0.132632,-0.131225,-0.049783,0.021442,-0.077608,0.055909,0.015464,0.012411
